network "BayesNet1589" {
}

variable "x3324" {
	type continuous;
}

variable "x26038" {
	type continuous;
}

variable "x9456" {
	type continuous;
}

variable "x334" {
	type continuous;
}

variable "x6138" {
	type continuous;
}

variable "x23253" {
	type continuous;
}

variable "x94081" {
	type continuous;
}

variable "x54843" {
	type continuous;
}

variable "x3274" {
	type continuous;
}

variable "x221692" {
	type continuous;
}

variable "x6000" {
	type continuous;
}

variable "x254531" {
	type continuous;
}

variable "x2908" {
	type continuous;
}

variable "x100130155" {
	type continuous;
}

variable "x114088" {
	type continuous;
}

variable "x23230" {
	type continuous;
}

variable "x116966" {
	type continuous;
}

variable "x64062" {
	type continuous;
}

variable "x9645" {
	type continuous;
}

variable "x6262" {
	type continuous;
}

variable "x55814" {
	type continuous;
}

variable "x23613" {
	type continuous;
}

variable "x10147" {
	type continuous;
}

variable "x54904" {
	type continuous;
}

variable "x4898" {
	type continuous;
}

variable "x5411" {
	type continuous;
}

variable "x55704" {
	type continuous;
}

variable "x440270" {
	type continuous;
}

variable "x4897" {
	type continuous;
}

variable "x23077" {
	type continuous;
}

variable "x3535" {
	type continuous;
}

variable "x9284" {
	type continuous;
}

variable "x5310" {
	type continuous;
}

variable "x4297" {
	type continuous;
}

variable "x5297" {
	type continuous;
}

variable "x8499" {
	type continuous;
}

variable "x55904" {
	type continuous;
}

variable "x57035" {
	type continuous;
}

variable "x10905" {
	type continuous;
}

variable "x28978" {
	type continuous;
}

variable "x6134" {
	type continuous;
}

variable "x54460" {
	type continuous;
}

variable "x80205" {
	type continuous;
}

variable "x56853" {
	type continuous;
}

variable "x577" {
	type continuous;
}

variable "x9324" {
	type continuous;
}

variable "x5789" {
	type continuous;
}

variable "x54212" {
	type continuous;
}

variable "x4331" {
	type continuous;
}

variable "x64848" {
	type continuous;
}

variable "x6432" {
	type continuous;
}

variable "x5144" {
	type continuous;
}

variable "x140890" {
	type continuous;
}

variable "x23262" {
	type continuous;
}

variable "x9475" {
	type continuous;
}

variable "x8997" {
	type continuous;
}

variable "x55082" {
	type continuous;
}

variable "x9699" {
	type continuous;
}

variable "x10439" {
	type continuous;
}

variable "x9987" {
	type continuous;
}

variable "x4673" {
	type continuous;
}

variable "x23112" {
	type continuous;
}

variable "x57468" {
	type continuous;
}

variable "x9515" {
	type continuous;
}

variable "x3778" {
	type continuous;
}

variable "x55294" {
	type continuous;
}

variable "x23518" {
	type continuous;
}

variable "x5101" {
	type continuous;
}

variable "x6894" {
	type continuous;
}

variable "x285175" {
	type continuous;
}

variable "x286411" {
	type continuous;
}

variable "x54715" {
	type continuous;
}

variable "x10915" {
	type continuous;
}

variable "x58517" {
	type continuous;
}

variable "x55112" {
	type continuous;
}

variable "x1655" {
	type continuous;
}

variable "x8925" {
	type continuous;
}

variable "x780813" {
	type continuous;
}

variable "x347746" {
	type continuous;
}

variable "x54737" {
	type continuous;
}

variable "x9295" {
	type continuous;
}

variable "x7345" {
	type continuous;
}

variable "x151613" {
	type continuous;
}

variable "x100128906" {
	type continuous;
}

variable "x490" {
	type continuous;
}

variable "x9406" {
	type continuous;
}

variable "x4133" {
	type continuous;
}

variable "x2823" {
	type continuous;
}

variable "x9611" {
	type continuous;
}

variable "x6430" {
	type continuous;
}

variable "x1759" {
	type continuous;
}

variable "x7267" {
	type continuous;
}

variable "x1479" {
	type continuous;
}

variable "x2891" {
	type continuous;
}

variable "x10777" {
	type continuous;
}

variable "x51747" {
	type continuous;
}

variable "x25957" {
	type continuous;
}

variable "x378938" {
	type continuous;
}

variable "x55384" {
	type continuous;
}

variable "x440823" {
	type continuous;
}

variable "variable2524" {
	type discrete[26] { "state0" "state1" "state2" "state3" "state4" "state5" "state6" "state7" "state8" "state9" "state10" "state11" "state12" "state13" "state14" "state15" "state16" "state17" "state18" "state19" "state20" "state21" "state22" "state23" "state24" "state25" };
}

probability ("x3324" | "variable2524") {
	("state0") 0.001445721104672329 6.451398785962559E-6;
	("state1") 0.005457688198669606 7.070036504996604E-5;
	("state2") 8.308051040252426E-4 4.4553522117896584E-6;
	("state3") 0.002090681295837735 8.940465028119608E-6;
	("state4") 0.0011060768541046458 5.486760932640808E-6;
	("state5") 9.005432831927281E-4 4.490422415430087E-6;
	("state6") 0.013103980418222087 0.0017821408847158633;
	("state7") 0.003820007199682678 1.217424751171455E-4;
	("state8") 0.007271543299228112 7.000654748441557E-5;
	("state9") 0.0011965951895908753 4.4553522117896584E-6;
	("state10") 0.0016209855444977426 4.4553522117896584E-6;
	("state11") 0.0028086259868797406 1.4270065511238341E-5;
	("state12") 0.0021123622086344543 9.716339321311234E-6;
	("state13") 0.0024244590666151005 8.292170480538113E-6;
	("state14") 0.00215625133010823 8.347049811494247E-6;
	("state15") 0.002907530691747869 1.0385266855298285E-5;
	("state16") 0.005231551352837213 3.634006303172793E-5;
	("state17") 0.00203099181397816 2.274455054791195E-5;
	("state18") 0.0012519473620079625 4.4553522117896584E-6;
	("state19") 5.302888021460747E-4 4.4553522117896584E-6;
	("state20") 0.004797346114553722 3.3354736571969744E-5;
	("state21") 8.679883271033096E-4 4.4553522117896584E-6;
	("state22") 0.002771431340784895 1.0201286876136918E-5;
	("state23") 8.032131509436302E-4 4.4553522117896584E-6;
	("state24") 0.0054564150710314395 3.740707782070946E-5;
	("state25") 0.0011036124835022382 4.4553522117896584E-6;
}

probability ("x26038" | "variable2524") {
	("state0") 0.0707097883320697 0.003366692649181162;
	("state1") 0.13633951295540758 0.016892004348924128;
	("state2") 0.14980822485777937 0.00963559278862954;
	("state3") 0.120074818352277 0.007952189297582535;
	("state4") 5.274142239323147E-4 3.4883353353349614E-4;
	("state5") 8.656328536657398E-4 3.4883353353349614E-4;
	("state6") 0.048519570343545836 0.004338093185606421;
	("state7") 4.1280883200037465E-4 3.4883353353349614E-4;
	("state8") 0.05406389686755632 0.002770649081023333;
	("state9") 0.12381886927847383 0.006798144981216989;
	("state10") 0.05162481491859053 9.683075408753637E-4;
	("state11") 0.05598930462739954 0.001848699097052929;
	("state12") 0.05983778569912692 0.00398542641541212;
	("state13") 0.08143280656084921 0.0034582018240713556;
	("state14") 0.0803596828768175 0.004690772861056934;
	("state15") 0.09844902164774597 0.008799370244912674;
	("state16") 0.07804894284606188 0.004673752120719956;
	("state17") 0.1945085527985767 0.03061173081981088;
	("state18") 0.10271660656850817 0.004080604518593265;
	("state19") 0.10675999272042579 0.005796672260382023;
	("state20") 0.08339969844732441 0.007996144406636463;
	("state21") 0.058984357169614005 0.001430152276158569;
	("state22") 0.0694633218973872 0.001726346808342691;
	("state23") 0.19059623059845662 0.027785761308083468;
	("state24") 0.07242926267491617 0.0032532360116639945;
	("state25") 0.10236083376122251 0.003275997363686538;
}

probability ("x9456" | "variable2524") {
	("state0") 0.0186515054257116 0.0010373952873755064;
	("state1") 0.13584293399202882 0.03219927276163437;
	("state2") 0.08748985083852982 0.009969887754744876;
	("state3") 0.1607016109940351 0.023437127238936057;
	("state4") 0.0016544989747438843 5.699452232623132E-4;
	("state5") 0.024367936970168563 0.007653146853018793;
	("state6") 0.1751654407191216 0.046986378424803424;
	("state7") 0.002134930805160392 5.699452232623132E-4;
	("state8") 0.010176810515885263 5.699452232623132E-4;
	("state9") 0.08562703326929157 0.008090784181315638;
	("state10") 0.0982469125031783 0.006178188613065729;
	("state11") 0.07496620611092875 0.00702084067280565;
	("state12") 0.03446524862263137 0.0043189457457858274;
	("state13") 0.03824561573978415 0.0035218853884250593;
	("state14") 0.05779659989140196 0.007168538979024114;
	("state15") 0.04534419591801654 0.006999235504171769;
	("state16") 0.03128457470979256 0.0030915542539206088;
	("state17") 0.07836304656995727 0.017348519922176377;
	("state18") 0.1413125178892159 0.012944942261141679;
	("state19") 0.05469191559562814 0.005490252417742213;
	("state20") 0.0565112861888055 0.013488185883274358;
	("state21") 0.07481494338502764 0.004100181006084628;
	("state22") 0.11976991636685545 0.010266424224700704;
	("state23") 0.030421649833048355 0.004737010485539124;
	("state24") 0.1139493789519686 0.015580916397459661;
	("state25") 0.09336715560079095 0.005874201024069653;
}

probability ("x334" | "variable2524") {
	("state0") 0.08231380397732509 0.005907554266290807;
	("state1") 0.16274257014278937 0.037046797976844514;
	("state2") 0.03864226470299429 0.0022192622965018826;
	("state3") 0.07789363431359293 0.005322269811569996;
	("state4") 0.02182189860231145 0.003388225735144196;
	("state5") 0.04488213245807419 0.009982867638184139;
	("state6") 0.1187934152590632 0.018249706448233118;
	("state7") 0.028626531722878133 0.0068510297530564096;
	("state8") 0.2281973320421338 0.03049330293696039;
	("state9") 0.060917132581758626 0.0035251205603197638;
	("state10") 0.054499493662745875 0.0016051035240296563;
	("state11") 0.08064122885326024 0.00517857360350461;
	("state12") 0.12588710852225488 0.011541343246913919;
	("state13") 0.11728053476644526 0.009427672821799467;
	("state14") 0.08287593499366663 0.00546834083585851;
	("state15") 0.17904812805301748 0.028884607018228634;
	("state16") 0.22434216515210187 0.030023618966753932;
	("state17") 0.06378500285027362 0.007332047508030115;
	("state18") 0.0465438509794171 0.001832019687378997;
	("state19") 0.026768533531886286 0.00112216992805266;
	("state20") 0.1863992522193238 0.03638340229831182;
	("state21") 0.03879248249478823 0.0011850416032177602;
	("state22") 0.08308264141547433 0.0035625366320420292;
	("state23") 0.06040668153595274 0.0065081787352433505;
	("state24") 0.12316446119794461 0.011223814697766926;
	("state25") 0.04767183091158493 0.0014491914094632882;
}

probability ("x6138" | "variable2524") {
	("state0") 0.041961983753730135 0.0037436023431487364;
	("state1") 0.16112118737293904 0.036041399665485405;
	("state2") 0.02384968989662379 0.0016040463092287412;
	("state3") 0.08137982152818396 0.0073999253038281925;
	("state4") 0.021071964863012285 0.005985534958022046;
	("state5") 0.04240110065413272 0.009917220158921313;
	("state6") 0.15340002354198357 0.03514349235159883;
	("state7") 0.04009399648266797 0.010356617072601174;
	("state8") 0.1612289621333962 0.024471070359080162;
	("state9") 0.04466667794019279 0.0028885334077581467;
	("state10") 0.05692878469071963 0.0018633463920609665;
	("state11") 0.08964589616025138 0.007366811345577028;
	("state12") 0.08151247598420983 0.009858634165298044;
	("state13") 0.07917713812341384 0.007700796171613973;
	("state14") 0.06720529197097452 0.004950225925052683;
	("state15") 0.12017075857858783 0.020024419165749114;
	("state16") 0.10429060554772786 0.012702310286552203;
	("state17") 0.053311724798806304 0.009464320016633651;
	("state18") 0.051482218674095755 0.0030195409688412358;
	("state19") 0.011130484305963943 5.005104220214266E-4;
	("state20") 0.13950085600841297 0.03026344828830128;
	("state21") 0.028201610933742557 0.0010575999337345155;
	("state22") 0.08046090214444025 0.0036357234790712054;
	("state23") 0.01314961249714767 6.974846801635449E-4;
	("state24") 0.14874944994003736 0.017063084813659427;
	("state25") 0.039529549209256803 0.0017216646745753447;
}

probability ("x23253" | "variable2524") {
	("state0") 0.06960810787018785 0.003275497936195855;
	("state1") 0.16822916004048327 0.028142765142432708;
	("state2") 0.05233327289996928 0.0022821436862617353;
	("state3") 0.09236137188965102 0.006065990675307289;
	("state4") 0.0932710700321539 0.018996547141426255;
	("state5") 0.06550252030325002 0.015576492919561119;
	("state6") 0.09626512147464637 0.010989191832761733;
	("state7") 0.09594005279142027 0.023150996783706437;
	("state8") 0.1703296779487989 0.020429345193089345;
	("state9") 0.08242553800140497 0.004906044356584587;
	("state10") 0.0688719492419273 0.0015561650035216706;
	("state11") 0.06636311516824901 0.0026732552734400313;
	("state12") 0.10219152076576614 0.006117443765770566;
	("state13") 0.10947272699193329 0.0063826617456130864;
	("state14") 0.08979435235479262 0.004616098898839531;
	("state15") 0.1679915337552725 0.01891107062960619;
	("state16") 0.121336306173965 0.008721212173477159;
	("state17") 0.09651612401909744 0.011939332876731441;
	("state18") 0.06250777781468882 0.0023817883033969184;
	("state19") 0.04785971903173285 0.002022266147561082;
	("state20") 0.1469595747165121 0.018122839335697055;
	("state21") 0.04344106128979659 9.932776351712367E-4;
	("state22") 0.0895397312781093 0.0028629113743980626;
	("state23") 0.09776153016411117 0.01076681670326;
	("state24") 0.10365283558964368 0.0069103656744690075;
	("state25") 0.06081316302753228 0.0016829972954092458;
}

probability ("x94081" | "variable2524") {
	("state0") 0.050094166604740066 0.004284934532441035;
	("state1") 0.14167373834984612 0.03290098030645356;
	("state2") 0.048944479900715224 0.0033171518322421736;
	("state3") 0.11928026371675934 0.012713617922717042;
	("state4") 0.06524277726987082 0.01630161404633924;
	("state5") 0.06474489175992043 0.015552717620685448;
	("state6") 0.055373941893735464 0.008902925093548297;
	("state7") 0.0485027278163466 0.017985346726063483;
	("state8") 0.08411390504243188 0.0143832338459336;
	("state9") 0.07196744915377583 0.005208096041001969;
	("state10") 0.057064854322096556 0.001885660588902475;
	("state11") 0.07553359702106839 0.006629996518995234;
	("state12") 0.05253370014246973 0.00420638236370559;
	("state13") 0.06623137418913151 0.005948181633941923;
	("state14") 0.08302582900822064 0.008338803729372044;
	("state15") 0.08715220424848212 0.013315979983052091;
	("state16") 0.07217810301763532 0.008959333055443981;
	("state17") 0.07760752250287345 0.016682837033215707;
	("state18") 0.09936174567678979 0.0065417203325500274;
	("state19") 0.031059813195517896 0.0018390993180271468;
	("state20") 0.09273519700140595 0.016541820005803082;
	("state21") 0.043790338104876515 0.0017115961436656424;
	("state22") 0.07395507535353446 0.003276007338954625;
	("state23") 0.048718241062961735 0.00783546981055476;
	("state24") 0.08698316920495323 0.008796393651903656;
	("state25") 0.05703073575198024 0.0022726403796131346;
}

probability ("x54843" | "variable2524") {
	("state0") 0.008054581642395647 4.253104477531639E-4;
	("state1") 0.13049565935428462 0.024067063399359587;
	("state2") 0.06869254327680684 0.005016839618472388;
	("state3") 0.13628141530887838 0.013507934893617927;
	("state4") 0.012233246027389495 0.0028700450759743595;
	("state5") 0.037561585752729415 0.010909997397390384;
	("state6") 0.1504471936597345 0.03628462519362916;
	("state7") 0.029532813652498633 0.011856359394117102;
	("state8") 0.03382564844672131 0.004551669853558325;
	("state9") 0.09478259967926875 0.009257519377483947;
	("state10") 0.0902604977093506 0.003871550335318891;
	("state11") 0.09280051380668702 0.006741643554208108;
	("state12") 0.0070589509433148945 4.253104477531639E-4;
	("state13") 0.03143712472420034 0.002578584694060123;
	("state14") 0.0054065987851621665 4.253104477531639E-4;
	("state15") 0.005689102058883308 4.253104477531639E-4;
	("state16") 0.004142421211453096 4.253104477531639E-4;
	("state17") 0.08928811968779238 0.01671380198315229;
	("state18") 0.10332311686504253 0.006943274091948805;
	("state19") 0.04269101566597978 0.002534317192122614;
	("state20") 0.002094315361379046 4.253104477531639E-4;
	("state21") 0.06359551782638959 0.0023019753134870665;
	("state22") 0.11417320328306442 0.006338625920103797;
	("state23") 0.010762847745381048 9.007483219504593E-4;
	("state24") 0.12107373506675645 0.014085198932065722;
	("state25") 0.07916030429721162 0.004005305533962993;
}

probability ("x3274" | "variable2524") {
	("state0") 0.030165558986834148 0.0021300204339608077;
	("state1") 0.18121364838563145 0.031169196350124474;
	("state2") 0.0685455615124643 0.004329628006980736;
	("state3") 0.17809492383043043 0.014515544263466327;
	("state4") 3.6123690395158495E-5 4.1027454373587953E-4;
	("state5") 5.8707654252499535E-6 4.1027454373587953E-4;
	("state6") 0.06136755880539151 0.006790213487400179;
	("state7") 0.004938410924267221 8.883055813940807E-4;
	("state8") 0.061653313022460424 0.005025970517468952;
	("state9") 0.09839167959010421 0.006916761779847056;
	("state10") 0.06846349939758593 0.0017046771283436555;
	("state11") 0.07955019395757165 0.0040861593489244724;
	("state12") 0.05816291627839901 0.005240088537476005;
	("state13") 0.007521213843419966 4.1027454373587953E-4;
	("state14") 0.13913497062107627 0.012107576447723147;
	("state15") 0.07587106901556734 0.008384376081213134;
	("state16") 0.05369180084199619 0.004240556066616468;
	("state17") 0.1047009647163746 0.01665346693421133;
	("state18") 0.16015423827546837 0.0076864289481743606;
	("state19") 0.03173974516261023 0.0015264617334864515;
	("state20") 0.08410459914667709 0.013842412667097126;
	("state21") 0.0554827515334726 0.0017975718934217998;
	("state22") 0.09318074567766303 0.0033494648510350583;
	("state23") 0.040864981012797855 0.005619341405354335;
	("state24") 0.11061648975244849 0.00791123622537781;
	("state25") 0.10131697789508692 0.004103465280198538;
}

probability ("x221692" | "variable2524") {
	("state0") 0.02870949249887598 0.0024105247392916056;
	("state1") 0.12632811195551766 0.033263747708729335;
	("state2") 0.0711369521087858 0.006333576483765736;
	("state3") 0.11785511088076454 0.013660478738534591;
	("state4") 0.040339146668171046 0.009622937268209565;
	("state5") 0.025805545377355184 0.004748733122256304;
	("state6") 0.10343203667532058 0.024564023659734292;
	("state7") 0.005776548282138294 4.6028842680966063E-4;
	("state8") 0.04567218539545956 0.005571769582129983;
	("state9") 0.10186144995040017 0.011369039294498477;
	("state10") 0.08910303383776104 0.0037225127450019944;
	("state11") 0.07298807738832051 0.005949475041270916;
	("state12") 0.030810013344186926 0.0031014379585266793;
	("state13") 0.030369956811046685 0.00228425960838048;
	("state14") 0.05745964301688957 0.005127422789375839;
	("state15") 0.023695899843902392 0.0018963662175137557;
	("state16") 0.036063174640852805 0.0032237290856263695;
	("state17") 0.08434824637079542 0.01950244610670403;
	("state18") 0.0882542195161748 0.005769497746833944;
	("state19") 0.03761946672624286 0.0023552889691164434;
	("state20") 0.07873304302695812 0.018878949983455587;
	("state21") 0.06346000592183029 0.0024911061909533728;
	("state22") 0.11193816615866213 0.006354463761818431;
	("state23") 0.049301555725372335 0.0070307751464200145;
	("state24") 0.10130144620129622 0.01481281658299961;
	("state25") 0.09770158882020728 0.005849716591196238;
}

probability ("x6000" | "variable2524") {
	("state0") 0.045483702780431415 0.0041598306826400285;
	("state1") 0.13672577585442466 0.027155432623792906;
	("state2") 0.038472493584265514 0.0031523353049675287;
	("state3") 0.11458550444147854 0.010271044767660985;
	("state4") 0.005883169630101626 5.373719639211816E-4;
	("state5") 0.040545385033001785 0.00815563543674815;
	("state6") 0.09094328964078463 0.02745513205621902;
	("state7") 2.948422936959015E-4 4.181832492774195E-4;
	("state8") 0.09568621469802788 0.013938851422547336;
	("state9") 0.068809624994869 0.005581765551076258;
	("state10") 0.0692033220753401 0.0026909972945363602;
	("state11") 0.07805471434638935 0.005260080017819103;
	("state12") 0.06200114056450551 0.0059511580683897685;
	("state13") 0.05816204507439164 0.0037795376249423075;
	("state14") 0.09352319820553856 0.007620665610281996;
	("state15") 0.07092463934836941 0.009385250832318285;
	("state16") 0.12933703421679188 0.01669829030667572;
	("state17") 0.06049231341227566 0.010694822321975552;
	("state18") 0.0978228618360519 0.005851153794071539;
	("state19") 0.01651135714186331 6.883168838537507E-4;
	("state20") 0.12344285517707593 0.03036397916134449;
	("state21") 0.04237600176680767 0.0014298258702456865;
	("state22") 0.08482374497149817 0.003729548320589724;
	("state23") 0.01289510413820482 8.997977886474973E-4;
	("state24") 0.11585639617000235 0.012803981276916754;
	("state25") 0.06250919287678937 0.0025581192803852655;
}

probability ("x254531" | "variable2524") {
	("state0") 0.0678408716795979 0.005330050256363301;
	("state1") 0.14318737663715722 0.023765867463068593;
	("state2") 0.07711532377164781 0.0046425239485223535;
	("state3") 0.10061427893109796 0.00888629515591466;
	("state4") 0.003753028857256941 3.400099643772939E-4;
	("state5") 0.030997843818998363 0.009017334447335818;
	("state6") 0.05758122049023913 0.0068544561252350915;
	("state7") 0.0018799656514919031 3.400099643772939E-4;
	("state8") 0.08075479012063008 0.00929433100373976;
	("state9") 0.09050160827243607 0.007219603827889323;
	("state10") 0.06336255352085855 0.0017461772937353189;
	("state11") 0.08126043498280078 0.005070783475453384;
	("state12") 0.07374914051805614 0.007251022093605483;
	("state13") 0.13037759400973997 0.010204934154390688;
	("state14") 0.11192407026978365 0.006478259570255339;
	("state15") 0.12089749544808223 0.018731679011674038;
	("state16") 0.0598662024406981 0.0044992919219202215;
	("state17") 0.07664760023689432 0.010189387233678121;
	("state18") 0.07614185152990567 0.0039722817850996826;
	("state19") 0.04432743626469991 0.002190797242264777;
	("state20") 0.07779246191877727 0.011444933964261777;
	("state21") 0.06177491769766042 0.0019750023173710145;
	("state22") 0.07770897138834146 0.0031965502227189655;
	("state23") 0.06338141316022836 0.00842698959594609;
	("state24") 0.0945656684941166 0.007560767668970979;
	("state25") 0.07329788121467944 0.0030918972675100503;
}

probability ("x2908" | "variable2524") {
	("state0") 0.021698715516965762 0.001359882753703826;
	("state1") 0.11973239800844258 0.025432093115725002;
	("state2") 0.043395460830224435 0.0025066896522063947;
	("state3") 0.13122047971879658 0.01568503980083402;
	("state4") 0.03209425693329942 0.008907679501479825;
	("state5") 0.05254360831411449 0.01206232779088852;
	("state6") 0.14399297659851307 0.03457321063175579;
	("state7") 0.0514085536744446 0.021536033713785707;
	("state8") 0.10055765559138385 0.022219790091525193;
	("state9") 0.08779849343170534 0.008054492124921578;
	("state10") 0.09212807436491392 0.004522551871469677;
	("state11") 0.08371214692085478 0.0070847270710319155;
	("state12") 0.0697892574401125 0.011142367012806464;
	("state13") 0.04989950647917475 0.004819791459850355;
	("state14") 0.03913846224819928 0.0029136409921840987;
	("state15") 0.07948321026459212 0.014561042595965978;
	("state16") 0.021129312688521817 0.0018851601798035857;
	("state17") 0.05182904623386976 0.009792376474763628;
	("state18") 0.10895758923914198 0.00821682703695714;
	("state19") 0.02441555242469946 0.001090463327863556;
	("state20") 0.005867223191060231 4.935420389057083E-4;
	("state21") 0.05697320235617287 0.0025492624532937815;
	("state22") 0.1188529460571719 0.00826012146089522;
	("state23") 0.028067971616471774 0.00399913848311601;
	("state24") 0.11375381011642262 0.014519935682822609;
	("state25") 0.08412334479750451 0.004683370499008962;
}

probability ("x100130155" | "variable2524") {
	("state0") 0.05086426373097423 0.0022580291173945276;
	("state1") 0.15933754941147918 0.021059899519530287;
	("state2") 0.0688740192758438 0.002542959168891326;
	("state3") 0.15987682588167537 0.009627238498496851;
	("state4") 0.008257374869715858 6.339921497642547E-4;
	("state5") 0.004129600984315995 3.5029715700477714E-4;
	("state6") 0.20912244000291524 0.031520903869504804;
	("state7") 2.3713102653648394E-4 3.380070201715941E-4;
	("state8") 0.0940849379973321 0.009021574178719603;
	("state9") 0.10759236835268932 0.004645334031061916;
	("state10") 0.09766063582393562 0.0020970186166572196;
	("state11") 0.12479557416016018 0.006229144066740277;
	("state12") 0.06794144321329372 0.004693916245462297;
	("state13") 0.10643122594541513 0.0063353813831073;
	("state14") 0.06645571082927954 0.0025986217763071485;
	("state15") 0.09734204642999433 0.00919576074034707;
	("state16") 0.043905348516441386 0.002229006512527882;
	("state17") 0.05903538588080882 0.004488938744840707;
	("state18") 0.12429948532897735 0.004438792577570886;
	("state19") 0.04083556633180449 0.001001939926350468;
	("state20") 0.05118476297095048 0.00454583258712766;
	("state21") 0.07288871729592178 0.0015216249700758997;
	("state22") 0.12046597978942343 0.0035468005742177173;
	("state23") 0.034827955338575224 0.0021816606328039835;
	("state24") 0.14476182442971905 0.007763898336065249;
	("state25") 0.0895231040671064 0.002543627509513314;
}

probability ("x114088" | "variable2524") {
	("state0") 0.046099141503399 0.0020849997938038995;
	("state1") 0.14663796008304045 0.016752210317044866;
	("state2") 0.09205890286703818 0.002931776731790778;
	("state3") 0.14748015499372305 0.007280286468048977;
	("state4") 0.03832837633397365 0.004223379787991364;
	("state5") 0.048866382709847056 0.006686330666146147;
	("state6") 0.22583180851181706 0.03368797213350043;
	("state7") 0.008400088701381276 6.749078143810927E-4;
	("state8") 0.07603115809800644 0.004966804674795794;
	("state9") 0.13298383909042252 0.006168271213111758;
	("state10") 0.08539269721269849 0.0014047319819025308;
	("state11") 0.09353020735022723 0.0035179052470863895;
	("state12") 0.0743271591409966 0.004919341406248998;
	("state13") 0.08172712676330564 0.003538891234497605;
	("state14") 0.08140616717293453 0.0033323088365463257;
	("state15") 0.09775176223630172 0.009079885801812125;
	("state16") 0.016497997488552536 7.327734728170477E-4;
	("state17") 0.09498655747745523 0.008249027613985719;
	("state18") 0.11660821711304886 0.003654063584317813;
	("state19") 0.054537347419487556 0.0014771417523596032;
	("state20") 0.03781767481268122 0.0032653344685361304;
	("state21") 0.07822178889847128 0.0012854073105231564;
	("state22") 0.10652372203298599 0.0025757094618724056;
	("state23") 0.06443275813808458 0.004334689571627381;
	("state24") 0.10872352765595557 0.004902534784816133;
	("state25") 0.10948659568398883 0.0024182617740227314;
}

probability ("x23230" | "variable2524") {
	("state0") 0.026270840643784536 0.001138910986551354;
	("state1") 0.1121499538245526 0.02005003233197996;
	("state2") 0.05666534472217089 0.002740535255816854;
	("state3") 0.10737061339039106 0.010015333488608731;
	("state4") 0.03515390419969473 0.008044028461238898;
	("state5") 0.03162958633163069 0.007169759900679983;
	("state6") 0.1201575430442467 0.031510832918845724;
	("state7") 0.0014031545835442784 3.3578277191157813E-4;
	("state8") 0.04292009123202302 0.0035797160991650713;
	("state9") 0.09547373137296905 0.007112571384308225;
	("state10") 0.1022294943711654 0.0035028023997405356;
	("state11") 0.0806103712028745 0.004972348501494168;
	("state12") 0.044887723021379715 0.003944725433379555;
	("state13") 0.05453373817626038 0.00410861822193979;
	("state14") 0.07491319650578702 0.004539561530535095;
	("state15") 0.062090365512164264 0.007224846472758906;
	("state16") 0.04183881524484104 0.003910796167174755;
	("state17") 0.08760697295718103 0.014645900803506957;
	("state18") 0.0780773162870664 0.0041317031437783;
	("state19") 0.03954582310437638 0.001644618213684784;
	("state20") 0.04335397010207545 0.005730930387201772;
	("state21") 0.07198863783331977 0.0022726596245339656;
	("state22") 0.12261363077056833 0.005672907095600826;
	("state23") 0.03418248671245165 0.0030532221118309976;
	("state24") 0.10580206783540484 0.009651573703540011;
	("state25") 0.07856083972352569 0.002922336700860323;
}

probability ("x116966" | "variable2524") {
	("state0") 0.03305871463928637 0.0023148439785682577;
	("state1") 0.11324415590048698 0.0212727708401456;
	("state2") 0.03703228154373908 0.001939319438346739;
	("state3") 0.13404598656469519 0.012688611654881362;
	("state4") 0.0553828445054342 0.01289338475069067;
	("state5") 0.04886622081805857 0.013704151156467868;
	("state6") 0.12852885613457923 0.027919902703608824;
	("state7") 0.0014160517659438559 3.695233852184839E-4;
	("state8") 0.06480888543581205 0.007860061202047245;
	("state9") 0.08112101939584052 0.005928371287780929;
	("state10") 0.09309695715005832 0.0036759860501283893;
	("state11") 0.06415148000412403 0.004681509236548486;
	("state12") 0.04195388259124785 0.003978989682254142;
	("state13") 0.03821503662168794 0.002431730739698948;
	("state14") 0.08124057877110574 0.008123213826866793;
	("state15") 0.052030268041947825 0.006006409476358829;
	("state16") 0.05941861057641894 0.006696329957344209;
	("state17") 0.06231889359145207 0.010561258919093017;
	("state18") 0.12199666872889003 0.007752663635208372;
	("state19") 0.022075991064213034 0.0011095779120401815;
	("state20") 0.058134550539740835 0.00946060226362988;
	("state21") 0.05866994557788892 0.0021349720095144888;
	("state22") 0.11216579622522468 0.004749892641362851;
	("state23") 0.024377953825013985 0.0022760914594957436;
	("state24") 0.08547477849404941 0.007756003336601805;
	("state25") 0.09160007725682874 0.0037625967830542456;
}

probability ("x64062" | "variable2524") {
	("state0") 0.04226383134272065 0.002210686871514175;
	("state1") 0.13461935811247583 0.021409588394929634;
	("state2") 0.0569008353004227 0.0023775103022786355;
	("state3") 0.1343488307089794 0.01013003604935825;
	("state4") 0.06172718723396958 0.010806737678484243;
	("state5") 0.07068835717014899 0.01639209667488722;
	("state6") 0.18851753797323875 0.03254527083952145;
	("state7") 0.07810631571375039 0.018882491633807966;
	("state8") 0.058241772079595966 0.00440877819067185;
	("state9") 0.08860857116250531 0.0058564427371347195;
	("state10") 0.0928737337234805 0.002532884685133504;
	("state11") 0.07275790812996519 0.0036434245676423395;
	("state12") 0.059006482533795146 0.004868731962904189;
	("state13") 0.06191117862269223 0.003958249641665844;
	("state14") 0.07786312754700213 0.005250116629021785;
	("state15") 0.09025303937918043 0.011012236983051173;
	("state16") 0.06512773719047726 0.004990039064049214;
	("state17") 0.06752900595052916 0.008206078351841858;
	("state18") 0.11170210562493456 0.005818318501778053;
	("state19") 0.032122228183457176 9.916803451343128E-4;
	("state20") 0.06845955942438171 0.010667837812389879;
	("state21") 0.0632645385075048 0.0017583607016206544;
	("state22") 0.11284941937350738 0.00438147545211717;
	("state23") 0.03970516957248123 0.003488063832064258;
	("state24") 0.102569228007192 0.007735500484622446;
	("state25") 0.08673050655286454 0.0027923334578015407;
}

probability ("x9645" | "variable2524") {
	("state0") 0.035758101842786584 0.001994091382319905;
	("state1") 0.16516786456944962 0.03356437385990272;
	("state2") 0.07863212326671237 0.004800602855706295;
	("state3") 0.11327939093694102 0.008001926563019733;
	("state4") 8.890676189052928E-4 3.5912857579144215E-4;
	("state5") 4.6372020246617033E-4 3.5912857579144215E-4;
	("state6") 0.08835063990011074 0.010256719878078307;
	("state7") 0.0012959457668626267 3.5912857579144215E-4;
	("state8") 0.044675441554293344 0.003715556251594793;
	("state9") 0.12504214613128295 0.009590744800496391;
	("state10") 0.07050225417362653 0.0019200461462885174;
	("state11") 0.10855109803408072 0.007120080669364015;
	("state12") 0.022057159777117693 0.0015288732705465117;
	("state13") 0.08357397716275825 0.006201923050490098;
	("state14") 0.07116389140838646 0.004384988461033068;
	("state15") 0.09753923235511766 0.015875639784426333;
	("state16") 0.033769562359812 0.002740050029591765;
	("state17") 0.10994567060076345 0.01824884951739269;
	("state18") 0.0823580594653905 0.004354712821389383;
	("state19") 0.04222818772539953 0.002008424491772931;
	("state20") 0.019939873236012144 0.0018412671875625392;
	("state21") 0.06580693912946942 0.002078973074211762;
	("state22") 0.09886483375777118 0.004212644164681801;
	("state23") 0.04239124904187297 0.005537664465845409;
	("state24") 0.12833148012064352 0.008770695586657664;
	("state25") 0.08895014137888545 0.004117280337324379;
}

probability ("x6262" | "variable2524") {
	("state0") 0.04203877951125296 0.0023063310692831105;
	("state1") 0.12825214962656836 0.021154870032138617;
	("state2") 0.10528268013519806 0.005961762615963472;
	("state3") 0.1218996191487632 0.009681122388004506;
	("state4") 8.335077916346264E-4 3.75466256161353E-4;
	("state5") 4.294319114016503E-4 3.75466256161353E-4;
	("state6") 0.0892749678349085 0.011123324096689553;
	("state7") 0.004536293501819089 6.935588944362211E-4;
	("state8") 0.033653280922545784 0.0029255615241116795;
	("state9") 0.12166433431410305 0.009577459788820289;
	("state10") 0.11079144108193723 0.0030483078981289945;
	("state11") 0.08584162168869165 0.004029972574395086;
	("state12") 0.011529398596115275 4.334663701831663E-4;
	("state13") 0.068264515971243 0.0051996725815683575;
	("state14") 0.11365841413715326 0.006997913388546727;
	("state15") 0.08133030601748546 0.015279751176119273;
	("state16") 0.02464770611614351 0.0014885268858213264;
	("state17") 0.13770056976313336 0.022774074537163277;
	("state18") 0.08966811955464792 0.0041165834106183085;
	("state19") 0.07311568709217238 0.004670068138083704;
	("state20") 0.02234516699422718 0.0019053163137594397;
	("state21") 0.0878703048905743 0.002799544233984453;
	("state22") 0.13882342553994034 0.005868089155144793;
	("state23") 0.0629493552237801 0.007637644846714837;
	("state24") 0.10625016885420205 0.008200697259238724;
	("state25") 0.11047551243059124 0.0047299222875151654;
}

probability ("x55814" | "variable2524") {
	("state0") 0.05085967382248136 0.002126501161092018;
	("state1") 0.18349478617711848 0.02332080327724279;
	("state2") 0.11036722742413534 0.004944925748894733;
	("state3") 0.16061728304449194 0.008634794840521995;
	("state4") 0.03334186279390095 0.003824756235591072;
	("state5") 0.030362164299592147 0.003933998991503069;
	("state6") 0.10589658421241137 0.012343569219167667;
	("state7") 0.02499406049021654 0.0033748361037112757;
	("state8") 0.06466278234527953 0.003368733402994049;
	("state9") 0.13636193664248064 0.006502965756848462;
	("state10") 0.09596859704358149 0.002054119024167722;
	("state11") 0.08858983562126255 0.0026823192552018985;
	("state12") 0.06957726726657937 0.004353752799435391;
	("state13") 0.07915271836486852 0.003165267582452599;
	("state14") 0.11152825143951728 0.004627830366304334;
	("state15") 0.1017460793820657 0.009443604205258244;
	("state16") 0.05642154299143182 0.002624794391439869;
	("state17") 0.1424914239460375 0.018713607111440413;
	("state18") 0.1317725097355581 0.004569239240904628;
	("state19") 0.0760852745354903 0.00401173746135966;
	("state20") 0.06797005127970507 0.005527410839096057;
	("state21") 0.06885195809492789 0.0012592071912973105;
	("state22") 0.12644833023079408 0.003226413202565838;
	("state23") 0.09101034569538505 0.00905416198965442;
	("state24") 0.1221069800323972 0.006132137855424578;
	("state25") 0.11319716905356213 0.003177703794517685;
}

probability ("x23613" | "variable2524") {
	("state0") 0.05090750016400661 0.0037606650964949213;
	("state1") 0.13021099809840703 0.01960532990781919;
	("state2") 0.08208500681369517 0.005809664129973288;
	("state3") 0.09140198319047926 0.007241827287317679;
	("state4") 0.07506146023155762 0.017237735847832815;
	("state5") 0.045693456770785866 0.010448196102017308;
	("state6") 0.09522997606426371 0.014678795769840668;
	("state7") 0.05066699408393396 0.013418566526689579;
	("state8") 0.06922873382552545 0.00780008049038126;
	("state9") 0.08431126078504728 0.006201665202994757;
	("state10") 0.062106251792455804 0.0019357362287069104;
	("state11") 0.08308615324562586 0.0062121161595934905;
	("state12") 0.05734793832317035 0.004632529264395906;
	("state13") 0.05608112666253814 0.0036713749175124114;
	("state14") 0.051196004256894585 0.0025114078795242154;
	("state15") 0.07312110185552756 0.00943121170801552;
	("state16") 0.06429021957467637 0.0051821398146657;
	("state17") 0.11958657416724437 0.02138731683623374;
	("state18") 0.07193653233212717 0.0040720606921127375;
	("state19") 0.05328799037932739 0.0028609314474905174;
	("state20") 0.08848230212661343 0.01740803648590418;
	("state21") 0.05246349088147089 0.0016263565456044315;
	("state22") 0.08123452273316205 0.003600327857941052;
	("state23") 0.07018820289258375 0.009920978542117712;
	("state24") 0.10407772034636237 0.008669283392229197;
	("state25") 0.0657144770996513 0.003024355163101433;
}

probability ("x10147" | "variable2524") {
	("state0") 0.06870466093726056 0.003340948689946032;
	("state1") 0.1480664262288665 0.01882850597888872;
	("state2") 0.11457939929126898 0.004914220036180787;
	("state3") 0.11653001747705673 0.00704799443809172;
	("state4") 0.06793197674652478 0.011779577620066633;
	("state5") 0.0548647716839605 0.011101842709078033;
	("state6") 0.07788032411916974 0.006953846159960399;
	("state7") 0.03963962509779674 0.007593198976464142;
	("state8") 0.06472353043220452 0.0037529573666095634;
	("state9") 0.11584598369568064 0.006739790128105897;
	("state10") 0.06501011624515779 0.0012901059183899287;
	("state11") 0.07723485741962535 0.0031887261547793293;
	("state12") 0.07613855757418915 0.004432747621347722;
	("state13") 0.09054295089826742 0.004783667517615019;
	("state14") 0.09389243273287866 0.004706719945024644;
	("state15") 0.11946456356737256 0.015369105179741912;
	("state16") 0.061520021700933916 0.0036392766341674133;
	("state17") 0.13134449988088717 0.012972619572651615;
	("state18") 0.09884406493328071 0.0034102515110190313;
	("state19") 0.07606790486411265 0.0024988398063380554;
	("state20") 0.07777951228455532 0.00785176609062677;
	("state21") 0.07121265756678387 0.00156875492846431;
	("state22") 0.07621926396213531 0.0018554049645543682;
	("state23") 0.09978076155645346 0.009442185584257842;
	("state24") 0.08550719815516601 0.004836733035876943;
	("state25") 0.08811622991832427 0.002431510821226271;
}

probability ("x54904" | "variable2524") {
	("state0") 0.06413048527880508 0.002925798540440434;
	("state1") 0.16099180665924015 0.019871013594817313;
	("state2") 0.07172110129813784 0.0031379882449207894;
	("state3") 0.11642195891475494 0.005989427752686417;
	("state4") 0.050629230170736235 0.006849359912570515;
	("state5") 0.05675752964338681 0.007462113675052236;
	("state6") 0.11358765151969835 0.017565580711630988;
	("state7") 0.0461617918421545 0.007842271110012951;
	("state8") 0.106756236042741 0.007595963727621184;
	("state9") 0.0963889946842455 0.004472895545707328;
	("state10") 0.0735050403243675 0.001297246563281041;
	("state11") 0.08743142150756206 0.0033988647542702146;
	("state12") 0.08358697185487257 0.004968025817961912;
	("state13") 0.0916849622147723 0.0041405099752283145;
	("state14") 0.08594554623641884 0.0029532431023130226;
	("state15") 0.12461626465467651 0.012734026247027134;
	("state16") 0.09743167626041582 0.006134670859625575;
	("state17") 0.10821012736655305 0.010571374479406518;
	("state18") 0.09300053856170423 0.0030969852485649317;
	("state19") 0.04055345837035693 0.0013980951209321426;
	("state20") 0.10399267235678414 0.010066239185986658;
	("state21") 0.05891435679290692 0.0011767178070732603;
	("state22") 0.0981206259476971 0.002464083508381943;
	("state23") 0.08495043623655306 0.007770055813241734;
	("state24") 0.1131509048707357 0.006526824916229714;
	("state25") 0.07958825096392264 0.001913874242811041;
}

probability ("x4898" | "variable2524") {
	("state0") 0.05093765858407938 0.0027964483600156254;
	("state1") 0.1504976335013639 0.021042052207661154;
	("state2") 0.05820328455652071 0.0030642502476786477;
	("state3") 0.10847527815566937 0.006690652632575586;
	("state4") 0.07915781279150377 0.014305854096913465;
	("state5") 0.09533903175756862 0.019377063349772353;
	("state6") 0.07741304132359202 0.009153136233702713;
	("state7") 0.0761254079679583 0.020201402576327136;
	("state8") 0.09580668484512556 0.009838601239518912;
	("state9") 0.08662782372494506 0.004621926403044628;
	("state10") 0.08251355398692249 0.001997077313680255;
	("state11") 0.07400090073860383 0.0035670207183134323;
	("state12") 0.060465657269345496 0.004258869403511837;
	("state13") 0.08037167382049942 0.005272694012030573;
	("state14") 0.09288639472280302 0.004812271332139924;
	("state15") 0.10130924403899702 0.012992356784692958;
	("state16") 0.09600716012977324 0.008562042804290525;
	("state17") 0.08934236384881744 0.010120809024205528;
	("state18") 0.08858614086787636 0.003742015857240491;
	("state19") 0.03446927183214291 0.001259581012806507;
	("state20") 0.10656897669853424 0.01796204776955294;
	("state21") 0.055287343916560906 0.0012715655429184035;
	("state22") 0.10616846515044669 0.0032109468146068495;
	("state23") 0.07357926399708976 0.009903535916009993;
	("state24") 0.10374449694711384 0.007116597032877748;
	("state25") 0.07555576062999927 0.0021594586298450263;
}

probability ("x5411" | "variable2524") {
	("state0") 0.05388996554219563 0.0021479257430907293;
	("state1") 0.1762380697681312 0.026621768487992952;
	("state2") 0.0587748229425293 0.0026486307354361615;
	("state3") 0.13124342523001128 0.008324889942628061;
	("state4") 0.09007045939697088 0.014092659282468977;
	("state5") 0.08491002078188782 0.02065635482237463;
	("state6") 0.06804385788936904 0.008574093657649851;
	("state7") 0.07787904859497083 0.021013641078727753;
	("state8") 0.08112683928999358 0.005351515021813361;
	("state9") 0.0933855838714991 0.005139531930862414;
	("state10") 0.06421604096885711 0.0013158170090729335;
	("state11") 0.05287078589422314 0.0019680798621434666;
	("state12") 0.0671319689490271 0.0042372007534123984;
	("state13") 0.08973908339194737 0.005037606534783693;
	("state14") 0.09623264791882892 0.005296167162534628;
	("state15") 0.1363799985538905 0.017183168770882554;
	("state16") 0.08620295855916282 0.0057952018367504856;
	("state17") 0.10726964500257417 0.015106609171217197;
	("state18") 0.1067270616816812 0.0042155633547457955;
	("state19") 0.036942768549005946 0.0013015516588367091;
	("state20") 0.12104366066331175 0.014568469226484406;
	("state21") 0.04330840278957373 8.055298549445398E-4;
	("state22") 0.08804781585488536 0.0026295175997067496;
	("state23") 0.06946276526243919 0.006748590576783363;
	("state24") 0.08730256119325547 0.005645366019869852;
	("state25") 0.07527428061582703 0.001974696930755719;
}

probability ("x55704" | "variable2524") {
	("state0") 0.07587870161059779 0.002746085707600671;
	("state1") 0.1452166424005696 0.017806365874991018;
	("state2") 0.09888046450104539 0.004472714789012716;
	("state3") 0.10508276212941284 0.004796036548837624;
	("state4") 0.08451742084467204 0.01214515213637022;
	("state5") 0.08158377132470729 0.010223702516650768;
	("state6") 0.10924581417204142 0.011384988579610556;
	("state7") 0.1373427271713223 0.025673347899962774;
	("state8") 0.09243129582568152 0.004458128153970957;
	("state9") 0.09386187988508185 0.0044819713955767775;
	("state10") 0.08354003621380175 0.00153009917756679;
	("state11") 0.061454609652805546 0.001921637784980969;
	("state12") 0.08771601344687797 0.004925793883473676;
	("state13") 0.10408600403754531 0.004032037086994353;
	("state14") 0.12076057711239592 0.005059395970908872;
	("state15") 0.13287148470924204 0.012097442704692712;
	("state16") 0.08146549145469632 0.004166634166318481;
	("state17") 0.14864935734134285 0.016773020912262206;
	("state18") 0.08212419894178588 0.00215738640418565;
	("state19") 0.07878167313102656 0.0029908219309903866;
	("state20") 0.110690894572158 0.011329518710011434;
	("state21") 0.06674823690178394 0.0013950516673389521;
	("state22") 0.09297500307551373 0.0022487782281743604;
	("state23") 0.13693406673286726 0.012734765253178574;
	("state24") 0.07320481102272469 0.0034803117861003843;
	("state25") 0.08650600661913622 0.0022338282272556013;
}

probability ("x440270" | "variable2524") {
	("state0") 0.0736204812279199 0.003314666718374447;
	("state1") 0.16030734269242536 0.021853498697221068;
	("state2") 0.07247159857384439 0.0024874303882738177;
	("state3") 0.1463202840532194 0.008043078161137179;
	("state4") 0.053908046820658334 0.0064560539249603945;
	("state5") 0.08800159294407783 0.012027423073409056;
	("state6") 0.24580807976450877 0.03534218307276079;
	("state7") 0.002494302980712556 3.1863510917407836E-4;
	("state8") 0.08953864370478508 0.005908847478609832;
	("state9") 0.09975050622524616 0.00497543159981663;
	("state10") 0.09120825567360023 0.0019077865792681032;
	("state11") 0.07382802103488136 0.0030525467279286537;
	("state12") 0.0939285200687833 0.006229258159988813;
	("state13") 0.10434797952226033 0.004595551955931778;
	("state14") 0.09536207285167715 0.0045458085985936834;
	("state15") 0.10591556647638145 0.007867276727845714;
	("state16") 0.10512026208326156 0.006632376337791336;
	("state17") 0.07510659014821285 0.006960695292881335;
	("state18") 0.1456020195630408 0.005390517618823219;
	("state19") 0.04664203891439929 0.0013011936432748318;
	("state20") 0.11531150233694462 0.014182940589469872;
	("state21") 0.07774781699943431 0.0018576212685465852;
	("state22") 0.10696486982652556 0.0028186489473093724;
	("state23") 0.058943612874970575 0.003509320081971203;
	("state24") 0.08728515904873413 0.004246288676000429;
	("state25") 0.10836754817289795 0.002944783660095893;
}

probability ("x4897" | "variable2524") {
	("state0") 0.04878752821396819 0.0023433954909227177;
	("state1") 0.1677330087763308 0.02689963504318252;
	("state2") 0.04840203421837961 0.0012943298283506276;
	("state3") 0.12480298471192987 0.0075233925061993934;
	("state4") 0.04078465341666138 0.004509790101670669;
	("state5") 0.13866876303230166 0.027147255394633817;
	("state6") 0.17338912183722877 0.025816371974280095;
	("state7") 0.0012441611989367784 3.560837444251781E-4;
	("state8") 0.10696658537086752 0.01142919832805471;
	("state9") 0.09955820754846798 0.004313773716023794;
	("state10") 0.10172070013231302 0.0022233188614781043;
	("state11") 0.11022732984302973 0.004818397023387832;
	("state12") 0.06296039776670163 0.0037730083420931043;
	("state13") 0.05528925872375933 0.002524574751858387;
	("state14") 0.0795918516654761 0.0037594664438569897;
	("state15") 0.08840000203598601 0.008199251843129815;
	("state16") 0.12558526361512098 0.010112572345278608;
	("state17") 0.07131389709580063 0.0060427635484034325;
	("state18") 0.09369425470523889 0.0032119782717505135;
	("state19") 0.029706942898848867 6.334311406428825E-4;
	("state20") 0.11505381661547395 0.016389076776788147;
	("state21") 0.06503196678356157 0.0012422366169834909;
	("state22") 0.12957826068583803 0.0033942186783768136;
	("state23") 0.024544577199222754 0.0010958754912836868;
	("state24") 0.14941748178936543 0.00952900459363434;
	("state25") 0.08844233954694435 0.0021343167288798664;
}

probability ("x23077" | "variable2524") {
	("state0") 0.07214940935095072 0.003009115764290931;
	("state1") 0.17889243067743132 0.02120250147964385;
	("state2") 0.07685279028532517 0.002605972919928098;
	("state3") 0.13095850462103206 0.00631171442107239;
	("state4") 0.045616780611439284 0.005759397165988596;
	("state5") 0.047948837616170886 0.006406218382373825;
	("state6") 0.1294699032527977 0.011457638471975973;
	("state7") 0.0455105445269174 0.007276551909571316;
	("state8") 0.121083388024985 0.009899928112857464;
	("state9") 0.1048306791814606 0.004850905694822696;
	("state10") 0.08932603654301723 0.0016079763564513358;
	("state11") 0.1034537502962852 0.004398986954107282;
	("state12") 0.08951286358894167 0.0055531237957097855;
	("state13") 0.11123982967769024 0.005586921762481062;
	("state14") 0.07138081174588942 0.0025503216510141336;
	("state15") 0.12301429542604755 0.01083551006184564;
	("state16") 0.10782688544490356 0.006844454611820663;
	("state17") 0.1283834605341467 0.01623849819285298;
	("state18") 0.09935768535761803 0.0031940461454422375;
	("state19") 0.04771677603428529 0.0014403975606665995;
	("state20") 0.11329438138638613 0.010484027444545452;
	("state21") 0.06404724694716377 0.0011146912843695528;
	("state22") 0.10813696714704624 0.00271716814210846;
	("state23") 0.0991048961780149 0.009431069810155828;
	("state24") 0.13009792388263725 0.006542261670347828;
	("state25") 0.08119954014560442 0.001990384430080753;
}

probability ("x3535" | "variable2524") {
	("state0") 0.09095376259331728 0.0033680708663670193;
	("state1") 0.13783746894906873 0.013294379255913742;
	("state2") 0.14493103852572364 0.007026035367897885;
	("state3") 0.13063569269537956 0.004897263915684512;
	("state4") 0.06506153970653805 0.00608801059274256;
	("state5") 0.06777557163942424 0.00988759267257908;
	("state6") 0.1042725925713615 0.0068722907538136405;
	("state7") 0.0563702520863181 0.008210387290781758;
	("state8") 0.08391565797146792 0.003583731640658244;
	("state9") 0.11269382428751008 0.0042931836451640375;
	("state10") 0.10254806193498814 0.0018024947121265083;
	("state11") 0.0962517151225898 0.0026558296477189945;
	("state12") 0.09658708753153587 0.003721890945230834;
	("state13") 0.08341568547756899 0.002798921069113998;
	("state14") 0.11029280105146069 0.0040129220986983806;
	("state15") 0.0996559336837696 0.006183789295936057;
	("state16") 0.08606185418982977 0.0037501504235129403;
	("state17") 0.12681945629503003 0.013473448255297105;
	("state18") 0.11714185840797514 0.003521335143221682;
	("state19") 0.1224675270592224 0.005739762941440577;
	("state20") 0.09676800602147602 0.006106658202500566;
	("state21") 0.10068761896439667 0.0022753067772694536;
	("state22") 0.11511665334876671 0.0021801428575319833;
	("state23") 0.1310971566552993 0.014051147567990875;
	("state24") 0.09799703964705807 0.003544225538739038;
	("state25") 0.11274931474552377 0.0023606730256655684;
}

probability ("x9284" | "variable2524") {
	("state0") 0.07556230763089505 0.004713777972929081;
	("state1") 0.17727639381890586 0.023339986942253654;
	("state2") 0.13939862464307154 0.008389730626754745;
	("state3") 0.12501944904783754 0.007014718912363874;
	("state4") 0.07125391288107212 0.011794442876879183;
	("state5") 0.058079873696341135 0.00823433200508001;
	("state6") 0.12499646047839544 0.016765773960217382;
	("state7") 0.03396304778488141 0.00646732058130666;
	("state8") 0.06541952050946205 0.003332315204503123;
	("state9") 0.1178542344736684 0.006214895191375152;
	("state10") 0.0683376737441505 0.0011901450590860799;
	("state11") 0.07011644763069533 0.0027379345417466333;
	("state12") 0.09170797998838007 0.0066530456798297635;
	("state13") 0.06777698158310974 0.0030503206317907586;
	("state14") 0.08311157595212755 0.003663599220301537;
	("state15") 0.10168485409749355 0.009077578707977995;
	("state16") 0.07482622996761529 0.0042449268472015125;
	("state17") 0.1778284272013742 0.02465476190385041;
	("state18") 0.09593714937395614 0.0031682323957201108;
	("state19") 0.08571246186076625 0.004575764676673369;
	("state20") 0.09872985857809431 0.011869693087920484;
	("state21") 0.07616562198554999 0.0021054967538399125;
	("state22") 0.08266425644152098 0.0019638905502080504;
	("state23") 0.1395231940952228 0.02013962464150774;
	("state24") 0.07901131819919166 0.0036470968178643334;
	("state25") 0.09659328816819038 0.0025830716240527333;
}

probability ("x5310" | "variable2524") {
	("state0") 0.07573088397870402 0.003532535407965476;
	("state1") 0.16629273870021322 0.020316177606193184;
	("state2") 0.14701574329924755 0.0073311697933177225;
	("state3") 0.13010839911519503 0.007215520759512126;
	("state4") 0.024987018558692432 0.00261724266717626;
	("state5") 0.02629764266886724 0.0037895904857388543;
	("state6") 0.0378068393104173 0.002267091159033481;
	("state7") 0.01878137260091295 0.004108878525648447;
	("state8") 0.06204903280581255 0.0035478138934238648;
	("state9") 0.13943106415418316 0.0075491688875346016;
	("state10") 0.06763447507074981 0.0012115814626458329;
	("state11") 0.09132809987633446 0.004293807045803255;
	("state12") 0.08777786680624608 0.0059882366224857765;
	("state13") 0.07264844046689545 0.0032386703321855303;
	("state14") 0.1121295130039052 0.006115658743002752;
	("state15") 0.11354015897426323 0.01154981695434241;
	("state16") 0.06854330205583545 0.0039318451331238026;
	("state17") 0.13643138038569447 0.016609672928656862;
	("state18") 0.092187850874705 0.003075412756242938;
	("state19") 0.10960319283902374 0.0053421463746994415;
	("state20") 0.09148654550737045 0.00977124584100617;
	("state21") 0.08682823584786317 0.002638475106804417;
	("state22") 0.08412655151773035 0.002229276500966926;
	("state23") 0.08544353582449121 0.008107466294559126;
	("state24") 0.09003609286218457 0.0045589366742390825;
	("state25") 0.1082990518751577 0.003184788598616069;
}

probability ("x4297" | "variable2524") {
	("state0") 0.0918058894886333 0.004498808738687713;
	("state1") 0.1474039595277111 0.014565064512020809;
	("state2") 0.09197771340850976 0.003994699588833828;
	("state3") 0.09914428068242655 0.005442511573991031;
	("state4") 0.05932143588828872 0.00767220279644875;
	("state5") 0.04201271021744151 0.006739784297209852;
	("state6") 0.11663059554489424 0.013283656250225023;
	("state7") 0.056033400142911374 0.014888574580639403;
	("state8") 0.12434354546602742 0.008937622060310646;
	("state9") 0.09956335952911578 0.005751645970643322;
	("state10") 0.07502596544717743 0.0016523281114841214;
	("state11") 0.08493110966502646 0.003218369233533791;
	("state12") 0.10653666783083192 0.007104269544128958;
	("state13") 0.1110559846253194 0.005635094152906197;
	("state14") 0.0978974226751615 0.004000030589201391;
	("state15") 0.13686615826037754 0.013767052868384467;
	("state16") 0.10600435844830795 0.006778875650117771;
	("state17") 0.12689206577109402 0.018215369234142728;
	("state18") 0.07212113616427732 0.0025293416391972833;
	("state19") 0.07802433240546647 0.003132927770511161;
	("state20") 0.11675319036776209 0.015484712643703092;
	("state21") 0.062030267282929284 0.0012918184081548592;
	("state22") 0.09457055963736075 0.0024442060205234345;
	("state23") 0.11642804622903215 0.015481754032855564;
	("state24") 0.09656825721055687 0.005506707546996868;
	("state25") 0.07917317980076208 0.0023650247823827327;
}

probability ("x5297" | "variable2524") {
	("state0") 0.040724746665507065 0.002412243494445418;
	("state1") 0.1755451016383409 0.0328047043856404;
	("state2") 0.07077976682410413 0.005360598873932541;
	("state3") 0.14519258456748033 0.01316673200153577;
	("state4") 0.04236516801191005 0.009007500495716593;
	("state5") 0.005920962871224899 4.868274433952141E-4;
	("state6") 0.10665853884984833 0.01851567778291868;
	("state7") 0.0034317189952625523 4.0538132364996497E-4;
	("state8") 0.08274335061906353 0.01156464960779652;
	("state9") 0.11067212052418239 0.009089052077650548;
	("state10") 0.08568670392569874 0.0025987768495229773;
	("state11") 0.08130062246334821 0.004992022477949082;
	("state12") 0.058115993327745454 0.006212605431390675;
	("state13") 0.07318495843151925 0.005945588062638434;
	("state14") 0.07363983420023414 0.004695345989369099;
	("state15") 0.07962058249747236 0.009819221206960733;
	("state16") 0.07236518069160254 0.006428464175745719;
	("state17") 0.08190043251512667 0.011434229621882274;
	("state18") 0.10927813505071626 0.006615060483942881;
	("state19") 0.03495705569092395 0.0016352012781727988;
	("state20") 0.07072963967526004 0.009414038192804643;
	("state21") 0.062275312155175004 0.0021750135793636577;
	("state22") 0.11594889885314104 0.00535090998465343;
	("state23") 0.03905954901432025 0.005007893963480118;
	("state24") 0.11264728027833071 0.00980045937505088;
	("state25") 0.09840064690836381 0.004065361065571905;
}

probability ("x8499" | "variable2524") {
	("state0") 0.026631677186366585 0.0010117266193865244;
	("state1") 0.15177481206149113 0.02153424610306864;
	("state2") 0.0740272541201778 0.005466356870292927;
	("state3") 0.18994436948015853 0.018905362281102227;
	("state4") 0.019920550334457904 0.0027780324371538506;
	("state5") 0.050166127406013145 0.007979278880336628;
	("state6") 0.1487139022587621 0.025765680977900572;
	("state7") 0.04999563778226682 0.01180946160198708;
	("state8") 0.04940522501540045 0.0032552201449750993;
	("state9") 0.10566633857070384 0.007233467158900478;
	("state10") 0.07595247950710335 0.0017835492369099079;
	("state11") 0.07231944444019843 0.003389056506403335;
	("state12") 0.03994285955305527 0.0023307309072433846;
	("state13") 0.05474532432610568 0.0026184285236519208;
	("state14") 0.028662310502724633 8.895837815910383E-4;
	("state15") 0.05924862454421096 0.005722631398455965;
	("state16") 0.03334106051922109 0.002070795714194338;
	("state17") 0.0748922775878013 0.010609136999369802;
	("state18") 0.2130141469495829 0.011375040281622005;
	("state19") 0.03387145909757523 0.0013355084372207106;
	("state20") 0.04473812131209546 0.005216333903751574;
	("state21") 0.05654074612676448 0.0016758154027341052;
	("state22") 0.08862827137861516 0.0026971059643375534;
	("state23") 0.03221203058510487 0.002657597396091576;
	("state24") 0.10086229440408138 0.007085033607166243;
	("state25") 0.10411596632235083 0.005053362236776021;
}

probability ("x55904" | "variable2524") {
	("state0") 0.06855884357694464 0.0034287202961646307;
	("state1") 0.16670407768048331 0.02390331531396677;
	("state2") 0.08838497983925858 0.004859576456933287;
	("state3") 0.12149934569046318 0.007243948743391386;
	("state4") 0.07029373194649884 0.009614440154243254;
	("state5") 0.10069142100842368 0.017530489937185523;
	("state6") 0.0664563241989172 0.006327058865209456;
	("state7") 0.10079478116081549 0.022196691118359417;
	("state8") 0.10132659233441778 0.00681807101345087;
	("state9") 0.10056596145252696 0.005321064102112244;
	("state10") 0.07233119352876653 0.001562488198305902;
	("state11") 0.08762324531416012 0.0039015487248245653;
	("state12") 0.08612944915946627 0.005138436655648363;
	("state13") 0.09222689754206201 0.005071024469064541;
	("state14") 0.09900946738439272 0.005132965500192816;
	("state15") 0.1260901016085767 0.01568627986016089;
	("state16") 0.08897093916553978 0.00544549303332519;
	("state17") 0.14645304222003216 0.022239480573939804;
	("state18") 0.09499062113825799 0.003995694357899227;
	("state19") 0.059017547433028436 0.0022374164005261044;
	("state20") 0.1265043456594028 0.015265483035764726;
	("state21") 0.057419865915505415 0.001235485371337106;
	("state22") 0.09509882387665547 0.00311594294488265;
	("state23") 0.11040925005151254 0.013537465870639944;
	("state24") 0.12180703629870727 0.007844623247170317;
	("state25") 0.07579092715895806 0.0017970520528805508;
}

probability ("x57035" | "variable2524") {
	("state0") 0.04569481114560221 0.0017597243886002226;
	("state1") 0.17573953866305703 0.023779234906088766;
	("state2") 0.0509976901327501 0.0015237960761302696;
	("state3") 0.17731979653087257 0.011081986246676319;
	("state4") 0.07928972482061289 0.011620574267996269;
	("state5") 0.04786965657260399 0.007452443269166861;
	("state6") 0.144435773980716 0.020303059871807236;
	("state7") 0.08078044720545928 0.018395994083282977;
	("state8") 0.08035545649632057 0.005955284211779327;
	("state9") 0.09071909887333489 0.004292078083033555;
	("state10") 0.10380072786125952 0.0026913625941333117;
	("state11") 0.08014840260584381 0.003098883343076352;
	("state12") 0.05519369603147329 0.0030647840810665797;
	("state13") 0.08482392006523116 0.004034376709150747;
	("state14") 0.08190828927540635 0.0036624351066718097;
	("state15") 0.09938336850947423 0.00892392149772356;
	("state16") 0.0793137528928806 0.005197681130797812;
	("state17") 0.05019988597479648 0.0035786333381186146;
	("state18") 0.15740520478924264 0.00721667943750223;
	("state19") 0.031194277445516814 6.226739759469153E-4;
	("state20") 0.08329092595901794 0.009085730314290653;
	("state21") 0.05922231980927607 0.0010285983580418873;
	("state22") 0.135767958215757 0.0043717084848768585;
	("state23") 0.032464531576831636 0.0017154578378047226;
	("state24") 0.11769682568488896 0.006780912954743379;
	("state25") 0.08591767875131343 0.001973312663838806;
}

probability ("x10905" | "variable2524") {
	("state0") 0.06462247512221331 0.005045850007721599;
	("state1") 0.14864920967526588 0.02592221358845057;
	("state2") 0.07329650211809707 0.0041855651132925425;
	("state3") 0.08536831583663358 0.006138401678066699;
	("state4") 0.021306059421170573 0.0034115000614680065;
	("state5") 0.0323924057265984 0.007126147781453992;
	("state6") 0.10320320020310093 0.0179409478837415;
	("state7") 0.02810133301903846 0.006693345972750166;
	("state8") 0.12460328196784203 0.0157738877442358;
	("state9") 0.09007358903743248 0.006151614398121451;
	("state10") 0.05468066202148989 0.001707940668345604;
	("state11") 0.09395214586253578 0.00585382493310962;
	("state12") 0.12083504508037962 0.015638595115186803;
	("state13") 0.13785664213312265 0.014081570303547553;
	("state14") 0.06794403955048968 0.003902695034387643;
	("state15") 0.16551901184561352 0.0334426389088197;
	("state16") 0.06491397496743229 0.0052371215954948105;
	("state17") 0.08761469066130957 0.010107194821936304;
	("state18") 0.07260252425032666 0.0035835231564314857;
	("state19") 0.04748008302249078 0.002188483464625923;
	("state20") 0.07768242802823602 0.010472374620391993;
	("state21") 0.04775096466641843 0.0012624199572461147;
	("state22") 0.06652300868107011 0.002821862982945011;
	("state23") 0.07476821179313811 0.008015029283577479;
	("state24") 0.1169460139526183 0.009214918555597362;
	("state25") 0.053388401077920575 0.0019537759247501216;
}

probability ("x28978" | "variable2524") {
	("state0") 0.04068591849210937 0.0035611212602138045;
	("state1") 0.16080203868508305 0.03322031873063117;
	("state2") 0.016762387412366644 8.124727147040564E-4;
	("state3") 0.09044206061206618 0.009104281702811905;
	("state4") 0.035855654935697645 0.01418374702200541;
	("state5") 0.0010828658445696004 5.740803034331705E-4;
	("state6") 0.13881671801747958 0.030001284047431437;
	("state7") 3.1122895334942516E-4 5.740803034331705E-4;
	("state8") 0.17626248028939479 0.03063537225991397;
	("state9") 0.04355474071749503 0.0025259083713603664;
	("state10") 0.06322732259243877 0.002349998917302611;
	("state11") 0.08294710945626024 0.007246164070043832;
	("state12") 0.07665146533197686 0.009768708793375418;
	("state13") 0.10670227325478054 0.010387008551440481;
	("state14") 0.13224444220563822 0.015386575857115758;
	("state15") 0.1542095360614647 0.03221743268059843;
	("state16") 0.11729362733064103 0.01687662653951011;
	("state17") 0.04119657996870625 0.007691443639359095;
	("state18") 0.0531677689602041 0.003182559229501989;
	("state19") 0.011123876024590099 5.740803034331705E-4;
	("state20") 0.14336164162501708 0.030232771299746376;
	("state21") 0.03082597186702369 0.0011074257559055306;
	("state22") 0.09101174661588222 0.004937552695509236;
	("state23") 0.025172301028658597 0.002988668665597879;
	("state24") 0.1489899719075967 0.018353953848613706;
	("state25") 0.04421298334223293 0.002200731647866788;
}

probability ("x6134" | "variable2524") {
	("state0") 0.04102113035868571 0.0028517409145086357;
	("state1") 0.14890252936865173 0.024565262133584523;
	("state2") 0.033935361659327236 0.0019378107666316508;
	("state3") 0.11918779904413587 0.011306235079581273;
	("state4") 0.06783551363427638 0.016798187107044317;
	("state5") 0.09209922410901202 0.027318055208713776;
	("state6") 0.08593866195969137 0.013901330883625137;
	("state7") 0.08539033982872558 0.026652084201485342;
	("state8") 0.1148989674233469 0.013415573351720337;
	("state9") 0.07772679551604315 0.0059118819483349435;
	("state10") 0.04851887636036532 0.0014505316050078038;
	("state11") 0.07549491758935296 0.004919960990566638;
	("state12") 0.0835908119330183 0.008978504840802067;
	("state13") 0.06946750477092435 0.005585487381858933;
	("state14") 0.0882844027408014 0.006547214050454996;
	("state15") 0.11748508959631562 0.016869148391425833;
	("state16") 0.09819704877584237 0.010451284925059763;
	("state17") 0.06381850839308571 0.00839468201580808;
	("state18") 0.07814585085359498 0.004956558486873305;
	("state19") 0.02167570494740703 0.0012119938663827945;
	("state20") 0.13019135847756472 0.027699823651337562;
	("state21") 0.030517416214054988 0.001091319434013471;
	("state22") 0.0813303161325606 0.0038850534295519538;
	("state23") 0.03941295446833864 0.004796427419397534;
	("state24") 0.1363983571142875 0.014300170437629588;
	("state25") 0.05660261333990374 0.002655970650134222;
}

probability ("x54460" | "variable2524") {
	("state0") 0.04791757660622354 0.003694599967906978;
	("state1") 0.15801666492592073 0.03213449226569621;
	("state2") 0.02983157393035404 0.0019680192242088027;
	("state3") 0.11891316256807678 0.012562689652696067;
	("state4") 0.08604500862926936 0.023725767997956348;
	("state5") 0.05070093786895096 0.013815085659841138;
	("state6") 0.0982201634694819 0.023978268899819466;
	("state7") 0.04323841036251638 0.01324752714985551;
	("state8") 0.11775366498220002 0.016129258403349472;
	("state9") 0.07427037518518821 0.0057515265726014175;
	("state10") 0.07507934975873264 0.0026663164556119112;
	("state11") 0.07361853216356502 0.004991983587128411;
	("state12") 0.06955064820624944 0.00883640918869194;
	("state13") 0.1164610332643983 0.0110686111025779;
	("state14") 0.08379231081775605 0.006138555232611332;
	("state15") 0.12428421907056164 0.02320783810515802;
	("state16") 0.10818098525781214 0.011933452411634687;
	("state17") 0.05018614828062357 0.008737885539694934;
	("state18") 0.0762239637880167 0.004544823431106281;
	("state19") 0.01899857904646819 8.990588378776635E-4;
	("state20") 0.13098865518864072 0.030491037629413485;
	("state21") 0.03898579459613589 0.0013970143784822924;
	("state22") 0.09833544114979065 0.004692365846251572;
	("state23") 0.03751072944785899 0.005373710692418666;
	("state24") 0.11766097854445737 0.011319282754433177;
	("state25") 0.0563623244259786 0.002238765561997098;
}

probability ("x80205" | "variable2524") {
	("state0") 0.0684485782016048 0.0034652809537939148;
	("state1") 0.18769397859464373 0.029285363680005498;
	("state2") 0.060443131473263204 0.002820055549933694;
	("state3") 0.11048086727217293 0.005988377156101052;
	("state4") 0.15766306419114057 0.026158091026604376;
	("state5") 0.1377078601800972 0.029908434010290193;
	("state6") 0.11941449406265855 0.015995816182366205;
	("state7") 0.06070691337798294 0.010827616584998477;
	("state8") 0.11685314119671315 0.00845996759364879;
	("state9") 0.10957488087872623 0.006392637200910302;
	("state10") 0.08141821681492385 0.0015789036308945068;
	("state11") 0.08871498918453542 0.0037193349923360774;
	("state12") 0.09009290320132392 0.006194092717221049;
	("state13") 0.10546132549481628 0.005524368382678713;
	("state14") 0.08729643835891604 0.00439037286572242;
	("state15") 0.13252532166135284 0.01252969942325179;
	("state16") 0.11638673134284118 0.008636817732594981;
	("state17") 0.11108397869767714 0.012058194715297982;
	("state18") 0.07478251654373433 0.0024874456789457772;
	("state19") 0.035271067934767496 9.267934777962189E-4;
	("state20") 0.14879893071319064 0.019052654542211524;
	("state21") 0.05188033277757542 0.0010293765889592837;
	("state22") 0.11068980498624068 0.002907726572437759;
	("state23") 0.08155577334461128 0.008423399049598379;
	("state24") 0.11541563594259961 0.006782288143385689;
	("state25") 0.07923606349010967 0.0023187655682659013;
}

probability ("x56853" | "variable2524") {
	("state0") 0.08012966700240906 0.004734060276341577;
	("state1") 0.16098275450995939 0.02322606781659398;
	("state2") 0.110272963393844 0.008192144037918224;
	("state3") 0.107420809336645 0.0072682981509662745;
	("state4") 0.003597230300774338 4.1328836206773174E-4;
	("state5") 0.007028793708713999 7.366778869292094E-4;
	("state6") 0.1576659712145833 0.021607221792966067;
	("state7") 0.0037713141491534643 5.522444056398658E-4;
	("state8") 0.11657897160260418 0.012415419725844503;
	("state9") 0.1234781731238766 0.009400999060816043;
	("state10") 0.08397164088259781 0.003200932671923314;
	("state11") 0.08519977575363623 0.00491358719047856;
	("state12") 0.07137733962229312 0.00493143973711604;
	("state13") 0.08792621214612271 0.005509492815160617;
	("state14") 0.08077436128537752 0.004022025725100397;
	("state15") 0.11746508202390868 0.013897943396165714;
	("state16") 0.1337083650282359 0.00843314351597766;
	("state17") 0.13854590593654045 0.02504873042756251;
	("state18") 0.06538688733460668 0.002249251965590275;
	("state19") 0.0873419709532473 0.005704319495623053;
	("state20") 0.1294772677087294 0.01480739388065449;
	("state21") 0.06759782571599963 0.002524875335582334;
	("state22") 0.11498822718354855 0.00526215629583904;
	("state23") 0.11291334179618519 0.013540767832930956;
	("state24") 0.12176836868544365 0.010320120719049766;
	("state25") 0.09589573826339257 0.0038739102090867613;
}

probability ("x577" | "variable2524") {
	("state0") 0.05009824365051195 0.0029929952740643576;
	("state1") 0.18736052451671972 0.03519837850575189;
	("state2") 0.06306806640741633 0.0027909117159003478;
	("state3") 0.14638241243232647 0.013119998503997973;
	("state4") 0.0581137215532195 0.013315709586530496;
	("state5") 0.04565914591476945 0.009882032397701957;
	("state6") 0.14487725053416034 0.02906595581715043;
	("state7") 0.005185684707938922 4.6604627093634835E-4;
	("state8") 0.1214438509230191 0.014903333437750136;
	("state9") 0.1278572754144564 0.009207030546285215;
	("state10") 0.10469435587293592 0.002925751433408093;
	("state11") 0.1048151150683594 0.0056160228102646904;
	("state12") 0.09878974597530252 0.00960235074885727;
	("state13") 0.10157253580029568 0.007730928255283158;
	("state14") 0.10046278017295565 0.0064974658444043746;
	("state15") 0.13990710377168922 0.020748103148632752;
	("state16") 0.07378527894799193 0.006256764056276996;
	("state17") 0.08758789797840291 0.010947079386337452;
	("state18") 0.11530447351167386 0.005602033029707611;
	("state19") 0.041905125188182374 0.001575021203092719;
	("state20") 0.09494599841756983 0.012672873626450714;
	("state21") 0.07195916988151987 0.0018351989344516009;
	("state22") 0.13494658446375474 0.005692466185247956;
	("state23") 0.0530355852446481 0.006251430216036935;
	("state24") 0.14106075938442963 0.0109773503250785;
	("state25") 0.10499139654161085 0.003859013346626238;
}

probability ("x9324" | "variable2524") {
	("state0") 0.049706433647604645 0.002117453544330413;
	("state1") 0.1934107571021142 0.02790578583073135;
	("state2") 0.03598316068269294 0.001272090685217161;
	("state3") 0.14239703387695582 0.008013628603921793;
	("state4") 0.14152984931531482 0.026854669477432726;
	("state5") 0.0541741379984144 0.008296793314679826;
	("state6") 0.11115857845631856 0.014032872358336418;
	("state7") 0.08192047156246596 0.013701642072451226;
	("state8") 0.13170428093088868 0.009647174041565289;
	("state9") 0.09553539143255149 0.004196770595943847;
	("state10") 0.08526717123374557 0.0017532465468497816;
	("state11") 0.09135562739452065 0.00377457304947283;
	("state12") 0.0835716544116757 0.005340651763176695;
	("state13") 0.12071173048123278 0.007687582493954034;
	("state14") 0.12587718211742077 0.007596680214039911;
	("state15") 0.15605535101045306 0.01731223231269575;
	("state16") 0.11281111314181343 0.00720331766016932;
	("state17") 0.05812735504437991 0.005068457793873012;
	("state18") 0.09351264066766053 0.00338811601721536;
	("state19") 0.019017297993543302 5.830948139183584E-4;
	("state20") 0.13030556260308868 0.018296118471417634;
	("state21") 0.047971289079303085 0.001142042963508744;
	("state22") 0.11138196931012034 0.0034455160089768445;
	("state23") 0.025961640361000432 0.0017212377753301413;
	("state24") 0.13636361453006862 0.007611406425638777;
	("state25") 0.06451773121608309 0.0016299008457103087;
}

probability ("x5789" | "variable2524") {
	("state0") 0.05035844325756455 0.002796820125205235;
	("state1") 0.16353701559769288 0.022141574147227786;
	("state2") 0.04981110204032093 0.001729272381438786;
	("state3") 0.11926719463434599 0.008064977514569938;
	("state4") 0.02945281438431787 0.006549003630699146;
	("state5") 0.0841868019651699 0.01519977735563191;
	("state6") 0.14477470147862337 0.024563272225861913;
	("state7") 0.11271176156388078 0.02620318651201503;
	("state8") 0.1085974337748057 0.013155698931471792;
	("state9") 0.10505442612619963 0.005667714076476795;
	("state10") 0.10139773334103448 0.002266819046781293;
	("state11") 0.09904599381297455 0.004221658214873636;
	("state12") 0.09088235681921039 0.011705137023744946;
	("state13") 0.09082011701218012 0.008850417350881332;
	("state14") 0.14730540967297015 0.011500869578656578;
	("state15") 0.139241819977381 0.024638058483082752;
	("state16") 0.08296190801395234 0.006264215338974322;
	("state17") 0.061511857765894615 0.004820840525620356;
	("state18") 0.08002502756107904 0.003255480094568784;
	("state19") 0.03253644640656814 8.132546372752501E-4;
	("state20") 0.07521718346207461 0.008167975785549654;
	("state21") 0.07040185919254405 0.0015164345289529247;
	("state22") 0.12512666593949073 0.0035575974112928466;
	("state23") 0.046477175969859785 0.004861344828017016;
	("state24") 0.12741292642657176 0.006824801451509781;
	("state25") 0.09043763598740674 0.0031172457927945026;
}

probability ("x54212" | "variable2524") {
	("state0") 0.04261294952852731 0.0020293989660911537;
	("state1") 0.19000086069416158 0.034924991411001326;
	("state2") 0.0604992463470647 0.003249042708919399;
	("state3") 0.10671925755535229 0.009717512222913715;
	("state4") 0.0011495612592607016 4.2044361113861145E-4;
	("state5") 0.10466124646416068 0.018370664948285324;
	("state6") 0.08896602692525744 0.011919616349754213;
	("state7") 3.7996813254022966E-4 4.2044361113861145E-4;
	("state8") 0.11320235697493104 0.010154484038379735;
	("state9") 0.12763147840286446 0.009040480158829921;
	("state10") 0.08835048532889667 0.002830577723709387;
	("state11") 0.10950453400066801 0.00483615094892327;
	("state12") 0.11147917092072943 0.009305530805256252;
	("state13") 0.09022022146185585 0.008328855332030476;
	("state14") 0.15097525235627243 0.009469614533176348;
	("state15") 0.15010957310044498 0.023494694631212707;
	("state16") 0.03868406319343861 0.0023610781858899236;
	("state17") 0.10718852420153496 0.01059567389091887;
	("state18") 0.05008068827791734 0.001810902830590174;
	("state19") 0.04249657433360104 0.0015203757154655224;
	("state20") 0.09406858907302712 0.01163628992073393;
	("state21") 0.060942730201032455 0.0019182838024545395;
	("state22") 0.10961551115775887 0.004204551993025981;
	("state23") 0.060950683536232675 0.005227001142321971;
	("state24") 0.15511005687809948 0.010874072789494699;
	("state25") 0.06533406822207372 0.002396765796718101;
}

probability ("x4331" | "variable2524") {
	("state0") 0.042974465192720676 0.0020809745296803644;
	("state1") 0.20251397138493693 0.025993577385612338;
	("state2") 0.08578872043027322 0.004288595031538007;
	("state3") 0.15981862232762314 0.010736432195926699;
	("state4") 0.022860546697000744 0.0022964907189579648;
	("state5") 0.0438746044664387 0.0075698036759045285;
	("state6") 0.10291462035891082 0.012968372071764017;
	("state7") 0.03399443705500683 0.009755078712360013;
	("state8") 0.07403298015486351 0.005066608109879686;
	("state9") 0.13814784140116157 0.00753649075247037;
	("state10") 0.12061837117792716 0.0029109098706696667;
	("state11") 0.09784186298272313 0.003953326097218707;
	("state12") 0.059458998465082964 0.003902201089272053;
	("state13") 0.07571467191004251 0.004071169574556075;
	("state14") 0.10826993250602476 0.006921320697011399;
	("state15") 0.09976363469978085 0.009880268815839675;
	("state16") 0.06729267437283465 0.004582318969818079;
	("state17") 0.1377146048788424 0.018746302205891855;
	("state18") 0.10983415273221016 0.003904116341626632;
	("state19") 0.05385487948682352 0.0023958485350181907;
	("state20") 0.09918128306417545 0.013674755449786849;
	("state21") 0.08220852016175866 0.0019165445025194413;
	("state22") 0.15295497006466896 0.004773995205305813;
	("state23") 0.060455187218612684 0.005120123507350794;
	("state24") 0.1288537292438618 0.007044452185975279;
	("state25") 0.11935543148353434 0.0036435690891095693;
}

probability ("x64848" | "variable2524") {
	("state0") 0.05429441663005234 0.0037930335987129316;
	("state1") 0.1589866227591754 0.028964066564343582;
	("state2") 0.043230134882638424 0.0024514045566679317;
	("state3") 0.11574145732847385 0.011157842920149673;
	("state4") 0.03713038336761439 0.00755849661833777;
	("state5") 0.07084745325804949 0.02372251539957271;
	("state6") 0.11910798494199329 0.02546694293315388;
	("state7") 0.045750335116083 0.018047816005807696;
	("state8") 0.10190346333376457 0.01372696500869795;
	("state9") 0.0944643415183168 0.007756893190530422;
	("state10") 0.07384233471854791 0.002215794085596893;
	("state11") 0.08236139967914019 0.005798131468184281;
	("state12") 0.07728129432551369 0.007716138046800641;
	("state13") 0.11264539983334515 0.00860760572918316;
	("state14") 0.09135048918229555 0.007454347575346952;
	("state15") 0.1213096481366228 0.024918024535138108;
	("state16") 0.08921865598216955 0.010439701180939013;
	("state17") 0.06388097946112806 0.00998576244470832;
	("state18") 0.0953592535844351 0.006573422780446442;
	("state19") 0.027338293080779397 0.0011159502584869576;
	("state20") 0.10267518815858362 0.018067356676076222;
	("state21") 0.05123175315589761 0.0018262624534078728;
	("state22") 0.09152968434588853 0.003834881259876601;
	("state23") 0.048748740346064814 0.0059992446219369186;
	("state24") 0.11100739953213415 0.011233718754482386;
	("state25") 0.07026896806380994 0.002752167438179478;
}

probability ("x6432" | "variable2524") {
	("state0") 0.04724517029082202 0.0026688871287076864;
	("state1") 0.15965683674176642 0.02509303749869519;
	("state2") 0.025621899465128786 8.709678134635927E-4;
	("state3") 0.14091961299611638 0.009799697868930798;
	("state4") 0.04604023952725544 0.0066538207737783725;
	("state5") 0.0674630227141083 0.013399899239535067;
	("state6") 0.10194131316572634 0.01292857241150984;
	("state7") 0.09608589555639532 0.02778966095022358;
	("state8") 0.10435656164287235 0.009246996339246534;
	("state9") 0.07886215942400521 0.004393805096324233;
	("state10") 0.08245353685472756 0.0023352737284384802;
	("state11") 0.07707348212561824 0.003241496219911779;
	("state12") 0.06051471819656707 0.004106955538819607;
	("state13") 0.1489612188138578 0.011153511811016618;
	("state14") 0.11525442212315538 0.009045385680879668;
	("state15") 0.13810739686907805 0.017151994417991222;
	("state16") 0.0951157075996342 0.007163071608245382;
	("state17") 0.05313804528904443 0.0069843591995472085;
	("state18") 0.12144223147138063 0.0062173289082555335;
	("state19") 0.012366813235381462 4.0120356314296915E-4;
	("state20") 0.10261539696790359 0.012936617610263672;
	("state21") 0.04078382548308902 0.00104157988061072;
	("state22") 0.11239630360175802 0.003975865724634445;
	("state23") 0.042693391803041894 0.004919326695614195;
	("state24") 0.13033427424603586 0.008751634708772788;
	("state25") 0.06419065018463643 0.0018358596490179585;
}

probability ("x5144" | "variable2524") {
	("state0") 0.06204963387994212 0.0027639704100353296;
	("state1") 0.18692442004861914 0.030536071459323078;
	("state2") 0.07942972512704272 0.0033505757161731865;
	("state3") 0.13249094311144308 0.008496760818288512;
	("state4") 0.08786803729586505 0.014876000645528617;
	("state5") 0.06805859224865736 0.012416653797227445;
	("state6") 0.08539581368540765 0.013652307119920775;
	("state7") 0.018029823914640076 0.0021357205300981895;
	("state8") 0.09966219492640173 0.012087374709420269;
	("state9") 0.10012268273347984 0.005417064550728445;
	("state10") 0.09746890932269249 0.002600102318780102;
	("state11") 0.09951261012693527 0.005788224405498938;
	("state12") 0.05724161549772386 0.003565309319394758;
	("state13") 0.09979790951001082 0.005737051831307441;
	("state14") 0.050993706207494736 0.0021833063611007837;
	("state15") 0.10492793942001481 0.012316666774223689;
	("state16") 0.08879171877232231 0.008413460635479417;
	("state17") 0.13852259747008208 0.021015995843671212;
	("state18") 0.09814610528480337 0.0040903799949500675;
	("state19") 0.05640076695402464 0.0020101893836893866;
	("state20") 0.09548262406543277 0.012994475801362223;
	("state21") 0.06687036117948372 0.0015146573833132566;
	("state22") 0.12398028922587505 0.004343467498315814;
	("state23") 0.12751208864045885 0.014759818702259488;
	("state24") 0.12580724226576545 0.009362287267068772;
	("state25") 0.09088424269583598 0.003104826902208563;
}

probability ("x140890" | "variable2524") {
	("state0") 0.06178890286438428 0.004394004540298098;
	("state1") 0.16367640771646466 0.0350454621480866;
	("state2") 0.0650318421600123 0.003773715814060793;
	("state3") 0.11091433226865366 0.011678893190403562;
	("state4") 0.09029253889817161 0.0218641813199997;
	("state5") 0.09690888989015696 0.026632537373392273;
	("state6") 0.11773043312989974 0.026235666900433018;
	("state7") 0.07035615755684432 0.02553557549196012;
	("state8") 0.10064930339888012 0.01321524881986948;
	("state9") 0.07084152592793334 0.004652619941332273;
	("state10") 0.06976675265884681 0.0022323605603128457;
	("state11") 0.0709896693263798 0.005479610257393103;
	("state12") 0.06439139344337264 0.005779962766125356;
	("state13") 0.08659764795174608 0.007197909670848732;
	("state14") 0.07550783853560009 0.0063049715549695655;
	("state15") 0.10651535957465313 0.015661609411260023;
	("state16") 0.08030507876603253 0.008506318858385672;
	("state17") 0.09919861381440634 0.0181888080374365;
	("state18") 0.0946423405870979 0.005914413990110532;
	("state19") 0.05119556010361335 0.002722462081871724;
	("state20") 0.11024120276790593 0.02311541268796854;
	("state21") 0.05493851672935182 0.001870048548767142;
	("state22") 0.08609930578280177 0.004279513970313309;
	("state23") 0.0855770172575072 0.014131553304372955;
	("state24") 0.08297362584076294 0.007678594477710055;
	("state25") 0.06905577541456462 0.002734926290094575;
}

probability ("x23262" | "variable2524") {
	("state0") 0.06618159852532395 0.005611292400563324;
	("state1") 0.15102178858824733 0.031110033738256774;
	("state2") 0.04172637913529438 0.0021622138075890088;
	("state3") 0.12239639281985049 0.010922715291789465;
	("state4") 0.05783197181245193 0.017192195611894254;
	("state5") 0.06708149212951939 0.018915133975420956;
	("state6") 0.07606985724737649 0.010543690666990731;
	("state7") 0.02409514440271473 0.0063933169701312145;
	("state8") 0.0984341512288623 0.012075245926863848;
	("state9") 0.08369152413143753 0.005738753435361721;
	("state10") 0.07808703465451436 0.0023455583081978195;
	("state11") 0.07661996900680194 0.005535817171948946;
	("state12") 0.07042441624145729 0.006553944295581035;
	("state13") 0.195940396475141 0.02456125729933698;
	("state14") 0.07385043368102784 0.0049513110335035896;
	("state15") 0.14331513975366725 0.02574937263450071;
	("state16") 0.06107168752724373 0.005989991913659651;
	("state17") 0.08991462206831483 0.013368013140520062;
	("state18") 0.09854007508317941 0.005746560553427227;
	("state19") 0.023067144507543283 7.961552048081278E-4;
	("state20") 0.09893451910724806 0.01960747384641794;
	("state21") 0.04858206218867649 0.0016932112477072985;
	("state22") 0.09434769961958642 0.004306263265697668;
	("state23") 0.06243883903122119 0.008363645783568619;
	("state24") 0.10210758479078028 0.010432915303782953;
	("state25") 0.06871229190032509 0.0026678826521276643;
}

probability ("x9475" | "variable2524") {
	("state0") 0.03835324626908674 0.002128591254752669;
	("state1") 0.15014523668402716 0.028277007041317612;
	("state2") 0.07730145503398406 0.004460612596312799;
	("state3") 0.1410249421127252 0.012524321514557828;
	("state4") 0.02992677982287409 0.005878223281597405;
	("state5") 0.033300920920976064 0.008159611847312686;
	("state6") 0.10057757763338866 0.017575712597584996;
	("state7") 0.00894486983010516 0.0016394302420520272;
	("state8") 0.09613453781752275 0.012161923832372258;
	("state9") 0.08370489532197223 0.005580033201234414;
	("state10") 0.09928241155987894 0.003273018579342791;
	("state11") 0.08037838805210708 0.005208965592817933;
	("state12") 0.07247988732506702 0.007994456550502658;
	("state13") 0.062268325850964173 0.004155261944898396;
	("state14") 0.062204659576727134 0.004070222027047645;
	("state15") 0.0836953895066068 0.011222207496838636;
	("state16") 0.058432437137122144 0.005059527036026256;
	("state17") 0.08646092988690855 0.014585638477170992;
	("state18") 0.13703798741668094 0.007386116544872451;
	("state19") 0.05063250582297123 0.0026155034977039474;
	("state20") 0.09509098272019244 0.01793238786143263;
	("state21") 0.07650327085943215 0.0025331663621748933;
	("state22") 0.11864122555184464 0.005137701496775974;
	("state23") 0.04567439180896811 0.0066624025329207436;
	("state24") 0.11542974585087297 0.010182277019263159;
	("state25") 0.10485222351044636 0.004805108657899657;
}

probability ("x8997" | "variable2524") {
	("state0") 0.03504466440216642 0.0017103071631664147;
	("state1") 0.1808262827250882 0.022581570465233236;
	("state2") 0.08523109828518667 0.0033811938278245474;
	("state3") 0.18474482976710466 0.01038234459980224;
	("state4") 0.016692887512412744 0.002239552625036553;
	("state5") 0.0026637282276940613 4.0098776798054065E-4;
	("state6") 0.15816764862270488 0.02247004283492248;
	("state7") 0.0013932371261113632 4.0098776798054065E-4;
	("state8") 0.06547180100308977 0.0053024606678677205;
	("state9") 0.13391815717177308 0.0066130954517748;
	("state10") 0.11489532140354859 0.0024210827341109736;
	("state11") 0.11321380981709296 0.0046586678444024325;
	("state12") 0.07631350672707658 0.006904450297193039;
	("state13") 0.03086802768874228 0.0018977932038132198;
	("state14") 0.06139284952917768 0.003372083261057008;
	("state15") 0.07511454548978211 0.010315570763891167;
	("state16") 0.05240130210508844 0.003607603107491243;
	("state17") 0.07421512231845065 0.007471888559989652;
	("state18") 0.15656266871575097 0.006098466326950375;
	("state19") 0.04543680010891084 0.0015830066839957776;
	("state20") 0.09063136990813662 0.013728697722788404;
	("state21") 0.08787163121653108 0.0020583755585830564;
	("state22") 0.14992685399290107 0.004134545400026415;
	("state23") 0.03459502495123897 0.0026017286181556085;
	("state24") 0.14762999059366042 0.00856102588255401;
	("state25") 0.12797242216379912 0.003831564762424521;
}

probability ("x55082" | "variable2524") {
	("state0") 0.07134266590361624 0.0020972158724433007;
	("state1") 0.20007259353752385 0.01688983188228609;
	("state2") 0.07735422203797039 0.001555173856470094;
	("state3") 0.17274095929366526 0.007797448697775423;
	("state4") 0.14840798046941953 0.014618539451693122;
	("state5") 0.11560259074046417 0.015124713077178355;
	("state6") 0.2433551454167135 0.03563360827713809;
	("state7") 0.1322963208595223 0.019689754001390405;
	("state8") 0.10114095980873825 0.0052194526161450025;
	("state9") 0.1278670228079066 0.005226349815140088;
	("state10") 0.1186500647856424 0.0020653485833421604;
	("state11") 0.10220380329368471 0.0032078228873559265;
	("state12") 0.0813342447530361 0.004128296529885066;
	("state13") 0.0845451319717314 0.0028425950426887022;
	("state14") 0.10320990873021774 0.0038554243067343433;
	("state15") 0.11897016125546428 0.007468242297429902;
	("state16") 0.11171987672436566 0.004626434613351687;
	("state17") 0.10092984044938824 0.005657078338452027;
	("state18") 0.13410974970974976 0.0036732176317834193;
	("state19") 0.050776457680690425 9.446476031300977E-4;
	("state20") 0.14002747177330205 0.010781585954943922;
	("state21") 0.08213557811065053 0.0014124971598815912;
	("state22") 0.1507035562262785 0.0034585979794830215;
	("state23") 0.06417354190122446 0.0031125358045803356;
	("state24") 0.1258170303920033 0.004726416963903668;
	("state25") 0.11369942782683998 0.002618170719574437;
}

probability ("x9699" | "variable2524") {
	("state0") 0.05529198664228203 0.0038066895784388322;
	("state1") 0.2019176581198662 0.027019100506113565;
	("state2") 0.10053570044228902 0.004650626463968792;
	("state3") 0.15532599778142894 0.009424606890600418;
	("state4") 0.0012749761193065843 4.02738710576455E-4;
	("state5") 0.026548565472488853 0.003239219167916478;
	("state6") 0.11020122053334815 0.011176067028707883;
	("state7") 4.0591119283813073E-4 4.02738710576455E-4;
	("state8") 0.08697599315894823 0.008124460441524196;
	("state9") 0.14292070694700842 0.008948513941773938;
	("state10") 0.09290740162913587 0.0019455112833807187;
	("state11") 0.1085894248090075 0.004486218042749015;
	("state12") 0.07290922154949532 0.0066230862887987135;
	("state13") 0.04822731956583925 0.0022027933536369394;
	("state14") 0.0812531404684412 0.003124111565253171;
	("state15") 0.08275912157136489 0.007705968758067488;
	("state16") 0.07027242089353003 0.0069453405772070655;
	("state17") 0.1634466239983123 0.020328700407378848;
	("state18") 0.11353116693577475 0.003810307743186903;
	("state19") 0.06289253654224695 0.0027244582596684763;
	("state20") 0.12382191699123318 0.017444656569283307;
	("state21") 0.0747355970277735 0.0014689584700417213;
	("state22") 0.1214807288431669 0.004316774319167663;
	("state23") 0.11849765004625935 0.015785341096581636;
	("state24") 0.1502054409871466 0.009070612695044345;
	("state25") 0.11382930151144532 0.004667627731664715;
}

probability ("x10439" | "variable2524") {
	("state0") 0.020728592569148014 7.948959400414328E-4;
	("state1") 0.22721195559835378 0.03566533107533229;
	("state2") 0.06767635586157637 0.0027461194536495723;
	("state3") 0.15422504345102409 0.006895979157325526;
	("state4") 0.012688340369968128 0.0010582387447627154;
	("state5") 0.022293295693704206 0.0022203467892618627;
	("state6") 0.17860084569347753 0.027347587359129354;
	("state7") 0.004000839668863372 5.433319262955901E-4;
	("state8") 0.14528971563979817 0.021457637291458696;
	("state9") 0.1070806355982827 0.005411328668191421;
	("state10") 0.07672877571711507 0.0012514653377411564;
	("state11") 0.1762020646349125 0.008974593689317618;
	("state12") 0.08669295490859001 0.00868410268697221;
	("state13") 0.033311105989833646 0.0012063677362232025;
	("state14") 0.04040120949671572 0.001335307821373954;
	("state15") 0.11385469059137929 0.01995929400991068;
	("state16") 0.049399558884701836 0.0024015882431834934;
	("state17") 0.08180150415199387 0.00854585166045536;
	("state18") 0.10867838926415317 0.00333288465172757;
	("state19") 0.03280440123219845 8.685826675028609E-4;
	("state20") 0.04474169979934866 0.0034394221561779665;
	("state21") 0.05744529463745771 0.0011677310368616587;
	("state22") 0.11230696546878724 0.002942866295671996;
	("state23") 0.014930005086256326 6.781287898143476E-4;
	("state24") 0.25732863187092103 0.020990004405330262;
	("state25") 0.07016964652024824 0.0016424970460109495;
}

probability ("x9987" | "variable2524") {
	("state0") 0.0849414872341237 0.002348231219967757;
	("state1") 0.2237859245326531 0.015850269045662824;
	("state2") 0.0693172929676167 0.0016105213314099307;
	("state3") 0.1795431987200044 0.006890376553942447;
	("state4") 0.08417153338958207 0.008552789610909505;
	("state5") 0.10210742323866352 0.009717502351102065;
	("state6") 0.19256368375720342 0.012683851973009738;
	("state7") 0.15429597755148938 0.024723057011052985;
	("state8") 0.13688571248594336 0.006806325994246754;
	("state9") 0.11329180706497825 0.003300321657859167;
	("state10") 0.10846172244555663 0.0015131142002261571;
	("state11") 0.1144015722060723 0.0033726789574584906;
	("state12") 0.09916470118585594 0.0034795032373757997;
	("state13") 0.14261922404003127 0.006347429634001514;
	("state14") 0.1302659603638363 0.004543684828301953;
	("state15") 0.17657053210493515 0.011135350769021635;
	("state16") 0.12512296189830044 0.0049799316141230805;
	("state17") 0.10378963738534225 0.0057553844693755945;
	("state18") 0.14003576159349404 0.003682803589965861;
	("state19") 0.05019580015403201 9.941636282660223E-4;
	("state20") 0.1605899139196188 0.01267222208447396;
	("state21") 0.06951684336743257 7.990010321220675E-4;
	("state22") 0.1493574458067333 0.002849508051873019;
	("state23") 0.08719158253328158 0.004525438563629221;
	("state24") 0.16774378494699518 0.006530909758542788;
	("state25") 0.09614746262712093 0.0015424803991900993;
}

probability ("x4673" | "variable2524") {
	("state0") 0.05842880057547888 0.003833382829708726;
	("state1") 0.15176998655686155 0.025998385603865224;
	("state2") 0.05815292743199364 0.0027757011909845;
	("state3") 0.1359583822541829 0.009488683736929578;
	("state4") 0.04184552269034375 0.007902366532796988;
	("state5") 0.039270381462780495 0.00720905407503924;
	("state6") 0.2000769960805988 0.03490303518411279;
	("state7") 0.044370746901980285 0.01175960711819964;
	("state8") 0.12446806869714533 0.01284769615018052;
	("state9") 0.09106254417078748 0.005895699831450843;
	("state10") 0.09666832463427948 0.0031668342085185495;
	("state11") 0.10260388827707925 0.00642507075951137;
	("state12") 0.0823523440190308 0.007027320087774136;
	("state13") 0.09126018194012686 0.005642686140744116;
	("state14") 0.10515814661094608 0.007308756782180096;
	("state15") 0.1293371420894833 0.018113992464708774;
	("state16") 0.10954192784400663 0.008888158191432738;
	("state17") 0.07231519968519229 0.007355104538016182;
	("state18") 0.10904909259910786 0.005734696834796833;
	("state19") 0.036650718530295494 0.0014132079331020553;
	("state20") 0.13701900269792747 0.022931472059867695;
	("state21") 0.06787479865183052 0.001990956792659335;
	("state22") 0.12155379786408499 0.005001134449737476;
	("state23") 0.06248946677673166 0.007270294330025358;
	("state24") 0.13805964305720406 0.012295177147647371;
	("state25") 0.07706065322900553 0.002561013137030823;
}

probability ("x23112" | "variable2524") {
	("state0") 0.08141438526340877 0.0044894670960232;
	("state1") 0.1544560266951586 0.019972678424597455;
	("state2") 0.10705304426641148 0.005675736666629626;
	("state3") 0.1138462769005928 0.008272432541510217;
	("state4") 0.07480342841614157 0.012971391131161842;
	("state5") 0.09705488863234726 0.016552344045814984;
	("state6") 0.08621525300848194 0.011249446507138368;
	("state7") 0.0654175000598183 0.015435923176884992;
	("state8") 0.10225121175430717 0.009790934541750389;
	("state9") 0.10727517589901456 0.006047590108458182;
	("state10") 0.08080001009022118 0.00210654283999457;
	("state11") 0.09184082307748322 0.005075247964438206;
	("state12") 0.09608365413433273 0.00689985006205164;
	("state13") 0.09740904128470815 0.006415200275872471;
	("state14") 0.07448438027877156 0.003921842375740607;
	("state15") 0.13185096691875614 0.015370963118658994;
	("state16") 0.10089125070312084 0.0088712624639969;
	("state17") 0.13788507798193222 0.018858979522413243;
	("state18") 0.0932650685216942 0.003937354618273589;
	("state19") 0.07678544392947106 0.0030676847092626293;
	("state20") 0.11443725730289815 0.014724963119204126;
	("state21") 0.07324470648446663 0.001994473047769157;
	("state22") 0.09753975142827942 0.003349235541936437;
	("state23") 0.10452994176277487 0.011832940404913337;
	("state24") 0.10823039868856517 0.0071276541809509476;
	("state25") 0.0897794955804784 0.0030160592242145035;
}

probability ("x57468" | "variable2524") {
	("state0") 0.08706743486712995 0.007019191955283953;
	("state1") 0.16796658273709444 0.03180382071399597;
	("state2") 0.08054585886970679 0.005998972424095371;
	("state3") 0.11642604481608337 0.010547222152223869;
	("state4") 5.869673738687405E-4 4.7700389505114446E-4;
	("state5") 4.794281784117555E-4 4.7700389505114446E-4;
	("state6") 0.15154885770337811 0.03044068899211217;
	("state7") 2.764828366634944E-4 4.7700389505114446E-4;
	("state8") 0.13562625042006127 0.014363732216213424;
	("state9") 0.09227699450222876 0.0066747955455796785;
	("state10") 0.054820438002719706 0.0016232708097796778;
	("state11") 0.10222549311016958 0.007764580154032606;
	("state12") 0.10440084469589485 0.01236008168088879;
	("state13") 0.09612888892150878 0.006558442546439611;
	("state14") 0.0892779769092766 0.006685865620512252;
	("state15") 0.14839129663444234 0.02187696334223772;
	("state16") 0.11397253573590763 0.012542132771667781;
	("state17") 0.09497431670323866 0.021571148826805824;
	("state18") 0.09533142906138903 0.005759335769319488;
	("state19") 0.052682104531377026 0.00339722423196174;
	("state20") 0.13530905768571952 0.026180971159392493;
	("state21") 0.06244203011797447 0.002265451190774219;
	("state22") 0.06913741622840934 0.0027011286478330152;
	("state23") 0.06138069833440307 0.008351201786012886;
	("state24") 0.11500027108354208 0.010987918076353602;
	("state25") 0.07521584969642042 0.0035579771767194194;
}

probability ("x9515" | "variable2524") {
	("state0") 0.03878614013572153 0.0020789768167465195;
	("state1") 0.17218439660881218 0.030928365095458463;
	("state2") 0.09601482977790338 0.0049241184113984655;
	("state3") 0.1554339352025938 0.011100982477426866;
	("state4") 8.153576988293765E-4 4.079902961397668E-4;
	("state5") 0.015498753620521614 0.0019243969783669305;
	("state6") 0.12040803345110059 0.015826981222938557;
	("state7") 3.934726689981068E-4 4.079902961397668E-4;
	("state8") 0.052983546927283104 0.004519215418678939;
	("state9") 0.11606322535937186 0.007241127471405957;
	("state10") 0.13854362673863957 0.004417106286811192;
	("state11") 0.11237092478015384 0.005943199049269097;
	("state12") 0.046709011619214334 0.003225556144668902;
	("state13") 0.07089489733018327 0.004518340089409715;
	("state14") 0.06351286953101402 0.0033597698722182827;
	("state15") 0.074863548762651 0.008293297069101015;
	("state16") 0.05329048705775593 0.0034301555243726346;
	("state17") 0.10168398013110168 0.01586511841953072;
	("state18") 0.13240937151409285 0.006083961787383078;
	("state19") 0.06981981761588119 0.0034875921736216555;
	("state20") 0.058259997823619354 0.007086239236662419;
	("state21") 0.09238898135785363 0.0023962557637737555;
	("state22") 0.1565316755063437 0.0061654281278924585;
	("state23") 0.05124232794889046 0.006666911459381378;
	("state24") 0.13107523451173225 0.009656296582724155;
	("state25") 0.10851416893490103 0.00364553656172008;
}

probability ("x3778" | "variable2524") {
	("state0") 0.047743643199312645 0.0031392481935029353;
	("state1") 0.15715065497323982 0.028466862041094748;
	("state2") 0.09795627047756977 0.005393646882662901;
	("state3") 0.15773297025113203 0.014302163044291287;
	("state4") 0.031110653000259843 0.0040873939309852125;
	("state5") 0.045323303661560566 0.00977256811250746;
	("state6") 0.1584299360828595 0.028212331648496673;
	("state7") 0.0015158985272954793 4.844601893917562E-4;
	("state8") 0.10645260951957994 0.01290226182169259;
	("state9") 0.12463908073477281 0.008511461437970505;
	("state10") 0.08920443965607083 0.0029134766999891807;
	("state11") 0.10922571448611398 0.006954424687480112;
	("state12") 0.09515182802331751 0.010714881995073417;
	("state13") 0.09628226240832337 0.00824842193203559;
	("state14") 0.08717627132126327 0.006038859100048342;
	("state15") 0.11541247135222879 0.016902750465947056;
	("state16") 0.03709505530796555 0.0029734432080351513;
	("state17") 0.10203940924314515 0.016779529412798175;
	("state18") 0.1305906545124288 0.007729532543848272;
	("state19") 0.05744620811544146 0.0022624686068259455;
	("state20") 0.066512821540257 0.010762304061926778;
	("state21") 0.08200766545977253 0.002614490083480866;
	("state22") 0.125995400200664 0.005673740597750955;
	("state23") 0.057029842536721616 0.007376906588041424;
	("state24") 0.14444273452980438 0.014606720179380773;
	("state25") 0.11956971571981911 0.005048100385135682;
}

probability ("x55294" | "variable2524") {
	("state0") 0.01649489012433636 5.978359370461149E-4;
	("state1") 0.2265059455724105 0.04611117792833714;
