<?xml version="1.0" encoding="US-ASCII"?>


<!--
	Bayesian network in XMLBIF v0.3 (BayesNet Interchange Format)
	Produced by JavaBayes (http://www.cs.cmu.edu/~javabayes/
	Output created Fri Oct 11 11:49:30 GMT+04:00 2019
-->



<!-- DTD for the XMLBIF 0.3 format -->
<!DOCTYPE BIF [
	<!ELEMENT BIF ( NETWORK )*>
	      <!ATTLIST BIF VERSION CDATA #REQUIRED>
	<!ELEMENT NETWORK ( NAME, ( PROPERTY | VARIABLE | DEFINITION )* )>
	<!ELEMENT NAME (#PCDATA)>
	<!ELEMENT VARIABLE ( NAME, ( OUTCOME |  PROPERTY )* ) >
	      <!ATTLIST VARIABLE TYPE (nature|decision|utility) "nature">
	<!ELEMENT OUTCOME (#PCDATA)>
	<!ELEMENT DEFINITION ( FOR | GIVEN | TABLE | PROPERTY )* >
	<!ELEMENT FOR (#PCDATA)>
	<!ELEMENT GIVEN (#PCDATA)>
	<!ELEMENT TABLE (#PCDATA)>
	<!ELEMENT PROPERTY (#PCDATA)>
]>


<BIF VERSION="0.3">
<NETWORK>
<NAME>HLCM370246</NAME>

<!-- Variables -->
<VARIABLE TYPE="nature">
	<NAME>variable677</NAME>
	<OUTCOME>state0</OUTCOME>
	<OUTCOME>state1</OUTCOME>
	<OUTCOME>state2</OUTCOME>
	<OUTCOME>state3</OUTCOME>
	<OUTCOME>state4</OUTCOME>
	<OUTCOME>state5</OUTCOME>
	<OUTCOME>state6</OUTCOME>
	<PROPERTY>position = (100, 100)</PROPERTY>
</VARIABLE>

<VARIABLE TYPE="nature">
	<NAME>x26038</NAME>
	<OUTCOME>s0</OUTCOME>
	<OUTCOME>low</OUTCOME>
	<OUTCOME>medium</OUTCOME>
	<OUTCOME>high</OUTCOME>
	<PROPERTY>position = (100, 100)</PROPERTY>
</VARIABLE>

<VARIABLE TYPE="nature">
	<NAME>x9456</NAME>
	<OUTCOME>s0</OUTCOME>
	<OUTCOME>low</OUTCOME>
	<OUTCOME>medium</OUTCOME>
	<OUTCOME>high</OUTCOME>
	<PROPERTY>position = (100, 100)</PROPERTY>
</VARIABLE>

<VARIABLE TYPE="nature">
	<NAME>x54843</NAME>
	<OUTCOME>s0</OUTCOME>
	<OUTCOME>low</OUTCOME>
	<OUTCOME>medium</OUTCOME>
	<OUTCOME>high</OUTCOME>
	<PROPERTY>position = (100, 100)</PROPERTY>
</VARIABLE>

<VARIABLE TYPE="nature">
	<NAME>x3274</NAME>
	<OUTCOME>s0</OUTCOME>
	<OUTCOME>low</OUTCOME>
	<OUTCOME>medium</OUTCOME>
	<OUTCOME>high</OUTCOME>
	<PROPERTY>position = (100, 100)</PROPERTY>
</VARIABLE>

<VARIABLE TYPE="nature">
	<NAME>x254531</NAME>
	<OUTCOME>s0</OUTCOME>
	<OUTCOME>low</OUTCOME>
	<OUTCOME>medium</OUTCOME>
	<OUTCOME>high</OUTCOME>
	<PROPERTY>position = (100, 100)</PROPERTY>
</VARIABLE>

<VARIABLE TYPE="nature">
	<NAME>x100130155</NAME>
	<OUTCOME>s0</OUTCOME>
	<OUTCOME>low</OUTCOME>
	<OUTCOME>medium</OUTCOME>
	<OUTCOME>high</OUTCOME>
	<PROPERTY>position = (100, 100)</PROPERTY>
</VARIABLE>

<VARIABLE TYPE="nature">
	<NAME>x23230</NAME>
	<OUTCOME>s0</OUTCOME>
	<OUTCOME>low</OUTCOME>
	<OUTCOME>medium</OUTCOME>
	<OUTCOME>high</OUTCOME>
	<PROPERTY>position = (100, 100)</PROPERTY>
</VARIABLE>

<VARIABLE TYPE="nature">
	<NAME>x9645</NAME>
	<OUTCOME>s0</OUTCOME>
	<OUTCOME>low</OUTCOME>
	<OUTCOME>medium</OUTCOME>
	<OUTCOME>high</OUTCOME>
	<PROPERTY>position = (100, 100)</PROPERTY>
</VARIABLE>

<VARIABLE TYPE="nature">
	<NAME>x6262</NAME>
	<OUTCOME>s0</OUTCOME>
	<OUTCOME>low</OUTCOME>
	<OUTCOME>medium</OUTCOME>
	<OUTCOME>high</OUTCOME>
	<PROPERTY>position = (100, 100)</PROPERTY>
</VARIABLE>

<VARIABLE TYPE="nature">
	<NAME>x5310</NAME>
	<OUTCOME>s0</OUTCOME>
	<OUTCOME>low</OUTCOME>
	<OUTCOME>medium</OUTCOME>
	<OUTCOME>high</OUTCOME>
	<PROPERTY>position = (100, 100)</PROPERTY>
</VARIABLE>

<VARIABLE TYPE="nature">
	<NAME>x56853</NAME>
	<OUTCOME>s0</OUTCOME>
	<OUTCOME>low</OUTCOME>
	<OUTCOME>medium</OUTCOME>
	<OUTCOME>high</OUTCOME>
	<PROPERTY>position = (100, 100)</PROPERTY>
</VARIABLE>

<VARIABLE TYPE="nature">
	<NAME>x54212</NAME>
	<OUTCOME>s0</OUTCOME>
	<OUTCOME>low</OUTCOME>
	<OUTCOME>medium</OUTCOME>
	<OUTCOME>high</OUTCOME>
	<PROPERTY>position = (100, 100)</PROPERTY>
</VARIABLE>

<VARIABLE TYPE="nature">
	<NAME>x4331</NAME>
	<OUTCOME>s0</OUTCOME>
	<OUTCOME>low</OUTCOME>
	<OUTCOME>medium</OUTCOME>
	<OUTCOME>high</OUTCOME>
	<PROPERTY>position = (100, 100)</PROPERTY>
</VARIABLE>

<VARIABLE TYPE="nature">
	<NAME>x8997</NAME>
	<OUTCOME>s0</OUTCOME>
	<OUTCOME>low</OUTCOME>
	<OUTCOME>medium</OUTCOME>
	<OUTCOME>high</OUTCOME>
	<PROPERTY>position = (100, 100)</PROPERTY>
</VARIABLE>

<VARIABLE TYPE="nature">
	<NAME>x9699</NAME>
	<OUTCOME>s0</OUTCOME>
	<OUTCOME>low</OUTCOME>
	<OUTCOME>medium</OUTCOME>
	<OUTCOME>high</OUTCOME>
	<PROPERTY>position = (100, 100)</PROPERTY>
</VARIABLE>

<VARIABLE TYPE="nature">
	<NAME>x10439</NAME>
	<OUTCOME>s0</OUTCOME>
	<OUTCOME>low</OUTCOME>
	<OUTCOME>medium</OUTCOME>
	<OUTCOME>high</OUTCOME>
	<PROPERTY>position = (100, 100)</PROPERTY>
</VARIABLE>

<VARIABLE TYPE="nature">
	<NAME>x57468</NAME>
	<OUTCOME>s0</OUTCOME>
	<OUTCOME>low</OUTCOME>
	<OUTCOME>medium</OUTCOME>
	<OUTCOME>high</OUTCOME>
	<PROPERTY>position = (100, 100)</PROPERTY>
</VARIABLE>

<VARIABLE TYPE="nature">
	<NAME>x9515</NAME>
	<OUTCOME>s0</OUTCOME>
	<OUTCOME>low</OUTCOME>
	<OUTCOME>medium</OUTCOME>
	<OUTCOME>high</OUTCOME>
	<PROPERTY>position = (100, 100)</PROPERTY>
</VARIABLE>

<VARIABLE TYPE="nature">
	<NAME>x55294</NAME>
	<OUTCOME>s0</OUTCOME>
	<OUTCOME>low</OUTCOME>
	<OUTCOME>medium</OUTCOME>
	<OUTCOME>high</OUTCOME>
	<PROPERTY>position = (100, 100)</PROPERTY>
</VARIABLE>

<VARIABLE TYPE="nature">
	<NAME>x23518</NAME>
	<OUTCOME>s0</OUTCOME>
	<OUTCOME>low</OUTCOME>
	<OUTCOME>medium</OUTCOME>
	<OUTCOME>high</OUTCOME>
	<PROPERTY>position = (100, 100)</PROPERTY>
</VARIABLE>

<VARIABLE TYPE="nature">
	<NAME>x285175</NAME>
	<OUTCOME>s0</OUTCOME>
	<OUTCOME>low</OUTCOME>
	<OUTCOME>medium</OUTCOME>
	<OUTCOME>high</OUTCOME>
	<PROPERTY>position = (100, 100)</PROPERTY>
</VARIABLE>

<VARIABLE TYPE="nature">
	<NAME>x286411</NAME>
	<OUTCOME>s0</OUTCOME>
	<OUTCOME>low</OUTCOME>
	<OUTCOME>medium</OUTCOME>
	<OUTCOME>high</OUTCOME>
	<PROPERTY>position = (100, 100)</PROPERTY>
</VARIABLE>

<VARIABLE TYPE="nature">
	<NAME>x54715</NAME>
	<OUTCOME>s0</OUTCOME>
	<OUTCOME>low</OUTCOME>
	<OUTCOME>medium</OUTCOME>
	<OUTCOME>high</OUTCOME>
	<PROPERTY>position = (100, 100)</PROPERTY>
</VARIABLE>

<VARIABLE TYPE="nature">
	<NAME>x347746</NAME>
	<OUTCOME>s0</OUTCOME>
	<OUTCOME>low</OUTCOME>
	<OUTCOME>medium</OUTCOME>
	<OUTCOME>high</OUTCOME>
	<PROPERTY>position = (100, 100)</PROPERTY>
</VARIABLE>

<VARIABLE TYPE="nature">
	<NAME>x7345</NAME>
	<OUTCOME>s0</OUTCOME>
	<OUTCOME>low</OUTCOME>
	<OUTCOME>medium</OUTCOME>
	<OUTCOME>high</OUTCOME>
	<PROPERTY>position = (100, 100)</PROPERTY>
</VARIABLE>

<VARIABLE TYPE="nature">
	<NAME>x490</NAME>
	<OUTCOME>s0</OUTCOME>
	<OUTCOME>low</OUTCOME>
	<OUTCOME>medium</OUTCOME>
	<OUTCOME>high</OUTCOME>
	<PROPERTY>position = (100, 100)</PROPERTY>
</VARIABLE>

<VARIABLE TYPE="nature">
	<NAME>x4133</NAME>
	<OUTCOME>s0</OUTCOME>
	<OUTCOME>low</OUTCOME>
	<OUTCOME>medium</OUTCOME>
	<OUTCOME>high</OUTCOME>
	<PROPERTY>position = (100, 100)</PROPERTY>
</VARIABLE>

<VARIABLE TYPE="nature">
	<NAME>x1759</NAME>
	<OUTCOME>s0</OUTCOME>
	<OUTCOME>low</OUTCOME>
	<OUTCOME>medium</OUTCOME>
	<OUTCOME>high</OUTCOME>
	<PROPERTY>position = (100, 100)</PROPERTY>
</VARIABLE>

<VARIABLE TYPE="nature">
	<NAME>x10777</NAME>
	<OUTCOME>s0</OUTCOME>
	<OUTCOME>low</OUTCOME>
	<OUTCOME>medium</OUTCOME>
	<OUTCOME>high</OUTCOME>
	<PROPERTY>position = (100, 100)</PROPERTY>
</VARIABLE>

<VARIABLE TYPE="nature">
	<NAME>x440823</NAME>
	<OUTCOME>s0</OUTCOME>
	<OUTCOME>low</OUTCOME>
	<OUTCOME>medium</OUTCOME>
	<OUTCOME>high</OUTCOME>
	<PROPERTY>position = (100, 100)</PROPERTY>
</VARIABLE>

<VARIABLE TYPE="nature">
	<NAME>variable1188</NAME>
	<OUTCOME>state0</OUTCOME>
	<OUTCOME>state1</OUTCOME>
	<OUTCOME>state2</OUTCOME>
	<OUTCOME>state3</OUTCOME>
	<OUTCOME>state4</OUTCOME>
	<OUTCOME>state5</OUTCOME>
	<OUTCOME>state6</OUTCOME>
	<OUTCOME>state7</OUTCOME>
	<PROPERTY>position = (100, 100)</PROPERTY>
</VARIABLE>

<VARIABLE TYPE="nature">
	<NAME>x334</NAME>
	<OUTCOME>s0</OUTCOME>
	<OUTCOME>low</OUTCOME>
	<OUTCOME>medium</OUTCOME>
	<OUTCOME>high</OUTCOME>
	<PROPERTY>position = (100, 100)</PROPERTY>
</VARIABLE>

<VARIABLE TYPE="nature">
	<NAME>x6138</NAME>
	<OUTCOME>s0</OUTCOME>
	<OUTCOME>low</OUTCOME>
	<OUTCOME>medium</OUTCOME>
	<OUTCOME>high</OUTCOME>
	<PROPERTY>position = (100, 100)</PROPERTY>
</VARIABLE>

<VARIABLE TYPE="nature">
	<NAME>x221692</NAME>
	<OUTCOME>s0</OUTCOME>
	<OUTCOME>low</OUTCOME>
	<OUTCOME>medium</OUTCOME>
	<OUTCOME>high</OUTCOME>
	<PROPERTY>position = (100, 100)</PROPERTY>
</VARIABLE>

<VARIABLE TYPE="nature">
	<NAME>x6000</NAME>
	<OUTCOME>s0</OUTCOME>
	<OUTCOME>low</OUTCOME>
	<OUTCOME>medium</OUTCOME>
	<OUTCOME>high</OUTCOME>
	<PROPERTY>position = (100, 100)</PROPERTY>
</VARIABLE>

<VARIABLE TYPE="nature">
	<NAME>x2908</NAME>
	<OUTCOME>s0</OUTCOME>
	<OUTCOME>low</OUTCOME>
	<OUTCOME>medium</OUTCOME>
	<OUTCOME>high</OUTCOME>
	<PROPERTY>position = (100, 100)</PROPERTY>
</VARIABLE>

<VARIABLE TYPE="nature">
	<NAME>x116966</NAME>
	<OUTCOME>s0</OUTCOME>
	<OUTCOME>low</OUTCOME>
	<OUTCOME>medium</OUTCOME>
	<OUTCOME>high</OUTCOME>
	<PROPERTY>position = (100, 100)</PROPERTY>
</VARIABLE>

<VARIABLE TYPE="nature">
	<NAME>x55814</NAME>
	<OUTCOME>s0</OUTCOME>
	<OUTCOME>low</OUTCOME>
	<OUTCOME>medium</OUTCOME>
	<OUTCOME>high</OUTCOME>
	<PROPERTY>position = (100, 100)</PROPERTY>
</VARIABLE>

<VARIABLE TYPE="nature">
	<NAME>x4898</NAME>
	<OUTCOME>s0</OUTCOME>
	<OUTCOME>low</OUTCOME>
	<OUTCOME>medium</OUTCOME>
	<OUTCOME>high</OUTCOME>
	<PROPERTY>position = (100, 100)</PROPERTY>
</VARIABLE>

<VARIABLE TYPE="nature">
	<NAME>x440270</NAME>
	<OUTCOME>s0</OUTCOME>
	<OUTCOME>low</OUTCOME>
	<OUTCOME>medium</OUTCOME>
	<OUTCOME>high</OUTCOME>
	<PROPERTY>position = (100, 100)</PROPERTY>
</VARIABLE>

<VARIABLE TYPE="nature">
	<NAME>x4897</NAME>
	<OUTCOME>s0</OUTCOME>
	<OUTCOME>low</OUTCOME>
	<OUTCOME>medium</OUTCOME>
	<OUTCOME>high</OUTCOME>
	<PROPERTY>position = (100, 100)</PROPERTY>
</VARIABLE>

<VARIABLE TYPE="nature">
	<NAME>x9284</NAME>
	<OUTCOME>s0</OUTCOME>
	<OUTCOME>low</OUTCOME>
	<OUTCOME>medium</OUTCOME>
	<OUTCOME>high</OUTCOME>
	<PROPERTY>position = (100, 100)</PROPERTY>
</VARIABLE>

<VARIABLE TYPE="nature">
	<NAME>x5297</NAME>
	<OUTCOME>s0</OUTCOME>
	<OUTCOME>low</OUTCOME>
	<OUTCOME>medium</OUTCOME>
	<OUTCOME>high</OUTCOME>
	<PROPERTY>position = (100, 100)</PROPERTY>
</VARIABLE>

<VARIABLE TYPE="nature">
	<NAME>x8499</NAME>
	<OUTCOME>s0</OUTCOME>
	<OUTCOME>low</OUTCOME>
	<OUTCOME>medium</OUTCOME>
	<OUTCOME>high</OUTCOME>
	<PROPERTY>position = (100, 100)</PROPERTY>
</VARIABLE>

<VARIABLE TYPE="nature">
	<NAME>x10905</NAME>
	<OUTCOME>s0</OUTCOME>
	<OUTCOME>low</OUTCOME>
	<OUTCOME>medium</OUTCOME>
	<OUTCOME>high</OUTCOME>
	<PROPERTY>position = (100, 100)</PROPERTY>
</VARIABLE>

<VARIABLE TYPE="nature">
	<NAME>x28978</NAME>
	<OUTCOME>s0</OUTCOME>
	<OUTCOME>low</OUTCOME>
	<OUTCOME>medium</OUTCOME>
	<OUTCOME>high</OUTCOME>
	<PROPERTY>position = (100, 100)</PROPERTY>
</VARIABLE>

<VARIABLE TYPE="nature">
	<NAME>x577</NAME>
	<OUTCOME>s0</OUTCOME>
	<OUTCOME>low</OUTCOME>
	<OUTCOME>medium</OUTCOME>
	<OUTCOME>high</OUTCOME>
	<PROPERTY>position = (100, 100)</PROPERTY>
</VARIABLE>

<VARIABLE TYPE="nature">
	<NAME>x64848</NAME>
	<OUTCOME>s0</OUTCOME>
	<OUTCOME>low</OUTCOME>
	<OUTCOME>medium</OUTCOME>
	<OUTCOME>high</OUTCOME>
	<PROPERTY>position = (100, 100)</PROPERTY>
</VARIABLE>

<VARIABLE TYPE="nature">
	<NAME>x6432</NAME>
	<OUTCOME>s0</OUTCOME>
	<OUTCOME>low</OUTCOME>
	<OUTCOME>medium</OUTCOME>
	<OUTCOME>high</OUTCOME>
	<PROPERTY>position = (100, 100)</PROPERTY>
</VARIABLE>

<VARIABLE TYPE="nature">
	<NAME>x5144</NAME>
	<OUTCOME>s0</OUTCOME>
	<OUTCOME>low</OUTCOME>
	<OUTCOME>medium</OUTCOME>
	<OUTCOME>high</OUTCOME>
	<PROPERTY>position = (100, 100)</PROPERTY>
</VARIABLE>

<VARIABLE TYPE="nature">
	<NAME>x9475</NAME>
	<OUTCOME>s0</OUTCOME>
	<OUTCOME>low</OUTCOME>
	<OUTCOME>medium</OUTCOME>
	<OUTCOME>high</OUTCOME>
	<PROPERTY>position = (100, 100)</PROPERTY>
</VARIABLE>

<VARIABLE TYPE="nature">
	<NAME>x4673</NAME>
	<OUTCOME>s0</OUTCOME>
	<OUTCOME>low</OUTCOME>
	<OUTCOME>medium</OUTCOME>
	<OUTCOME>high</OUTCOME>
	<PROPERTY>position = (100, 100)</PROPERTY>
</VARIABLE>

<VARIABLE TYPE="nature">
	<NAME>x6894</NAME>
	<OUTCOME>s0</OUTCOME>
	<OUTCOME>low</OUTCOME>
	<OUTCOME>medium</OUTCOME>
	<OUTCOME>high</OUTCOME>
	<PROPERTY>position = (100, 100)</PROPERTY>
</VARIABLE>

<VARIABLE TYPE="nature">
	<NAME>x10915</NAME>
	<OUTCOME>s0</OUTCOME>
	<OUTCOME>low</OUTCOME>
	<OUTCOME>medium</OUTCOME>
	<OUTCOME>high</OUTCOME>
	<PROPERTY>position = (100, 100)</PROPERTY>
</VARIABLE>

<VARIABLE TYPE="nature">
	<NAME>x55112</NAME>
	<OUTCOME>s0</OUTCOME>
	<OUTCOME>low</OUTCOME>
	<OUTCOME>medium</OUTCOME>
	<OUTCOME>high</OUTCOME>
	<PROPERTY>position = (100, 100)</PROPERTY>
</VARIABLE>

<VARIABLE TYPE="nature">
	<NAME>x8925</NAME>
	<OUTCOME>s0</OUTCOME>
	<OUTCOME>low</OUTCOME>
	<OUTCOME>medium</OUTCOME>
	<OUTCOME>high</OUTCOME>
	<PROPERTY>position = (100, 100)</PROPERTY>
</VARIABLE>

<VARIABLE TYPE="nature">
	<NAME>x151613</NAME>
	<OUTCOME>s0</OUTCOME>
	<OUTCOME>low</OUTCOME>
	<OUTCOME>medium</OUTCOME>
	<OUTCOME>high</OUTCOME>
	<PROPERTY>position = (100, 100)</PROPERTY>
</VARIABLE>

<VARIABLE TYPE="nature">
	<NAME>x2823</NAME>
	<OUTCOME>s0</OUTCOME>
	<OUTCOME>low</OUTCOME>
	<OUTCOME>medium</OUTCOME>
	<OUTCOME>high</OUTCOME>
	<PROPERTY>position = (100, 100)</PROPERTY>
</VARIABLE>

<VARIABLE TYPE="nature">
	<NAME>x1479</NAME>
	<OUTCOME>s0</OUTCOME>
	<OUTCOME>low</OUTCOME>
	<OUTCOME>medium</OUTCOME>
	<OUTCOME>high</OUTCOME>
	<PROPERTY>position = (100, 100)</PROPERTY>
</VARIABLE>

<VARIABLE TYPE="nature">
	<NAME>x2891</NAME>
	<OUTCOME>s0</OUTCOME>
	<OUTCOME>low</OUTCOME>
	<OUTCOME>medium</OUTCOME>
	<OUTCOME>high</OUTCOME>
	<PROPERTY>position = (100, 100)</PROPERTY>
</VARIABLE>

<VARIABLE TYPE="nature">
	<NAME>x55384</NAME>
	<OUTCOME>s0</OUTCOME>
	<OUTCOME>low</OUTCOME>
	<OUTCOME>medium</OUTCOME>
	<OUTCOME>high</OUTCOME>
	<PROPERTY>position = (100, 100)</PROPERTY>
</VARIABLE>

<VARIABLE TYPE="nature">
	<NAME>x3324</NAME>
	<OUTCOME>s0</OUTCOME>
	<OUTCOME>low</OUTCOME>
	<OUTCOME>medium</OUTCOME>
	<OUTCOME>high</OUTCOME>
	<PROPERTY>position = (100, 100)</PROPERTY>
</VARIABLE>

<VARIABLE TYPE="nature">
	<NAME>x3535</NAME>
	<OUTCOME>s0</OUTCOME>
	<OUTCOME>low</OUTCOME>
	<OUTCOME>medium</OUTCOME>
	<OUTCOME>high</OUTCOME>
	<PROPERTY>position = (100, 100)</PROPERTY>
</VARIABLE>

<VARIABLE TYPE="nature">
	<NAME>x100128906</NAME>
	<OUTCOME>s0</OUTCOME>
	<OUTCOME>low</OUTCOME>
	<OUTCOME>medium</OUTCOME>
	<OUTCOME>high</OUTCOME>
	<PROPERTY>position = (100, 100)</PROPERTY>
</VARIABLE>

<VARIABLE TYPE="nature">
	<NAME>variable1442</NAME>
	<OUTCOME>state0</OUTCOME>
	<OUTCOME>state1</OUTCOME>
	<OUTCOME>state2</OUTCOME>
	<OUTCOME>state3</OUTCOME>
	<OUTCOME>state4</OUTCOME>
	<PROPERTY>position = (100, 100)</PROPERTY>
</VARIABLE>

<VARIABLE TYPE="nature">
	<NAME>x23253</NAME>
	<OUTCOME>s0</OUTCOME>
	<OUTCOME>low</OUTCOME>
	<OUTCOME>medium</OUTCOME>
	<OUTCOME>high</OUTCOME>
	<PROPERTY>position = (100, 100)</PROPERTY>
</VARIABLE>

<VARIABLE TYPE="nature">
	<NAME>x94081</NAME>
	<OUTCOME>s0</OUTCOME>
	<OUTCOME>low</OUTCOME>
	<OUTCOME>medium</OUTCOME>
	<OUTCOME>high</OUTCOME>
	<PROPERTY>position = (100, 100)</PROPERTY>
</VARIABLE>

<VARIABLE TYPE="nature">
	<NAME>x64062</NAME>
	<OUTCOME>s0</OUTCOME>
	<OUTCOME>low</OUTCOME>
	<OUTCOME>medium</OUTCOME>
	<OUTCOME>high</OUTCOME>
	<PROPERTY>position = (100, 100)</PROPERTY>
</VARIABLE>

<VARIABLE TYPE="nature">
	<NAME>x23613</NAME>
	<OUTCOME>s0</OUTCOME>
	<OUTCOME>low</OUTCOME>
	<OUTCOME>medium</OUTCOME>
	<OUTCOME>high</OUTCOME>
	<PROPERTY>position = (100, 100)</PROPERTY>
</VARIABLE>

<VARIABLE TYPE="nature">
	<NAME>x10147</NAME>
	<OUTCOME>s0</OUTCOME>
	<OUTCOME>low</OUTCOME>
	<OUTCOME>medium</OUTCOME>
	<OUTCOME>high</OUTCOME>
	<PROPERTY>position = (100, 100)</PROPERTY>
</VARIABLE>

<VARIABLE TYPE="nature">
	<NAME>x54904</NAME>
	<OUTCOME>s0</OUTCOME>
	<OUTCOME>low</OUTCOME>
	<OUTCOME>medium</OUTCOME>
	<OUTCOME>high</OUTCOME>
	<PROPERTY>position = (100, 100)</PROPERTY>
</VARIABLE>

<VARIABLE TYPE="nature">
	<NAME>x5411</NAME>
	<OUTCOME>s0</OUTCOME>
	<OUTCOME>low</OUTCOME>
	<OUTCOME>medium</OUTCOME>
	<OUTCOME>high</OUTCOME>
	<PROPERTY>position = (100, 100)</PROPERTY>
</VARIABLE>

<VARIABLE TYPE="nature">
	<NAME>x55704</NAME>
	<OUTCOME>s0</OUTCOME>
	<OUTCOME>low</OUTCOME>
	<OUTCOME>medium</OUTCOME>
	<OUTCOME>high</OUTCOME>
	<PROPERTY>position = (100, 100)</PROPERTY>
</VARIABLE>

<VARIABLE TYPE="nature">
	<NAME>x23077</NAME>
	<OUTCOME>s0</OUTCOME>
	<OUTCOME>low</OUTCOME>
	<OUTCOME>medium</OUTCOME>
	<OUTCOME>high</OUTCOME>
	<PROPERTY>position = (100, 100)</PROPERTY>
</VARIABLE>

<VARIABLE TYPE="nature">
	<NAME>x4297</NAME>
	<OUTCOME>s0</OUTCOME>
	<OUTCOME>low</OUTCOME>
	<OUTCOME>medium</OUTCOME>
	<OUTCOME>high</OUTCOME>
	<PROPERTY>position = (100, 100)</PROPERTY>
</VARIABLE>

<VARIABLE TYPE="nature">
	<NAME>x55904</NAME>
	<OUTCOME>s0</OUTCOME>
	<OUTCOME>low</OUTCOME>
	<OUTCOME>medium</OUTCOME>
	<OUTCOME>high</OUTCOME>
	<PROPERTY>position = (100, 100)</PROPERTY>
</VARIABLE>

<VARIABLE TYPE="nature">
	<NAME>x57035</NAME>
	<OUTCOME>s0</OUTCOME>
	<OUTCOME>low</OUTCOME>
	<OUTCOME>medium</OUTCOME>
	<OUTCOME>high</OUTCOME>
	<PROPERTY>position = (100, 100)</PROPERTY>
</VARIABLE>

<VARIABLE TYPE="nature">
	<NAME>x6134</NAME>
	<OUTCOME>s0</OUTCOME>
	<OUTCOME>low</OUTCOME>
	<OUTCOME>medium</OUTCOME>
	<OUTCOME>high</OUTCOME>
	<PROPERTY>position = (100, 100)</PROPERTY>
</VARIABLE>

<VARIABLE TYPE="nature">
	<NAME>x54460</NAME>
	<OUTCOME>s0</OUTCOME>
	<OUTCOME>low</OUTCOME>
	<OUTCOME>medium</OUTCOME>
	<OUTCOME>high</OUTCOME>
	<PROPERTY>position = (100, 100)</PROPERTY>
</VARIABLE>

<VARIABLE TYPE="nature">
	<NAME>x80205</NAME>
	<OUTCOME>s0</OUTCOME>
	<OUTCOME>low</OUTCOME>
	<OUTCOME>medium</OUTCOME>
	<OUTCOME>high</OUTCOME>
	<PROPERTY>position = (100, 100)</PROPERTY>
</VARIABLE>

<VARIABLE TYPE="nature">
	<NAME>x9324</NAME>
	<OUTCOME>s0</OUTCOME>
	<OUTCOME>low</OUTCOME>
	<OUTCOME>medium</OUTCOME>
	<OUTCOME>high</OUTCOME>
	<PROPERTY>position = (100, 100)</PROPERTY>
</VARIABLE>

<VARIABLE TYPE="nature">
	<NAME>x5789</NAME>
	<OUTCOME>s0</OUTCOME>
	<OUTCOME>low</OUTCOME>
	<OUTCOME>medium</OUTCOME>
	<OUTCOME>high</OUTCOME>
	<PROPERTY>position = (100, 100)</PROPERTY>
</VARIABLE>

<VARIABLE TYPE="nature">
	<NAME>x140890</NAME>
	<OUTCOME>s0</OUTCOME>
	<OUTCOME>low</OUTCOME>
	<OUTCOME>medium</OUTCOME>
	<OUTCOME>high</OUTCOME>
	<PROPERTY>position = (100, 100)</PROPERTY>
</VARIABLE>

<VARIABLE TYPE="nature">
	<NAME>x23262</NAME>
	<OUTCOME>s0</OUTCOME>
	<OUTCOME>low</OUTCOME>
	<OUTCOME>medium</OUTCOME>
	<OUTCOME>high</OUTCOME>
	<PROPERTY>position = (100, 100)</PROPERTY>
</VARIABLE>

<VARIABLE TYPE="nature">
	<NAME>x23112</NAME>
	<OUTCOME>s0</OUTCOME>
	<OUTCOME>low</OUTCOME>
	<OUTCOME>medium</OUTCOME>
	<OUTCOME>high</OUTCOME>
	<PROPERTY>position = (100, 100)</PROPERTY>
</VARIABLE>

<VARIABLE TYPE="nature">
	<NAME>x5101</NAME>
	<OUTCOME>s0</OUTCOME>
	<OUTCOME>low</OUTCOME>
	<OUTCOME>medium</OUTCOME>
	<OUTCOME>high</OUTCOME>
	<PROPERTY>position = (100, 100)</PROPERTY>
</VARIABLE>

<VARIABLE TYPE="nature">
	<NAME>x58517</NAME>
	<OUTCOME>s0</OUTCOME>
	<OUTCOME>low</OUTCOME>
	<OUTCOME>medium</OUTCOME>
	<OUTCOME>high</OUTCOME>
	<PROPERTY>position = (100, 100)</PROPERTY>
</VARIABLE>

<VARIABLE TYPE="nature">
	<NAME>x54737</NAME>
	<OUTCOME>s0</OUTCOME>
	<OUTCOME>low</OUTCOME>
	<OUTCOME>medium</OUTCOME>
	<OUTCOME>high</OUTCOME>
	<PROPERTY>position = (100, 100)</PROPERTY>
</VARIABLE>

<VARIABLE TYPE="nature">
	<NAME>x9295</NAME>
	<OUTCOME>s0</OUTCOME>
	<OUTCOME>low</OUTCOME>
	<OUTCOME>medium</OUTCOME>
	<OUTCOME>high</OUTCOME>
	<PROPERTY>position = (100, 100)</PROPERTY>
</VARIABLE>

<VARIABLE TYPE="nature">
	<NAME>x9406</NAME>
	<OUTCOME>s0</OUTCOME>
	<OUTCOME>low</OUTCOME>
	<OUTCOME>medium</OUTCOME>
	<OUTCOME>high</OUTCOME>
	<PROPERTY>position = (100, 100)</PROPERTY>
</VARIABLE>

<VARIABLE TYPE="nature">
	<NAME>x9611</NAME>
	<OUTCOME>s0</OUTCOME>
	<OUTCOME>low</OUTCOME>
	<OUTCOME>medium</OUTCOME>
	<OUTCOME>high</OUTCOME>
	<PROPERTY>position = (100, 100)</PROPERTY>
</VARIABLE>

<VARIABLE TYPE="nature">
	<NAME>x7267</NAME>
	<OUTCOME>s0</OUTCOME>
	<OUTCOME>low</OUTCOME>
	<OUTCOME>medium</OUTCOME>
	<OUTCOME>high</OUTCOME>
	<PROPERTY>position = (100, 100)</PROPERTY>
</VARIABLE>

<VARIABLE TYPE="nature">
	<NAME>x51747</NAME>
	<OUTCOME>s0</OUTCOME>
	<OUTCOME>low</OUTCOME>
	<OUTCOME>medium</OUTCOME>
	<OUTCOME>high</OUTCOME>
	<PROPERTY>position = (100, 100)</PROPERTY>
</VARIABLE>

<VARIABLE TYPE="nature">
	<NAME>x25957</NAME>
	<OUTCOME>s0</OUTCOME>
	<OUTCOME>low</OUTCOME>
	<OUTCOME>medium</OUTCOME>
	<OUTCOME>high</OUTCOME>
	<PROPERTY>position = (100, 100)</PROPERTY>
</VARIABLE>

<VARIABLE TYPE="nature">
	<NAME>x378938</NAME>
	<OUTCOME>s0</OUTCOME>
	<OUTCOME>low</OUTCOME>
	<OUTCOME>medium</OUTCOME>
	<OUTCOME>high</OUTCOME>
	<PROPERTY>position = (100, 100)</PROPERTY>
</VARIABLE>

<VARIABLE TYPE="nature">
	<NAME>x114088</NAME>
	<OUTCOME>s0</OUTCOME>
	<OUTCOME>low</OUTCOME>
	<OUTCOME>medium</OUTCOME>
	<OUTCOME>high</OUTCOME>
	<PROPERTY>position = (100, 100)</PROPERTY>
</VARIABLE>

<VARIABLE TYPE="nature">
	<NAME>x3778</NAME>
	<OUTCOME>s0</OUTCOME>
	<OUTCOME>low</OUTCOME>
	<OUTCOME>medium</OUTCOME>
	<OUTCOME>high</OUTCOME>
	<PROPERTY>position = (100, 100)</PROPERTY>
</VARIABLE>

<VARIABLE TYPE="nature">
	<NAME>x55082</NAME>
	<OUTCOME>s0</OUTCOME>
	<OUTCOME>low</OUTCOME>
	<OUTCOME>medium</OUTCOME>
	<OUTCOME>high</OUTCOME>
	<PROPERTY>position = (100, 100)</PROPERTY>
</VARIABLE>

<VARIABLE TYPE="nature">
	<NAME>x9987</NAME>
	<OUTCOME>s0</OUTCOME>
	<OUTCOME>low</OUTCOME>
	<OUTCOME>medium</OUTCOME>
	<OUTCOME>high</OUTCOME>
	<PROPERTY>position = (100, 100)</PROPERTY>
</VARIABLE>

<VARIABLE TYPE="nature">
	<NAME>x1655</NAME>
	<OUTCOME>s0</OUTCOME>
	<OUTCOME>low</OUTCOME>
	<OUTCOME>medium</OUTCOME>
	<OUTCOME>high</OUTCOME>
	<PROPERTY>position = (100, 100)</PROPERTY>
</VARIABLE>

<VARIABLE TYPE="nature">
	<NAME>x780813</NAME>
	<OUTCOME>s0</OUTCOME>
	<OUTCOME>low</OUTCOME>
	<OUTCOME>medium</OUTCOME>
	<OUTCOME>high</OUTCOME>
	<PROPERTY>position = (100, 100)</PROPERTY>
</VARIABLE>

<VARIABLE TYPE="nature">
	<NAME>x6430</NAME>
	<OUTCOME>s0</OUTCOME>
	<OUTCOME>low</OUTCOME>
	<OUTCOME>medium</OUTCOME>
	<OUTCOME>high</OUTCOME>
	<PROPERTY>position = (100, 100)</PROPERTY>
</VARIABLE>

<VARIABLE TYPE="nature">
	<NAME>variable1483</NAME>
	<OUTCOME>state0</OUTCOME>
	<OUTCOME>state1</OUTCOME>
	<OUTCOME>state2</OUTCOME>
	<OUTCOME>state3</OUTCOME>
	<PROPERTY>position = (100, 100)</PROPERTY>
</VARIABLE>

<VARIABLE TYPE="nature">
	<NAME>variable1484</NAME>
	<OUTCOME>state0</OUTCOME>
	<OUTCOME>state1</OUTCOME>
	<OUTCOME>state2</OUTCOME>
	<OUTCOME>state3</OUTCOME>
	<PROPERTY>position = (100, 100)</PROPERTY>
</VARIABLE>

<VARIABLE TYPE="nature">
	<NAME>variable1485</NAME>
	<OUTCOME>state0</OUTCOME>
	<OUTCOME>state1</OUTCOME>
	<OUTCOME>state2</OUTCOME>
	<OUTCOME>state3</OUTCOME>
	<OUTCOME>state4</OUTCOME>
	<PROPERTY>position = (100, 100)</PROPERTY>
</VARIABLE>


<!-- Probability distributions -->
<DEFINITION>
	<FOR>variable677</FOR>
	<TABLE>0.02424836443928228 0.15298101901905614 0.03708501636841027 0.13596546268235432 0.38056057493637896 0.12930140827040276 0.13985815428411522 </TABLE>
</DEFINITION>

<DEFINITION>
	<FOR>x26038</FOR>
	<GIVEN>variable677</GIVEN>
	<TABLE>0.8981539560097672 0.09554910505825555 0.006296938931977337 1.6128888848186334E-92 0.010728575838299819 0.965148832721997 0.023059718158990238 0.0010628732807130149 0.9685049367027102 0.03149506329728983 0.0 0.0 0.10982361826489619 0.8315168231312956 0.0518423920673659 0.006817166536442327 0.0034439970666110603 0.9953190117388141 0.001236991194574887 2.394239465602E-311 0.029074890659007833 0.9676029835312369 0.003064283025135622 2.5784278461988354E-4 0.030652279304040877 0.9377395559233017 0.03065854297508959 9.49621797567731E-4 </TABLE>
</DEFINITION>

<DEFINITION>
	<FOR>x9456</FOR>
	<GIVEN>variable677</GIVEN>
	<TABLE>0.8281932795039914 0.14441310378768354 0.024798372288957104 0.002595244419367841 0.25735196673780525 0.7229215830144408 0.0193998196205632 3.266306271907845E-4 0.9402212933398689 0.05977870666013105 0.0 0.0 0.6477811481079884 0.3321529604998405 0.017579283939747545 0.0024866074524235527 0.0491393719778574 0.9214043066147697 0.029172345160662434 2.839762467105458E-4 0.4814215194568877 0.5159231986023692 0.0022890025022766023 3.66279438466409E-4 0.20040597176924757 0.6770992609682323 0.10977249334242789 0.012722273920092366 </TABLE>
</DEFINITION>

<DEFINITION>
	<FOR>x54843</FOR>
	<GIVEN>variable677</GIVEN>
	<TABLE>0.742682898152074 0.22879828829817897 0.02572101222119689 0.002797801328550059 0.16141127502214858 0.8273068778716711 0.010912159222296844 3.6968788388363295E-4 0.8206595106936697 0.1574709217940618 0.015234259653704028 0.006635307858564622 0.7667277920088292 0.225091203986781 0.008181004004389592 3.2037744044216635E-160 0.059867546843504454 0.931998246935404 0.008134206221091494 0.0 0.6247825162386832 0.37393829993503447 0.0012791838262822767 0.0 0.144089616579926 0.7751444802678324 0.07533456057422723 0.0054313425780143365 </TABLE>
</DEFINITION>

<DEFINITION>
	<FOR>x3274</FOR>
	<GIVEN>variable677</GIVEN>
	<TABLE>0.9517778510358912 0.0465813504501823 0.001640798513926416 0.0 0.14697470943954033 0.8397088624005726 0.013316428159886986 0.0 0.9598997365303905 0.03672640184008229 0.003373861629527383 0.0 0.40897392902205393 0.5613315614233371 0.02830926378624539 0.0013852457683637828 0.016766897939231546 0.9763045799291321 0.006928522131636326 0.0 0.44017875633134645 0.5523702021394159 0.007451041529237713 0.0 0.08007403672516106 0.8381028662105441 0.07957857588817238 0.0022445211761224935 </TABLE>
</DEFINITION>

<DEFINITION>
	<FOR>x254531</FOR>
	<GIVEN>variable677</GIVEN>
	<TABLE>0.8172164690671159 0.17258903963460426 0.0076053467194673145 0.0025891445788126517 0.10820440581135282 0.8837238022039241 0.008071791984723041 2.924733431116118E-281 0.9372358050157013 0.058198899981584395 0.004565295002714422 0.0 0.36106884868984496 0.6061115755324242 0.031434372980138355 0.0013852027975924284 0.028635472468327858 0.9701980647871493 0.0010029237264166915 1.6353901810613766E-4 0.09926076618378313 0.8785132961794093 0.022225937636807507 0.0 0.14191398635504074 0.8231720926536379 0.034012158153849614 9.017628374717921E-4 </TABLE>
</DEFINITION>

<DEFINITION>
	<FOR>x100130155</FOR>
	<GIVEN>variable677</GIVEN>
	<TABLE>0.6912349847552175 0.30430504401482933 1.6174489775427325E-129 0.004459971229953121 0.010965858004082984 0.983616729840614 0.005417412155302958 0.0 0.895747010808518 0.10425298919148189 0.0 0.0 0.22074411196146138 0.7624371542802156 0.014866153816068196 0.0019525799422549423 2.6735752785790216E-4 0.9967027759706963 0.00302986650144567 0.0 0.06272568137937745 0.9308939101390507 0.006380408481571885 0.0 0.013168665023390959 0.9225724351397436 0.06289028282594673 0.0013686170109186145 </TABLE>
</DEFINITION>

<DEFINITION>
	<FOR>x23230</FOR>
	<GIVEN>variable677</GIVEN>
	<TABLE>0.6364366502164585 0.3364626907475577 0.024511492400141666 0.002589166635842055 0.09574012560394335 0.9009313773808816 0.003328497015175099 0.0 0.8098485841677905 0.17983167143999107 0.010319744392218526 0.0 0.45061898294952585 0.5336404571731841 0.013952570325125636 0.0017879895521641365 0.005762244920426344 0.9879370929555487 0.006300662124025043 0.0 0.24047082056946167 0.7584069125822692 0.0011222668482691596 0.0 0.09806926889655061 0.8562618273446011 0.042918117765248294 0.002750785993599983 </TABLE>
</DEFINITION>

<DEFINITION>
	<FOR>x9645</FOR>
	<GIVEN>variable677</GIVEN>
	<TABLE>0.8995331559116967 0.1004668440883032 3.0734556447346757E-230 0.0 0.09386647643726666 0.8906332633900058 0.015500260172727447 0.0 0.9601720588222602 0.038135006200379636 0.0 0.0016929349773602 0.5758367201982153 0.4047387035856719 0.018501186905410496 9.233893107022686E-4 0.014274164532599215 0.9814152607818757 0.0043105746855251065 0.0 0.2306261913028482 0.7663206846947954 0.003053124002356368 0.0 0.07142986236262232 0.8775089409693131 0.04836767394977074 0.002693522718293661 </TABLE>
</DEFINITION>

<DEFINITION>
	<FOR>x6262</FOR>
	<GIVEN>variable677</GIVEN>
	<TABLE>0.8763484323925416 0.123650474585008 1.0930224504386706E-6 1.2138497352612015E-228 0.037461119224435374 0.9530058739696171 0.009533006805947498 0.0 0.8914804217887836 0.10513442903642718 0.003385149174789125 0.0 0.43564407033766495 0.5432758351905489 0.01744138599707057 0.0036387084747155746 0.0021864476963720262 0.9909080402438755 0.0069055120597525475 0.0 0.1760872728016474 0.816108210965713 0.007804516232639778 0.0 0.049063533848902004 0.9055134398543843 0.04402254268188069 0.001400483614833256 </TABLE>
</DEFINITION>

<DEFINITION>
	<FOR>x5310</FOR>
	<GIVEN>variable677</GIVEN>
	<TABLE>0.4407237377910625 0.5498206318664086 0.009455630342528814 0.0 4.307482365417863E-4 0.9743462501459869 0.02484295278475793 3.80048832713427E-4 0.606447706795749 0.3879149762818583 0.005637316922392687 0.0 0.06755750903660361 0.909194704199561 0.02232000428152885 9.277824823065281E-4 2.918341436774766E-4 0.9974231963068483 0.0022849695494743237 0.0 0.015437210871197623 0.9824726513387066 0.0020901377900957325 0.0 0.014651844593866767 0.956593453249447 0.027378961879829827 0.001375740276856379 </TABLE>
</DEFINITION>

<DEFINITION>
	<FOR>x56853</FOR>
	<GIVEN>variable677</GIVEN>
	<TABLE>0.7373488413701017 0.26005552808075394 0.0 0.002595630549144337 0.021468676158208078 0.9609223465710008 0.017608977219493418 5.12977106965024E-11 0.8971997171058392 0.1028002828941608 0.0 0.0 0.06666848340960078 0.8787917874107758 0.05114298817660257 0.003396741003020914 0.0033977422338525784 0.9895218105005107 0.007080447265636839 0.0 0.011643526723160628 0.9710599507478422 0.016724641820101874 5.718807088953279E-4 0.0332093415393719 0.9149719051091137 0.047570565877908595 0.004248187473605919 </TABLE>
</DEFINITION>

<DEFINITION>
	<FOR>x54212</FOR>
	<GIVEN>variable677</GIVEN>
	<TABLE>0.34198447349276434 0.6103000854704266 0.042537152122619735 0.005178288914189461 0.04244975881201774 0.9494908233167547 0.00805941787122758 0.0 0.9377491510695747 0.05758843184364197 0.004662417086783417 0.0 0.12028257307537285 0.8352323774424445 0.04171816147039886 0.0027668880117838537 0.004113820036682328 0.9908207266827012 0.005065453280616559 0.0 0.07055346022255506 0.905099698031509 0.024346841745935908 1.2075812485525709E-86 0.04346597691570969 0.8820199555906643 0.07271493027517036 0.001799137218455728 </TABLE>
</DEFINITION>

<DEFINITION>
	<FOR>x4331</FOR>
	<GIVEN>variable677</GIVEN>
	<TABLE>0.6110532526684745 0.3679831719203575 0.020963575411167806 0.0 0.04271986539741069 0.9513799468844346 0.005900187718154836 0.0 0.7489299083608747 0.23813785127624143 0.009546370408163378 0.003385869954720403 0.28733736715423297 0.6855541655595221 0.026445482435489758 6.629848507551855E-4 7.372343189039362E-4 0.9920451364162004 0.007217629264895706 0.0 0.1036367550128812 0.8928587651874242 0.003086104860991214 4.1837493870336E-4 0.03920232150238523 0.8884293359285335 0.0707062613088038 0.0016620812602775603 </TABLE>
</DEFINITION>

<DEFINITION>
	<FOR>x8997</FOR>
	<GIVEN>variable677</GIVEN>
	<TABLE>0.6888448729118748 0.30308135759009747 0.005484847074627022 0.002588922423400491 0.019094540389308162 0.9725647990925383 0.008340660518153594 0.0 0.8306038765793502 0.1693961234206497 0.0 0.0 0.2611786077312373 0.7125905745722655 0.024850292169867425 0.0013805255266296486 6.116395060239349E-4 0.9922073739220498 0.007180986571926229 0.0 0.21963374448254133 0.7803662555174586 9.582285373270725E-201 7.68122E-318 0.013073130194747202 0.9015354411096365 0.08493788574236973 4.5354295324663254E-4 </TABLE>
</DEFINITION>

<DEFINITION>
	<FOR>x9699</FOR>
	<GIVEN>variable677</GIVEN>
	<TABLE>0.5301417644813273 0.4618402210097921 0.008018014508880511 0.0 0.005182342146955024 0.98091743324653 0.013900224606514988 0.0 0.9308707539912477 0.0691292460087523 2.456797010932442E-282 0.0 0.113438764852514 0.8367904137697184 0.04745037619989097 0.002320445177876771 9.992343055674003E-4 0.9918225264535159 0.0071782392409167105 0.0 0.08333332774107877 0.9055673662404203 0.011099306018500938 0.0 0.006916671706362093 0.9114390854078389 0.07985999018238818 0.0017842527034107006 </TABLE>
</DEFINITION>

<DEFINITION>
	<FOR>x10439</FOR>
	<GIVEN>variable677</GIVEN>
	<TABLE>0.5280004802068581 0.4694105570144434 0.0 0.0025889627786986184 0.013292177838882785 0.9609815848992994 0.025424046110260317 3.021911515574915E-4 0.773399906651934 0.22490715837094627 0.0016929349771195499 0.0 0.2634334145792654 0.6959988124514724 0.03834719567497531 0.0022205772942867617 0.0012872544384591453 0.9919435314735419 0.0067692140879990325 2.4216088533685334E-191 0.1581724356113975 0.8338577364448115 0.007969827943790945 2.9397306718358148E-133 0.009774988288947831 0.8088636916907818 0.16858795822570646 0.012773361794563955 </TABLE>
</DEFINITION>

<DEFINITION>
	<FOR>x57468</FOR>
	<GIVEN>variable677</GIVEN>
	<TABLE>0.8796806559386331 0.10923673568020215 0.011082608381164753 0.0 0.09774627668558182 0.889417831496158 0.01283589181826019 8.59231708088411E-140 0.959686055288328 0.04031394471167202 0.0 0.0 0.22768914324769593 0.6792343813250437 0.08792635213923018 0.0051501232880301565 0.04320386410549416 0.9549516344796648 0.001844501414841013 0.0 0.09385917324678385 0.8815248810725463 0.024615945680669826 1.7978989525734597E-149 0.10185794332848173 0.8294631172660001 0.06470769057819084 0.003971248827327352 </TABLE>
</DEFINITION>

<DEFINITION>
	<FOR>x9515</FOR>
	<GIVEN>variable677</GIVEN>
	<TABLE>0.7350028940029835 0.2553516308977209 0.009645475099295685 0.0 0.023677749605850555 0.9691715685582667 0.007150681835882651 3.873419550335777E-57 0.9542306333440399 0.044076431678599946 0.0 0.0016929349773601996 0.30662536529214685 0.6803620204551185 0.012021231940132307 9.91382312602376E-4 8.772957406841927E-4 0.9866331832104857 0.012489521048830117 0.0 0.12260965808094364 0.8731024005929234 0.004287941326132863 4.172079611129241E-90 0.03721032605740887 0.891803692368033 0.06746075659818006 0.003525224976377986 </TABLE>
</DEFINITION>

<DEFINITION>
	<FOR>x55294</FOR>
	<GIVEN>variable677</GIVEN>
	<TABLE>0.7215004911559821 0.2629692614088544 0.010349502667702461 0.005180744767460958 0.0039026246897406348 0.9824046502947827 0.013692725015476696 0.0 0.8781703750560826 0.12013674168624963 0.0 0.0016928832576677088 0.442332340293544 0.5418835396391759 0.01578412006728002 2.4486059379790496E-29 0.0012958669305852713 0.9723556101343742 0.02634852293504058 1.1240050687446493E-208 0.28258266693010037 0.7174173330698995 2.691630784922059E-203 0.0 0.010469355342642032 0.8055975095127176 0.1736088149655287 0.010324320179111461 </TABLE>
</DEFINITION>

<DEFINITION>
	<FOR>x23518</FOR>
	<GIVEN>variable677</GIVEN>
	<TABLE>0.569527592489595 0.4304724075104051 0.0 0.0 0.0027675571966539365 0.994186158928921 0.003046283874425102 0.0 0.7599272763111892 0.24007272368881072 0.0 0.0 0.24548309700427973 0.7497672652358718 0.003882680605548352 8.669571543002086E-4 2.3596248964008663E-170 0.9692809808746174 0.030719019125382562 0.0 0.07961276376659653 0.9203872362334036 5.549724131035237E-222 0.0 3.64241391523399E-4 0.9080214305915139 0.09021264802823752 0.001401679988725172 </TABLE>
</DEFINITION>

<DEFINITION>
	<FOR>x285175</FOR>
	<GIVEN>variable677</GIVEN>
	<TABLE>0.44358584097532233 0.5161071767798446 0.04030698224483308 0.0 0.020462686982627924 0.9779718128480747 0.0015655001692972865 0.0 0.8931787993449964 0.10333328610516801 0.003487914549835524 0.0 0.15687831345963832 0.806857400009346 0.03524947479998632 0.0010148117310293818 8.412667995125078E-5 0.9864888555111447 0.013427017808903966 0.0 0.01642728518455504 0.9669277578173999 0.016644956998045215 1.963644335048552E-242 0.021158915455328307 0.906858810726872 0.07027543174803713 0.0017068420697624368 </TABLE>
</DEFINITION>

<DEFINITION>
	<FOR>x286411</FOR>
	<GIVEN>variable677</GIVEN>
	<TABLE>0.5367756588045837 0.45726969863805705 0.00595464255735924 0.0 0.0121846973318779 0.9861932491664461 0.0016220535016760274 0.0 0.6641546289923955 0.33584537100760437 0.0 0.0 0.07260484047094674 0.9180313705482188 0.009363788980834464 0.0 3.864703421945483E-91 0.9385342523940287 0.060971067266298445 4.946803396728591E-4 0.009030326940942624 0.9860634881155897 0.004906184943467682 0.0 0.005318179171474153 0.939563126579717 0.053771334171269766 0.0013473600775390762 </TABLE>
</DEFINITION>

<DEFINITION>
	<FOR>x54715</FOR>
	<GIVEN>variable677</GIVEN>
	<TABLE>0.6543878376789517 0.3243485229619931 0.02126363935905513 0.0 0.043467724559011045 0.9501964581184397 0.006335817322549216 3.167053828585748E-287 0.9371851271513528 0.05729999201501391 0.005514880833633143 0.0 0.31121409940584943 0.6507609284322498 0.036176425922531494 0.0018485462393695467 3.69960634833531E-17 0.982671307059059 0.01732869294094093 0.0 0.07938456395287037 0.8987220874202058 0.02189334862692379 1.7171733102639542E-294 0.021671751010229567 0.8487691754669962 0.12282704230393798 0.0067320312188362645 </TABLE>
</DEFINITION>

<DEFINITION>
	<FOR>x347746</FOR>
	<GIVEN>variable677</GIVEN>
	<TABLE>0.5604826380267344 0.39968587464826555 0.03466421626760114 0.005167271057399039 0.03369488958202771 0.9584248497691611 0.007880260648811142 0.0 0.7371925280450105 0.24983589401354792 0.011278851845878068 0.0016927260955636987 0.11430973210321098 0.8328863300821863 0.05124039171021789 0.0015635461043849135 0.0066334921725932725 0.9809440260230713 0.012422481804335474 0.0 0.02906561197754978 0.9406180769562428 0.03031631106620741 2.0782435394283395E-286 0.08589446344806466 0.8451272253573253 0.06645626060890979 0.0025220505857003125 </TABLE>
</DEFINITION>

<DEFINITION>
	<FOR>x7345</FOR>
	<GIVEN>variable677</GIVEN>
	<TABLE>0.5146686826748621 0.46972331804180684 0.015607999283331193 0.0 0.014407711761944084 0.9831998087396269 0.001868611950068545 5.238675483606116E-4 0.7821506458831836 0.21277355281193655 0.005075801304879842 0.0 0.048073802873288246 0.897148617554908 0.05285072612461568 0.0019268534471879853 1.1206170838095818E-4 0.9846361346214137 0.015251803670205248 7.817145597925926E-177 0.005827200865309137 0.9601751337096377 0.03399766542505315 2.8265135465203266E-265 0.001487216153756876 0.8701064081694164 0.12277239547442041 0.00563398020240641 </TABLE>
</DEFINITION>

<DEFINITION>
	<FOR>x490</FOR>
	<GIVEN>variable677</GIVEN>
	<TABLE>0.4132882175561122 0.5764891808764295 0.010222601567458082 0.0 0.0033023975022965957 0.9880854458972864 0.008612156600416912 6.487674769882903E-171 0.7131538224945261 0.2749669068310857 0.011879270674388308 0.0 0.09189496172151115 0.8548580449287857 0.04991927506292821 0.003327718286774934 1.3244747009293496E-27 0.9699587224372159 0.030041277562784092 0.0 0.04907163765347491 0.9437887476141797 0.0071396147323453795 1.2926398131095008E-221 1.7288986708502053E-82 0.7778236487373363 0.2155356178865558 0.0066407333761079245 </TABLE>
</DEFINITION>

<DEFINITION>
	<FOR>x4133</FOR>
	<GIVEN>variable677</GIVEN>
	<TABLE>0.2855688656393764 0.6787992253662509 0.031171561491561438 0.004460347502811157 0.004188160438683721 0.9958118395613164 2.0359023791662228E-23 3.8330654878877204E-260 0.7873974578406946 0.20806726556515603 0.004535276594149385 0.0 0.019220819620172486 0.9045277176457595 0.07235393399098748 0.0038975287430806985 2.1140837039521401E-91 0.9860918552227572 0.013908144777242759 4.87116399392568E-299 5.422309151999936E-4 0.9407013247929877 0.058756444291812315 3.732055334815602E-266 0.0043317829941604295 0.9058387337176577 0.08496492947575034 0.0048645538124317085 </TABLE>
</DEFINITION>

<DEFINITION>
	<FOR>x1759</FOR>
	<GIVEN>variable677</GIVEN>
	<TABLE>0.6336136209190177 0.3559614568598188 0.010424922221163523 0.0 0.004268070440851622 0.9620044490504773 0.03334009155287521 3.873889557957865E-4 0.8965326076923139 0.10177445733032624 0.0 0.0016929349773598772 0.08824211345980151 0.8449680979523344 0.05893566302995453 0.007854125557909401 7.667786470500841E-4 0.9846036008033363 0.014629620549613555 1.5090483912275028E-224 0.02042891437309987 0.9147593640851189 0.06290056534938882 0.0019111561923922918 0.015479955233777971 0.8233700023186968 0.15391794606697676 0.007232096380548512 </TABLE>
</DEFINITION>

<DEFINITION>
	<FOR>x10777</FOR>
	<GIVEN>variable677</GIVEN>
	<TABLE>0.4482098416856911 0.5243963779702724 0.02221534528586592 0.0051784350581706995 0.018618515736891807 0.9166249418364678 0.06352261436768825 0.0012339280589522552 0.836350576351919 0.16125845411822698 0.0023909695298539374 0.0 0.4676871002112768 0.4971083729078418 0.030857190019951873 0.004347336860929401 6.082875425445338E-4 0.9160049513886008 0.08312543048254083 2.6133058631393235E-4 0.6681358268739902 0.3201285267020316 0.011735646423978256 3.101308576171698E-153 0.007149047958435418 0.71482338200103 0.25334053555931796 0.02468703448121654 </TABLE>
</DEFINITION>

<DEFINITION>
	<FOR>x440823</FOR>
	<GIVEN>variable677</GIVEN>
	<TABLE>0.3307703305153545 0.6573582085723187 0.011871460912326756 0.0 4.114686568272907E-4 0.8237607513613087 0.17100855450448185 0.00481922547738224 0.6662535360158713 0.3307346775642746 0.0030117864198540324 0.0 0.027444257819507736 0.9057653986149253 0.06134108086942025 0.005449262696146637 0.0 0.9533159277841623 0.04668407221583773 1.0688472348818912E-197 0.003525283780029967 0.9608619654356078 0.03306961129063494 0.002543139493727378 2.641826255507084E-127 0.8490654871701401 0.1450008378529278 0.005933674976932166 </TABLE>
</DEFINITION>

<DEFINITION>
	<FOR>variable1188</FOR>
	<GIVEN>variable677</GIVEN>
	<TABLE>0.0 0.07545618480160357 0.004544323052638424 0.0 2.2042859645176145E-141 2.0735088110932363E-9 0.9081961936444777 0.011803296427771573 7.110949319442959E-6 0.05831245910531967 8.846040934692408E-41 0.04405909482246837 0.05804059777910174 0.8395807373437907 1.0485243067066372E-184 0.0 0.0 2.152958729046992E-50 4.4071776661366175E-14 0.0 0.0 1.412920084312603E-197 0.3617584305501556 0.6382415694498003 6.0346509594119E-157 0.48384247111820927 0.3752948078509864 1.1727333520819908E-29 0.10539057408609497 1.339597662472701E-22 0.03547214694470938 5.925850517526553E-104 0.9306671893000694 5.309082483943095E-75 1.535687932459144E-158 0.023796186768923585 0.005305031934157676 0.04023159199684945 0.0 0.0 0.025953461143642276 0.06933015507408487 0.011033970039575408 0.006898899164510711 0.7320368185552053 0.15474669602298152 2.2756015011849918E-179 0.0 0.01504283814687892 0.027731292828226912 0.09107645511473711 0.7978962426156464 0.06170220993825317 0.006550961356257396 2.46888540119236E-61 0.0 </TABLE>
</DEFINITION>

<DEFINITION>
	<FOR>x334</FOR>
	<GIVEN>variable1188</GIVEN>
	<TABLE>0.05695940940671581 0.9410613392445762 0.001979251348708038 0.0 0.28392492296593147 0.7055376555688727 0.01003806236890366 4.993590962921819E-4 0.11217610162020678 0.6525144022425015 0.1992628141831703 0.03604668195412141 0.14522881967475482 0.8324104020016214 0.022360778323623823 2.902500254726486E-32 0.033617024350183405 0.8494354979519056 0.10876169722268018 0.008185780475230888 0.19520505377798095 0.8047949065004574 3.972156162955347E-8 1.2264930293054772E-252 0.6465428361051461 0.32434755842449026 0.027498424068316995 0.0016111814020467795 0.7617656223416583 0.2089561093943277 0.024017908256229088 0.005260360007784726 </TABLE>
</DEFINITION>

<DEFINITION>
	<FOR>x6138</FOR>
	<GIVEN>variable1188</GIVEN>
	<TABLE>0.09359051894865962 0.9033539600606386 0.002891910137922885 1.6361085277880874E-4 0.42823718620723755 0.5525133335810642 0.019249480211698162 3.451060992532917E-60 0.18206036735829217 0.6616421811137103 0.13634745153696817 0.01994999999102923 0.1565398672886536 0.7842211607087936 0.058116057790713854 0.0011229142118389269 0.15000682940693263 0.8024186816315307 0.047574488961536585 2.2574116782070734E-110 0.2867036656092333 0.7103829772291033 0.002913357161663403 5.108405544942881E-190 0.6333492879775462 0.3358135059128835 0.026131208014390866 0.0047059980951792936 0.6311013224521794 0.32778896213600384 0.04110971541181664 1.3987948816517686E-273 </TABLE>
</DEFINITION>

<DEFINITION>
	<FOR>x221692</FOR>
	<GIVEN>variable1188</GIVEN>
	<TABLE>0.0335945634413057 0.9563947337455544 0.010010702813140001 0.0 0.462488623733867 0.5187989736693723 0.017656237970759298 0.0010561646260012394 0.4918930571656693 0.44333842593359446 0.052091193856852507 0.012677323043883703 0.15895131811906998 0.7757469905048745 0.06261693687421235 0.00268475450184316 0.4307377637257596 0.5688593108362218 5.732212576730888E-26 4.0292543801857795E-4 0.19838031232702383 0.7880222300848574 0.013597457588118785 1.1734190232684366E-142 0.6797772588969768 0.3014238369809425 0.018798904122080566 0.0 0.7830620825326898 0.19944276707026776 0.017495150397042525 0.0 </TABLE>
</DEFINITION>

<DEFINITION>
	<FOR>x6000</FOR>
	<GIVEN>variable1188</GIVEN>
	<TABLE>0.0477890268240447 0.9496314616478656 0.002579511528089749 0.0 0.5247302667332888 0.4576935221919642 0.01686130504603827 7.149060287086462E-4 0.35547737972201254 0.5459747455587444 0.08545132155200115 0.013096553167242023 0.1336967911238543 0.8168848531898746 0.049418355686271044 7.56668901235187E-125 0.20091612888096652 0.7690847211120466 0.02999915000698686 2.4324173465095164E-52 0.26732535907569893 0.7281068189952727 0.004567821929028334 0.0 0.7845260999908092 0.19339244994235003 0.016841676091063483 0.005239773975777453 0.9664772716600396 0.03305589226284184 4.668360771186279E-4 0.0 </TABLE>
</DEFINITION>

<DEFINITION>
	<FOR>x2908</FOR>
	<GIVEN>variable1188</GIVEN>
	<TABLE>0.040912469489204274 0.9424822018479604 0.016605328662835376 0.0 0.5164808408293081 0.4618269337544327 0.01970764681088561 0.001984578605373477 0.5032911973954004 0.43190206705872597 0.058847967442527994 0.0059587681033457076 0.13821043666598457 0.8062880582938912 0.05292485305223658 0.0025766519878876594 0.40037934554589927 0.5796930531062269 0.01909118551309813 8.36415834775673E-4 0.18716971570318283 0.8079814911368289 0.004848793159988323 5.76471325713001E-62 0.645068758398749 0.3306846134041048 0.02424662819714619 6.145656422788301E-26 0.6953777150928594 0.23089787199897574 0.060620384760038774 0.013104028148126149 </TABLE>
</DEFINITION>

<DEFINITION>
	<FOR>x116966</FOR>
	<GIVEN>variable1188</GIVEN>
	<TABLE>0.01633450009076309 0.9768197184071065 0.006845781502130445 0.0 0.508190181560641 0.47717194174036115 0.014637876698997795 0.0 0.39851113709535346 0.5441002648375464 0.05449064097246586 0.0028979570946342267 0.09461265405310931 0.863361002841882 0.04056311319763262 0.0014632299073760802 0.28150284038194046 0.7140606155140057 0.004436544104053872 0.0 0.19065378574539638 0.8026834025174389 0.00666281173716476 0.0 0.6070781554979857 0.35107077013051874 0.03561975592811732 0.0062313184433781645 0.934427304184876 0.06035985963383637 0.00521283618128761 0.0 </TABLE>
</DEFINITION>

<DEFINITION>
	<FOR>x55814</FOR>
	<GIVEN>variable1188</GIVEN>
	<TABLE>1.390442969164849E-37 0.9981570438196358 0.0018429561803642834 0.0 0.08774154193660043 0.884268412116041 0.025433471704092877 0.0025565742432657134 0.11646704661758073 0.8409840156683773 0.04027961958496064 0.002269318129081109 0.005643699327366163 0.942772378382222 0.05158392229041186 2.9338105138590926E-108 0.04572283120038875 0.9527482168239165 0.0015289519756947032 0.0 0.006661310735814395 0.9897804023009851 0.003558286963200406 0.0 0.4914836927511848 0.5046357136353332 0.0038805936134819388 0.0 0.6137286935725025 0.37581712477814005 0.010454181649357472 0.0 </TABLE>
</DEFINITION>

<DEFINITION>
	<FOR>x4898</FOR>
	<GIVEN>variable1188</GIVEN>
	<TABLE>0.0045152731843039464 0.9937984679339784 0.0016862588817177211 0.0 0.28559832146294173 0.7023914467734096 0.011271932008735707 7.382997549130822E-4 0.20200942214109477 0.7262503964234966 0.06603253989719313 0.00570764153821552 0.054956736716202055 0.9190865841347716 0.025512744729561262 4.439344194649669E-4 0.06889240334027177 0.9140500854705228 0.01705751118920548 2.0251406217132288E-200 0.09114197849540767 0.9077106906960157 0.0011473308085765371 0.0 0.38031533241852994 0.563554078032375 0.05266810673574478 0.003462482813350523 0.5534529082792427 0.3792773297857641 0.05184690065388993 0.015422861281103319 </TABLE>
</DEFINITION>

<DEFINITION>
	<FOR>x440270</FOR>
	<GIVEN>variable1188</GIVEN>
	<TABLE>0.0 0.9983232050865609 0.0016767949134390626 0.0 0.016378597068524597 0.9720038757751278 0.011617527156347594 0.0 0.032357357745038055 0.8906454560757019 0.06738297881485711 0.009614207364403028 0.003294814560824951 0.9527093790769072 0.04399580636226793 0.0 0.002094979218410683 0.9875063945524108 0.010398626229178524 0.0 0.002973831904836045 0.9942942070323212 0.0027319610628427885 0.0 0.16601348821757714 0.8052485376033915 0.028737974179031463 0.0 0.788196560278589 0.20919709528427616 0.002606344437134909 0.0 </TABLE>
</DEFINITION>

<DEFINITION>
	<FOR>x4897</FOR>
	<GIVEN>variable1188</GIVEN>
	<TABLE>9.227981594339746E-15 0.9975057163860884 0.0024942836139024496 0.0 0.17458419765529284 0.8254158023447072 2.961038421242945E-25 0.0 0.08873069768837129 0.8271826721087513 0.0744473429856455 0.009639287217231883 0.011372103450455312 0.9421561384495507 0.04598373812927849 4.88019970715462E-4 0.04114817347443686 0.9470430524409693 0.011808774084593831 0.0 0.016521166563488617 0.981376484322964 0.0021023491135475376 0.0 0.23712195273363929 0.6933109555987649 0.06024701105543022 0.00932008061216555 0.88401650201186 0.11598349798814002 0.0 0.0 </TABLE>
</DEFINITION>

<DEFINITION>
	<FOR>x9284</FOR>
	<GIVEN>variable1188</GIVEN>
	<TABLE>0.001996714419808307 0.997517024897998 4.8626068219363396E-4 0.0 0.09288136100881775 0.8494132686711963 0.053850676837894663 0.0038546934820912703 0.11510617470158695 0.8160049507631332 0.0654949332518563 0.0033939412834235933 0.01938916698033965 0.9587141927522032 0.021415933227303747 4.807070401536118E-4 0.05653196776191772 0.9434680322380823 1.6415664824950033E-27 0.0 0.012619762070803448 0.9707065412181981 0.01667369671099841 0.0 0.34086403374358715 0.6171382481515414 0.041997718104871594 5.464050709122686E-18 0.6698404832527212 0.3118052809918401 0.013112620394056957 0.0052416153613818635 </TABLE>
</DEFINITION>

<DEFINITION>
	<FOR>x5297</FOR>
	<GIVEN>variable1188</GIVEN>
	<TABLE>0.006933787837722882 0.9861213146588281 0.006944897503449182 0.0 0.37607937581518824 0.6039507885110929 0.01939513547431933 5.747001993995023E-4 0.2527941825973568 0.6950163919526087 0.04700655030729674 0.005182875142737705 0.0395801146212032 0.8843756143418793 0.07467836648510703 0.001365904551810473 0.1447635672804924 0.8439970807110126 0.011239352008494975 8.319270468342448E-179 0.08726728969059748 0.9070843441968394 0.005648366112563214 0.0 0.6496415048476941 0.33946722694447 0.009427949714074063 0.0014633184937617944 0.7580812705283098 0.22535236041593787 0.011163027802507764 0.005403341253244643 </TABLE>
</DEFINITION>

<DEFINITION>
	<FOR>x8499</FOR>
	<GIVEN>variable1188</GIVEN>
	<TABLE>0.004778476486130386 0.9790969418495231 0.016124581664346493 6.0725009234144475E-127 0.35589825031618777 0.6398247899539449 0.004276959729867327 0.0 0.3148474419222376 0.64937673312705 0.033442275237812284 0.002333549712899972 0.02179511414273827 0.865048923684458 0.10896028944111909 0.004195672731684661 0.17403133559901623 0.8259686644009837 2.595780452418677E-146 0.0 0.05062121574795423 0.9387182425918916 0.010660541660154066 4.884982830208342E-262 0.5874298539670837 0.399850930548147 0.012719215484769203 0.0 0.5955387358276979 0.36512568702233855 0.039335577149963386 0.0 </TABLE>
</DEFINITION>

<DEFINITION>
	<FOR>x10905</FOR>
	<GIVEN>variable1188</GIVEN>
	<TABLE>0.03589654483143621 0.9628101997978731 0.0012932553706908136 0.0 0.20753993757228784 0.7536256738509679 0.036417132737436776 0.002417255839307631 0.21670983292149704 0.7064676717462165 0.07133671035452237 0.005485784977764197 0.09294705360911615 0.8716027078121309 0.03331796852467679 0.0021322700540762013 0.10676646258124861 0.850418553812572 0.04205818750339424 7.567961027851339E-4 0.057930525763109045 0.936017372990658 0.006052101246232888 3.431992194581346E-150 0.6454484583847483 0.332491891595692 0.020582997504007924 0.0014766525155517707 0.7395684401855395 0.2334169289061494 0.02439382639294201 0.0026208045153689524 </TABLE>
</DEFINITION>

<DEFINITION>
	<FOR>x28978</FOR>
	<GIVEN>variable1188</GIVEN>
	<TABLE>0.11575388925581907 0.8790278625947905 0.0052182481493905815 0.0 0.6385473231358012 0.3510916028751251 0.009334850830707042 0.0010262231583666006 0.3051639330814016 0.5172031244754958 0.1580063016286831 0.019626640814419588 0.2265625394504587 0.7093960614430801 0.058078318940951265 0.005963080165509962 0.16936877466092903 0.7618907444698572 0.06583829613164265 0.0029021847375712093 0.40986286166156977 0.5892211779800408 9.15960358389539E-4 1.5554426614716955E-269 0.8488410528130277 0.12316029973998009 0.02643398749454217 0.0015646599524499537 0.9106293192198434 0.05351480579404533 0.03062249554804057 0.005233379438070677 </TABLE>
</DEFINITION>

<DEFINITION>
	<FOR>x577</FOR>
	<GIVEN>variable1188</GIVEN>
	<TABLE>0.001161190872720551 0.9897835611669492 0.009055247960330217 0.0 0.16988798119802134 0.7979233603533078 0.03218865844867081 3.0955322968472783E-80 0.1532413125638442 0.7475929297705112 0.087901269381686 0.011264488283958514 0.026778540829685324 0.8900518630679212 0.08036327660058319 0.0028063195018102538 0.06459370220621137 0.9129612549342767 0.02244504285951183 1.2076023205087674E-295 0.022619272442696684 0.9668417048259569 0.010326676505132552 2.1234622621384917E-4 0.41190752784536144 0.5558173685790464 0.027608629483310592 0.004666474092281565 0.7880512685541303 0.2068668034813106 0.005081927964559108 0.0 </TABLE>
</DEFINITION>

<DEFINITION>
	<FOR>x64848</FOR>
	<GIVEN>variable1188</GIVEN>
	<TABLE>0.029899488639975574 0.9678356395144729 0.002127447920492845 1.3742392505869868E-4 0.3504402771208631 0.6233592440243513 0.026176203883385134 2.4274971400438313E-5 0.2920949939095264 0.6083354753826454 0.08971955331216343 0.009849977395664544 0.11868503676608715 0.8212956343381383 0.05899910051158331 0.0010202283841912053 0.13825678915420883 0.8408947232845851 0.020848487561206053 1.965824279318339E-86 0.15208347363051616 0.8399897801219743 0.007926746247509376 1.276868711614032E-60 0.6398812958416727 0.3151580229879127 0.03583631875489586 0.009124362415518736 0.7423709933090514 0.20723624352704767 0.03467533831321828 0.01571742485068262 </TABLE>
</DEFINITION>

<DEFINITION>
	<FOR>x6432</FOR>
	<GIVEN>variable1188</GIVEN>
	<TABLE>0.02658048505819296 0.9702095376922498 0.003209977249557214 0.0 0.4398259669751654 0.5493670090598082 0.01080702396502639 0.0 0.18998830288374868 0.7384536598518795 0.06655479399375497 0.005003243270616735 0.05704577853323155 0.8921049640876925 0.04997027083327943 8.789865457965196E-4 0.06152147384835528 0.9077566001460701 0.030721926005574673 0.0 0.18242670317079152 0.8175201325179037 5.3164311304779705E-5 0.0 0.52502942704848 0.4530347596022452 0.021935813349274868 0.0 0.48826282077043737 0.43623611622183267 0.06239702467656213 0.013104038331167722 </TABLE>
</DEFINITION>

<DEFINITION>
	<FOR>x5144</FOR>
	<GIVEN>variable1188</GIVEN>
	<TABLE>0.004039431176017255 0.9916568876648647 0.004303681159117972 0.0 0.16530949719918864 0.7925034663493226 0.039254203084567604 0.002932833366921176 0.20863593756071844 0.7314756488877969 0.05041837929570392 0.009470034255780796 0.02797508986094305 0.9248009487734372 0.046148179127798165 0.0010757822378216746 0.08205507676288652 0.9048055470386157 0.012632683761637117 5.066924368606585E-4 0.0340324321275283 0.9612140224458412 0.004753545426630656 2.8647201311372E-89 0.32673460229450396 0.6325334724430469 0.033341320811631894 0.007390604450817123 0.7249155557188145 0.2645421900778245 0.010542254203361088 8.13673428062335E-246 </TABLE>
</DEFINITION>

<DEFINITION>
	<FOR>x9475</FOR>
	<GIVEN>variable1188</GIVEN>
	<TABLE>0.006596156575667732 0.9872788679057207 0.0061249755186115595 0.0 0.3200018807921378 0.6593143431519197 0.020683776055942335 5.9583026628961464E-210 0.2476927763080266 0.6713709769756754 0.0761281104646885 0.0048081362516097315 0.0493411346551516 0.8897804381841177 0.060391053760312126 4.8737340041860163E-4 0.1600286333009327 0.8280994675414262 0.011871899157641055 9.617598293693802E-234 0.0654640055085261 0.930095195417286 0.004440799074188062 0.0 0.6416319480966148 0.345986468556294 0.009257979173115672 0.0031236041739756046 0.8162860845986074 0.16535350367452348 0.018360411726868957 0.0 </TABLE>
</DEFINITION>

<DEFINITION>
	<FOR>x4673</FOR>
	<GIVEN>variable1188</GIVEN>
	<TABLE>0.006302972514675441 0.9846923256353174 0.009004701850007117 0.0 0.22658961850167667 0.7590463151271705 0.014364066371152883 1.2390723451001117E-112 0.1316222861674521 0.736207453382376 0.11967385115172667 0.012496409298445189 0.048916686493169624 0.8926702103297345 0.05792267196303375 4.90431214062166E-4 0.05798013126947568 0.9255512598891746 0.016468608841349694 8.536878133671993E-247 0.06481599480551675 0.932986997335898 0.0021970078585853243 0.0 0.5085068794968514 0.4632600040263516 0.022558589237401516 0.005674527239395498 0.6517357657589772 0.2891254329195857 0.05557157507568899 0.0035672262457481503 </TABLE>
</DEFINITION>

<DEFINITION>
	<FOR>x6894</FOR>
	<GIVEN>variable1188</GIVEN>
	<TABLE>0.0010476017502281114 0.9929782908449704 0.00597410740480166 0.0 0.09302339693565934 0.8920544537322082 0.014922149332132336 1.1793220753703071E-98 0.08005405018958106 0.8093244511801536 0.10063933408870697 0.009982164541558473 0.008759976815469656 0.911661311019012 0.07823339430122649 0.0013453178642917644 0.048410706831801105 0.9414766704704138 0.010112622697785017 0.0 0.006755824507334541 0.985266656854193 0.00797751863847257 0.0 0.4754923783358207 0.5028768157429582 0.02027654853150384 0.0013542573897173554 0.7303325460259918 0.26605184623133177 0.0036156077426763907 0.0 </TABLE>
</DEFINITION>

<DEFINITION>
	<FOR>x10915</FOR>
	<GIVEN>variable1188</GIVEN>
	<TABLE>0.0021855583840412005 0.9943423390918676 0.003472102524091274 0.0 0.14080146256581091 0.8284796643856907 0.029157842776586694 0.001561030271911601 0.17385744538011108 0.7269752283346977 0.09661336729210736 0.002553958993083809 0.013645989786587043 0.9140091333647608 0.07152724911321523 8.176277354370092E-4 0.0570993089762162 0.9256078619418144 0.017292829081969316 0.0 0.026446264689121497 0.9641289884488738 0.009424746862004734 0.0 0.46328901600903294 0.5037332956602797 0.03227498694047172 7.027013902157094E-4 0.689201818344427 0.2894448901251932 0.018732537445017915 0.0026207540853619526 </TABLE>
</DEFINITION>

<DEFINITION>
	<FOR>x55112</FOR>
	<GIVEN>variable1188</GIVEN>
	<TABLE>0.002869710887182481 0.9917822874217552 0.005348001691062328 0.0 0.20589238817660982 0.7326132723270762 0.05554419996847894 0.005950139527835033 0.2752397393104277 0.6648844663805188 0.055369679555615385 0.004506114753438131 0.04996744905070923 0.8923941456391098 0.05682817808932202 8.102272208589356E-4 0.095379639740275 0.8889898862325466 0.01563047402717828 0.0 0.03575831656380111 0.945913633388914 0.018328050047284973 0.0 0.3928480369957073 0.5595049425743323 0.03955886090865442 0.008088159521306081 0.7524727992309227 0.23665395683920792 0.010873243929869497 0.0 </TABLE>
</DEFINITION>

<DEFINITION>
	<FOR>x8925</FOR>
	<GIVEN>variable1188</GIVEN>
	<TABLE>0.0010776650772999156 0.9903248841096166 0.008597450813083525 0.0 0.14231548225988414 0.82246388769274 0.03522063004737573 1.2652298385907555E-133 0.14605168920248504 0.7684099311028519 0.07970003428858494 0.005838345406078267 0.019950706171430705 0.9043244291535305 0.07261660832025413 0.003108256354784715 0.0547994720272294 0.9263606324757019 0.018839895497068795 1.595323057870841E-229 0.008548413291841474 0.9737248928873712 0.017507090806954707 2.1960301383277387E-4 0.4723982319253281 0.4854796869424859 0.03739015821788856 0.004731922914297474 0.5425455904742112 0.4133133126694161 0.03636793389326535 0.007773162963107164 </TABLE>
</DEFINITION>

<DEFINITION>
	<FOR>x151613</FOR>
	<GIVEN>variable1188</GIVEN>
	<TABLE>0.002202496976912878 0.9883702111678682 0.00942729185521907 0.0 0.1699583998629192 0.8058592445301489 0.024182355606932052 3.826122056007777E-37 0.13090711949911765 0.7347213502799523 0.11951214001962555 0.014859390201304402 0.03156731052146483 0.8938558339986309 0.07237362913544904 0.002203226344455265 0.05314258054108264 0.915259429111391 0.03114114444763708 4.5684589988934506E-4 0.029802161306723567 0.9654480682310043 0.004749770462272047 9.837137059292529E-294 0.3475081859475519 0.5607191171049277 0.08625974332851653 0.0055129536190040756 0.5083523520764749 0.39352544545737184 0.08613951420328897 0.011982688262864192 </TABLE>
</DEFINITION>

<DEFINITION>
	<FOR>x2823</FOR>
	<GIVEN>variable1188</GIVEN>
	<TABLE>0.0 0.9944576066393173 0.005542393360682816 0.0 0.02529568025778266 0.952630167953792 0.02207415178842548 1.3291485773282166E-66 0.0024934930581065728 0.7042922391363415 0.26051797928990694 0.03269628851564501 0.0 0.8977994610449327 0.09714399683950652 0.005056542115560811 0.003620089762799583 0.924724102305808 0.07031705632317584 0.00133875160821656 0.0025345374575969997 0.9968308363262196 6.346262161834845E-4 1.1116004537281908E-225 0.08074281895872538 0.8386386044044059 0.07138763509086996 0.00923094154599899 0.7352888259119315 0.262122291800002 0.002588882288066536 0.0 </TABLE>
</DEFINITION>

<DEFINITION>
	<FOR>x1479</FOR>
	<GIVEN>variable1188</GIVEN>
	<TABLE>0.016217384348187407 0.9670874435958781 0.01669517205593455 1.8914942131181962E-197 0.4246537283961432 0.5414269346867441 0.033919336917112776 2.362231262134265E-135 0.17329269701197783 0.6485270273937346 0.1590489660548879 0.019131309539399628 0.045055820815006684 0.7670146141154849 0.18153006210514086 0.0063995029643676565 0.12956193519857573 0.825485185334589 0.04495287946683523 1.0212861934503328E-165 0.1517469221898426 0.8258337028260658 0.022028547570975443 3.908274131161196E-4 0.614022908108528 0.33201936774892143 0.04773731198496063 0.006220412157589921 0.7580895518605393 0.1886091864713082 0.03492658331883095 0.01837467834932167 </TABLE>
</DEFINITION>

<DEFINITION>
	<FOR>x2891</FOR>
	<GIVEN>variable1188</GIVEN>
	<TABLE>0.0 0.9655668657610181 0.03443313423898192 0.0 0.005761326122883328 0.9777739918404658 0.016464682036650986 0.0 0.0028362768309912753 0.7982005378334659 0.18812292314915813 0.010840262186384581 0.0 0.8136543482940577 0.1853881661500057 9.574855559366136E-4 0.0 0.957998822673825 0.041137277355893904 8.638999702810751E-4 0.0 0.9954428321014193 0.004557167898580802 0.0 0.0522650744984843 0.9092760619918892 0.03378065390800585 0.004678209601620635 0.4123354431608134 0.5797213241564363 0.007943232682750177 0.0 </TABLE>
</DEFINITION>

<DEFINITION>
	<FOR>x55384</FOR>
	<GIVEN>variable1188</GIVEN>
	<TABLE>0.0 0.6710493616184166 0.3278296746031252 0.0011209637784582427 7.015344728359828E-4 0.9759655234514204 0.023332942075743632 0.0 0.0 0.9025396703126504 0.09456802041320007 0.002892309274149506 0.0 0.6981305902122013 0.29180190645213566 0.010067503335662987 0.0 0.9459602754389728 0.05403972456102723 1.0612037051233396E-140 0.0 0.9379784555923322 0.062021544405124106 2.5436910032523245E-12 0.12934369578843977 0.8706563042115603 9.689112955737113E-209 0.0 0.31988517371122505 0.680114826288775 0.0 0.0 </TABLE>
</DEFINITION>

<DEFINITION>
	<FOR>x3324</FOR>
	<GIVEN>variable1483</GIVEN>
	<TABLE>0.2795614491942111 0.7204385508057889 0.0 0.0 0.6769168618183983 0.3225192108650867 0.0 5.639273165150543E-4 0.08841203208968779 0.9115879679103122 0.0 0.0 0.7282754049758883 0.27172459502411167 0.0 4.227776603825866E-236 </TABLE>
</DEFINITION>

<DEFINITION>
	<FOR>x3535</FOR>
	<GIVEN>variable1188</GIVEN>
	<TABLE>4.871558301507966E-22 0.9990005767893244 9.994232106755611E-4 0.0 6.530223908671661E-4 0.9673345682415818 0.029614717910600847 0.0023976914569501955 0.00973433184362466 0.9754974397984523 0.01270758852028882 0.0020606398376341924 4.96986156319412E-4 0.9892105242133377 0.009586143321508606 7.063463088343848E-4 1.5047313798852385E-63 0.999141777452247 8.582225477529754E-4 3.0602127432510306E-160 4.249157864987273E-4 0.9899348576337983 0.009640226579702852 2.3213816998619044E-40 0.039736137540508185 0.9473376220327395 0.012926240426752353 4.049271297991681E-93 0.1004646321203609 0.8707634300567665 0.02353032249059862 0.005241615332274088 </TABLE>
</DEFINITION>

<DEFINITION>
	<FOR>x100128906</FOR>
	<GIVEN>variable1483</GIVEN>
	<TABLE>6.976206526889872E-131 0.9999999999716062 2.8393877294312013E-11 1.5545643086590318E-76 5.639273165150551E-4 0.7900278504195285 0.20715251299789617 0.0022557092660602206 4.586750561069668E-207 0.9999997441529416 2.5584705842544424E-7 3.676879041172228E-97 7.636908561018603E-31 0.9996969882858987 3.030117141013603E-4 1.2494796232257341E-26 </TABLE>
</DEFINITION>

<DEFINITION>
	<FOR>variable1442</FOR>
	<GIVEN>variable1188</GIVEN>
	<TABLE>0.0 9.639093343596733E-149 1.6901316870482284E-17 0.003598042211528963 0.9964019577884711 0.003366722367944197 0.6864741848130149 0.31015909281904097 9.994133655824615E-34 1.7956596498260608E-77 0.012645034595312677 0.8187053935030412 0.008030631891747898 0.16061894000989826 2.425849818292825E-26 4.9320654664392486E-195 0.0038701074786654096 0.036364751489372085 0.8635326848530028 0.09623245617895972 5.894733961129458E-191 2.61667511758465E-4 0.712978942934099 0.23825220852836662 0.048507181025775926 3.225646308570975E-138 0.002950389501500316 0.8734252231877112 0.0039608335021513175 0.11966355380863712 0.7704764912694881 0.22952350873051186 1.1836209129988621E-43 2.6050079834908103E-165 1.0076942386166806E-266 0.9999286753888185 7.132461118146104E-5 8.498558479928381E-33 2.0413868419117455E-265 0.0 </TABLE>
</DEFINITION>

<DEFINITION>
	<FOR>x23253</FOR>
	<GIVEN>variable1442</GIVEN>
	<TABLE>0.34203603629903784 0.5973532593895456 0.05116067938757842 0.009450024923838007 0.11825046176950904 0.7883295918939706 0.08799403358483755 0.00542591275168293 0.05030501104054204 0.9424852431938936 0.007209745765421991 1.4239964985392048E-13 0.06116743875664862 0.9042700471247918 0.03344176614542375 0.0011207479731358298 0.01280280141981943 0.9870036479476119 1.935506325688098E-4 0.0 </TABLE>
</DEFINITION>

<DEFINITION>
	<FOR>x94081</FOR>
	<GIVEN>variable1442</GIVEN>
	<TABLE>0.6747659317302807 0.27553130444953805 0.03527015733316663 0.014432606487014802 0.4627805769142027 0.49097762610685747 0.04039680083145188 0.005844996147487981 0.277732939972898 0.7152791886685425 0.006660029837377404 3.278415211821589E-4 0.19091477123239262 0.7599305221864527 0.04749872052387731 0.001655986057277281 0.07267455363360308 0.9239767491820077 0.0033486971843893027 0.0 </TABLE>
</DEFINITION>

<DEFINITION>
	<FOR>x64062</FOR>
	<GIVEN>variable1442</GIVEN>
	<TABLE>0.4251359752548524 0.5284340369211858 0.039005527128923356 0.007424460695038393 0.2765738188355612 0.6873967644707186 0.033877265372689216 0.0021521513210310548 0.08216498413863281 0.9148688383466325 0.0029661775147348073 0.0 0.030208784623750658 0.9313671789979802 0.037575879643581056 8.481567346882119E-4 0.001879422217118798 0.995444169356643 0.002676408426238143 0.0 </TABLE>
</DEFINITION>

<DEFINITION>
	<FOR>x23613</FOR>
	<GIVEN>variable1442</GIVEN>
	<TABLE>0.5399986353362737 0.41808355354374127 0.039189862156002744 0.002727948963982264 0.297235223324145 0.651181169692493 0.04683847051896375 0.0047451364643983605 0.12525049998720797 0.8703315242179112 0.0044179757948809295 1.5048587459641087E-121 0.10911162308310561 0.8623546421771591 0.02808114088031227 4.5259385942318544E-4 0.034757057218164245 0.9631884234342367 0.002054519347598945 0.0 </TABLE>
</DEFINITION>

<DEFINITION>
	<FOR>x10147</FOR>
	<GIVEN>variable1442</GIVEN>
	<TABLE>0.4934569854155025 0.4765244024716794 0.026661216981520124 0.003357395131297964 0.14250356843009834 0.8257054947117828 0.031790936858118804 1.3400789285877836E-173 0.036824728641280766 0.9553949236920417 0.00754642164256072 2.339260241166242E-4 0.04023175471873462 0.9332220165273747 0.026546228753890674 4.0597E-320 0.002243952300094751 0.9975121335498112 2.439141500941462E-4 0.0 </TABLE>
</DEFINITION>

<DEFINITION>
	<FOR>x54904</FOR>
	<GIVEN>variable1442</GIVEN>
	<TABLE>0.47653233089882374 0.4969347550322096 0.02429474802786324 0.002238166041103443 0.14968983997004343 0.8135704494670368 0.03622451588044361 5.151946824762429E-4 0.037191885919762815 0.9604860874680347 0.0020942492779720424 2.2777733423048983E-4 0.03861552208657716 0.9324048353088672 0.02897964260455563 2.0725826872698676E-178 0.003066618196962784 0.9964322007964365 5.011810066007798E-4 0.0 </TABLE>
</DEFINITION>

<DEFINITION>
	<FOR>x5411</FOR>
	<GIVEN>variable1442</GIVEN>
	<TABLE>0.44085690886394385 0.4937531168334699 0.05602584458799938 0.00936412971458696 0.21986707716222545 0.7330121844443087 0.0444365522813903 0.002684186112075532 0.09387597575888423 0.9042846303632117 0.0018393938779039732 0.0 0.051072513581554665 0.916694744112339 0.030892034713950127 0.0013407075921563023 0.014660966293548853 0.9844121413618069 9.268923446442554E-4 0.0 </TABLE>
</DEFINITION>

<DEFINITION>
	<FOR>x55704</FOR>
	<GIVEN>variable1442</GIVEN>
	<TABLE>0.16801203160716222 0.7550524034858991 0.07245836009324534 0.004477204813693264 0.06391596997719685 0.8765533100653384 0.05852717494261723 0.0010035450148474974 0.013962847529162638 0.9832473020358129 0.002789850435024376 2.811374319809728E-54 0.029149142488436565 0.9626660420297781 0.00818481548178533 0.0 0.0011758271490258957 0.9980843835559028 7.397892950713115E-4 0.0 </TABLE>
</DEFINITION>

<DEFINITION>
	<FOR>x23077</FOR>
	<GIVEN>variable1442</GIVEN>
	<TABLE>0.3982472132656604 0.5838409355090098 0.01791185122532967 0.0 0.046094281647069114 0.9030360418491531 0.04685409992058284 0.00401557658319484 0.006223202045490088 0.9875243673429998 0.006252430611510186 6.184063299503966E-230 0.005241327176724431 0.9622873603151363 0.032471312508139304 0.0 1.3671975079740454E-4 0.9993308706940759 5.324095551266515E-4 0.0 </TABLE>
</DEFINITION>

<DEFINITION>
	<FOR>x4297</FOR>
	<GIVEN>variable1442</GIVEN>
	<TABLE>0.4314342437208895 0.5382348146306449 0.02701785684430363 0.0033130848041619558 0.07815187110355382 0.8576535101264461 0.0601592016886832 0.004035417081316841 0.01535101839007136 0.9776756564084225 0.0069733252015060695 2.4181073985314813E-216 0.02800647363045269 0.9527122112023053 0.019281315167241884 0.0 0.0018277292087321908 0.9978626962903503 3.0957450091754037E-4 0.0 </TABLE>
</DEFINITION>

<DEFINITION>
	<FOR>x55904</FOR>
	<GIVEN>variable1442</GIVEN>
	<TABLE>0.3129276696303196 0.6283352729221148 0.05425389931439471 0.004483158133170924 0.10258270277676952 0.8349922095060002 0.05723907182814419 0.005186015889086196 0.026942851058027895 0.967598790040382 0.0051356238991751854 3.227350024149516E-4 0.01940685457774922 0.94090724719186 0.03916240828999953 5.234899403911643E-4 0.003053244253088942 0.9966967258057042 2.500299412067951E-4 0.0 </TABLE>
</DEFINITION>

<DEFINITION>
	<FOR>x57035</FOR>
	<GIVEN>variable1442</GIVEN>
	<TABLE>0.3710777100401756 0.5944444834653732 0.029997260593842053 0.0044805459006092025 0.2007001929402388 0.7759662315569402 0.02158066352252701 0.0017529119802939788 0.048977767911419 0.9505164524173605 5.057796712204384E-4 0.0 0.024103187365496496 0.9146082788368677 0.060266520999146415 0.0010220127984894025 4.997787658463261E-4 0.9913677010298348 0.008132520204318847 0.0 </TABLE>
</DEFINITION>

<DEFINITION>
	<FOR>x6134</FOR>
	<GIVEN>variable1442</GIVEN>
	<TABLE>0.5553805851225411 0.3412894416879732 0.08952746976895996 0.013802503420525747 0.40474905886887563 0.5414832676142033 0.04950439075521655 0.004263282761704471 0.2662528905032137 0.7204295549540984 0.013004844944934996 3.12709597752759E-4 0.1540886554681735 0.7861206597889288 0.05931463598552587 4.7604875737174265E-4 0.1172484878120464 0.8801989466694604 0.0024465239086150503 1.0604160987804265E-4 </TABLE>
</DEFINITION>

<DEFINITION>
	<FOR>x54460</FOR>
	<GIVEN>variable1442</GIVEN>
	<TABLE>0.6747922313905532 0.25570163927462464 0.056597659716577535 0.012908469618244711 0.46171108360596463 0.4772635068288016 0.05390327512130915 0.00712213444392462 0.314567801948563 0.6737994885230135 0.011632709528423652 1.3948575056064739E-31 0.18838135252957292 0.743988683897509 0.06466021183205958 0.002969751740858416 0.09101441355352534 0.9067877036698991 0.00219788277657555 0.0 </TABLE>
</DEFINITION>

<DEFINITION>
	<FOR>x80205</FOR>
	<GIVEN>variable1442</GIVEN>
	<TABLE>0.27615257196267207 0.6250668806686331 0.08995729912214598 0.008823248246548768 0.11251574339181446 0.817198436329631 0.06717900178322128 0.003106818495333351 0.03948937208993493 0.9545238079208516 0.005986819989213594 0.0 0.032214677966500016 0.939262302129968 0.027736835646531382 7.861842570006497E-4 0.0030627315450630238 0.996584388822997 3.5287963193990753E-4 0.0 </TABLE>
</DEFINITION>

<DEFINITION>
	<FOR>x9324</FOR>
	<GIVEN>variable1442</GIVEN>
	<TABLE>0.372277611862074 0.5677535999917124 0.05253822963640546 0.007430558509808264 0.19182262055752003 0.752053681258042 0.05200355980976914 0.004120138374668933 0.08494465979820616 0.9125464861024601 0.002508854099333728 0.0 0.02159631942206658 0.921993743372601 0.055939778385606626 4.7015881972581574E-4 0.004934056628749965 0.9933779063927177 0.0016880369785323539 0.0 </TABLE>
</DEFINITION>

<DEFINITION>
	<FOR>x5789</FOR>
	<GIVEN>variable1442</GIVEN>
	<TABLE>0.4294413601258299 0.5092116195090839 0.055700498398777165 0.005646521966309081 0.2340030840594345 0.7215306673748677 0.041461492163713774 0.0030047564019840198 0.08079547765667612 0.9099308892919697 0.00927363305135422 2.3259501487455564E-45 0.04752171414159059 0.9036048185594107 0.04807015785663371 8.0330944236508E-4 9.92776783712241E-4 0.9964419417592633 0.0025652814570244296 0.0 </TABLE>
</DEFINITION>

<DEFINITION>
	<FOR>x140890</FOR>
	<GIVEN>variable1442</GIVEN>
	<TABLE>0.4863871337001016 0.42262337848614256 0.07351387118987865 0.01747561662387712 0.2641741092539023 0.6698613046176154 0.057591189356698325 0.008373396771784006 0.1202892452400214 0.8698145319651248 0.009896222794853702 6.3331853645337205E-86 0.11987302505357694 0.8316525078128104 0.04696334804819086 0.0015111190854217814 0.02503977233860879 0.9720785524411792 0.002881675220211968 0.0 </TABLE>
</DEFINITION>

<DEFINITION>
	<FOR>x23262</FOR>
	<GIVEN>variable1442</GIVEN>
	<TABLE>0.6356872797073801 0.330000915059754 0.02653617475453941 0.007775630478326276 0.30833047815303294 0.636622055641242 0.047529375565670495 0.007518090640054583 0.1603754547414115 0.8216843933928281 0.017940151865760375 8.774757971762502E-42 0.09434361976872754 0.8247897469138794 0.0763468966255699 0.0045197366918231265 0.027385587313055897 0.9697889743980865 0.00282543828885753 1.6808813679468045E-117 </TABLE>
</DEFINITION>

<DEFINITION>
	<FOR>x23112</FOR>
	<GIVEN>variable1442</GIVEN>
	<TABLE>0.3339228637585203 0.6119520322097801 0.04990395598724155 0.004221148044458174 0.06795353455893575 0.8766995287008771 0.05121890081468065 0.004128035925506515 0.013396783405204168 0.972764335099365 0.013838881495430895 1.26956395889334E-250 0.015533014901435306 0.9481014436359425 0.035139473106537845 0.0012260683560842863 0.0014108309628607372 0.9961966989777987 0.0023924700593405237 0.0 </TABLE>
</DEFINITION>

<DEFINITION>
	<FOR>x5101</FOR>
	<GIVEN>variable677</GIVEN>
	<TABLE>0.07678312672510348 0.8827136374993888 0.03791247426154294 0.002590761513964863 0.001327819930306295 0.9934943655555489 0.005177814514144866 0.0 0.10218898266316463 0.738082580097784 0.1428001410880181 0.01692829615103319 0.2677277085115575 0.7134607809209728 0.016964614247681267 0.0018468963197886587 1.7127533977660852E-4 0.9925200121231517 0.0073087125370716955 0.0 0.09856872539139101 0.897804534367269 0.0036267402413398724 0.0 0.0013010667710698584 0.9175021232532354 0.08074779532942174 4.490146462729221E-4 </TABLE>
</DEFINITION>

<DEFINITION>
	<FOR>x58517</FOR>
	<GIVEN>variable1442</GIVEN>
	<TABLE>0.2548882020846565 0.7189672972145814 0.024911053083209806 0.0012334476175522896 0.05340427266445497 0.8856532522207193 0.05811678442328296 0.002825690691542733 0.007906519661155912 0.9878167432455173 0.00427673709332683 7.419059493305646E-151 0.004509250659204928 0.9370527387004756 0.05669593258083138 0.0017420780594880737 2.5860477842967174E-127 0.9959220538844684 0.004077946115531499 1.1437925962222458E-114 </TABLE>
</DEFINITION>

<DEFINITION>
	<FOR>x54737</FOR>
	<GIVEN>variable1442</GIVEN>
	<TABLE>0.31496851753472005 0.6544041110425602 0.03062737142271971 1.7960220696710925E-148 0.05003546401436463 0.8450349871159981 0.09539255448454952 0.009536994385087774 0.0051149955024112565 0.9869319434191571 0.007953061078431587 2.4084421245963113E-198 0.0022301828766986345 0.9200701089188988 0.0776997082044025 3.439977615402714E-139 4.024018874766124E-4 0.9968726601716534 0.0027249379408700344 0.0 </TABLE>
</DEFINITION>

<DEFINITION>
	<FOR>x9295</FOR>
	<GIVEN>variable1442</GIVEN>
	<TABLE>0.2204461210062685 0.7213999642391964 0.05240718874147367 0.005746726013061477 0.042005991399652894 0.8978283575325521 0.05722178243869568 0.0029438686290993352 0.002875004357391697 0.9910831501872657 0.006041845455342461 0.0 0.00246534104312434 0.9375585104250328 0.059976148531842854 4.9E-324 2.9523448071695304E-231 0.9961387211308564 0.003861278869143547 0.0 </TABLE>
</DEFINITION>

<DEFINITION>
	<FOR>x9406</FOR>
	<GIVEN>variable1442</GIVEN>
	<TABLE>0.2735496719201552 0.6895664387243098 0.036883889355535014 2.4315744843268014E-49 0.03323103237205299 0.8936915378037619 0.07104295441806456 0.00203447540612062 0.004121229881687423 0.9913817168033343 0.004497053314978255 0.0 0.0015278631059699723 0.9180452844927591 0.0800404151647991 3.864372364719063E-4 1.70677796996879E-195 0.9983898306921765 0.0016101693078235011 0.0 </TABLE>
</DEFINITION>

<DEFINITION>
	<FOR>x9611</FOR>
	<GIVEN>variable1442</GIVEN>
	<TABLE>0.45485280367638464 0.45465518091450313 0.07609126238666548 0.014400753022446852 0.2146301166287085 0.6952477482439453 0.08341609273579717 0.0067060423915489544 0.08448792748649304 0.8931405454338814 0.022371527079623966 1.5896070071498875E-15 0.0531652755174591 0.8429237028201793 0.10225521292055857 0.0016558087418030597 0.010692478218259568 0.9824429306412822 0.006593142491158813 2.714486492994635E-4 </TABLE>
</DEFINITION>

<DEFINITION>
	<FOR>x7267</FOR>
	<GIVEN>variable1442</GIVEN>
	<TABLE>0.32140805373006626 0.6481080740501051 0.026500601131339646 0.003983271088488893 0.018787606829170144 0.8921525059441132 0.08485532250769108 0.004204564719025611 0.0013512442268192244 0.9876354124595592 0.011013343313621651 3.211007314680056E-164 0.002691248410154049 0.9181096732231693 0.07876475613529547 4.343222313811819E-4 4.101186114748986E-194 0.9931611700673563 0.0068388299326437455 0.0 </TABLE>
</DEFINITION>

<DEFINITION>
	<FOR>x51747</FOR>
	<GIVEN>variable1442</GIVEN>
	<TABLE>0.026888673653499444 0.8629610630082413 0.10177211433424692 0.008378149004012403 4.884396760514147E-4 0.8549343313350768 0.13478246568111632 0.009794763307755385 0.0 0.9937948509812504 0.0062051490187496 0.0 0.0 0.8019496432870437 0.19805035671295632 1.4455672486226822E-68 0.0 0.9935478895090144 0.006452110490985609 0.0 </TABLE>
</DEFINITION>

<DEFINITION>
	<FOR>x25957</FOR>
	<GIVEN>variable1442</GIVEN>
	<TABLE>0.05914660346116339 0.841561013288979 0.09027789110024415 0.009014492149613328 0.003793864831801303 0.8767850384942714 0.11743645231660024 0.00198464435732708 3.719855765747142E-4 0.9834492537254456 0.016178760697979872 0.0 0.0 0.8180431212643811 0.17991985642695577 0.002037022308663111 0.0 0.9880681434755638 0.011931856524436174 0.0 </TABLE>
</DEFINITION>

<DEFINITION>
	<FOR>x378938</FOR>
	<GIVEN>variable1442</GIVEN>
	<TABLE>0.0011191066038458834 0.8603179477787822 0.13583863939557564 0.0027243062217962187 3.692966313004034E-235 0.6881325198869576 0.30600732966821337 0.005860150444828996 0.0 0.8531006603554275 0.14689933964457244 6.901034273641211E-69 0.0 0.19320024788845028 0.7986815844270344 0.008118167684515308 0.0 0.5502703124700763 0.4497296875299238 1.3949025588822183E-110 </TABLE>
</DEFINITION>

<DEFINITION>
	<FOR>x114088</FOR>
	<GIVEN>variable1484</GIVEN>
	<TABLE>0.64804968782711 0.34342171465958565 0.008528597513304304 7.894437955776528E-35 0.0024221124020704205 0.9499827702968907 0.04625890614410239 0.001336211156936555 0.2522289252416618 0.7405158086706395 0.006901442086587353 3.53824001111443E-4 8.339383393704371E-4 0.9991660616606296 7.365262636991152E-32 3.62861251424575E-150 </TABLE>
</DEFINITION>

<DEFINITION>
	<FOR>x3778</FOR>
	<GIVEN>variable1484</GIVEN>
	<TABLE>0.8474040289643282 0.14598742799454656 0.006608543041125166 1.9100938926236314E-63 0.06049564528478894 0.8275991107585523 0.1080057546923027 0.0038994892643559663 0.3592489756627805 0.6184139930951941 0.02115528191799683 0.0011817493240286506 0.004532854380162884 0.9881235189327983 0.007343626687039006 1.1274167640676376E-114 </TABLE>
</DEFINITION>

<DEFINITION>
	<FOR>x55082</FOR>
	<GIVEN>variable1485</GIVEN>
	<TABLE>0.0029020109324589516 0.9960191145880211 0.001078874479519911 6.862881847424102E-70 5.599247629287071E-13 0.9975632167641633 0.002436783235276711 7.376453058450124E-76 3.676322936423113E-41 0.8984714491173457 0.10018072579492356 0.0013478250877306747 0.02429840010158714 0.8343538599371757 0.13062973443161477 0.010718005529622326 0.10104348885078755 0.8439521918697801 0.053824541143345395 0.0011797781360871097 </TABLE>
</DEFINITION>

<DEFINITION>
	<FOR>x9987</FOR>
	<GIVEN>variable1485</GIVEN>
	<TABLE>4.732266875808131E-8 0.982655223798066 0.01734472887926513 5.644782125903697E-75 1.2776629676731073E-4 0.9984576956945255 0.0014145380087073145 7.920019372926322E-174 0.0011801411148599959 0.8742664075330996 0.12455345135204042 2.30715505510365E-44 0.03183155607108354 0.7788960592893017 0.1791656170462182 0.010106767593396612 0.15808380324834825 0.8380798338543791 0.003492988934150396 3.433739631220889E-4 </TABLE>
</DEFINITION>

<DEFINITION>
	<FOR>x1655</FOR>
	<GIVEN>variable1485</GIVEN>
	<TABLE>0.008159353665410372 0.9817230530074552 0.01011759332713454 5.267245862309384E-18 2.140148405704389E-5 0.9939488816796463 0.0060297168362964705 2.0621618798195679E-85 0.004497158310481673 0.8359393573833407 0.15528098799409298 0.00428249631208475 0.028811412359753142 0.7397178181808978 0.2043010833650331 0.02716968609431612 0.14324133794570948 0.8034920293734791 0.049301377047114375 0.003965255633697043 </TABLE>
</DEFINITION>

<DEFINITION>
	<FOR>x780813</FOR>
	<GIVEN>variable1485</GIVEN>
	<TABLE>0.33630749797722975 0.6329104296904006 0.029715237449260863 0.0010668348831088653 0.010924181277833234 0.9703506937424939 0.018725124979672842 5.168067798964959E-50 0.030079616388402796 0.8996469413920727 0.06530677195037535 0.004966670269149183 0.49173532970831973 0.5075090228399236 7.556474517472495E-4 9.623424934070276E-15 0.2733411358049677 0.6990120352651155 0.02100374745102317 0.006643081478893595 </TABLE>
</DEFINITION>

<DEFINITION>
	<FOR>x6430</FOR>
	<GIVEN>variable1188</GIVEN>
	<TABLE>9.658706169060441E-5 0.9699503147882456 0.029953098150063764 0.0 0.06619574059612973 0.9299030657049209 0.0039011936989494247 3.417506337562172E-252 0.0131119742096572 0.8745508492745324 0.10551202335664348 0.006825153159166898 0.005164482935451132 0.906050268154415 0.08785488193261637 9.303669775174772E-4 1.210146071170855E-6 0.9645125407626388 0.03548624909128997 6.191895477117106E-304 0.007935819327359733 0.9920641806726403 1.789491051449008E-42 0.0 0.08256599128099303 0.8568322643889932 0.057479981914851486 0.0031217624151623014 0.10811449639350719 0.8339369515865712 0.0500911617290101 0.007857390290911528 </TABLE>
</DEFINITION>

<DEFINITION>
	<FOR>variable1483</FOR>
	<GIVEN>variable1188</GIVEN>
	<TABLE>0.3847833171367358 0.008173549000736894 0.21013067011343206 0.3969124637490952 0.13485716000111223 0.5760320765665642 0.014425362006430483 0.27468540142589326 0.3138026188660078 0.05783929911790371 0.602533948538698 0.02582413347739053 0.6107112118685001 0.01642827213084396 0.19170395040556937 0.1811565655950866 0.4502266973864658 3.000649488460331E-5 0.45402783760857407 0.09571545851007551 0.10055034158401842 0.21842146645689256 0.061683370714236435 0.6193448212448526 0.10343366720544882 0.19826225114500354 0.00848501202617753 0.68981906962337 0.21104597953173743 0.29500024648798445 0.08981323650100694 0.4041405374792711 </TABLE>
</DEFINITION>

<DEFINITION>
	<FOR>variable1484</FOR>
	<GIVEN>variable677</GIVEN>
	<TABLE>0.1971363701153153 0.010127603998750352 0.7927325252985702 3.5005873642452752E-6 2.9881625548745283E-29 0.13166193531360662 6.883852533763886E-4 0.867649679433017 0.8814224025648338 0.0013904869062392662 0.05978819879743369 0.0573989117314931 0.024416883541834033 0.22805325836183407 0.6910628139626371 0.05646704413369475 1.5507057384452164E-41 0.022970947676189044 9.242905829278872E-8 0.9770289598947526 1.5095606339407704E-4 0.006957639586496173 0.43594885493235713 0.5569425494177527 6.327031585958746E-31 0.9175444648616136 4.8386857917508526E-5 0.0824071482804689 </TABLE>
</DEFINITION>

<DEFINITION>
	<FOR>variable1485</FOR>
	<GIVEN>variable1188</GIVEN>
	<TABLE>0.004663310849192612 0.9952826839779052 5.400517290206998E-5 3.8015179097734745E-22 4.002744565183191E-19 0.2489484909555637 0.47878643087874545 1.5516172013518282E-7 5.0309739266936064E-14 0.27226492300392036 0.31799138391985793 0.005923319982103806 0.38319076607872543 0.25895984173834213 0.03393468828097059 0.12032623929707698 0.4719601732420716 0.4053092524422369 0.0024043344312868475 5.87327575983414E-10 0.4772040213740022 0.4883772546042428 0.026011272013688788 1.1076033925086106E-13 0.008407452007955389 0.05278776605043182 0.9370821021756652 5.92728222429552E-8 2.4222865688912705E-20 0.010130072501080618 0.1526906347991849 0.0036328967482973508 0.02569189226781751 0.15680246521438954 0.6611821109703108 1.9704460945903682E-4 3.8667216288745644E-14 1.5647736212432277E-8 0.47645949121818626 0.5233434485245798 </TABLE>
</DEFINITION>


</NETWORK>
</BIF>
