<?xml version="1.0" encoding="US-ASCII"?>


<!--
	Bayesian network in XMLBIF v0.3 (BayesNet Interchange Format)
	Produced by JavaBayes (http://www.cs.cmu.edu/~javabayes/
	Output created Thu Oct 10 12:03:34 GMT+04:00 2019
-->



<!-- DTD for the XMLBIF 0.3 format -->
<!DOCTYPE BIF [
	<!ELEMENT BIF ( NETWORK )*>
	      <!ATTLIST BIF VERSION CDATA #REQUIRED>
	<!ELEMENT NETWORK ( NAME, ( PROPERTY | VARIABLE | DEFINITION )* )>
	<!ELEMENT NAME (#PCDATA)>
	<!ELEMENT VARIABLE ( NAME, ( OUTCOME |  PROPERTY )* ) >
	      <!ATTLIST VARIABLE TYPE (nature|decision|utility) "nature">
	<!ELEMENT OUTCOME (#PCDATA)>
	<!ELEMENT DEFINITION ( FOR | GIVEN | TABLE | PROPERTY )* >
	<!ELEMENT FOR (#PCDATA)>
	<!ELEMENT GIVEN (#PCDATA)>
	<!ELEMENT TABLE (#PCDATA)>
	<!ELEMENT PROPERTY (#PCDATA)>
]>


<BIF VERSION="0.3">
<NETWORK>
<NAME>lcm</NAME>

<!-- Variables -->
<VARIABLE TYPE="nature">
	<NAME>x3324</NAME>
	<OUTCOME>0</OUTCOME>
	<OUTCOME>low</OUTCOME>
	<OUTCOME>medium</OUTCOME>
	<OUTCOME>high</OUTCOME>
	<PROPERTY>position = (100, 100)</PROPERTY>
</VARIABLE>

<VARIABLE TYPE="nature">
	<NAME>x26038</NAME>
	<OUTCOME>0</OUTCOME>
	<OUTCOME>low</OUTCOME>
	<OUTCOME>medium</OUTCOME>
	<OUTCOME>high</OUTCOME>
	<PROPERTY>position = (100, 100)</PROPERTY>
</VARIABLE>

<VARIABLE TYPE="nature">
	<NAME>x9456</NAME>
	<OUTCOME>0</OUTCOME>
	<OUTCOME>low</OUTCOME>
	<OUTCOME>medium</OUTCOME>
	<OUTCOME>high</OUTCOME>
	<PROPERTY>position = (100, 100)</PROPERTY>
</VARIABLE>

<VARIABLE TYPE="nature">
	<NAME>x334</NAME>
	<OUTCOME>0</OUTCOME>
	<OUTCOME>low</OUTCOME>
	<OUTCOME>medium</OUTCOME>
	<OUTCOME>high</OUTCOME>
	<PROPERTY>position = (100, 100)</PROPERTY>
</VARIABLE>

<VARIABLE TYPE="nature">
	<NAME>x6138</NAME>
	<OUTCOME>0</OUTCOME>
	<OUTCOME>low</OUTCOME>
	<OUTCOME>medium</OUTCOME>
	<OUTCOME>high</OUTCOME>
	<PROPERTY>position = (100, 100)</PROPERTY>
</VARIABLE>

<VARIABLE TYPE="nature">
	<NAME>x23253</NAME>
	<OUTCOME>0</OUTCOME>
	<OUTCOME>low</OUTCOME>
	<OUTCOME>medium</OUTCOME>
	<OUTCOME>high</OUTCOME>
	<PROPERTY>position = (100, 100)</PROPERTY>
</VARIABLE>

<VARIABLE TYPE="nature">
	<NAME>x94081</NAME>
	<OUTCOME>0</OUTCOME>
	<OUTCOME>low</OUTCOME>
	<OUTCOME>medium</OUTCOME>
	<OUTCOME>high</OUTCOME>
	<PROPERTY>position = (100, 100)</PROPERTY>
</VARIABLE>

<VARIABLE TYPE="nature">
	<NAME>x54843</NAME>
	<OUTCOME>0</OUTCOME>
	<OUTCOME>low</OUTCOME>
	<OUTCOME>medium</OUTCOME>
	<OUTCOME>high</OUTCOME>
	<PROPERTY>position = (100, 100)</PROPERTY>
</VARIABLE>

<VARIABLE TYPE="nature">
	<NAME>x3274</NAME>
	<OUTCOME>0</OUTCOME>
	<OUTCOME>low</OUTCOME>
	<OUTCOME>medium</OUTCOME>
	<OUTCOME>high</OUTCOME>
	<PROPERTY>position = (100, 100)</PROPERTY>
</VARIABLE>

<VARIABLE TYPE="nature">
	<NAME>x221692</NAME>
	<OUTCOME>0</OUTCOME>
	<OUTCOME>low</OUTCOME>
	<OUTCOME>medium</OUTCOME>
	<OUTCOME>high</OUTCOME>
	<PROPERTY>position = (100, 100)</PROPERTY>
</VARIABLE>

<VARIABLE TYPE="nature">
	<NAME>x6000</NAME>
	<OUTCOME>0</OUTCOME>
	<OUTCOME>low</OUTCOME>
	<OUTCOME>medium</OUTCOME>
	<OUTCOME>high</OUTCOME>
	<PROPERTY>position = (100, 100)</PROPERTY>
</VARIABLE>

<VARIABLE TYPE="nature">
	<NAME>x254531</NAME>
	<OUTCOME>0</OUTCOME>
	<OUTCOME>low</OUTCOME>
	<OUTCOME>medium</OUTCOME>
	<OUTCOME>high</OUTCOME>
	<PROPERTY>position = (100, 100)</PROPERTY>
</VARIABLE>

<VARIABLE TYPE="nature">
	<NAME>x2908</NAME>
	<OUTCOME>0</OUTCOME>
	<OUTCOME>low</OUTCOME>
	<OUTCOME>medium</OUTCOME>
	<OUTCOME>high</OUTCOME>
	<PROPERTY>position = (100, 100)</PROPERTY>
</VARIABLE>

<VARIABLE TYPE="nature">
	<NAME>x100130155</NAME>
	<OUTCOME>0</OUTCOME>
	<OUTCOME>low</OUTCOME>
	<OUTCOME>medium</OUTCOME>
	<OUTCOME>high</OUTCOME>
	<PROPERTY>position = (100, 100)</PROPERTY>
</VARIABLE>

<VARIABLE TYPE="nature">
	<NAME>x114088</NAME>
	<OUTCOME>0</OUTCOME>
	<OUTCOME>low</OUTCOME>
	<OUTCOME>medium</OUTCOME>
	<OUTCOME>high</OUTCOME>
	<PROPERTY>position = (100, 100)</PROPERTY>
</VARIABLE>

<VARIABLE TYPE="nature">
	<NAME>x23230</NAME>
	<OUTCOME>0</OUTCOME>
	<OUTCOME>low</OUTCOME>
	<OUTCOME>medium</OUTCOME>
	<OUTCOME>high</OUTCOME>
	<PROPERTY>position = (100, 100)</PROPERTY>
</VARIABLE>

<VARIABLE TYPE="nature">
	<NAME>x116966</NAME>
	<OUTCOME>0</OUTCOME>
	<OUTCOME>low</OUTCOME>
	<OUTCOME>medium</OUTCOME>
	<OUTCOME>high</OUTCOME>
	<PROPERTY>position = (100, 100)</PROPERTY>
</VARIABLE>

<VARIABLE TYPE="nature">
	<NAME>x64062</NAME>
	<OUTCOME>0</OUTCOME>
	<OUTCOME>low</OUTCOME>
	<OUTCOME>medium</OUTCOME>
	<OUTCOME>high</OUTCOME>
	<PROPERTY>position = (100, 100)</PROPERTY>
</VARIABLE>

<VARIABLE TYPE="nature">
	<NAME>x9645</NAME>
	<OUTCOME>0</OUTCOME>
	<OUTCOME>low</OUTCOME>
	<OUTCOME>medium</OUTCOME>
	<OUTCOME>high</OUTCOME>
	<PROPERTY>position = (100, 100)</PROPERTY>
</VARIABLE>

<VARIABLE TYPE="nature">
	<NAME>x6262</NAME>
	<OUTCOME>0</OUTCOME>
	<OUTCOME>low</OUTCOME>
	<OUTCOME>medium</OUTCOME>
	<OUTCOME>high</OUTCOME>
	<PROPERTY>position = (100, 100)</PROPERTY>
</VARIABLE>

<VARIABLE TYPE="nature">
	<NAME>x55814</NAME>
	<OUTCOME>0</OUTCOME>
	<OUTCOME>low</OUTCOME>
	<OUTCOME>medium</OUTCOME>
	<OUTCOME>high</OUTCOME>
	<PROPERTY>position = (100, 100)</PROPERTY>
</VARIABLE>

<VARIABLE TYPE="nature">
	<NAME>x23613</NAME>
	<OUTCOME>0</OUTCOME>
	<OUTCOME>low</OUTCOME>
	<OUTCOME>medium</OUTCOME>
	<OUTCOME>high</OUTCOME>
	<PROPERTY>position = (100, 100)</PROPERTY>
</VARIABLE>

<VARIABLE TYPE="nature">
	<NAME>x10147</NAME>
	<OUTCOME>0</OUTCOME>
	<OUTCOME>low</OUTCOME>
	<OUTCOME>medium</OUTCOME>
	<OUTCOME>high</OUTCOME>
	<PROPERTY>position = (100, 100)</PROPERTY>
</VARIABLE>

<VARIABLE TYPE="nature">
	<NAME>x54904</NAME>
	<OUTCOME>0</OUTCOME>
	<OUTCOME>low</OUTCOME>
	<OUTCOME>medium</OUTCOME>
	<OUTCOME>high</OUTCOME>
	<PROPERTY>position = (100, 100)</PROPERTY>
</VARIABLE>

<VARIABLE TYPE="nature">
	<NAME>x4898</NAME>
	<OUTCOME>0</OUTCOME>
	<OUTCOME>low</OUTCOME>
	<OUTCOME>medium</OUTCOME>
	<OUTCOME>high</OUTCOME>
	<PROPERTY>position = (100, 100)</PROPERTY>
</VARIABLE>

<VARIABLE TYPE="nature">
	<NAME>x5411</NAME>
	<OUTCOME>0</OUTCOME>
	<OUTCOME>low</OUTCOME>
	<OUTCOME>medium</OUTCOME>
	<OUTCOME>high</OUTCOME>
	<PROPERTY>position = (100, 100)</PROPERTY>
</VARIABLE>

<VARIABLE TYPE="nature">
	<NAME>x55704</NAME>
	<OUTCOME>0</OUTCOME>
	<OUTCOME>low</OUTCOME>
	<OUTCOME>medium</OUTCOME>
	<OUTCOME>high</OUTCOME>
	<PROPERTY>position = (100, 100)</PROPERTY>
</VARIABLE>

<VARIABLE TYPE="nature">
	<NAME>x440270</NAME>
	<OUTCOME>0</OUTCOME>
	<OUTCOME>low</OUTCOME>
	<OUTCOME>medium</OUTCOME>
	<OUTCOME>high</OUTCOME>
	<PROPERTY>position = (100, 100)</PROPERTY>
</VARIABLE>

<VARIABLE TYPE="nature">
	<NAME>x4897</NAME>
	<OUTCOME>0</OUTCOME>
	<OUTCOME>low</OUTCOME>
	<OUTCOME>medium</OUTCOME>
	<OUTCOME>high</OUTCOME>
	<PROPERTY>position = (100, 100)</PROPERTY>
</VARIABLE>

<VARIABLE TYPE="nature">
	<NAME>x23077</NAME>
	<OUTCOME>0</OUTCOME>
	<OUTCOME>low</OUTCOME>
	<OUTCOME>medium</OUTCOME>
	<OUTCOME>high</OUTCOME>
	<PROPERTY>position = (100, 100)</PROPERTY>
</VARIABLE>

<VARIABLE TYPE="nature">
	<NAME>x3535</NAME>
	<OUTCOME>0</OUTCOME>
	<OUTCOME>low</OUTCOME>
	<OUTCOME>medium</OUTCOME>
	<OUTCOME>high</OUTCOME>
	<PROPERTY>position = (100, 100)</PROPERTY>
</VARIABLE>

<VARIABLE TYPE="nature">
	<NAME>x9284</NAME>
	<OUTCOME>0</OUTCOME>
	<OUTCOME>low</OUTCOME>
	<OUTCOME>medium</OUTCOME>
	<OUTCOME>high</OUTCOME>
	<PROPERTY>position = (100, 100)</PROPERTY>
</VARIABLE>

<VARIABLE TYPE="nature">
	<NAME>x5310</NAME>
	<OUTCOME>0</OUTCOME>
	<OUTCOME>low</OUTCOME>
	<OUTCOME>medium</OUTCOME>
	<OUTCOME>high</OUTCOME>
	<PROPERTY>position = (100, 100)</PROPERTY>
</VARIABLE>

<VARIABLE TYPE="nature">
	<NAME>x4297</NAME>
	<OUTCOME>0</OUTCOME>
	<OUTCOME>low</OUTCOME>
	<OUTCOME>medium</OUTCOME>
	<OUTCOME>high</OUTCOME>
	<PROPERTY>position = (100, 100)</PROPERTY>
</VARIABLE>

<VARIABLE TYPE="nature">
	<NAME>x5297</NAME>
	<OUTCOME>0</OUTCOME>
	<OUTCOME>low</OUTCOME>
	<OUTCOME>medium</OUTCOME>
	<OUTCOME>high</OUTCOME>
	<PROPERTY>position = (100, 100)</PROPERTY>
</VARIABLE>

<VARIABLE TYPE="nature">
	<NAME>x8499</NAME>
	<OUTCOME>0</OUTCOME>
	<OUTCOME>low</OUTCOME>
	<OUTCOME>medium</OUTCOME>
	<OUTCOME>high</OUTCOME>
	<PROPERTY>position = (100, 100)</PROPERTY>
</VARIABLE>

<VARIABLE TYPE="nature">
	<NAME>x55904</NAME>
	<OUTCOME>0</OUTCOME>
	<OUTCOME>low</OUTCOME>
	<OUTCOME>medium</OUTCOME>
	<OUTCOME>high</OUTCOME>
	<PROPERTY>position = (100, 100)</PROPERTY>
</VARIABLE>

<VARIABLE TYPE="nature">
	<NAME>x57035</NAME>
	<OUTCOME>0</OUTCOME>
	<OUTCOME>low</OUTCOME>
	<OUTCOME>medium</OUTCOME>
	<OUTCOME>high</OUTCOME>
	<PROPERTY>position = (100, 100)</PROPERTY>
</VARIABLE>

<VARIABLE TYPE="nature">
	<NAME>x10905</NAME>
	<OUTCOME>0</OUTCOME>
	<OUTCOME>low</OUTCOME>
	<OUTCOME>medium</OUTCOME>
	<OUTCOME>high</OUTCOME>
	<PROPERTY>position = (100, 100)</PROPERTY>
</VARIABLE>

<VARIABLE TYPE="nature">
	<NAME>x28978</NAME>
	<OUTCOME>0</OUTCOME>
	<OUTCOME>low</OUTCOME>
	<OUTCOME>medium</OUTCOME>
	<OUTCOME>high</OUTCOME>
	<PROPERTY>position = (100, 100)</PROPERTY>
</VARIABLE>

<VARIABLE TYPE="nature">
	<NAME>x6134</NAME>
	<OUTCOME>0</OUTCOME>
	<OUTCOME>low</OUTCOME>
	<OUTCOME>medium</OUTCOME>
	<OUTCOME>high</OUTCOME>
	<PROPERTY>position = (100, 100)</PROPERTY>
</VARIABLE>

<VARIABLE TYPE="nature">
	<NAME>x54460</NAME>
	<OUTCOME>0</OUTCOME>
	<OUTCOME>low</OUTCOME>
	<OUTCOME>medium</OUTCOME>
	<OUTCOME>high</OUTCOME>
	<PROPERTY>position = (100, 100)</PROPERTY>
</VARIABLE>

<VARIABLE TYPE="nature">
	<NAME>x80205</NAME>
	<OUTCOME>0</OUTCOME>
	<OUTCOME>low</OUTCOME>
	<OUTCOME>medium</OUTCOME>
	<OUTCOME>high</OUTCOME>
	<PROPERTY>position = (100, 100)</PROPERTY>
</VARIABLE>

<VARIABLE TYPE="nature">
	<NAME>x56853</NAME>
	<OUTCOME>0</OUTCOME>
	<OUTCOME>low</OUTCOME>
	<OUTCOME>medium</OUTCOME>
	<OUTCOME>high</OUTCOME>
	<PROPERTY>position = (100, 100)</PROPERTY>
</VARIABLE>

<VARIABLE TYPE="nature">
	<NAME>x577</NAME>
	<OUTCOME>0</OUTCOME>
	<OUTCOME>low</OUTCOME>
	<OUTCOME>medium</OUTCOME>
	<OUTCOME>high</OUTCOME>
	<PROPERTY>position = (100, 100)</PROPERTY>
</VARIABLE>

<VARIABLE TYPE="nature">
	<NAME>x9324</NAME>
	<OUTCOME>0</OUTCOME>
	<OUTCOME>low</OUTCOME>
	<OUTCOME>medium</OUTCOME>
	<OUTCOME>high</OUTCOME>
	<PROPERTY>position = (100, 100)</PROPERTY>
</VARIABLE>

<VARIABLE TYPE="nature">
	<NAME>x5789</NAME>
	<OUTCOME>0</OUTCOME>
	<OUTCOME>low</OUTCOME>
	<OUTCOME>medium</OUTCOME>
	<OUTCOME>high</OUTCOME>
	<PROPERTY>position = (100, 100)</PROPERTY>
</VARIABLE>

<VARIABLE TYPE="nature">
	<NAME>x54212</NAME>
	<OUTCOME>0</OUTCOME>
	<OUTCOME>low</OUTCOME>
	<OUTCOME>medium</OUTCOME>
	<OUTCOME>high</OUTCOME>
	<PROPERTY>position = (100, 100)</PROPERTY>
</VARIABLE>

<VARIABLE TYPE="nature">
	<NAME>x4331</NAME>
	<OUTCOME>0</OUTCOME>
	<OUTCOME>low</OUTCOME>
	<OUTCOME>medium</OUTCOME>
	<OUTCOME>high</OUTCOME>
	<PROPERTY>position = (100, 100)</PROPERTY>
</VARIABLE>

<VARIABLE TYPE="nature">
	<NAME>x64848</NAME>
	<OUTCOME>0</OUTCOME>
	<OUTCOME>low</OUTCOME>
	<OUTCOME>medium</OUTCOME>
	<OUTCOME>high</OUTCOME>
	<PROPERTY>position = (100, 100)</PROPERTY>
</VARIABLE>

<VARIABLE TYPE="nature">
	<NAME>x6432</NAME>
	<OUTCOME>0</OUTCOME>
	<OUTCOME>low</OUTCOME>
	<OUTCOME>medium</OUTCOME>
	<OUTCOME>high</OUTCOME>
	<PROPERTY>position = (100, 100)</PROPERTY>
</VARIABLE>

<VARIABLE TYPE="nature">
	<NAME>x5144</NAME>
	<OUTCOME>0</OUTCOME>
	<OUTCOME>low</OUTCOME>
	<OUTCOME>medium</OUTCOME>
	<OUTCOME>high</OUTCOME>
	<PROPERTY>position = (100, 100)</PROPERTY>
</VARIABLE>

<VARIABLE TYPE="nature">
	<NAME>x140890</NAME>
	<OUTCOME>0</OUTCOME>
	<OUTCOME>low</OUTCOME>
	<OUTCOME>medium</OUTCOME>
	<OUTCOME>high</OUTCOME>
	<PROPERTY>position = (100, 100)</PROPERTY>
</VARIABLE>

<VARIABLE TYPE="nature">
	<NAME>x23262</NAME>
	<OUTCOME>0</OUTCOME>
	<OUTCOME>low</OUTCOME>
	<OUTCOME>medium</OUTCOME>
	<OUTCOME>high</OUTCOME>
	<PROPERTY>position = (100, 100)</PROPERTY>
</VARIABLE>

<VARIABLE TYPE="nature">
	<NAME>x9475</NAME>
	<OUTCOME>0</OUTCOME>
	<OUTCOME>low</OUTCOME>
	<OUTCOME>medium</OUTCOME>
	<OUTCOME>high</OUTCOME>
	<PROPERTY>position = (100, 100)</PROPERTY>
</VARIABLE>

<VARIABLE TYPE="nature">
	<NAME>x8997</NAME>
	<OUTCOME>0</OUTCOME>
	<OUTCOME>low</OUTCOME>
	<OUTCOME>medium</OUTCOME>
	<OUTCOME>high</OUTCOME>
	<PROPERTY>position = (100, 100)</PROPERTY>
</VARIABLE>

<VARIABLE TYPE="nature">
	<NAME>x55082</NAME>
	<OUTCOME>0</OUTCOME>
	<OUTCOME>low</OUTCOME>
	<OUTCOME>medium</OUTCOME>
	<OUTCOME>high</OUTCOME>
	<PROPERTY>position = (100, 100)</PROPERTY>
</VARIABLE>

<VARIABLE TYPE="nature">
	<NAME>x9699</NAME>
	<OUTCOME>0</OUTCOME>
	<OUTCOME>low</OUTCOME>
	<OUTCOME>medium</OUTCOME>
	<OUTCOME>high</OUTCOME>
	<PROPERTY>position = (100, 100)</PROPERTY>
</VARIABLE>

<VARIABLE TYPE="nature">
	<NAME>x10439</NAME>
	<OUTCOME>0</OUTCOME>
	<OUTCOME>low</OUTCOME>
	<OUTCOME>medium</OUTCOME>
	<OUTCOME>high</OUTCOME>
	<PROPERTY>position = (100, 100)</PROPERTY>
</VARIABLE>

<VARIABLE TYPE="nature">
	<NAME>x9987</NAME>
	<OUTCOME>0</OUTCOME>
	<OUTCOME>low</OUTCOME>
	<OUTCOME>medium</OUTCOME>
	<OUTCOME>high</OUTCOME>
	<PROPERTY>position = (100, 100)</PROPERTY>
</VARIABLE>

<VARIABLE TYPE="nature">
	<NAME>x4673</NAME>
	<OUTCOME>0</OUTCOME>
	<OUTCOME>low</OUTCOME>
	<OUTCOME>medium</OUTCOME>
	<OUTCOME>high</OUTCOME>
	<PROPERTY>position = (100, 100)</PROPERTY>
</VARIABLE>

<VARIABLE TYPE="nature">
	<NAME>x23112</NAME>
	<OUTCOME>0</OUTCOME>
	<OUTCOME>low</OUTCOME>
	<OUTCOME>medium</OUTCOME>
	<OUTCOME>high</OUTCOME>
	<PROPERTY>position = (100, 100)</PROPERTY>
</VARIABLE>

<VARIABLE TYPE="nature">
	<NAME>x57468</NAME>
	<OUTCOME>0</OUTCOME>
	<OUTCOME>low</OUTCOME>
	<OUTCOME>medium</OUTCOME>
	<OUTCOME>high</OUTCOME>
	<PROPERTY>position = (100, 100)</PROPERTY>
</VARIABLE>

<VARIABLE TYPE="nature">
	<NAME>x9515</NAME>
	<OUTCOME>0</OUTCOME>
	<OUTCOME>low</OUTCOME>
	<OUTCOME>medium</OUTCOME>
	<OUTCOME>high</OUTCOME>
	<PROPERTY>position = (100, 100)</PROPERTY>
</VARIABLE>

<VARIABLE TYPE="nature">
	<NAME>x3778</NAME>
	<OUTCOME>0</OUTCOME>
	<OUTCOME>low</OUTCOME>
	<OUTCOME>medium</OUTCOME>
	<OUTCOME>high</OUTCOME>
	<PROPERTY>position = (100, 100)</PROPERTY>
</VARIABLE>

<VARIABLE TYPE="nature">
	<NAME>x55294</NAME>
	<OUTCOME>0</OUTCOME>
	<OUTCOME>low</OUTCOME>
	<OUTCOME>medium</OUTCOME>
	<OUTCOME>high</OUTCOME>
	<PROPERTY>position = (100, 100)</PROPERTY>
</VARIABLE>

<VARIABLE TYPE="nature">
	<NAME>x23518</NAME>
	<OUTCOME>0</OUTCOME>
	<OUTCOME>low</OUTCOME>
	<OUTCOME>medium</OUTCOME>
	<OUTCOME>high</OUTCOME>
	<PROPERTY>position = (100, 100)</PROPERTY>
</VARIABLE>

<VARIABLE TYPE="nature">
	<NAME>x5101</NAME>
	<OUTCOME>0</OUTCOME>
	<OUTCOME>low</OUTCOME>
	<OUTCOME>medium</OUTCOME>
	<OUTCOME>high</OUTCOME>
	<PROPERTY>position = (100, 100)</PROPERTY>
</VARIABLE>

<VARIABLE TYPE="nature">
	<NAME>x6894</NAME>
	<OUTCOME>0</OUTCOME>
	<OUTCOME>low</OUTCOME>
	<OUTCOME>medium</OUTCOME>
	<OUTCOME>high</OUTCOME>
	<PROPERTY>position = (100, 100)</PROPERTY>
</VARIABLE>

<VARIABLE TYPE="nature">
	<NAME>x285175</NAME>
	<OUTCOME>0</OUTCOME>
	<OUTCOME>low</OUTCOME>
	<OUTCOME>medium</OUTCOME>
	<OUTCOME>high</OUTCOME>
	<PROPERTY>position = (100, 100)</PROPERTY>
</VARIABLE>

<VARIABLE TYPE="nature">
	<NAME>x286411</NAME>
	<OUTCOME>0</OUTCOME>
	<OUTCOME>low</OUTCOME>
	<OUTCOME>medium</OUTCOME>
	<OUTCOME>high</OUTCOME>
	<PROPERTY>position = (100, 100)</PROPERTY>
</VARIABLE>

<VARIABLE TYPE="nature">
	<NAME>x54715</NAME>
	<OUTCOME>0</OUTCOME>
	<OUTCOME>low</OUTCOME>
	<OUTCOME>medium</OUTCOME>
	<OUTCOME>high</OUTCOME>
	<PROPERTY>position = (100, 100)</PROPERTY>
</VARIABLE>

<VARIABLE TYPE="nature">
	<NAME>x10915</NAME>
	<OUTCOME>0</OUTCOME>
	<OUTCOME>low</OUTCOME>
	<OUTCOME>medium</OUTCOME>
	<OUTCOME>high</OUTCOME>
	<PROPERTY>position = (100, 100)</PROPERTY>
</VARIABLE>

<VARIABLE TYPE="nature">
	<NAME>x58517</NAME>
	<OUTCOME>0</OUTCOME>
	<OUTCOME>low</OUTCOME>
	<OUTCOME>medium</OUTCOME>
	<OUTCOME>high</OUTCOME>
	<PROPERTY>position = (100, 100)</PROPERTY>
</VARIABLE>

<VARIABLE TYPE="nature">
	<NAME>x55112</NAME>
	<OUTCOME>0</OUTCOME>
	<OUTCOME>low</OUTCOME>
	<OUTCOME>medium</OUTCOME>
	<OUTCOME>high</OUTCOME>
	<PROPERTY>position = (100, 100)</PROPERTY>
</VARIABLE>

<VARIABLE TYPE="nature">
	<NAME>x1655</NAME>
	<OUTCOME>0</OUTCOME>
	<OUTCOME>low</OUTCOME>
	<OUTCOME>medium</OUTCOME>
	<OUTCOME>high</OUTCOME>
	<PROPERTY>position = (100, 100)</PROPERTY>
</VARIABLE>

<VARIABLE TYPE="nature">
	<NAME>x8925</NAME>
	<OUTCOME>0</OUTCOME>
	<OUTCOME>low</OUTCOME>
	<OUTCOME>medium</OUTCOME>
	<OUTCOME>high</OUTCOME>
	<PROPERTY>position = (100, 100)</PROPERTY>
</VARIABLE>

<VARIABLE TYPE="nature">
	<NAME>x780813</NAME>
	<OUTCOME>0</OUTCOME>
	<OUTCOME>low</OUTCOME>
	<OUTCOME>medium</OUTCOME>
	<OUTCOME>high</OUTCOME>
	<PROPERTY>position = (100, 100)</PROPERTY>
</VARIABLE>

<VARIABLE TYPE="nature">
	<NAME>x347746</NAME>
	<OUTCOME>0</OUTCOME>
	<OUTCOME>low</OUTCOME>
	<OUTCOME>medium</OUTCOME>
	<OUTCOME>high</OUTCOME>
	<PROPERTY>position = (100, 100)</PROPERTY>
</VARIABLE>

<VARIABLE TYPE="nature">
	<NAME>x54737</NAME>
	<OUTCOME>0</OUTCOME>
	<OUTCOME>low</OUTCOME>
	<OUTCOME>medium</OUTCOME>
	<OUTCOME>high</OUTCOME>
	<PROPERTY>position = (100, 100)</PROPERTY>
</VARIABLE>

<VARIABLE TYPE="nature">
	<NAME>x9295</NAME>
	<OUTCOME>0</OUTCOME>
	<OUTCOME>low</OUTCOME>
	<OUTCOME>medium</OUTCOME>
	<OUTCOME>high</OUTCOME>
	<PROPERTY>position = (100, 100)</PROPERTY>
</VARIABLE>

<VARIABLE TYPE="nature">
	<NAME>x7345</NAME>
	<OUTCOME>0</OUTCOME>
	<OUTCOME>low</OUTCOME>
	<OUTCOME>medium</OUTCOME>
	<OUTCOME>high</OUTCOME>
	<PROPERTY>position = (100, 100)</PROPERTY>
</VARIABLE>

<VARIABLE TYPE="nature">
	<NAME>x151613</NAME>
	<OUTCOME>0</OUTCOME>
	<OUTCOME>low</OUTCOME>
	<OUTCOME>medium</OUTCOME>
	<OUTCOME>high</OUTCOME>
	<PROPERTY>position = (100, 100)</PROPERTY>
</VARIABLE>

<VARIABLE TYPE="nature">
	<NAME>x100128906</NAME>
	<OUTCOME>0</OUTCOME>
	<OUTCOME>low</OUTCOME>
	<OUTCOME>medium</OUTCOME>
	<OUTCOME>high</OUTCOME>
	<PROPERTY>position = (100, 100)</PROPERTY>
</VARIABLE>

<VARIABLE TYPE="nature">
	<NAME>x490</NAME>
	<OUTCOME>0</OUTCOME>
	<OUTCOME>low</OUTCOME>
	<OUTCOME>medium</OUTCOME>
	<OUTCOME>high</OUTCOME>
	<PROPERTY>position = (100, 100)</PROPERTY>
</VARIABLE>

<VARIABLE TYPE="nature">
	<NAME>x9406</NAME>
	<OUTCOME>0</OUTCOME>
	<OUTCOME>low</OUTCOME>
	<OUTCOME>medium</OUTCOME>
	<OUTCOME>high</OUTCOME>
	<PROPERTY>position = (100, 100)</PROPERTY>
</VARIABLE>

<VARIABLE TYPE="nature">
	<NAME>x4133</NAME>
	<OUTCOME>0</OUTCOME>
	<OUTCOME>low</OUTCOME>
	<OUTCOME>medium</OUTCOME>
	<OUTCOME>high</OUTCOME>
	<PROPERTY>position = (100, 100)</PROPERTY>
</VARIABLE>

<VARIABLE TYPE="nature">
	<NAME>x2823</NAME>
	<OUTCOME>0</OUTCOME>
	<OUTCOME>low</OUTCOME>
	<OUTCOME>medium</OUTCOME>
	<OUTCOME>high</OUTCOME>
	<PROPERTY>position = (100, 100)</PROPERTY>
</VARIABLE>

<VARIABLE TYPE="nature">
	<NAME>x9611</NAME>
	<OUTCOME>0</OUTCOME>
	<OUTCOME>low</OUTCOME>
	<OUTCOME>medium</OUTCOME>
	<OUTCOME>high</OUTCOME>
	<PROPERTY>position = (100, 100)</PROPERTY>
</VARIABLE>

<VARIABLE TYPE="nature">
	<NAME>x6430</NAME>
	<OUTCOME>0</OUTCOME>
	<OUTCOME>low</OUTCOME>
	<OUTCOME>medium</OUTCOME>
	<OUTCOME>high</OUTCOME>
	<PROPERTY>position = (100, 100)</PROPERTY>
</VARIABLE>

<VARIABLE TYPE="nature">
	<NAME>x1759</NAME>
	<OUTCOME>0</OUTCOME>
	<OUTCOME>low</OUTCOME>
	<OUTCOME>medium</OUTCOME>
	<OUTCOME>high</OUTCOME>
	<PROPERTY>position = (100, 100)</PROPERTY>
</VARIABLE>

<VARIABLE TYPE="nature">
	<NAME>x7267</NAME>
	<OUTCOME>0</OUTCOME>
	<OUTCOME>low</OUTCOME>
	<OUTCOME>medium</OUTCOME>
	<OUTCOME>high</OUTCOME>
	<PROPERTY>position = (100, 100)</PROPERTY>
</VARIABLE>

<VARIABLE TYPE="nature">
	<NAME>x1479</NAME>
	<OUTCOME>0</OUTCOME>
	<OUTCOME>low</OUTCOME>
	<OUTCOME>medium</OUTCOME>
	<OUTCOME>high</OUTCOME>
	<PROPERTY>position = (100, 100)</PROPERTY>
</VARIABLE>

<VARIABLE TYPE="nature">
	<NAME>x2891</NAME>
	<OUTCOME>0</OUTCOME>
	<OUTCOME>low</OUTCOME>
	<OUTCOME>medium</OUTCOME>
	<OUTCOME>high</OUTCOME>
	<PROPERTY>position = (100, 100)</PROPERTY>
</VARIABLE>

<VARIABLE TYPE="nature">
	<NAME>x10777</NAME>
	<OUTCOME>0</OUTCOME>
	<OUTCOME>low</OUTCOME>
	<OUTCOME>medium</OUTCOME>
	<OUTCOME>high</OUTCOME>
	<PROPERTY>position = (100, 100)</PROPERTY>
</VARIABLE>

<VARIABLE TYPE="nature">
	<NAME>x51747</NAME>
	<OUTCOME>0</OUTCOME>
	<OUTCOME>low</OUTCOME>
	<OUTCOME>medium</OUTCOME>
	<OUTCOME>high</OUTCOME>
	<PROPERTY>position = (100, 100)</PROPERTY>
</VARIABLE>

<VARIABLE TYPE="nature">
	<NAME>x25957</NAME>
	<OUTCOME>0</OUTCOME>
	<OUTCOME>low</OUTCOME>
	<OUTCOME>medium</OUTCOME>
	<OUTCOME>high</OUTCOME>
	<PROPERTY>position = (100, 100)</PROPERTY>
</VARIABLE>

<VARIABLE TYPE="nature">
	<NAME>x378938</NAME>
	<OUTCOME>0</OUTCOME>
	<OUTCOME>low</OUTCOME>
	<OUTCOME>medium</OUTCOME>
	<OUTCOME>high</OUTCOME>
	<PROPERTY>position = (100, 100)</PROPERTY>
</VARIABLE>

<VARIABLE TYPE="nature">
	<NAME>x55384</NAME>
	<OUTCOME>0</OUTCOME>
	<OUTCOME>low</OUTCOME>
	<OUTCOME>medium</OUTCOME>
	<OUTCOME>high</OUTCOME>
	<PROPERTY>position = (100, 100)</PROPERTY>
</VARIABLE>

<VARIABLE TYPE="nature">
	<NAME>x440823</NAME>
	<OUTCOME>0</OUTCOME>
	<OUTCOME>low</OUTCOME>
	<OUTCOME>medium</OUTCOME>
	<OUTCOME>high</OUTCOME>
	<PROPERTY>position = (100, 100)</PROPERTY>
</VARIABLE>

<VARIABLE TYPE="nature">
	<NAME>clustVar</NAME>
	<OUTCOME>state0</OUTCOME>
	<OUTCOME>state1</OUTCOME>
	<OUTCOME>state2</OUTCOME>
	<OUTCOME>state3</OUTCOME>
	<OUTCOME>state4</OUTCOME>
	<OUTCOME>state5</OUTCOME>
	<OUTCOME>state6</OUTCOME>
	<OUTCOME>state7</OUTCOME>
	<OUTCOME>state8</OUTCOME>
	<OUTCOME>state9</OUTCOME>
	<PROPERTY>position = (100, 100)</PROPERTY>
</VARIABLE>


<!-- Probability distributions -->
<DEFINITION>
	<FOR>x3324</FOR>
	<GIVEN>clustVar</GIVEN>
	<TABLE>0.15538885236838573 0.84302880014037 7.911729882532771E-4 7.911745029910649E-4 0.4081675565018118 0.5864963513716057 0.0026678802030212292 0.002668211923561411 0.30747108583407257 0.6916726598010413 4.2812658566142726E-4 4.281277792247209E-4 0.6495244940474394 0.3487454393693279 8.646067651069041E-4 8.65459818125835E-4 0.6498436330625961 0.3492647024639833 4.4583217249477835E-4 4.458323009258987E-4 0.6994409478478105 0.2969640341983313 0.001797508976929081 0.001797508976929081 0.3314980591073071 0.6673099429065906 5.959989930388081E-4 5.959989930633288E-4 0.4378431441716404 0.5553687941521791 0.0022635292327245204 0.004524532443456083 0.4257325157820349 0.5739063634825248 1.8056036772012967E-4 1.8056036772012967E-4 0.5479431028690305 0.4467880893844888 0.0026344038732403667 0.0026344038732403667 </TABLE>
</DEFINITION>

<DEFINITION>
	<FOR>x26038</FOR>
	<GIVEN>clustVar</GIVEN>
	<TABLE>0.08982995882778583 0.897466815124718 0.011900969563185326 8.022564843106906E-4 0.23199801061384528 0.6693194707700838 0.07264279419944174 0.026039724416629145 0.019626257840760736 0.9679034504429681 0.012024376183906924 4.4591553236430923E-4 0.08533511446386344 0.8384025103291937 0.06922574300424994 0.007036632202692884 0.009530532655815578 0.9667538808469732 0.022394066219562386 0.0013215202776488445 0.9613079920527425 0.0349119459301005 0.0019660952082646813 0.0018139668088922633 0.02350639158535722 0.9719394285172384 0.003911893559343944 6.422863380604082E-4 0.06115121445063488 0.8291437969733986 0.10292702065804075 0.006777967917925856 0.0033458053776912293 0.9949898073335796 0.0014838194680926095 1.805678206366129E-4 0.9373113074073082 0.05741988483945444 0.002634403879952295 0.002634403873285199 </TABLE>
</DEFINITION>

<DEFINITION>
	<FOR>x9456</FOR>
	<GIVEN>clustVar</GIVEN>
	<TABLE>0.5873240489305969 0.39520301056991974 0.016671468295622133 8.014722038612808E-4 0.7429050906167766 0.21139725525425604 0.0376152648450177 0.008082389283949663 0.17608251775007444 0.7302717619534316 0.08624846568742514 0.007397254609068848 0.6251540514926117 0.3605925150689017 0.01081415869215178 0.003439274746334867 0.23352693684408213 0.7454907876444503 0.020094849880535542 8.874256309321838E-4 0.8701071624703285 0.11174181034313281 0.014566353429164966 0.0035846737573736968 0.45745224079791036 0.5386366434895044 0.003286514086006715 6.246016265783685E-4 0.2363946478916246 0.5740777963639132 0.15787943866114504 0.031648117083317356 0.04764203225656133 0.9243537026383167 0.02752015112947914 4.841139756429625E-4 0.9277337749309567 0.06695419429716776 0.0026624531343714002 0.002649577637504228 </TABLE>
</DEFINITION>

<DEFINITION>
	<FOR>x334</FOR>
	<GIVEN>clustVar</GIVEN>
	<TABLE>0.04449326695789468 0.7085956806383548 0.21746708748348112 0.029443964920269468 0.3359203047093065 0.5374095076731402 0.08744995856650406 0.03922022905104922 0.12600023966060975 0.847476985545072 0.025247168546194923 0.0012756062481234464 0.27345619990895664 0.7134596374278249 0.011951454557317252 0.0011327081059011297 0.2115945902543333 0.7864178041981371 0.0015411108306862585 4.464947168431381E-4 0.6640891089536793 0.3083568605265826 0.024151545308104417 0.0034024852116337685 0.05424687305206271 0.8822936745937183 0.061282989307463565 0.002176463046755338 0.2504393360198415 0.7113895384792506 0.03558983089903466 0.0025812946018732006 0.057270993432517465 0.9404592612049718 0.0020891362762027826 1.8060908630787884E-4 0.7491351897929095 0.21488650982505772 0.027792922242487837 0.008185378139544938 </TABLE>
</DEFINITION>

<DEFINITION>
	<FOR>x6138</FOR>
	<GIVEN>clustVar</GIVEN>
	<TABLE>0.16987427084245246 0.7164390658443242 0.10715741410529611 0.00652924920792706 0.3755992664042119 0.5007725867264062 0.09760404773069019 0.026024099138691685 0.13441749219239738 0.8098474338670937 0.054477268064607676 0.0012578058759011481 0.41780780077360385 0.5675828700206795 0.013660662912057668 9.486662936590353E-4 0.28961752496480353 0.7041215161755942 0.005813115435616252 4.478434239859361E-4 0.6492202720420585 0.3237790380902986 0.02013900088414013 0.006861688983502749 0.1898776291442266 0.7836376005430579 0.025879111731365596 6.056585813498115E-4 0.2789653395213687 0.61997119724798 0.08703888712061188 0.014024576110039282 0.09553977170493293 0.901581330049438 0.0025322383337097903 3.4665991191937853E-4 0.6231746615138356 0.3299565163190168 0.04422446326237522 0.0026443589047724365 </TABLE>
</DEFINITION>

<DEFINITION>
	<FOR>x23253</FOR>
	<GIVEN>clustVar</GIVEN>
	<TABLE>0.041498293800987844 0.8328912525031613 0.11988523128097685 0.0057252224148740035 0.19694366937864743 0.6860790145872177 0.10138483968180315 0.015592476352331653 0.05597503662860644 0.9286931143576896 0.0149037199869793 4.2812902672462254E-4 0.10678855499937841 0.8762250260071074 0.015358432848576775 0.0016279861449374831 0.06589156097570668 0.9310969212596858 0.002565685547280957 4.458322173264787E-4 0.3112555574139263 0.6437538398239333 0.033482567859298734 0.01150803490284158 0.02256817233889668 0.9726929227169483 0.004118687956854141 6.202169873009956E-4 0.1531260260010785 0.7632539975191005 0.07909024483262042 0.004529731647200683 0.012090852551284764 0.9873140396410948 4.145474399003245E-4 1.8056036772012962E-4 0.32413871198652483 0.5732325744205965 0.09053112557889068 0.012097588013988041 </TABLE>
</DEFINITION>

<DEFINITION>
	<FOR>x94081</FOR>
	<GIVEN>clustVar</GIVEN>
	<TABLE>0.3375703081607317 0.6208977794437006 0.037083563889601344 0.004448348505966245 0.5566818885163709 0.3727335546234318 0.05342236507229487 0.0171621917879024 0.17833421396115445 0.7861393527119487 0.034494154275410034 0.0010322790514868223 0.4562685597988825 0.519522408124398 0.021650327108851102 0.0025587049678684757 0.24274373037682329 0.7524612296037118 0.004121886726484967 6.731532929799135E-4 0.5791435180273873 0.36554431454934394 0.04521788903526593 0.010094278388002895 0.2378637421818469 0.7491547416625552 0.01190638706574699 0.001075129089850957 0.30110470233336833 0.6186624294915136 0.07040425707469496 0.009828611100422999 0.07071100231801031 0.9254673135561617 0.003641097705442118 1.8058642038594293E-4 0.7349837911893329 0.21720702282980667 0.02593759749080082 0.021871588490059518 </TABLE>
</DEFINITION>

<DEFINITION>
	<FOR>x54843</FOR>
	<GIVEN>clustVar</GIVEN>
	<TABLE>0.7725492750406159 0.22019888855713213 0.006319436150445752 9.32400251806304E-4 0.7231339553913922 0.2403437744979031 0.03382499207761525 0.002697278033089431 0.13114349812539525 0.8110409142007222 0.05656556460646546 0.0012500230674170098 0.6971678657250294 0.29525120017206163 0.004643852857948391 0.0029370812449604944 0.14463194769593438 0.8462654680317732 0.008649445197890576 4.5313907440198194E-4 0.790263913707363 0.19195086308650688 0.012406904392796118 0.005378318813334146 0.5837496918049553 0.41256863687447604 0.003084766214547395 5.969051060213188E-4 0.18238466630941225 0.6744271794717908 0.12173939216801943 0.02144876205077754 0.05822308361465735 0.934450482164516 0.007145873850364046 1.8056037046257573E-4 0.7884603862282349 0.17463287378742023 0.0263483085280768 0.010558431456268148 </TABLE>
</DEFINITION>

<DEFINITION>
	<FOR>x3274</FOR>
	<GIVEN>clustVar</GIVEN>
	<TABLE>0.30318721190948844 0.6690885192404399 0.025976265464123512 0.0017480033859482156 0.5566146705752539 0.3835289427262758 0.052417794331080146 0.007438592367390093 0.04895635601516093 0.8946113774703314 0.05550238852460041 9.298779899073268E-4 0.4592735904802339 0.5265442919235459 0.013316079544641769 8.660380515783338E-4 0.1324821310763761 0.8552839641945598 0.01178806578614701 4.458389429171824E-4 0.9702635723474355 0.024231611486689286 0.003707307188945713 0.0017975089769295407 0.45801942341718904 0.5336004941652015 0.007784079097238808 5.960033203705461E-4 0.17437887547865613 0.6667198845657446 0.14797118484212896 0.010930055113470252 0.017875745475442694 0.9757088576211272 0.006234836512050384 1.805603913796456E-4 0.9382135121097444 0.05385105364992207 0.005301030367093201 0.0026344038732403667 </TABLE>
</DEFINITION>

<DEFINITION>
	<FOR>x221692</FOR>
	<GIVEN>clustVar</GIVEN>
	<TABLE>0.4615691210372998 0.511155029639741 0.022850488106024937 0.004425361216934122 0.671716250247667 0.2821118548973813 0.034989354778643025 0.011182540076308749 0.18024533875737705 0.7690884987475258 0.04895487917884446 0.0017112833162528478 0.4583911492187009 0.5257451611117987 0.013114225301689231 0.0027494643678112893 0.19247164714605772 0.7924573942508799 0.014618210601643512 4.5274800141887543E-4 0.6604773103870534 0.3189205252286322 0.018804655407373794 0.0017975089769405761 0.3941204479536043 0.6018345682252482 0.002856332759883199 0.0011886510612643675 0.2510507794969444 0.6153634415760239 0.11541893681418312 0.018166842112848663 0.03225746573122588 0.9583694979683693 0.009192099007233173 1.8093729317163857E-4 0.784120490903913 0.1933644673454934 0.019880637877353165 0.0026344038732403667 </TABLE>
</DEFINITION>

<DEFINITION>
	<FOR>x6000</FOR>
	<GIVEN>clustVar</GIVEN>
	<TABLE>0.26372260335155223 0.6555259632575114 0.07370368965189125 0.00704774373904507 0.5803493757052317 0.34361828907584246 0.060333559708524415 0.015698775510401438 0.13174847420768293 0.8259959448274351 0.0417990811468787 4.5649981800322746E-4 0.5260019565620443 0.45807422969590955 0.014932295829258403 9.915179127878368E-4 0.2682872357058349 0.7257558907182184 0.005511041293500805 4.458322824458572E-4 0.7949927267557774 0.1869435113077184 0.012584417637972365 0.005479344298531941 0.21808327049227366 0.7661803096906893 0.015137639868360891 5.987799486761752E-4 0.3325098965695944 0.581704811705505 0.07686330271838053 0.008921989006520078 0.04877617148940473 0.9489474547853491 0.002095813357526026 1.8056036772020635E-4 0.9590341710250501 0.0330652924638873 0.005266083555489937 0.002634452955572761 </TABLE>
</DEFINITION>

<DEFINITION>
	<FOR>x254531</FOR>
	<GIVEN>clustVar</GIVEN>
	<TABLE>0.28290056303204086 0.6785079204244261 0.03744757220754184 0.0011439443359911896 0.43218765184455377 0.5122198443870746 0.0475896150122641 0.008002888756107579 0.11569316493820475 0.864669641918966 0.018774518988916994 8.62674153912267E-4 0.3363181310350604 0.6506112867722128 0.012094056871295172 9.765253214315992E-4 0.08772758074630445 0.9046571103550609 0.0071687707318193435 4.4653816681520457E-4 0.865576195776035 0.12400238717206853 0.00682639981535006 0.003595017236546359 0.0910157600016867 0.8816290472880853 0.02650615901656005 8.49033693667952E-4 0.21697708829640794 0.7025548154409991 0.07591106008041419 0.004557036182178871 0.028422182012714486 0.9699761606567693 0.0012458500140480906 3.5580731646808435E-4 0.9376431735540738 0.051285960641802755 0.00843646089745963 0.002634404906663795 </TABLE>
</DEFINITION>

<DEFINITION>
	<FOR>x2908</FOR>
	<GIVEN>clustVar</GIVEN>
	<TABLE>0.507516232419871 0.4495717816459028 0.03923519265552033 0.0036767932787057727 0.5743044346342555 0.3604931264386548 0.05200124421909113 0.013201194707998637 0.13854214656662173 0.8100157765075118 0.0492778953221834 0.0021641816036831333 0.5192079171861489 0.46032518819636126 0.018598874993072802 0.0018680196244171274 0.19296451145590404 0.8003263814047828 0.006086277536893557 6.228296024195681E-4 0.6400008454724603 0.33338833544306 0.024809482731133068 0.0018013363533467405 0.36056491084301634 0.6292509049313929 0.009153812951155107 0.0010303712744356942 0.2649543365484073 0.643424589624247 0.08242959408376595 0.009191479743579757 0.04002535631233244 0.9444396365881194 0.015354446434556817 1.805606649913757E-4 0.6890983222642088 0.2370371361697659 0.06069158878871221 0.01317295277731316 </TABLE>
</DEFINITION>

<DEFINITION>
	<FOR>x100130155</FOR>
	<GIVEN>clustVar</GIVEN>
	<TABLE>0.16618829222934653 0.8147040600413057 0.017756776117354822 0.0013508716119929758 0.3114327230053174 0.6254292773813621 0.04725156959043096 0.0158864300228895 0.0076281638974596035 0.9527780106788016 0.03873865477691454 8.551706468242172E-4 0.19256624381618043 0.8036362626584032 0.0026852797293407246 0.0011122137960756155 0.00893929691428845 0.9843841126655507 0.006230732657075978 4.458577630849015E-4 0.750420942258662 0.24589693271606483 0.0017977278427911759 0.001884397182482139 0.05283113769746561 0.940106910634554 0.006464209791993037 5.977418759873847E-4 0.04586263695163713 0.8293704945707654 0.11797019691972314 0.006796671557874338 5.851272148403469E-4 0.9966494530443776 0.0025848593303170343 1.8056041046514217E-4 0.9325784966756157 0.06215267112101024 0.002634403873240456 0.0026344283301335527 </TABLE>
</DEFINITION>

<DEFINITION>
	<FOR>x114088</FOR>
	<GIVEN>clustVar</GIVEN>
	<TABLE>0.24151245592769047 0.7497866367549184 0.007909554392179783 7.913529252113525E-4 0.1840283309699182 0.74966020982066 0.06048536688528731 0.00582609232413466 0.0012533017366352516 0.9733461821363539 0.024545412915393718 8.551032116169575E-4 0.11883173304436523 0.8756110239655734 0.00469263374403174 8.646092460297067E-4 0.001373449705329244 0.9958767498365406 0.002303902696920251 4.4589776120992805E-4 0.3138119674314968 0.6681494112803688 0.016241112311205397 0.0017975089769291296 0.08622451481991654 0.9110075780527348 0.0021719043876124423 5.960027397362564E-4 0.013035598276623456 0.8557304611184834 0.12259062826299308 0.008643312341900099 9.926246679035947E-4 0.9980046424799442 8.221724802154749E-4 1.8056037193655013E-4 0.7608250905248858 0.23124063253889615 0.005299873062977609 0.0026344038732403663 </TABLE>
</DEFINITION>

<DEFINITION>
	<FOR>x23230</FOR>
	<GIVEN>clustVar</GIVEN>
	<TABLE>0.3831881085160504 0.6054220582732315 0.010596854697235062 7.929785134830119E-4 0.5949659485889738 0.35333579523476505 0.039495148835916066 0.012203107340345095 0.07904925390644951 0.8917298937980912 0.02767840139350063 0.0015424509019587261 0.4204090909573124 0.5702124087018535 0.00840875984438776 9.697404964463095E-4 0.08409567638343068 0.9117576922733222 0.0037007989968718988 4.458323463753699E-4 0.6403235025792601 0.33253279862748036 0.023548729544305116 0.0035949692489543237 0.20507696349632704 0.7924189557561341 0.0019080817076582257 5.959990398805839E-4 0.13834728651685502 0.76952454799061 0.08149134240795104 0.010636823084584007 0.005268556971272612 0.988609382102702 0.005941496168996123 1.8056475702927773E-4 0.8812976916364743 0.10575218431758386 0.010315648680201182 0.0026344753657406837 </TABLE>
</DEFINITION>

<DEFINITION>
	<FOR>x116966</FOR>
	<GIVEN>clustVar</GIVEN>
	<TABLE>0.37224822344302383 0.6014519596088651 0.02550859098471557 7.912259633955684E-4 0.5729684802142457 0.37357208955044824 0.045453594749796954 0.008005835485509184 0.10552277016685713 0.8653035022351784 0.028292219357385285 8.815082405790954E-4 0.5115422012028839 0.4755441935545723 0.012048998180913713 8.646070616303343E-4 0.19972965708797247 0.7907591149515235 0.009065395619874801 4.458323406290894E-4 0.6003146818468408 0.3565986929107241 0.037694156956957964 0.005392468285477118 0.25497134989946063 0.7412718323975116 0.0031608186637237415 5.959990393039689E-4 0.19537118705934634 0.6897773630969253 0.10140581545439092 0.013445634389337331 0.01617529116126257 0.9769112703947557 0.006732873686957742 1.8056475702406258E-4 0.9166283493178224 0.07281903996034264 0.007918184404066844 0.0026344263177680064 </TABLE>
</DEFINITION>

<DEFINITION>
	<FOR>x64062</FOR>
	<GIVEN>clustVar</GIVEN>
	<TABLE>0.17879874103476637 0.8034860242573925 0.016923799026355945 7.914356814851157E-4 0.3740051806394615 0.5591809350202988 0.061478123232169786 0.00533576110806983 0.022873836863135016 0.9481033809174018 0.02858307322456931 4.39708994893913E-4 0.2642241243751278 0.7241206999333926 0.010790568926245801 8.646067652336334E-4 0.04721704727966692 0.9482197167754587 0.004117403768493179 4.458321763811454E-4 0.38077562812003785 0.584364236608581 0.02946627553679406 0.005393859734587186 0.07574053484446244 0.9201035257682799 0.0035599403940627383 5.959989931949341E-4 0.07510190529420274 0.8098356397594739 0.09927973937796657 0.015782715568356632 0.0024212099694539617 0.9949206221544268 0.0024776075083991944 1.805603677201298E-4 0.4251368420934575 0.5060060707747114 0.05568702105940479 0.013170066072426444 </TABLE>
</DEFINITION>

<DEFINITION>
	<FOR>x9645</FOR>
	<GIVEN>clustVar</GIVEN>
	<TABLE>0.5036886933520522 0.4853516625284903 0.010168470997246316 7.91173122211086E-4 0.5937125519686287 0.3448816962730638 0.05075679147354598 0.010648960284761335 0.05163554933873678 0.9206358022588756 0.026872651369519163 8.559970328682767E-4 0.5088568819129051 0.47764180549021057 0.012635482104308208 8.65830492576085E-4 0.08440036536216967 0.9011483317394221 0.014005466721197738 4.4583617721046014E-4 0.953032417313378 0.04336828776855114 0.001801784583565981 0.0017975103345047347 0.20343713926113008 0.7903415825704796 0.005625278951543936 5.959992168464003E-4 0.13629790692525193 0.7352667636597626 0.11710067155195203 0.011334657863033422 0.014312472510301572 0.981146114501025 0.00436083200494858 1.805809837250024E-4 0.9282281318278024 0.0638686585375774 0.002634403877742602 0.005268805756877649 </TABLE>
</DEFINITION>

<DEFINITION>
	<FOR>x6262</FOR>
	<GIVEN>clustVar</GIVEN>
	<TABLE>0.435419174389106 0.5547266718753028 0.008328120285917137 0.001526033449673949 0.4427563246242051 0.5036186996059278 0.03866029860298968 0.014964677166877464 0.03730790131041691 0.9311379815582751 0.03112580787580902 4.283092554988889E-4 0.3281878865839739 0.6514265631381871 0.01873672091750756 0.001648829360331393 0.03195226827210292 0.9583814984395761 0.009220400400249622 4.458328880713735E-4 0.9277968102707699 0.0677887028782454 0.002616307886176926 0.0017981789648078182 0.15807921906657402 0.8333451836980087 0.007979595535966898 5.960016994503627E-4 0.06455862658197135 0.8445220715990412 0.07834734115374786 0.012571960665239513 0.002065884680533694 0.9910860449493201 0.006667510002426103 1.805603677201476E-4 0.8402436717354617 0.15041891537063257 0.006703009020665404 0.002634403873240379 </TABLE>
</DEFINITION>

<DEFINITION>
	<FOR>x55814</FOR>
	<GIVEN>clustVar</GIVEN>
	<TABLE>0.10015092006882108 0.8872801570953818 0.011766927157203845 8.01995678593381E-4 0.21485618797302602 0.7382382892526886 0.04423311553098088 0.002672407243304365 0.0080645318085488 0.9599082489565713 0.03159908491428086 4.281343205991327E-4 0.09233184523806713 0.8866118893457298 0.019337811398289113 0.001718454017913824 0.009724896457886337 0.9847187294732239 0.005110541672383842 4.458323965059894E-4 0.49346330816993855 0.49934581113343535 0.005393371719621297 0.0017975089770048002 0.026199791187950155 0.9704234811199043 0.002780225500873543 5.965021912719096E-4 0.03903946340012823 0.8099630726601297 0.13742487779553153 0.013572586144210507 3.21261206910598E-4 0.9975962915027186 0.0019018869226506098 1.8056036772013192E-4 0.6215293280940009 0.36266577749372103 0.013170490539037774 0.0026344038732403667 </TABLE>
</DEFINITION>

<DEFINITION>
	<FOR>x23613</FOR>
	<GIVEN>clustVar</GIVEN>
	<TABLE>0.23395418866186707 0.7401173850822437 0.023506250293025912 0.002422175962863409 0.4022856877817822 0.5067188587445364 0.08028976798574508 0.010705685487936227 0.07581233736303208 0.9005612934381203 0.022438371566381995 0.0011879976324655217 0.2708663236741303 0.7066525579137842 0.018998078402325726 0.00348304000975979 0.07584609791642818 0.9151150913725562 0.008591067451087587 4.477432599280543E-4 0.44645226297825963 0.5001854399747127 0.05156478295414003 0.001797514092887779 0.14581905190059244 0.852808258500971 7.685455621351297E-4 6.04144036301494E-4 0.18955733822373047 0.7277015339257557 0.07797775822825379 0.004763369622260126 0.03555277348802033 0.9626134337997171 0.0016532323201539237 1.8056039210867313E-4 0.5962682212641637 0.36432396557592767 0.03150460903273841 0.007903204127170176 </TABLE>
</DEFINITION>

<DEFINITION>
	<FOR>x10147</FOR>
	<GIVEN>clustVar</GIVEN>
	<TABLE>0.1437151405149006 0.8405402524894495 0.014827949448118227 9.166575475317261E-4 0.24496443514430175 0.6989744044000675 0.053393265814475024 0.0026678946411558347 0.03309649839457637 0.9462792901727279 0.020196082825732205 4.281286069635349E-4 0.08072474880617651 0.8994164061070657 0.01895269961619987 9.061454705578543E-4 0.01627754892752944 0.9757849517466739 0.0074916666597186895 4.458326660777944E-4 0.3837274676775349 0.5817232024282724 0.029163931241741454 0.005385398652451257 0.03799992457470845 0.9527770783047472 0.008154176659914568 0.0010688204606297156 0.04010117900332308 0.8928606539543064 0.06477460696580095 0.002263560076569548 0.002228133498700106 0.9971910567367684 4.002493968114495E-4 1.805603677201309E-4 0.5718188057506042 0.39495657857024186 0.027945360828213004 0.005279254850941019 </TABLE>
</DEFINITION>

<DEFINITION>
	<FOR>x54904</FOR>
	<GIVEN>clustVar</GIVEN>
	<TABLE>0.07974066586288343 0.8896561414276367 0.02953826450680631 0.0010649282026735224 0.232499217583237 0.6880893269227908 0.07674199582279616 0.0026694596711760443 0.036447329780607905 0.9422841523176558 0.02084039118942709 4.281267123089702E-4 0.1189089057891721 0.8711847300347753 0.009037185723203162 8.691784528493847E-4 0.02796842623996063 0.9705366979429634 0.0010490436116955347 4.458322053804603E-4 0.42279704126464623 0.5591233094273365 0.014485693020283736 0.0035939562877335316 0.032844167117729535 0.9631805094524805 0.002992700981431351 9.82622448358532E-4 0.09017124474325405 0.8342207944149326 0.07108090094293934 0.004527059898874031 0.0027176540934941754 0.9964019912657518 6.99794273033892E-4 1.805603677201296E-4 0.4964838721671296 0.46911568781048685 0.029131632259686426 0.005268807762697217 </TABLE>
</DEFINITION>

<DEFINITION>
	<FOR>x4898</FOR>
	<GIVEN>clustVar</GIVEN>
	<TABLE>0.1325027928876191 0.8128236277849553 0.05229803742164163 0.0023755419057839935 0.35718709168229634 0.58040572008583 0.051744144483364625 0.010663043748509045 0.05336628201925638 0.9278365012401294 0.018369087145706793 4.281295949074176E-4 0.2962070167679147 0.6945160762024272 0.007547448902624652 0.0017294581270333373 0.10070882127404077 0.8972389680828711 0.0016063784699974306 4.4583217309075756E-4 0.3708185636218016 0.5719437429151834 0.05175503144041214 0.0054826620226029535 0.06404335839563083 0.9254317367037818 0.009928728305863775 5.9617659472356E-4 0.13511377779226516 0.7898363652707072 0.06825919501765974 0.006790661919367869 0.00475314153328181 0.99315180124943 0.0019144968495680343 1.8056036772012957E-4 0.5420028305996107 0.3842239560928488 0.055464487300039396 0.018308726007500994 </TABLE>
</DEFINITION>

<DEFINITION>
	<FOR>x5411</FOR>
	<GIVEN>clustVar</GIVEN>
	<TABLE>0.12476993572378951 0.8442599172494027 0.02949411771460565 0.001476029312201935 0.29476281118798103 0.6219842601343607 0.06155195177122456 0.02170097690643378 0.05426670464590985 0.9305974267208719 0.014705897734706427 4.299708985118751E-4 0.216815535939257 0.7636098486588145 0.018709926200172828 8.646892017556352E-4 0.0969421820984384 0.9012840748074064 0.0013279109216477532 4.4583217250726044E-4 0.3360362694222062 0.5953004701597158 0.063270889906935 0.005392370511142939 0.052558689320015034 0.940637730325786 0.006207581315593613 5.959990386054808E-4 0.15002280200718746 0.7377135808419912 0.10321904839287958 0.009044568757941802 0.013609953203309207 0.9849748065465553 0.0012346798824153652 1.8056036772012978E-4 0.4769936976860101 0.4554909420599132 0.054343035682639616 0.013172324571437138 </TABLE>
</DEFINITION>

<DEFINITION>
	<FOR>x55704</FOR>
	<GIVEN>clustVar</GIVEN>
	<TABLE>0.03751745120375434 0.9413321265281398 0.020359215357540733 7.912069105651443E-4 0.10234371643389535 0.8178216813236795 0.0744960050552913 0.005338597187133836 0.030689711974155688 0.9658328529780196 0.003049308460645201 4.281265871795095E-4 0.037775197251683414 0.91852736190625 0.04196930544615681 0.001728135395909789 0.013912822654673786 0.9812792914136165 0.00436205111656337 4.4583481514644816E-4 0.17940997438105746 0.7746715379131955 0.04411646994712984 0.0018020177586170068 0.005974183153540898 0.9911719332122109 0.0022578845559445937 5.95999078303735E-4 0.04551291091805566 0.8811084157917257 0.07111483914675516 0.0022638341434635416 0.001170163064379956 0.9977718143248825 8.774622430174488E-4 1.8056036772012965E-4 0.15072961752722655 0.7194354240660017 0.11666954704770503 0.013165411359066624 </TABLE>
</DEFINITION>

<DEFINITION>
	<FOR>x440270</FOR>
	<GIVEN>clustVar</GIVEN>
	<TABLE>0.016265118992217605 0.9554844834471704 0.025860194184107583 0.0023902033765044587 0.09123205407490559 0.8352045307472608 0.060281180396780355 0.013282234781053249 0.003745553936458543 0.9684780121082788 0.027348307291793158 4.281266634694474E-4 0.016041657375416542 0.9719763436895272 0.011117380926565269 8.646180084907705E-4 0.0040236164800830955 0.9917061149925607 0.0038244363548614853 4.458321724947796E-4 0.16953008217155927 0.8015657080270995 0.027106700824372745 0.0017975089769684891 0.002189451912937528 0.9887347986220306 0.008479748772216774 5.960006928150279E-4 0.010629701731320496 0.8390851756498849 0.13896674453864974 0.011318378080144822 1.8105817407543102E-4 0.9978696403888972 0.0017687410693070916 1.8056036772012965E-4 0.7856625500793794 0.20404798800305143 0.007655058044328805 0.002634403873240367 </TABLE>
</DEFINITION>

<DEFINITION>
	<FOR>x4897</FOR>
	<GIVEN>clustVar</GIVEN>
	<TABLE>0.06527061890122847 0.882612689528347 0.048447776019925115 0.0036689155504991806 0.26737536441092935 0.6511320196101719 0.06991743403214927 0.011575181946749709 0.010767266332353696 0.9500226245341573 0.03873601412427851 4.740950092105515E-4 0.16848002759817382 0.829587397293626 0.0010622463603165951 8.703287478836091E-4 0.01617715340298737 0.9805805803587194 0.0027964340640101015 4.4583217428310646E-4 0.2230491327632523 0.7108674239793523 0.05524969222292791 0.010833751034467425 0.04682719552963407 0.9493133218421641 0.0032632157473247536 5.962668808769817E-4 0.030271781966693317 0.8908653706265681 0.06554841017709664 0.013314437229641868 4.8762825826619813E-4 0.9972715552654036 0.0020602561085514923 1.8056036777877263E-4 0.8779192618568131 0.11418277425474531 0.005262818660755895 0.002635145227685722 </TABLE>
</DEFINITION>

<DEFINITION>
	<FOR>x23077</FOR>
	<GIVEN>clustVar</GIVEN>
	<TABLE>0.020549728692949628 0.9362948448166066 0.040850174499238286 0.002305251991205382 0.11988793859735429 0.7965266488388899 0.07507077095588557 0.008514641607870313 0.0030389363361887603 0.97757276456576 0.018959986515063615 4.283125829875803E-4 0.032640498061313576 0.9514792059904366 0.014256714495978214 0.0016235814522717056 0.005382836705490622 0.9865919539344712 0.007579377186012079 4.4583217402599545E-4 0.31243727882047395 0.6682733887757644 0.017491823426776267 0.001797508976985239 0.00629738578605682 0.9828071179149986 0.010285455973708288 6.100403252361765E-4 0.021873160817664525 0.8901016782442078 0.07898705317148999 0.009038107766637705 3.4761310413527525E-4 0.9988754858246742 5.963407034704037E-4 1.8056036772012967E-4 0.45889623149338066 0.5219615469511928 0.01650781768218616 0.0026344038732403667 </TABLE>
</DEFINITION>

<DEFINITION>
	<FOR>x3535</FOR>
	<GIVEN>clustVar</GIVEN>
	<TABLE>0.005189791778073043 0.9863763514952704 0.006942719343116114 0.0014911373835405626 0.0278315806212025 0.9384664838725425 0.028029914194217867 0.005672021312037174 4.3095147418585313E-4 0.9923408315005264 0.006371762369476609 8.564546558111143E-4 0.001068312355396452 0.9671227791256682 0.030140914497997277 0.001667994020937963 6.56215026864268E-4 0.9874080398534639 0.011452636684027443 4.8310843564435793E-4 0.039522487694379486 0.9438471948368172 0.014343027259264953 0.002287290209538368 6.096510293494875E-4 0.9972351278766218 0.0015553327246150773 5.998883694134921E-4 0.006781471719866042 0.9555148621712978 0.028719810280106672 0.008983855828729449 3.0599440461371604E-4 0.9980753302395952 0.0014381148465950637 1.8056050919608985E-4 0.10167023011125836 0.8673160445968875 0.023827062429473425 0.007186662862380592 </TABLE>
</DEFINITION>

<DEFINITION>
	<FOR>x9284</FOR>
	<GIVEN>clustVar</GIVEN>
	<TABLE>0.09105401147266697 0.8900257179287248 0.018126955910296283 7.933146883119187E-4 0.20067464353772793 0.6767567620866161 0.10614506892817488 0.01642352544748108 0.024703459060075345 0.964378787928842 0.01006379572276142 8.539572883213068E-4 0.10277265816299587 0.8517656780097013 0.04214776691649767 0.0033138969108051732 0.01217665799258555 0.9663908866759257 0.020982796449383185 4.4965888210546574E-4 0.3357573103063974 0.6261859581237471 0.03290629514288872 0.005150436426966754 0.04249255856482805 0.9544062687226055 0.002505000247139738 5.961724654267801E-4 0.03042015820929918 0.824373389100878 0.14066868332625423 0.004537769363568528 0.002040997415378543 0.9970021569776533 7.762848130936975E-4 1.8056079387434657E-4 0.6822694491794331 0.2988588144664644 0.01588202946695289 0.002989706887149439 </TABLE>
</DEFINITION>

<DEFINITION>
	<FOR>x5310</FOR>
	<GIVEN>clustVar</GIVEN>
	<TABLE>0.06294306070303363 0.9210480085753295 0.015217750194763376 7.911805268734147E-4 0.17327500131262355 0.7789559035230239 0.03976762440160058 0.008001470762751959 0.005610591625420097 0.9802764384630209 0.013683931036533698 4.290388750252139E-4 0.028092095014472733 0.947488526895625 0.023554654061174556 8.647240287277115E-4 0.0014024861761105696 0.972718027947626 0.02498895293743324 8.905329388300901E-4 0.4741563109727161 0.5188085766905497 0.005237603359804932 0.0017975089769292245 0.012028045047366591 0.9859645127687099 0.0014112615742439257 5.961806096796041E-4 0.04636394467050567 0.8726495373990265 0.0719306574696423 0.009055860460825536 4.926819526162592E-4 0.9968969367143196 0.0024298209611201102 1.8056037194410477E-4 0.6627492490305328 0.3212153665306677 0.01340098056555918 0.0026344038732403667 </TABLE>
</DEFINITION>

<DEFINITION>
	<FOR>x4297</FOR>
	<GIVEN>clustVar</GIVEN>
	<TABLE>0.03253807313218963 0.9184906491658745 0.048156004420601854 8.152732813340761E-4 0.17044711063027673 0.7417029808465135 0.07936751073081806 0.008482397792391702 0.022201564496195612 0.9682173188506019 0.009000919139312471 5.801975138899281E-4 0.050539324013931075 0.9136481284393495 0.030642341165889035 0.005170206380830603 0.01600683083213032 0.9768624830037134 0.006655905035886631 4.747811282695374E-4 0.3754815978098753 0.6083435614191284 0.014376991489673925 0.0017978492813225128 0.011268883541783088 0.9787539859115401 0.009375145156279683 6.019853903971775E-4 0.07223182484870505 0.857553859261827 0.06482737941053258 0.005386936478935449 0.0017400192590358169 0.9976063637987973 4.7305657427971077E-4 1.80560367887107E-4 0.4647755136015867 0.4851658296756651 0.04215544532198574 0.007903211400762574 </TABLE>
</DEFINITION>

<DEFINITION>
	<FOR>x5297</FOR>
	<GIVEN>clustVar</GIVEN>
	<TABLE>0.22288666004225452 0.7507206950356778 0.023961249855504428 0.0024313950665633003 0.3942489060401898 0.5418600979877591 0.05851669088811648 0.005374305083934654 0.04696698114851848 0.8953998374873131 0.056742684267465864 8.904970967026357E-4 0.384452245678391 0.6025903790495609 0.01198481650391532 9.725587681329096E-4 0.09161143756602763 0.8999734486779755 0.007860454870806697 5.546588851903158E-4 0.6648736887929001 0.32434062610469744 0.007191268757831206 0.0035944163445711524 0.13231405466979382 0.8573300628273527 0.009758191348183303 5.976911546700172E-4 0.12068669570851366 0.7558063389179365 0.11114669121561326 0.012360274157936656 0.007173881047761551 0.9862699259911253 0.006375632571733933 1.805603893791219E-4 0.752714626972286 0.2236704038457033 0.015710875852201576 0.00790409332980917 </TABLE>
</DEFINITION>

<DEFINITION>
	<FOR>x8499</FOR>
	<GIVEN>clustVar</GIVEN>
	<TABLE>0.31144958578048404 0.6835885685315712 0.004167705166985052 7.941405209596875E-4 0.4187291161138181 0.5384834741327285 0.04011950737351119 0.002667902379942325 0.03398306197951748 0.8879432286959783 0.07554784314562707 0.0025258661788771885 0.3660689862181734 0.6296835924048771 0.00338274994515529 8.646714317940964E-4 0.057864629093872806 0.9291614303250317 0.012518973039669873 4.5496754142558E-4 0.5963535637965852 0.3877901802261556 0.014058747000330087 0.0017975089769290814 0.13095192576671022 0.8678161021273398 6.355427383914027E-4 5.964293675583813E-4 0.06464245948351337 0.7458915064263038 0.17424149045068846 0.01522454363949434 0.004946112469406687 0.9792146795597897 0.01559561009739275 2.4359787341086725E-4 0.5753435920394776 0.3798674346505875 0.04215456943669465 0.002634403873240367 </TABLE>
</DEFINITION>

<DEFINITION>
	<FOR>x55904</FOR>
	<GIVEN>clustVar</GIVEN>
	<TABLE>0.05045810353706735 0.9028514899205545 0.04527288619480998 0.0014175203475681835 0.19924742216470442 0.7034730743204953 0.08282732244482138 0.014452181069978743 0.01611347261520689 0.9606538874937708 0.022804459474090582 4.281804169317837E-4 0.08102610295285527 0.8852160068642175 0.03028620141705569 0.003471688765871455 0.017145205709138446 0.9748701332874222 0.00753790749339377 4.467535100456812E-4 0.26395032332293283 0.6873367420243067 0.043340562451275357 0.005372372201484921 0.024900835237422994 0.9711007572673546 0.0027349270951849834 0.001263480400037546 0.08120407090727473 0.8129646851456283 0.09529732589947199 0.01053391804762514 0.003385108515762288 0.9960142571757361 4.200739407766267E-4 1.8056036772488536E-4 0.32794803994294935 0.5972018066891345 0.06691739851087485 0.007932754857041159 </TABLE>
</DEFINITION>

<DEFINITION>
	<FOR>x57035</FOR>
	<GIVEN>clustVar</GIVEN>
	<TABLE>0.11847919888117388 0.8697973696079799 0.010931132171171063 7.922993396752271E-4 0.2832168988388426 0.6643329302138649 0.04711438900573081 0.005335781941561679 0.023173418030065597 0.927703790330867 0.0482713673006302 8.514243384371196E-4 0.17917682088998158 0.8169849698212146 0.0029736025236920785 8.646067651118613E-4 0.03357948486402923 0.963494427562258 0.002480255401070577 4.4583217264214836E-4 0.342290242116518 0.6289475701427215 0.026964458683480356 0.0017977290572800417 0.03792410280422957 0.9607614817350588 7.184164653665874E-4 5.959989953449721E-4 0.05359595281511779 0.8057061378397833 0.12935797362034224 0.011339935724756762 9.010078809380286E-4 0.9914405616984769 0.007477870052857914 1.8056036772709196E-4 0.3627189831939282 0.5898591814856373 0.034250138500980354 0.013171696819454216 </TABLE>
</DEFINITION>

<DEFINITION>
	<FOR>x10905</FOR>
	<GIVEN>clustVar</GIVEN>
	<TABLE>0.1849797991700193 0.752765760286082 0.05886897837420821 0.00338546216969039 0.3560489514236198 0.5379468411702182 0.09481364771130005 0.01119055969486192 0.0803025573899208 0.8888127157713313 0.029669511815620372 0.0012152150231276428 0.2106865452085477 0.754189792224161 0.03201173246007822 0.0031119301072130554 0.061198500437487965 0.9322180524720021 0.0061251958014662215 4.582512890436979E-4 0.6789065287628542 0.31004465269626535 0.009251309558748333 0.0017975089821320805 0.08145814834297789 0.8848697399438874 0.032790356367646156 8.817553454886294E-4 0.15505272188201802 0.7708451692059817 0.06146862912768237 0.012633479784317819 0.03621159334797043 0.962222221952378 0.0013856093850677465 1.805753145838162E-4 0.7213101613104248 0.24445473153665312 0.0289662994089015 0.005268807744020672 </TABLE>
</DEFINITION>

<DEFINITION>
	<FOR>x28978</FOR>
	<GIVEN>clustVar</GIVEN>
	<TABLE>0.24991117957330283 0.603189889721552 0.13059554606783236 0.01630338463731281 0.5573759535680741 0.33650721888686935 0.09535138265407474 0.010765444890981827 0.1958277907536711 0.7434703297973612 0.05601058270751713 0.004691296741450889 0.633927835779913 0.3543950329974512 0.010489181071718139 0.0011879501509176856 0.43684850312599144 0.5599898810998506 0.00267681237614491 4.8480339801305975E-4 0.8859515933217746 0.10114641337217826 0.010830720291981793 0.002071273014065291 0.19540626919479887 0.7658634328576239 0.037565339235348036 0.0011649587122292589 0.40456939060458474 0.48359114591456814 0.09604178709474452 0.015797676386102598 0.11635795124027666 0.8789634761383206 0.00449707021906237 1.8150240234043207E-4 0.8873974255171277 0.06073749396750698 0.04172868974445246 0.010136390770912848 </TABLE>
</DEFINITION>

<DEFINITION>
	<FOR>x6134</FOR>
	<GIVEN>clustVar</GIVEN>
	<TABLE>0.23674074665911435 0.692709863750872 0.06634106579994901 0.0042083237900646395 0.44870088801433755 0.46537953313084374 0.0752751300929411 0.010644448761877473 0.13199207710008082 0.8167801766138062 0.050031271153352846 0.001196475132760254 0.46126186053963125 0.5191587786996203 0.016335651891180726 0.0032437088695674503 0.2753308913202611 0.717649166853572 0.0063338638218851506 6.860780042815205E-4 0.5310006101134691 0.3938486637892486 0.07151805435796223 0.0036326717393201503 0.21612028787680815 0.7705853417189844 0.012431238303564488 8.631321006431138E-4 0.2831494222826863 0.629261507993966 0.08298280198996669 0.004606267733380979 0.11617056451244798 0.8822652224696375 0.0013615259560176263 2.0268706189694252E-4 0.5682841663848182 0.30498969818860455 0.10043701956449196 0.026289115862085446 </TABLE>
</DEFINITION>

<DEFINITION>
	<FOR>x54460</FOR>
	<GIVEN>clustVar</GIVEN>
	<TABLE>0.2837404231384567 0.6343439202005993 0.07664110315444647 0.005274553506497464 0.5051907169300212 0.39408633636405577 0.08180638667625896 0.01891656002966409 0.18793836146371667 0.7737987173517327 0.03674648733890191 0.0015164338456486882 0.5273429072610214 0.45476469162784483 0.016189469868457575 0.0017029312426763076 0.35492618002103743 0.6431694720976897 0.0014577083316065532 4.4663954966619454E-4 0.5919047516118852 0.33765567785897044 0.05617877808475972 0.014260792444384508 0.17249835367505875 0.7943383419447547 0.031801703239669465 0.0013616011405170408 0.3420111885627264 0.5580498600822357 0.0831708676773182 0.01676808367771964 0.08588713991421633 0.9114469501722003 0.0024853495455956433 1.805603679876996E-4 0.7258383991310235 0.21192787865856327 0.05142428579716374 0.010809436413249286 </TABLE>
</DEFINITION>

<DEFINITION>
	<FOR>x80205</FOR>
	<GIVEN>clustVar</GIVEN>
	<TABLE>0.05114549473151058 0.8958868461497174 0.0507243716648014 0.002243287453970748 0.15628295275706705 0.7175058005774553 0.12075230612157697 0.005458940543900724 0.031088250961372722 0.9566085466167192 0.011875012788574413 4.281896333337879E-4 0.1179871109691699 0.8615542996054358 0.019593982567780558 8.646068576137782E-4 0.03671541887591037 0.9578076006608705 0.005031148290724218 4.4583217249488265E-4 0.14353033686618966 0.7160900263646884 0.12240867842500282 0.017970958344119176 0.026217044524724765 0.9645813796910436 0.008605576116471832 5.959996677597615E-4 0.08977459341996029 0.8000953855905173 0.09854240326499712 0.011587617724525304 0.0031354589845674183 0.9961412614383041 5.42719209408434E-4 1.8056036772012967E-4 0.40169502400043505 0.543340652025555 0.05232645904189092 0.0026378649321191095 </TABLE>
</DEFINITION>

<DEFINITION>
	<FOR>x56853</FOR>
	<GIVEN>clustVar</GIVEN>
	<TABLE>0.03511626070403416 0.8998743396582135 0.06330614569097885 0.0017032539467734362 0.15180345392730718 0.7639455945392468 0.07085842919338227 0.01339252234006378 0.02570222516150218 0.9422713155887963 0.03156024425144327 4.6621499825828756E-4 0.06503529400611441 0.909183638489334 0.022275399051179905 0.003505668453371614 0.019361139827848404 0.9605921465634716 0.019000750714310025 0.0010459628943702544 0.8140668534975019 0.18055067437845557 0.0017976752091411273 0.0035847969149015455 0.015338904445437646 0.9725544782581756 0.010905259770554676 0.001201357525832074 0.05363194547071658 0.8349959237623951 0.09252247301922364 0.01884965774766475 0.0031388219482944564 0.9899723585421956 0.0067082589177060266 1.8056059180398005E-4 0.8965761226995227 0.09815506770018319 0.002634403873285585 0.002634405727008467 </TABLE>
</DEFINITION>

<DEFINITION>
	<FOR>x577</FOR>
	<GIVEN>clustVar</GIVEN>
	<TABLE>0.1108270178526555 0.8226656974866223 0.06434341718524342 0.0021638674754786242 0.27803725794062273 0.6553107754383243 0.055458167222713343 0.01119379939833983 0.02523496755310534 0.9098674468397888 0.06320577198084595 0.0016918136262597972 0.18286060670194115 0.7898970768010184 0.02631994919731805 9.223672997224596E-4 0.023917242065198484 0.9630921723864483 0.012375416757081526 6.151687912718004E-4 0.4102261744077866 0.5506609501828282 0.031924611811916755 0.007188263597468566 0.05605345157878813 0.9327010081121885 0.010640281678820217 6.052586302031617E-4 0.07191777080552486 0.7612528947532257 0.1427235396030259 0.024105794838223615 0.001467638852003513 0.9898562261504207 0.008494530795917362 1.8160420165842849E-4 0.7862374050803455 0.20495888942323695 0.006166806276023327 0.002636899220394216 </TABLE>
</DEFINITION>

<DEFINITION>
	<FOR>x9324</FOR>
	<GIVEN>clustVar</GIVEN>
	<TABLE>0.05867461110103772 0.8720423008765686 0.06769957400217434 0.0015835140202194115 0.24910044404869297 0.6586768064562539 0.08422358957727838 0.007999159917774614 0.022099530288069186 0.9493466048855678 0.028125738048247723 4.2812677811550364E-4 0.24644816883963963 0.7455504133126909 0.007136805100468603 8.646127472008971E-4 0.08341865471899083 0.9154576939392242 6.778191692901764E-4 4.458321724947785E-4 0.2997966707913623 0.6225978053748292 0.06143442098044086 0.016171102853367543 0.05596648676326525 0.932303129289573 0.011134329654899671 5.960542922620354E-4 0.09078090015803063 0.7899078326556632 0.10799337240072522 0.011317894785581036 0.004842390853658883 0.9931722213751388 0.001804827403482117 1.805603677201296E-4 0.40329522447922844 0.5497316281470502 0.04169486367031262 0.005278283703408607 </TABLE>
</DEFINITION>

<DEFINITION>
	<FOR>x5789</FOR>
	<GIVEN>clustVar</GIVEN>
	<TABLE>0.13397191060559513 0.8100095900060162 0.05225584446832702 0.0037626549200614943 0.27206982808093155 0.6616735127231013 0.05807551572512977 0.00818114347083734 0.028435806648075608 0.9385233509429247 0.03261263662823433 4.282057807655632E-4 0.22234655355973387 0.767664927918476 0.008262345988260035 0.0017261725335302976 0.04095140188590329 0.9538406110139377 0.0047621547363412755 4.4583236381789796E-4 0.5497774262763528 0.41880708838337166 0.027830070513994016 0.0035854148262814234 0.10031869229282803 0.8800320422982967 0.018355831590857012 0.0012934338180183506 0.09218668040450054 0.8179577456655633 0.08529098903872878 0.004564584891207222 0.0010964182322787486 0.996268307578001 0.002454713821999407 1.8056036772073924E-4 0.3168510976705953 0.5824799680593005 0.09013243931906557 0.010536494951038608 </TABLE>
</DEFINITION>

<DEFINITION>
	<FOR>x54212</FOR>
	<GIVEN>clustVar</GIVEN>
	<TABLE>0.1082036331717125 0.8308499077858416 0.05865732341219483 0.0022891356302509984 0.15560745910845777 0.7590144587082689 0.07764711578711697 0.00773096639615647 0.030696905763663452 0.916094494346377 0.05245942081890328 7.49179071056399E-4 0.11073373689397231 0.879509635379113 0.007847845326274732 0.0019087824006399567 0.039494310514133296 0.951352589751939 0.008707266673810745 4.458330601166775E-4 0.5809472444045077 0.3835029999518039 0.030159031650951268 0.005390723992737191 0.06508779729524136 0.9119090016813226 0.02240208593714831 6.011150862877176E-4 0.08889101612984206 0.7901553890150189 0.1090865320579387 0.011867062797200265 0.003953777469618347 0.991710697207363 0.004154964941897119 1.8056038112138347E-4 0.9219835714777074 0.06998969941764428 0.005389785119471427 0.0026369439851769315 </TABLE>
</DEFINITION>

<DEFINITION>
	<FOR>x4331</FOR>
	<GIVEN>clustVar</GIVEN>
	<TABLE>0.1930169972448242 0.7851829766974863 0.020307772796511376 0.001492253261178038 0.3855699218673211 0.541036305890175 0.06570027017657248 0.007693502065931429 0.028859790941307244 0.9257992425688514 0.04491282271494565 4.2814377489552787E-4 0.29644003608340264 0.6907179453790936 0.011977368628696639 8.64649908806931E-4 0.03808995896217555 0.9548188537362402 0.00664535508788607 4.4583221369799665E-4 0.6429356839872377 0.3399807002651442 0.015285629362326646 0.0017979863852913137 0.09041312947400669 0.9046603499148623 0.004262643128892222 6.63877482238813E-4 0.048985112921264486 0.7974791416583776 0.14421874001064228 0.009317005409715562 0.0012771671816840882 0.9923299419410374 0.006212330509558317 1.8056036772013079E-4 0.7842929141630908 0.19393206222996573 0.013872511670265167 0.007902511936678295 </TABLE>
</DEFINITION>

<DEFINITION>
	<FOR>x64848</FOR>
	<GIVEN>clustVar</GIVEN>
	<TABLE>0.2440066730353139 0.694331017582896 0.05812310112211885 0.003539208259671316 0.4408396676631103 0.45676394183801344 0.07654210241538555 0.02585428808349077 0.11503346964341503 0.8431931068980161 0.04120583501263299 5.675884459358817E-4 0.3496574024641071 0.6315596536332782 0.017904083776058004 8.788601265566621E-4 0.16614118932691477 0.8248408449889082 0.008079270331921028 9.386953522560334E-4 0.6308820901500624 0.3213979818735684 0.04049486334447261 0.007225064631896609 0.11293758075393942 0.8678759486451318 0.01851990394309778 6.665666578310032E-4 0.22419561184579798 0.640521978233107 0.12835638187376963 0.0069260280473255964 0.029876928920297953 0.9678920891329974 0.002016867460262148 2.1411448644248067E-4 0.7313346154352118 0.21256599343695828 0.0376469728034254 0.018452418324404262 </TABLE>
</DEFINITION>

<DEFINITION>
	<FOR>x6432</FOR>
	<GIVEN>clustVar</GIVEN>
	<TABLE>0.15335820002302392 0.8014142524332809 0.044276271366051896 9.512761776434027E-4 0.4342220808571615 0.4896564621079338 0.06332193496908475 0.01279952206581994 0.049561025437949865 0.9135370224509595 0.03647382301126249 4.281290998282362E-4 0.44210674077939704 0.5483579669198344 0.008670682289503316 8.646100112651203E-4 0.2060089724387972 0.7914399548681117 0.0021052405205961625 4.458321724947784E-4 0.504438463935964 0.47373889260980656 0.020013045219625155 0.0018095982346042088 0.05622587317325603 0.9194935076367133 0.02368462019695389 5.959989930768021E-4 0.17378847552012797 0.7188553274394683 0.09830210027901634 0.00905409676138733 0.027266910687774638 0.9694433298693704 0.003109199075134888 1.8056036772012962E-4 0.4780510976640435 0.44073164677223425 0.06542855017020954 0.01578870539351265 </TABLE>
</DEFINITION>

<DEFINITION>
	<FOR>x5144</FOR>
	<GIVEN>clustVar</GIVEN>
	<TABLE>0.18133909500586728 0.7734234126822251 0.042900926798636815 0.002336565513270722 0.3035965157483701 0.6098478022991354 0.06631222230874885 0.020243459643745666 0.02886652568575577 0.9349434309123323 0.035734433250498555 4.556101514133637E-4 0.1747843664539629 0.7962190322219581 0.026223685606129043 0.0027729157179501272 0.04381395750228221 0.9503087212785712 0.0054296702042189475 4.4765101492782506E-4 0.29234062964384705 0.6701530657953241 0.028826388602104878 0.008679915958723979 0.0429369458489631 0.9465648287804123 0.009660816368952822 8.37409001671906E-4 0.08352106476663818 0.8141067991087437 0.0843793363521237 0.017992799772494402 0.004263875703134681 0.9916826572872762 0.003872906641754004 1.805603678350867E-4 0.7375117472505995 0.2467583536280636 0.013094084519065952 0.0026358146022710314 </TABLE>
</DEFINITION>

<DEFINITION>
	<FOR>x140890</FOR>
	<GIVEN>clustVar</GIVEN>
	<TABLE>0.20301724875539223 0.7450590757473744 0.047288745625353415 0.004634929871879938 0.30257856032340286 0.5837242447335852 0.08469640793908041 0.029000787003931473 0.11283100385003424 0.8578371788976217 0.028475254929155983 8.565623231879836E-4 0.2446953630588324 0.7281063418594081 0.0229347913785069 0.004263503703252509 0.09894391190695935 0.8930100378038013 0.0076001700679970636 4.458802212422302E-4 0.33673779033240947 0.5580760402281005 0.0908368303126184 0.014349339126871707 0.0974132008186718 0.8861613829241026 0.0156288317661444 7.965844910811511E-4 0.19211390206494874 0.6808749979887782 0.11795656000455935 0.009054539941713726 0.023395101114302 0.9737101713135257 0.0027141381142064686 1.805894579659854E-4 0.6145208229321789 0.3129898133609541 0.05399698502085981 0.0184923786860073 </TABLE>
</DEFINITION>

<DEFINITION>
	<FOR>x23262</FOR>
	<GIVEN>clustVar</GIVEN>
	<TABLE>0.21763612717632594 0.7305638059955496 0.04537956270424984 0.0064205041238745595 0.37510547212360495 0.5371775488372225 0.06944653662929434 0.01827044240987825 0.09450187893685695 0.8738044359501076 0.03081911258758566 8.745725254496624E-4 0.3057558155414955 0.6774876901588028 0.015845715907911114 9.107783917906179E-4 0.14755798592456043 0.8497470589211442 0.0022487191558490465 4.462359984461635E-4 0.5220779226330051 0.42872328378442004 0.037338797304419434 0.011859996278155436 0.09882315917551242 0.8151238702468776 0.0824777397360007 0.003575230841609196 0.18129140636804758 0.6862213555463627 0.11907218616635683 0.013415051919232961 0.026388400787800362 0.9711787331672433 0.002252209634036262 1.806564109199087E-4 0.733634223372582 0.23624303226653406 0.018490390945179267 0.011632353415704733 </TABLE>
</DEFINITION>

<DEFINITION>
	<FOR>x9475</FOR>
	<GIVEN>clustVar</GIVEN>
	<TABLE>0.22010088190816166 0.7308569727934978 0.046068363869578625 0.0029737814287620263 0.4410585508378106 0.48227462158658363 0.06542765592514288 0.01123917165046285 0.052840200597020284 0.9015317993695872 0.04518755019037627 4.4044984301618706E-4 0.30506346549621993 0.6765092537173992 0.017507842163011683 9.194386233691458E-4 0.07105969697456775 0.9224910365872039 0.006003434265733678 4.458321724947796E-4 0.6601917843847241 0.3288776114577698 0.009127942833798945 0.0018026613237072191 0.14280304146116024 0.8523992984176608 0.0042016610285631325 5.959990926158057E-4 0.13226073887243303 0.745503752332015 0.11777313845359699 0.004462370341954805 0.006638161651625318 0.9874346602100851 0.005746617770569565 1.805603677201297E-4 0.797590524759143 0.1761646360959217 0.02107603902542163 0.005168800119513682 </TABLE>
</DEFINITION>

<DEFINITION>
	<FOR>x8997</FOR>
	<GIVEN>clustVar</GIVEN>
	<TABLE>0.23377713792002977 0.742606870356139 0.021225936603838508 0.0023900551199926606 0.39080994429384125 0.5372046752283202 0.0641015866927042 0.007883793785134294 0.009293611680982392 0.9313245689342572 0.058953692070319946 4.2812731444060386E-4 0.21805381646608837 0.7728544381077395 0.008227010496530704 8.647349296414635E-4 0.014817630197576414 0.9769033658067992 0.00783317182312387 4.458321725004717E-4 0.6935568167096904 0.3010492216875058 0.0035964334120342457 0.0017975281907694897 0.21646707739801577 0.7813304010119752 0.0016065184135946884 5.960031764143048E-4 0.028132602263703614 0.8265290994569867 0.14075942556428153 0.004578872715028144 9.085786808104455E-4 0.9925053657554077 0.006405495196061604 1.8056036772012962E-4 0.9177824979200206 0.07694615806015916 0.0026344038746028905 0.002636940145217263 </TABLE>
</DEFINITION>

<DEFINITION>
	<FOR>x55082</FOR>
	<GIVEN>clustVar</GIVEN>
	<TABLE>0.006116452233611091 0.9657440876049688 0.02734828629827763 7.911738631424739E-4 0.04800964997198961 0.873010526095313 0.07364194027121593 0.005337883661481372 8.031554863268703E-4 0.9732626951409586 0.025082682186646783 8.51467186067666E-4 0.032750747622144645 0.9613650040648732 0.005019641244873819 8.646070681082825E-4 0.002637844725023442 0.9921050070946608 0.004810166122305419 4.469820580103405E-4 0.04231720071340112 0.8751393895799652 0.07715187686323396 0.00539153284339972 0.0026623475398820733 0.994146793228395 0.0025948574973975193 5.960017343253657E-4 0.0023753483236875587 0.8449066382169408 0.14138138013929363 0.011336633320078046 1.805606885649642E-4 0.9972807034467326 0.002358174978291088 1.8056088641128497E-4 0.10153815433391924 0.7882072212557587 0.10498592292323429 0.005268701487087821 </TABLE>
</DEFINITION>

<DEFINITION>
	<FOR>x9699</FOR>
	<GIVEN>clustVar</GIVEN>
	<TABLE>0.11399876528542943 0.8435234331007104 0.040961502652981575 0.0015162989608785734 0.1673362843149309 0.753397785910786 0.07073068515813243 0.008535244616150565 0.0029565226896839593 0.9458272859718246 0.05041669792488529 7.994934136060241E-4 0.08977868242434121 0.8701816826831051 0.037534745933022313 0.002504888959531394 0.005226322006346009 0.9804008691840372 0.013926538224971871 4.4627058464510535E-4 0.7187047669940972 0.27439819039778157 0.005099533627410615 0.0017975089807107214 0.0747199280302176 0.9164957864538775 0.008188036812052303 5.962487038526071E-4 0.02416882219612024 0.8109676322074794 0.15554176341482634 0.009321782181574033 0.001368080826114434 0.9917684645848547 0.006682894218856487 1.8056037017459984E-4 0.9043009642639215 0.09042953320736029 0.0026350986554778775 0.002634403873240367 </TABLE>
</DEFINITION>

<DEFINITION>
	<FOR>x10439</FOR>
	<GIVEN>clustVar</GIVEN>
	<TABLE>0.14287330599657508 0.7879321518499516 0.06564313568364769 0.0035514064698257543 0.3654099380767034 0.5673378608618133 0.05404934401752284 0.01320285704396043 0.00710268967351316 0.8424643425147915 0.14196633040728077 0.008466637404414595 0.3069089962067051 0.6853945165802201 0.006706457413862237 9.900297992124368E-4 0.01388524649782646 0.9683805614511491 0.01691831566606294 8.158763849614479E-4 0.605870047398222 0.3905345043866903 0.0017979200243179146 0.001797528190769789 0.14692626700444034 0.8490850259652197 0.003360630941964887 6.280760883749095E-4 0.023405417913886693 0.7878161332099517 0.16896013373700727 0.019818315139154292 0.0016747161468111736 0.9935971650549558 0.004547374038051109 1.8074476018191914E-4 0.8049368389565857 0.18715801556778203 0.005268205330415034 0.0026369401452172635 </TABLE>
</DEFINITION>

<DEFINITION>
	<FOR>x9987</FOR>
	<GIVEN>clustVar</GIVEN>
	<TABLE>0.006838006453428922 0.9377587972383438 0.05433712894976265 0.001066067358464647 0.06978803234654676 0.8311572314957867 0.0963868505061042 0.0026678856515622014 0.001503076187307816 0.9609885849564774 0.037075308479161836 4.330303770529688E-4 0.0315803582902888 0.9630576439065683 0.004497391014466129 8.646067886767546E-4 0.0018732590425267544 0.9960733348207447 0.0016075739642243793 4.4583217250403174E-4 0.13929334174244754 0.8475040769862169 0.011404926795187122 0.0017976544761484745 0.002848293936854108 0.9874207026873949 0.009134997912754116 5.960054629970054E-4 0.00328041506504784 0.8612148826211392 0.1295265374872802 0.0059781648265327435 2.608505632960149E-4 0.9978100123589874 0.00174857670999646 1.805603677201296E-4 0.1022014845792555 0.7813414827291166 0.1032852265670355 0.013171806124592449 </TABLE>
</DEFINITION>

<DEFINITION>
	<FOR>x4673</FOR>
	<GIVEN>clustVar</GIVEN>
	<TABLE>0.10426058386099739 0.8218953826340796 0.07020816619256037 0.0036358673123626996 0.29507012717397896 0.5666684462645952 0.1244956531153617 0.013765773446064078 0.041105128968451476 0.9038683055498009 0.0541705754742939 8.559900074537248E-4 0.21836436954226535 0.7701782427072306 0.010365382302579324 0.0010920054479246794 0.06980329509945506 0.9269075927666908 0.002843275956630124 4.458361772238718E-4 0.523133612153945 0.4562848267940439 0.015680733783939783 0.004900827268071324 0.058273802004256144 0.9309631690470367 0.010166621522109608 5.964074265974588E-4 0.12402946949926745 0.7909752403904996 0.0691453352541045 0.01584995485612842 0.006262035795904391 0.9861276759316456 0.00742970728872506 1.8058098372500245E-4 0.6406779060359895 0.2922080079913255 0.05854524904482211 0.008568836927862892 </TABLE>
</DEFINITION>

<DEFINITION>
	<FOR>x23112</FOR>
	<GIVEN>clustVar</GIVEN>
	<TABLE>0.04052567702466501 0.9156704605030126 0.04070851966037009 0.0030953428119521657 0.17169376645144008 0.7224943080728717 0.09017965050965915 0.015632274966029026 0.013732416213313569 0.9625820779478877 0.02282812709485542 8.573787439431304E-4 0.04662163660836956 0.9220264430562398 0.029524298238293077 0.0018276220970974886 0.009017944732946101 0.9800744340910261 0.010461783241757167 4.45837934270638E-4 0.22117951465520214 0.7265357995564791 0.04868968513982802 0.0035950006484907573 0.010679647576869072 0.971543149913565 0.017133311303122758 6.438912064431593E-4 0.044139742486703964 0.8762144012871409 0.07278434242648613 0.006861513799668955 0.001555482294348011 0.9957708695644196 0.002493071534072886 1.8057660715939427E-4 0.413903903585434 0.528104807682409 0.050088115883401084 0.00790317284875593 </TABLE>
</DEFINITION>

<DEFINITION>
	<FOR>x57468</FOR>
	<GIVEN>clustVar</GIVEN>
	<TABLE>0.135607125342041 0.7622984822193114 0.10041735986522576 0.0016770325734217861 0.35359807276218097 0.5113785407376512 0.11667185059944893 0.018351535900718863 0.08112186250346326 0.8723617571862664 0.044931669192644824 0.0015847111176255885 0.2531564795545771 0.7049540164742616 0.03907323407593427 0.002816269895227201 0.08835203041688348 0.8980941927058396 0.01287648927741465 6.772875998624277E-4 0.9375465042076835 0.0517785584825634 0.008877428305902428 0.0017975090038507917 0.09299649940336085 0.8868456077121987 0.019444188957436517 7.137039270038781E-4 0.16389594916342073 0.7167836810839503 0.10047387213583937 0.018846497616789575 0.04306334305471595 0.955064044343018 0.0016920452717477932 1.8056733051817362E-4 0.9407083508001503 0.05402284077380218 0.0026344045528072847 0.0026344038732403667 </TABLE>
</DEFINITION>

<DEFINITION>
	<FOR>x9515</FOR>
	<GIVEN>clustVar</GIVEN>
	<TABLE>0.2410989996594853 0.7504505213714765 0.007658063554906027 7.924154141320408E-4 0.3975626356908001 0.5576712182595083 0.03927376054003752 0.0054923855096541355 0.026227456023892978 0.9219330270485414 0.05141115669137857 4.2836023618698693E-4 0.2764700996130079 0.7117830984532167 0.009241136943972146 0.002505664989803019 0.019285288868549924 0.972626810756339 0.007641770526781099 4.46129848329934E-4 0.8277697924759357 0.165491047927846 0.004941605639775554 0.0017975539564428684 0.11164480944082594 0.8837253736323906 0.004033814330634307 5.960025961491696E-4 0.06720948560035016 0.8138915681800895 0.10069912439532645 0.018199821824233908 0.001193546129099502 0.9871663205970477 0.01145957290613275 1.8056036772012965E-4 0.942663696605334 0.046231672224242015 0.00583588934528587 0.005268741825138096 </TABLE>
</DEFINITION>

<DEFINITION>
	<FOR>x3778</FOR>
	<GIVEN>clustVar</GIVEN>
	<TABLE>0.2755784969999214 0.6732094441286098 0.05032443491422858 8.876239572401156E-4 0.397805360979739 0.5228656956604464 0.06111084272597625 0.01821810063383828 0.04318068436923699 0.8804379174640092 0.0740213472075605 0.002360050959193146 0.21179584319668976 0.7697991929800209 0.017391523727682892 0.0010134400956066528 0.012092020587931664 0.9678131095486161 0.019649035587040203 4.4583427641220263E-4 0.5291064168772404 0.4421814423880246 0.026914631733244966 0.0017975090014900157 0.13055047807122608 0.8558873094362381 0.012966208608197244 5.960038843386177E-4 0.07965636322551602 0.7812150304141765 0.1269853655665735 0.01214324079373403 0.004129183827278912 0.9865604049483704 0.009129848508348942 1.8056271600171074E-4 0.864533249041815 0.13017268341623708 0.0026596636687076015 0.002634403873240369 </TABLE>
</DEFINITION>

<DEFINITION>
	<FOR>x55294</FOR>
	<GIVEN>clustVar</GIVEN>
	<TABLE>0.4126855515891556 0.5774987766018514 0.009022115803868243 7.935560051245589E-4 0.4606736051698473 0.4779282069194535 0.04540966042878646 0.015988527481912686 0.007614028743082281 0.8604586311283353 0.12948155542552123 0.0024457847030612237 0.39775042261450405 0.5871232566395913 0.014261712857152208 8.646078887522763E-4 0.004580207506215183 0.9796049396685157 0.015368880508646635 4.459723166224766E-4 0.7874928128895218 0.20532673212614702 0.005382763288968592 0.0017976916953625578 0.24643437502111534 0.7522458163951525 7.237514766757593E-4 5.96057107056405E-4 0.02982433974852327 0.6917628468274514 0.24215979434100554 0.03625301908301979 0.0016160730957898428 0.973962755510345 0.024191029231340082 2.301421625251249E-4 0.8743842389963778 0.11770989155779694 0.0026370761321118695 0.005268793313713365 </TABLE>
</DEFINITION>

<DEFINITION>
	<FOR>x23518</FOR>
	<GIVEN>clustVar</GIVEN>
	<TABLE>0.1909132841528722 0.8056931555818996 0.002600324802312545 7.932354629157142E-4 0.29970652319056107 0.6830961368131993 0.010682191814928781 0.006515148181310818 0.0012020207796430225 0.931542417328178 0.06682742777361048 4.2813411856848987E-4 0.21461685780000248 0.7820867093045419 0.002431791301836846 8.646415936184922E-4 0.0014732470558445306 0.9935932886361529 0.00448763213550789 4.458321724948262E-4 0.640502288965016 0.35590269306919714 0.0017975089888573026 0.0017975089769295726 0.06914534765331622 0.9293459732346468 9.126801184654169E-4 5.959989935715645E-4 0.010481033477747084 0.8317358806862323 0.14747210802732974 0.010310977808690917 2.1479098789805337E-4 0.9692604757433447 0.030344172901037043 1.805603677201296E-4 0.7794056683460545 0.2153255239074648 0.0026344038732403667 0.0026344038732403667 </TABLE>
</DEFINITION>

<DEFINITION>
	<FOR>x5101</FOR>
	<GIVEN>clustVar</GIVEN>
	<TABLE>0.17300142515402378 0.8068207244299179 0.019367730731609634 8.101196844486134E-4 0.3194186037960076 0.6366212184073468 0.035814400503189986 0.008145777293455751 0.0010558649645044183 0.9463464083869791 0.05216960001900259 4.2812662951371457E-4 0.2710836202080002 0.7230923127931155 0.004959439982643347 8.646270162409542E-4 0.0014185611256758764 0.9919065272263109 0.006229079475518157 4.458321724948806E-4 0.04634452991902646 0.8832639409096867 0.06679450482078433 0.0035970243505022135 0.08658253167620268 0.9092190706205372 0.0036023987090373875 5.9599899422272E-4 0.008065633480986942 0.8360099994837576 0.14704501578598334 0.008879351249272128 3.645115116780085E-4 0.9924590549999457 0.006995873120656248 1.8056036772012967E-4 0.14696888449548604 0.6564531581506838 0.16760255741464355 0.02897539993918668 </TABLE>
</DEFINITION>

<DEFINITION>
	<FOR>x6894</FOR>
	<GIVEN>clustVar</GIVEN>
	<TABLE>0.0702772059304347 0.8777592490591243 0.051055478345705466 9.080666647355291E-4 0.2275656037795785 0.6552106718688703 0.09894497319387915 0.01827875115767193 0.011859650923404973 0.9397682942028808 0.047868062432219916 5.039924414944112E-4 0.08339528640265403 0.9075986552559352 0.008141342825962251 8.647155154483395E-4 0.007334650645816819 0.9821462319170393 0.010073285264359792 4.4583217278413754E-4 0.4880351316592782 0.49466144555047525 0.015505913696823612 0.0017975090934227943 0.04214003361965485 0.9493520018408149 0.007911965546418225 5.959989931119703E-4 0.03697217725339787 0.7555629963362528 0.18749255626549755 0.019972270144851798 0.0011873290774812404 0.992704954952867 0.005927155601931501 1.8056036772013537E-4 0.7116756688126906 0.27778016069492445 0.00790976661914469 0.0026344038732403667 </TABLE>
</DEFINITION>

<DEFINITION>
	<FOR>x285175</FOR>
	<GIVEN>clustVar</GIVEN>
	<TABLE>0.07872355231275105 0.8823177625537413 0.03658667507383131 0.002372010059676467 0.2738278340828745 0.6149448779860979 0.1085542801928126 0.0026730077382150614 0.011332622199995788 0.9370937758280984 0.05112370144394084 4.4990052796504374E-4 0.15368227669326473 0.8380533830212846 0.007399723097388145 8.646171880626061E-4 0.015382728894206301 0.9824666371297134 0.0017048018035206046 4.458321725595623E-4 0.5902961333678381 0.38547980598956116 0.02242655166567139 0.0017975089769292321 0.017090476393970818 0.9666771850328262 0.015636339291494186 5.959992817087483E-4 0.05804147285798153 0.815934384001679 0.11482167885961031 0.011202464280729331 5.949109728075706E-4 0.9866794595242094 0.012545069135261993 1.8056036772102024E-4 0.9302821978746821 0.060879896739790246 0.006203501512287299 0.002634403873240367 </TABLE>
</DEFINITION>

<DEFINITION>
	<FOR>x286411</FOR>
	<GIVEN>clustVar</GIVEN>
	<TABLE>0.019174679366754953 0.9656453298488763 0.014388817791787595 7.91172992581056E-4 0.162995132375374 0.8161563897579451 0.018180597658330144 0.0026678802083507894 0.0015958745011521063 0.9549686376236185 0.04299696465703816 4.3852321819141254E-4 0.09071034657257916 0.9041280489454476 0.004296997716305251 8.646067656677055E-4 0.009865590204806396 0.9870388157013826 0.0026258044466811914 4.697896471296004E-4 0.6501408698678651 0.34609709941074296 0.0019645217444627452 0.001797508976929081 0.005586488880416901 0.9887165359137738 0.005100792851361805 5.961823544473432E-4 0.028861281101685923 0.8837230065260919 0.0784141634377156 0.009001548934506555 2.1045257120604747E-4 0.9350839867390117 0.0639932688715903 7.12291818191819E-4 0.5951600577684569 0.39957091440929354 0.002634623949009083 0.0026344038732403663 </TABLE>
</DEFINITION>

<DEFINITION>
	<FOR>x54715</FOR>
	<GIVEN>clustVar</GIVEN>
	<TABLE>0.2350644208650087 0.717656274360714 0.04573502473467569 0.0015442800396014823 0.3629847867593175 0.5481838180118586 0.07677259549890697 0.012058799729916976 0.011478392041325653 0.8822219070515682 0.10287756099594776 0.0034221399111585213 0.28589344935784344 0.699908756577598 0.012879464344000039 0.001318329720558583 0.034574615024250105 0.9571707113539942 0.00780712717632641 4.475464454292866E-4 0.7847248542591119 0.20624229837872468 0.00723533838431496 0.0017975089778485798 0.07622621835767493 0.9017037840018303 0.02147315365803755 5.968439824572842E-4 0.04800992478922112 0.8110966380572345 0.12278730115465683 0.018106135998887687 8.526526026862572E-4 0.984446703862834 0.014519050253793383 1.815932806862989E-4 0.9205080559791572 0.0636829854278012 0.013174554719801237 0.0026344038732403667 </TABLE>
</DEFINITION>

<DEFINITION>
	<FOR>x10915</FOR>
	<GIVEN>clustVar</GIVEN>
	<TABLE>0.14747277871339248 0.7986301448438786 0.05310493977235035 7.92136670378631E-4 0.31136579999186614 0.5943720949300502 0.0836569606094023 0.010605144468681459 0.01858033718599231 0.9331790496925484 0.047812303679736864 4.283094417224336E-4 0.12812846870605618 0.8469787589450983 0.02314381860217666 0.0017489537466687805 0.02986937884474519 0.9610470242988394 0.008637702930670748 4.458939257448113E-4 0.4625988177535582 0.5008499811318852 0.03475369211018282 0.0017975090043738414 0.03778573180474499 0.9483008856777262 0.013317383290601163 5.959992269276962E-4 0.05114701945055533 0.7557022690304603 0.18409599630857584 0.009054715210408402 0.0026619827012618917 0.9938350476555309 0.0033224092754871037 1.8056036772014762E-4 0.6802318782646277 0.29266048634867053 0.02183882767888012 0.005268807707821675 </TABLE>
</DEFINITION>

<DEFINITION>
	<FOR>x58517</FOR>
	<GIVEN>clustVar</GIVEN>
	<TABLE>0.02818658815141125 0.935653272991272 0.03536881845906558 7.913203982511322E-4 0.1306505973522554 0.7435293854295351 0.11499283598147034 0.010827181236739248 0.004261489284851459 0.9561330965001249 0.038766548308913046 8.388659061106135E-4 0.04492948638128886 0.9334941645104371 0.020711741899990116 8.646072082838973E-4 0.003335101121885783 0.993029877428402 0.0031848641850878803 4.501572646243208E-4 0.18687316962337824 0.7884179532022455 0.02291122454952423 0.0017976526248518574 0.009043788124391751 0.9806335159570012 0.009726694222819524 5.96001695787483E-4 0.025773370648748118 0.8244528071534787 0.13406155062920638 0.015712271568566784 2.0904293310290535E-4 0.995791276442122 0.0038135443481335345 1.8613627664161426E-4 0.27219122410625973 0.6905807842016516 0.031959394473571275 0.005268597218517254 </TABLE>
</DEFINITION>

<DEFINITION>
	<FOR>x55112</FOR>
	<GIVEN>clustVar</GIVEN>
	<TABLE>0.20213158954960558 0.7642978874564716 0.03183572959929497 0.0017347933946276419 0.3763762588732569 0.5319587533298377 0.07867377910469107 0.01299120869221443 0.051509050771918495 0.9132747087010279 0.034738697087656346 4.7754343939714587E-4 0.21134844586276877 0.7369114916542815 0.04772010708348741 0.004019955399462061 0.044060460540823895 0.935038550217074 0.020455089997535446 4.458992445667061E-4 0.37174837228718294 0.5795154655447718 0.0412835630823668 0.0074525990856784685 0.057693755700463215 0.9251786308142117 0.016531582524012156 5.960309613129018E-4 0.1477905325675607 0.6886139267015036 0.14509653312360074 0.018499007607334823 0.002880967137334631 0.9913058710260719 0.005632601468714904 1.805603678786175E-4 0.7665913172669316 0.21520575660714014 0.013318670616578985 0.004884255509349077 </TABLE>
</DEFINITION>

<DEFINITION>
	<FOR>x1655</FOR>
	<GIVEN>clustVar</GIVEN>
	<TABLE>0.011524887926760204 0.9240667037244095 0.06359615069311275 8.122576557176692E-4 0.06744270813014432 0.8363515120818701 0.06702827480710331 0.02917750498088235 0.0023995448349234685 0.953589839148052 0.0426165448965623 0.0013940711204625462 0.056656929227779075 0.9392662634422799 0.0032121823490395187 8.64624980901645E-4 0.002634280178361502 0.9919680964717091 0.004950476063015614 4.4714728691370347E-4 0.056641535377503965 0.8237063087557253 0.1124686940788468 0.007183461787923945 0.004346669807711832 0.9832839459252193 0.01177321381230423 5.961704547646482E-4 0.00804307261015152 0.7843642653660727 0.19677912616491136 0.010813535858864453 1.875315335983065E-4 0.993308076937977 0.006323830866670536 1.8056066175406728E-4 0.1204315966821911 0.7508635398564011 0.11025440150539029 0.018450461956017402 </TABLE>
</DEFINITION>

<DEFINITION>
	<FOR>x8925</FOR>
	<GIVEN>clustVar</GIVEN>
	<TABLE>0.12173259220536978 0.8324472326655539 0.04502625688464364 7.939182444328939E-4 0.2585394385847825 0.6564420383651864 0.07169241573019702 0.013326107319834026 0.018217152952628282 0.91762229991068 0.06311097412379262 0.0010495730128990226 0.14759882374705038 0.8214322585648887 0.03010348885945753 8.654288286033643E-4 0.010606310479487051 0.968725094798114 0.019934933724735864 7.33660997663094E-4 0.4785252168230102 0.4834895775080818 0.03258834095134809 0.005396864717559884 0.041225149992440424 0.9449155302986499 0.013259668359490955 5.996513494186621E-4 0.04922367228734611 0.8010279107945029 0.1273798096629365 0.022368607255214525 0.001175733177962769 0.991115226375024 0.0075261901510446675 1.8285029596849876E-4 0.538819687983435 0.4165573616406772 0.03671971394027643 0.007903236435611295 </TABLE>
</DEFINITION>

<DEFINITION>
	<FOR>x780813</FOR>
	<GIVEN>clustVar</GIVEN>
	<TABLE>0.2336299890098119 0.7283967923528754 0.0334870249263332 0.00448619371097948 0.2855801674502431 0.6741148190640341 0.03474793885082627 0.005557074634896647 0.06873929808788937 0.8984325120781717 0.030830124808164154 0.001998065025774859 0.14020303567094514 0.8284511419014721 0.02886684823898259 0.002478974188600257 0.030926320926456058 0.9501861880383228 0.018347530366747095 5.3996066847417E-4 0.3561916368867275 0.6101891861185682 0.028222699367182465 0.0053964776275218646 0.12369186325789513 0.8588126445274725 0.016661633749325208 8.338584653072282E-4 0.11274846928268012 0.8032529797816232 0.07698215101884395 0.007016399916852836 0.011983055641400935 0.9689953967685822 0.0188409218017689 1.8062578824798567E-4 0.4022838992724191 0.5922267047439609 0.002854919584455919 0.0026344763991641134 </TABLE>
</DEFINITION>

<DEFINITION>
	<FOR>x347746</FOR>
	<GIVEN>clustVar</GIVEN>
	<TABLE>0.11770306675903056 0.80740007377858 0.07035171684500188 0.004545142617387623 0.21237986763069677 0.7222081024839434 0.05899583950667716 0.006416190378682737 0.0513962728641188 0.8923902005755056 0.054607117156015364 0.0016064094043601338 0.07084588412927091 0.9039612806565724 0.024328220321656154 8.646148925005092E-4 0.028893198143959402 0.962968138903575 0.007692826701473725 4.4583625099185395E-4 0.6142421908440633 0.35687836752964996 0.02528420504121928 0.003595236585067621 0.019540077847766336 0.9544545478216753 0.025407918126422485 5.974562041359798E-4 0.18572962747378577 0.7260678904351896 0.08345891668830836 0.004743565402716358 0.00654189488652847 0.982168859419631 0.011108685290899681 1.805604029409941E-4 0.7772510473473044 0.19921802114730539 0.018262679437369762 0.005268252068020481 </TABLE>
</DEFINITION>

<DEFINITION>
	<FOR>x54737</FOR>
	<GIVEN>clustVar</GIVEN>
	<TABLE>0.025319227305250977 0.9242827089935144 0.049371622671141695 0.001026441030092809 0.09449044625486896 0.7569265897282769 0.11622903389583901 0.03235393012101518 6.224976196236103E-4 0.9435611102433552 0.055388216542218184 4.2817559480291784E-4 0.03815469649076464 0.8868876674217004 0.07284868948539626 0.002108946602138669 0.002444718859250323 0.986502891817839 0.010606372419862809 4.46016903047825E-4 0.236361716587751 0.7331610215401004 0.028678887897773342 0.0017983739743752324 0.0028290792386510707 0.9886879802553951 0.007885807979268624 5.971325266852761E-4 0.04282618719365453 0.7713994211845729 0.16962791439798888 0.0161464772237838 7.334905426329861E-4 0.9970138514745885 0.0020720976150581626 1.805603677204003E-4 0.3774832176210688 0.5935136433765764 0.026368735129114498 0.0026344038732403693 </TABLE>
</DEFINITION>

<DEFINITION>
	<FOR>x9295</FOR>
	<GIVEN>clustVar</GIVEN>
	<TABLE>0.021809616888984546 0.942105626732468 0.03521851067325245 8.662457052950128E-4 0.0712450822342307 0.8222073421252333 0.10146276767753627 0.005084807962999731 0.0020670594183033486 0.9554257674136055 0.04207904658175245 4.281265863385106E-4 0.035617865337230326 0.9522726678384972 0.011244860055158791 8.646067691136436E-4 0.0030182437997458606 0.9886702805116806 0.007865643516078762 4.458321724947785E-4 0.20698129737580362 0.7598138230732144 0.029611633380363562 0.003593246170618447 7.016688811042149E-4 0.99026196257518 0.008440369550676648 5.959989930392041E-4 0.005182395415191642 0.8057214034341594 0.17551680205732575 0.013579399093323065 1.8775048652366276E-4 0.9963144656977994 0.0033172234479569357 1.8056036772012965E-4 0.21675862314197172 0.6911106491365162 0.07895621377447294 0.013174513947038953 </TABLE>
</DEFINITION>

<DEFINITION>
	<FOR>x7345</FOR>
	<GIVEN>clustVar</GIVEN>
	<TABLE>0.012748959176604995 0.9052496931176486 0.08030187656034501 0.0016994711454015403 0.08163718720882915 0.7897610663851674 0.11822734846166703 0.01037439794433639 0.0011815906065699836 0.901328504394526 0.09338732290924553 0.00410258208965858 0.07384771721904788 0.9218833476217094 0.0034043255832126545 8.646095760300433E-4 0.009935251832316598 0.9857749608324312 0.003578307000976935 7.114803342751774E-4 0.6851893720078527 0.31013572434283077 0.002877394672387175 0.001797508976929263 0.006160529720720245 0.9663303420955518 0.02690235258673152 6.067755969964994E-4 0.006668032803612656 0.8299701814116263 0.15031050965028317 0.013051276134477928 3.8160579864515747E-4 0.9851228110357649 0.01431486699457289 1.807161710171942E-4 0.7172042066261286 0.2652261006186343 0.01493528888199659 0.0026344038732403663 </TABLE>
</DEFINITION>

<DEFINITION>
	<FOR>x151613</FOR>
	<GIVEN>clustVar</GIVEN>
	<TABLE>0.09373965009087526 0.8189833520632485 0.082428284301158 0.004848713544718366 0.32821034093694745 0.5445290570261834 0.11084419200387723 0.016416410032991897 0.031321771085832104 0.911349289698517 0.05646282103340782 8.661181822431847E-4 0.15400034944581945 0.8219309673672247 0.02319440569021335 8.742774967425216E-4 0.03421039177029953 0.9597250606313286 0.005618463413310811 4.460841850610335E-4 0.3295869285762826 0.5827739723406776 0.0804872826359263 0.007151816447113765 0.04584275465657087 0.9325741550272675 0.02098336416101306 5.997261551485217E-4 0.07346563204998965 0.7765907235583329 0.12351783715276976 0.02642580723890755 0.0023206006510009458 0.9886469670793335 0.008851871882676738 1.8056038698869998E-4 0.510815589480452 0.3853845275793985 0.09056530668784886 0.013234576252300593 </TABLE>
</DEFINITION>

<DEFINITION>
	<FOR>x100128906</FOR>
	<GIVEN>clustVar</GIVEN>
	<TABLE>7.911740100654883E-4 0.997177106469425 0.0012378155943002368 7.939039262092278E-4 0.002667880207239939 0.9455393739142538 0.04912486377776011 0.0026678821007462047 4.281276057789901E-4 0.9979905142692694 0.001152975073803322 4.283830511481957E-4 8.921097186088591E-4 0.8717486776974581 0.12640494202986752 9.542705540654943E-4 8.774634264749955E-4 0.9446829073899558 0.053162978086252415 0.0012766510973169843 0.0017975089769290816 0.9571959340524111 0.039208065925976844 0.0017984910446828444 5.96021966718078E-4 0.994167000903127 0.004629561986056569 6.074151440982833E-4 0.0022635306025693917 0.9303283486556961 0.06285942079874639 0.004548699942988007 1.805603677204397E-4 0.997427112546609 0.002211765949474601 1.8056113619598356E-4 0.002634403873240367 0.9360247698123293 0.056073457872635936 0.005267368441794358 </TABLE>
</DEFINITION>

<DEFINITION>
	<FOR>x490</FOR>
	<GIVEN>clustVar</GIVEN>
	<TABLE>0.0728619476115593 0.8601446235932199 0.06289975874287031 0.004093670052350662 0.12346697679965736 0.7658150700658625 0.09974207611455721 0.010975877019922857 0.001165371502546115 0.81303145907885 0.18518073619277822 6.224332258255483E-4 0.08370931390505507 0.9062203633473889 0.009196472326579776 8.738504209763104E-4 0.002727830392075232 0.9887747857725306 0.008051071115822032 4.4631271957223196E-4 0.5578109811798421 0.43143581459308844 0.008955695249660129 0.001797508977409209 0.045881928330576374 0.9500445490604718 0.003068859888991801 0.0010046627199600594 0.008227432308006842 0.7579835963639504 0.20083099138469995 0.03295797994334292 2.646295977378415E-4 0.973730245346491 0.025824564688024562 1.8056036774657906E-4 0.6916916683503757 0.28723647174240863 0.018437456033975383 0.0026344038732403667 </TABLE>
</DEFINITION>

<DEFINITION>
	<FOR>x9406</FOR>
	<GIVEN>clustVar</GIVEN>
	<TABLE>0.01351115409550608 0.9531343420997489 0.03254019693699643 8.143068677486766E-4 0.08054837097059483 0.7432684556627538 0.1655899690335657 0.010593204333085693 0.0020007087928436093 0.9431058054796704 0.05446535695239268 4.281287750931721E-4 0.034319383984250176 0.9360965658377616 0.028719429841784494 8.646203362036583E-4 4.982811408126242E-4 0.9942007683444186 0.004855118342274056 4.4583217249477867E-4 0.199070238359163 0.7844064308671379 0.014725821796744218 0.0017975089769549384 0.004860477230658401 0.9880141786924167 0.00652934508388587 5.959989930389534E-4 0.00981914786036426 0.7762087464647657 0.20718130399606755 0.006790801678802554 1.8056325873906442E-4 0.9981669188231961 0.0014719575503447451 1.8056036772012962E-4 0.3293143606785667 0.6241929214227299 0.04385831402546309 0.0026344038732403667 </TABLE>
</DEFINITION>

<DEFINITION>
	<FOR>x4133</FOR>
	<GIVEN>clustVar</GIVEN>
	<TABLE>0.008603396600076828 0.8735268471802952 0.11545154885761541 0.002418207362012571 0.058204435714387055 0.8226221024839762 0.10326659368170964 0.01590686811992711 0.001895184506272346 0.9340459731153925 0.06224240658790471 0.0018164357904304318 0.01874722603112572 0.9588721128763371 0.020649789026878064 0.001730872065659223 0.004285493152509867 0.9936317511670424 0.0016343690209106626 4.483866595369908E-4 0.46243250935928376 0.512748488497592 0.021476179661645643 0.003342822481478618 7.907278151747389E-4 0.9510771513360089 0.04753414531520512 5.979755336112243E-4 0.01576732234867667 0.8457896820192596 0.11642476750161494 0.02201822813044862 2.128817111590698E-4 0.9865606294708971 0.013045919278966646 1.8056953897723301E-4 0.8241799015724574 0.1647943888256543 0.008021700851690275 0.0030040087501980797 </TABLE>
</DEFINITION>

<DEFINITION>
	<FOR>x2823</FOR>
	<GIVEN>clustVar</GIVEN>
