<?xml version="1.0" encoding="ISO-8859-1"?>
<!-- This network was created in GeNIe Academic, which can be used for educational and research purposes only -->
<smile version="1.0" id="Sub0" numsamples="10000" discsamples="10000">
	<nodes>
		<cpt id="variable677">
			<state id="state0" />
			<state id="state1" />
			<state id="state2" />
			<state id="state3" />
			<state id="state4" />
			<state id="state5" />
			<state id="state6" />
			<probabilities>0.0242483602424836 0.1529810215298102 0.0370850203708502 0.1359654613596546 0.3805605738056057 0.1293014112930141 0.1398581513985815</probabilities>
		</cpt>
		<cpt id="CHD5">
			<state id="absent" />
			<state id="low" />
			<state id="medium" />
			<state id="high" />
			<parents>variable677</parents>
			<probabilities>0.8981539559904561 0.09554910531809384 0.006296938691450003 1.612888920968443e-92 0.010728576 0.9651488330000002 0.023059718 0.001062873 0.96850494 0.03149506 0 0 0.109823618 0.8315168230000002 0.05184239200000001 0.006817167000000002 0.003443997041327965 0.9953190119438283 0.001236991014843892 2.394239028730698e-311 0.02907489070000001 0.9676029835000002 0.003064283000000001 0.0002578428 0.0306522793 0.9377395559 0.030658543 0.0009496218</probabilities>
		</cpt>
		<cpt id="HOMER1">
			<state id="absent" />
			<state id="low" />
			<state id="medium" />
			<state id="high" />
			<parents>variable677</parents>
			<probabilities>0.82819328 0.144413104 0.024798372 0.002595244 0.2573519667257352 0.7229215830722922 0.01939981960193998 0.0003266306000326631 0.94022129 0.05977871 0 0 0.6477811486477811 0.332152960332153 0.01757928401757929 0.002486607002486607 0.04913937200000001 0.9214043066000002 0.02917234520000001 0.0002839762 0.4814215195 0.5159231986 0.0022890025 0.0003662794 0.2004059720040597 0.6770992667709926 0.1097724910977249 0.0127222701272227</probabilities>
		</cpt>
		<cpt id="SYTL2">
			<state id="absent" />
			<state id="low" />
			<state id="medium" />
			<state id="high" />
			<parents>variable677</parents>
			<probabilities>0.7426828987426829 0.2287982882287983 0.02572101202572102 0.002797801002797801 0.161411275 0.8273068779 0.0109121592 0.0003696879 0.8206595101793406 0.1574709218425291 0.01523425998476574 0.006635307993364693 0.7667277969330887 0.2250911990996352 0.008181003967275984 3.203773987184904e-160 0.059867547 0.931998247 0.008134206 0 0.624782516 0.3739383 0.001279184 0 0.1440896168559104 0.7751444792248555 0.07533456092466542 0.005431342994568656</probabilities>
		</cpt>
		<cpt id="HRH2">
			<state id="absent" />
			<state id="low" />
			<state id="medium" />
			<state id="high" />
			<parents>variable677</parents>
			<probabilities>0.951777851 0.04658135 0.001640799 0 0.14697471 0.83970886 0.01331643 0 0.9598997360401004 0.0367264019632736 0.003373861996626139 0 0.408973929 0.561331561 0.028309264 0.001385246 0.016766898 0.97630458 0.006928522 0 0.440178756 0.552370202 0.007451042 0 0.080074037 0.8381028659999999 0.079578576 0.002244521</probabilities>
		</cpt>
		<cpt id="LPCAT4">
			<state id="absent" />
			<state id="low" />
			<state id="medium" />
			<state id="high" />
			<parents>variable677</parents>
			<probabilities>0.8172164681827835 0.1725890398274109 0.007605346992394652 0.002589144997410855 0.1082044008656352 0.8837238070697906 0.008071792064574337 2.924733023397864e-281 0.937235805 0.0581989 0.004565295 0 0.3610688486389312 0.6061115753938885 0.03143437296856563 0.001385202998614797 0.02863547199999999 0.9701980649999998 0.001002924 0.000163539 0.09926076900739232 0.8785132912148672 0.0222259397777406 0 0.1419139863858086 0.8231720926176828 0.03401215819659879 0.0009017627999098238</probabilities>
		</cpt>
		<cpt id="MIR124_2HG">
			<state id="absent" />
			<state id="low" />
			<state id="medium" />
			<state id="high" />
			<parents>variable677</parents>
			<probabilities>0.6912350200458156 0.3043050088248452 1.617449046906022e-129 0.004459971129339163 0.010965858 0.9836167300000001 0.005417412 0 0.895747 0.104253 0 0 0.2207441122074411 0.7624371576243715 0.0148661501486615 0.0019525800195258 0.0002673575 0.996702776 0.0030298665 0 0.06272568106272569 0.930893910930894 0.006380408006380408 0 0.013168665 0.922572435 0.06289028300000001 0.001368617</probabilities>
		</cpt>
		<cpt id="VPS13A">
			<state id="absent" />
			<state id="low" />
			<state id="medium" />
			<state id="high" />
			<parents>variable677</parents>
			<probabilities>0.63643665 0.336462691 0.024511492 0.002589167 0.09574012599999999 0.900931377 0.003328497 0 0.8098485880984858 0.1798316717983167 0.0103197401031974 0 0.45061898 0.53364046 0.01395257 0.00178799 0.005762245 0.987937093 0.006300662 0 0.2404708207595292 0.7584069122415932 0.001122266998877733 0 0.098069269 0.856261827 0.042918118 0.002750786</probabilities>
		</cpt>
		<cpt id="MICAL2">
			<state id="absent" />
			<state id="low" />
			<state id="medium" />
			<state id="high" />
			<parents>variable677</parents>
			<probabilities>0.8995332 0.1004668 3.073456e-230 0 0.09386648 0.89063326 0.01550026 0 0.960172059 0.038135006 0 0.001692935 0.5758367202 0.4047387036 0.0185011869 0.0009233893 0.01427416498572583 0.9814152600185846 0.004310574995689424 0 0.230626191 0.7663206849999999 0.003053124 0 0.071429862 0.877508941 0.048367674 0.002693523</probabilities>
		</cpt>
		<cpt id="RYR2">
			<state id="absent" />
			<state id="low" />
			<state id="medium" />
			<state id="high" />
			<parents>variable677</parents>
			<probabilities>0.8763484061151591 0.1236505008628332 1.093022007627107e-06 1.213850008470245e-228 0.037461119 0.953005874 0.009533007 0 0.891480422 0.105134429 0.003385149 0 0.4356440704356441 0.5432758355432759 0.01744138601744139 0.003638708003638708 0.002186448 0.99090804 0.006905512 0 0.176087273 0.816108211 0.007804516 0 0.04906353395093647 0.9055134390944867 0.04402254295597746 0.001400483998599516</probabilities>
		</cpt>
		<cpt id="PKD1">
			<state id="absent" />
			<state id="low" />
			<state id="medium" />
			<state id="high" />
			<parents>variable677</parents>
			<probabilities>0.44072374 0.54982063 0.00945563 0 0.0004307482000430748 0.9743462501974346 0.02484295280248429 0.0003800488000380049 0.6064477069999999 0.387914976 0.005637317 0 0.067557509 0.9091947042 0.0223200043 0.0009277825 0.0002918341000291834 0.9974231963997423 0.002284969500228497 0 0.015437211 0.982472651 0.002090138 0 0.0146518401465184 0.9565934595659346 0.02737896027378961 0.0013757400137574</probabilities>
		</cpt>
		<cpt id="CELF4">
			<state id="absent" />
			<state id="low" />
			<state id="medium" />
			<state id="high" />
			<parents>variable677</parents>
			<probabilities>0.737348841 0.260055528 0 0.002595631 0.02146868085764594 0.9609223383876004 0.01760898070345593 5.129771204927703e-11 0.8971997 0.1028003 0 0 0.06666848306666848 0.8787917878787918 0.05114298805114298 0.00339674100339674 0.003397742 0.989521811 0.007080447 0 0.01164352670116435 0.9710599507971059 0.01672464180167246 0.0005718807000571881 0.033209342 0.914971905 0.047570566 0.004248187</probabilities>
		</cpt>
		<cpt id="SNTG1">
			<state id="absent" />
			<state id="low" />
			<state id="medium" />
			<state id="high" />
			<parents>variable677</parents>
			<probabilities>0.3419844733419845 0.6103000856103001 0.04253715204253716 0.005178289005178289 0.042449759 0.949490823 0.008059418 0 0.937749151 0.057588432 0.004662417 0 0.1202825731202826 0.8352323778352324 0.04171816104171816 0.002766888002766888 0.00411382 0.990820727 0.005065453 0 0.07055346000000001 0.9050997000000002 0.02434684000000001 1.207581e-86 0.043465977 0.882019956 0.07271493 0.001799137</probabilities>
		</cpt>
		<cpt id="MNAT1">
			<state id="absent" />
			<state id="low" />
			<state id="medium" />
			<state id="high" />
			<parents>variable677</parents>
			<probabilities>0.61105325 0.36798317 0.02096358 0 0.042719865 0.9513799469999999 0.005900188 0 0.74892991 0.23813785 0.00954637 0.00338587 0.2873373671712663 0.6855541655314447 0.02644548239735545 0.0006629848999337015 0.0007372343 0.9920451364 0.0072176293 0 0.103636755 0.8928587652 0.0030861049 0.0004183749 0.039202322 0.8884293360000002 0.07070626100000002 0.001662081</probabilities>
		</cpt>
		<cpt id="KALRN">
			<state id="absent" />
			<state id="low" />
			<state id="medium" />
			<state id="high" />
			<parents>variable677</parents>
			<probabilities>0.688844873 0.303081358 0.005484847 0.002588922 0.01909454 0.972564799 0.008340660999999999 0 0.8306039 0.1693961 0 0 0.2611786077388214 0.7125905742874096 0.02485029197514971 0.001380525998619474 0.0006116395 0.9922073739 0.0071809866 0 0.2196337 0.7803663 9.582285e-201 7.681218833268026e-318 0.01307313 0.901535441 0.084937886 0.000453543</probabilities>
		</cpt>
		<cpt id="RIMS2">
			<state id="absent" />
			<state id="low" />
			<state id="medium" />
			<state id="high" />
			<parents>variable677</parents>
			<probabilities>0.530141764 0.461840221 0.008018015 0 0.005182342 0.980917433 0.013900225 0 0.9308707534564624 0.06912924654353768 2.456796877160157e-282 0 0.113438765 0.8367904140000002 0.04745037600000002 0.002320445 0.0009992343 0.9918225265 0.0071782392 0 0.08333332916666671 0.9055673609443264 0.0110993098890069 0 0.006916672 0.911439085 0.07985999000000001 0.001784253</probabilities>
		</cpt>
		<cpt id="OLFM1">
			<state id="absent" />
			<state id="low" />
			<state id="medium" />
			<state id="high" />
			<parents>variable677</parents>
			<probabilities>0.52800048 0.469410557 0 0.002588963 0.0132921778 0.9609815849 0.0254240461 0.0003021912 0.7733999070000001 0.224907158 0.001692935 0 0.263433415 0.695998812 0.038347196 0.002220577 0.001287254041192129 0.9919435317421931 0.006769214216614855 2.42160907749149e-191 0.1581724113884136 0.8338577600377587 0.007969828573827657 2.939731211660647e-133 0.009774988 0.808863692 0.168587958 0.012773362</probabilities>
		</cpt>
		<cpt id="SLC12A5">
			<state id="absent" />
			<state id="low" />
			<state id="medium" />
			<state id="high" />
			<parents>variable677</parents>
			<probabilities>0.8796806512031934 0.1092367389076326 0.0110826098891739 0 0.09774628293238849 0.8894178266825349 0.01283589038507671 8.592317257769516e-140 0.95968606 0.04031394 0 0 0.2276891432276892 0.6792343816792344 0.08792635208792636 0.005150123005150124 0.04320386404320387 0.9549516349549517 0.001844501001844501 0 0.09385916812281665 0.8815248823695024 0.02461594950768101 1.797898964042021e-149 0.101857943 0.8294631170000002 0.06470769100000001 0.003971249</probabilities>
		</cpt>
		<cpt id="STXBP5L">
			<state id="absent" />
			<state id="low" />
			<state id="medium" />
			<state id="high" />
			<parents>variable677</parents>
			<probabilities>0.735002894 0.255351631 0.009645475000000001 0 0.02367774924231203 0.9691715689865098 0.007150681771178184 3.873419876050564e-57 0.954230633 0.044076432 0 0.001692935 0.3066253653 0.6803620205000001 0.0120212319 0.0009913823 0.0008772957000877296 0.9866331832986633 0.01248952100124895 0 0.1226096949730025 0.873102364202803 0.004287940824194426 4.172079828944727e-90 0.03721032600000001 0.8918036920000002 0.06746075700000001 0.003525225000000001</probabilities>
		</cpt>
		<cpt id="FBXW7">
			<state id="absent" />
			<state id="low" />
			<state id="medium" />
			<state id="high" />
			<parents>variable677</parents>
			<probabilities>0.7215004909999999 0.262969261 0.010349503 0.005180744999999999 0.003902625 0.98240465 0.013692725 0 0.8781703749999999 0.120136742 0 0.001692883 0.4423323353865868 0.5418835433506834 0.0157841212627297 2.448606195888496e-29 0.001295867016846271 0.972355612640623 0.02634852034253076 1.124005014612065e-208 0.2825827 0.7174173 2.691631e-203 0 0.01046936 0.80559751 0.17360881 0.01032432</probabilities>
		</cpt>
		<cpt id="R3HDM1">
			<state id="absent" />
			<state id="low" />
			<state id="medium" />
			<state id="high" />
			<parents>variable677</parents>
			<probabilities>0.5695276 0.4304724 0 0 0.002767557 0.9941861590000002 0.003046284000000001 0 0.7599273 0.2400727 0 0 0.245483097 0.7497672652 0.0038826806 0.0008669572 2.359624952807501e-170 0.9692809806143805 0.03071901938561962 0 0.07961276318451052 0.9203872368154894 5.549724221988968e-222 0 0.0003642414 0.9080214306000002 0.09021264800000002 0.00140168</probabilities>
		</cpt>
		<cpt id="UNC80">
			<state id="absent" />
			<state id="low" />
			<state id="medium" />
			<state id="high" />
			<parents>variable677</parents>
			<probabilities>0.44358584 0.51610718 0.04030698 0 0.02046269 0.97797181 0.0015655 0 0.893178799 0.103333286 0.003487915 0 0.156878313 0.8068574000000002 0.03524947500000001 0.001014812 8.412667607296675e-05 0.9864888539507003 0.01342701937322673 0 0.01642728917863555 0.9669277516536126 0.01664495916775205 1.963643901817805e-242 0.021158915 0.906858811 0.070275432 0.001706842</probabilities>
		</cpt>
		<cpt id="LINC00632">
			<state id="absent" />
			<state id="low" />
			<state id="medium" />
			<state id="high" />
			<parents>variable677</parents>
			<probabilities>0.5367756584632244 0.4572696985427304 0.005954642994045358 0 0.012184697 0.986193249 0.001622054 0 0.6641546 0.3358454 0 0 0.07260484 0.918031371 0.009363789000000001 0 3.864702805605448e-91 0.938534252791727 0.06097106693315533 0.0004946802751175821 0.009030327000000001 0.9860634880000002 0.004906185000000001 0 0.005318179 0.939563127 0.053771334 0.00134736</probabilities>
		</cpt>
		<cpt id="RBFOX1">
			<state id="absent" />
			<state id="low" />
			<state id="medium" />
			<state id="high" />
			<parents>variable677</parents>
			<probabilities>0.6543878400000001 0.32434852 0.02126364 0 0.04346771839169442 0.9501964648427308 0.006335816765574779 3.167053882819007e-287 0.937185127 0.057299992 0.005514881 0 0.3112140993112141 0.650760928650761 0.03617642603617643 0.001848546001848546 3.69960603699606e-17 0.9826713098267129 0.0173286901732869 0 0.07938455920615442 0.8987220910127791 0.0218933497810665 1.71717298282827e-294 0.02167175102167175 0.8487691758487693 0.1228270421228271 0.006732031006732032</probabilities>
		</cpt>
		<cpt id="PWARSN">
			<state id="absent" />
			<state id="low" />
			<state id="medium" />
			<state id="high" />
			<parents>variable677</parents>
			<probabilities>0.560482638 0.399685875 0.034664216 0.005167271 0.0336948899663051 0.9584248490415751 0.007880260992119737 0 0.737192528 0.249835894 0.011278852 0.001692726 0.114309732 0.8328863300000002 0.05124039200000002 0.001563546000000001 0.006633492000000002 0.9809440260000002 0.012422482 0 0.02906560941868782 0.9406180811876386 0.03031630939367382 2.078243958435121e-286 0.085894463 0.845127225 0.066456261 0.002522051</probabilities>
		</cpt>
		<cpt id="UCHL1">
			<state id="absent" />
			<state id="low" />
			<state id="medium" />
			<state id="high" />
			<parents>variable677</parents>
			<probabilities>0.5146687000000001 0.4697233000000001 0.015608 0 0.0144077118 0.9831998087 0.001868612 0.0005238675 0.7821506459999999 0.212773553 0.005075801 0 0.04807380300000001 0.8971486180000002 0.05285072600000001 0.001926853000000001 0.0001120617042919633 0.984636137711564 0.01525180058414396 7.817146299396702e-177 0.005827201168988834 0.9601751278450786 0.03399767098593246 2.826514081968909e-265 0.001487216001487216 0.8701064088701064 0.1227723951227724 0.00563398000563398</probabilities>
		</cpt>
		<cpt id="ATP2B1">
			<state id="absent" />
			<state id="low" />
			<state id="medium" />
			<state id="high" />
			<parents>variable677</parents>
			<probabilities>0.4132882 0.5764892 0.0102226 0 0.003302398148607917 0.9880854444638452 0.008612157387547083 6.487675291945389e-171 0.7131538199999999 0.27496691 0.01187927 0 0.091894962 0.854858045 0.049919275 0.003327718 1.324475026489501e-27 0.9699587193991744 0.03004128060082562 0 0.0490716422082239 0.9437887424704934 0.007139615321282689 1.292640058168803e-221 1.728899115836241e-82 0.7778236521141846 0.2155356144408861 0.006640733444929141</probabilities>
		</cpt>
		<cpt id="MAP2">
			<state id="absent" />
			<state id="low" />
			<state id="medium" />
			<state id="high" />
			<parents>variable677</parents>
			<probabilities>0.285568866 0.6787992250000001 0.03117156100000001 0.004460348000000001 0.004188160167526407 0.9958118398324736 2.035902081436083e-23 3.833065153322606e-260 0.7873974572126026 0.2080672657919327 0.004535276995464722 0 0.01922081998077918 0.9045277170954722 0.07235393392764605 0.00389752899610247 2.114083915436643e-91 0.9860918605563256 0.01390813944367442 4.871163805153448e-299 0.0005422309157789196 0.9407013273744086 0.05875644170981245 3.732055108602804e-266 0.004331783 0.905838734 0.08496492899999999 0.004864554</probabilities>
		</cpt>
		<cpt id="DNM1">
			<state id="absent" />
			<state id="low" />
			<state id="medium" />
			<state id="high" />
			<parents>variable677</parents>
			<probabilities>0.63361362 0.35596146 0.01042492 0 0.00426807 0.962004449 0.033340092 0.000387389 0.896532608 0.101774457 0 0.001692935 0.08824211300000001 0.8449680980000002 0.05893566300000001 0.007854126000000001 0.0007667786010734901 0.9846036013784452 0.01462962002048147 1.509048002112667e-224 0.02042891402042891 0.9147593649147595 0.06290056506290058 0.001911156001911156 0.01547995501547996 0.82337000282337 0.153917946153918 0.007232096007232097</probabilities>
		</cpt>
		<cpt id="ARPP21">
			<state id="absent" />
			<state id="low" />
			<state id="medium" />
			<state id="high" />
			<parents>variable677</parents>
			<probabilities>0.448209842 0.5243963780000001 0.022215345 0.005178435 0.018618516 0.916624942 0.06352261400000001 0.001233928 0.83635058 0.16125845 0.00239097 0 0.4676871 0.497108373 0.03085719 0.004347337 0.0006082875 0.9160049514 0.0831254305 0.0002613306 0.6681358334067917 0.3201285160064258 0.01173565058678253 3.101309155065458e-153 0.007149048 0.714823382 0.253340536 0.024687034</probabilities>
		</cpt>
		<cpt id="MIAT">
			<state id="absent" />
			<state id="low" />
			<state id="medium" />
			<state id="high" />
			<parents>variable677</parents>
			<probabilities>0.33077033 0.6573582100000001 0.01187146 0 0.0004114686999588531 0.8237607513176239 0.1710085544828991 0.004819225499518077 0.666253536 0.330734678 0.003011786 0 0.02744425797255574 0.9057653980942347 0.06134108093865893 0.005449262994550738 0 0.9533159285994779 0.04668407140052214 1.068847032065411e-197 0.003525284003525284 0.960861965960862 0.03306961103306962 0.002543139002543139 2.641826066045651e-127 0.8490655212266379 0.1450008036250201 0.005933675148341878</probabilities>
		</cpt>
		<cpt id="variable1188">
			<state id="state0" />
			<state id="state1" />
			<state id="state2" />
			<state id="state3" />
			<state id="state4" />
			<state id="state5" />
			<state id="state6" />
			<state id="state7" />
			<parents>variable677</parents>
			<probabilities>0 0.07545617961717239 0.004544322976944337 0 2.204285988816535e-141 2.073508989480033e-09 0.9081961953922585 0.01180329994011585 7.11094927768968e-06 0.05831246227715997 8.846041345446761e-41 0.04405909172055159 0.05804060226654355 0.8395807327864672 1.048524040945912e-184 0 0 2.152958999999905e-50 4.407177999999806e-14 0 0 1.412919999999938e-197 0.361758399999984 0.6382415999999719 6.034650698267466e-157 0.4838424758078763 0.375294781235261 1.172732941363353e-29 0.1053905947304703 1.339597933020104e-22 0.03547214822639259 5.925850703707465e-104 0.9306671888319936 5.309081936291016e-75 1.535687981571744e-158 0.02379618971444572 0.005305031936339616 0.04023158951722092 0 0 0.02595346028548806 0.06933016076263177 0.01103397012137367 0.006898899075887889 0.7320368080524049 0.1547467017022137 2.275602025031622e-179 0 0.01504284058667078 0.02773129108152035 0.09107646355198207 0.797896231117953 0.06170221240638628 0.006550961255487489 2.468885096286519e-61 0</probabilities>
		</cpt>
		<cpt id="APLP2">
			<state id="absent" />
			<state id="low" />
			<state id="medium" />
			<state id="high" />
			<parents>variable1188</parents>
			<probabilities>0.05695940905695942 0.9410613399410614 0.001979251001979251 0 0.2839249229716075 0.7055376555294463 0.01003806239899619 0.0004993590999500641 0.112176101121761 0.652514406525144 0.1992628119926281 0.03604668036046679 0.145228802904576 0.8324104166482083 0.02236078044721561 2.902500058050001e-32 0.03361702 0.8494355 0.1087617 0.00818578 0.1952050922461492 0.8047948680322923 3.972155842219773e-08 1.226492951281787e-252 0.6465428366465429 0.3243475583243476 0.02749842402749843 0.001611181001611181 0.76176562 0.20895611 0.02401791 0.00526036</probabilities>
		</cpt>
		<cpt id="RPL15">
			<state id="absent" />
			<state id="low" />
			<state id="medium" />
			<state id="high" />
			<parents>variable1188</parents>
			<probabilities>0.0935905189 0.9033539601 0.0028919101 0.0001636109 0.4282372085647441 0.5525133110502661 0.01924948038498961 3.451061069021222e-60 0.1820603817939619 0.6616421338357866 0.1363474863652514 0.0199499980050002 0.156539867 0.7842211610000001 0.058116058 0.001122914 0.150006801500068 0.802418708024187 0.04757449047574489 2.25741202257412e-110 0.28670368365789 0.7103829595081712 0.002913356833938661 5.108405708820874e-190 0.633349288 0.335813506 0.026131208 0.004705998 0.6311012873779743 0.3277889934442202 0.04110971917780563 1.398794972024101e-273</probabilities>
		</cpt>
		<cpt id="PHACTR1">
			<state id="absent" />
			<state id="low" />
			<state id="medium" />
			<state id="high" />
			<parents>variable1188</parents>
			<probabilities>0.0335945603359456 0.9563947395639472 0.010010700100107 0 0.4624886235375114 0.518798973481201 0.01765623798234376 0.001056164998943835 0.49189306 0.44333843 0.05209119 0.01267732 0.1589513178410487 0.775746990224253 0.06261693693738306 0.002684754997315245 0.4307377890592602 0.5688592855509742 5.732212854401795e-26 0.0004029253897656952 0.1983803079352123 0.7880222315208892 0.01359746054389842 1.173419046936762e-142 0.6797773 0.3014238 0.0187989 0 0.78306208 0.19944277 0.01749515 0</probabilities>
		</cpt>
		<cpt id="RGS7">
			<state id="absent" />
			<state id="low" />
			<state id="medium" />
			<state id="high" />
			<parents>variable1188</parents>
			<probabilities>0.04778902695221097 0.9496314610503684 0.002579511997420488 0 0.524730267 0.457693522 0.016861305 0.000714906 0.35547738 0.54597475 0.08545132 0.01309655 0.1336967919781925 0.8168848509869089 0.04941835703489857 7.566688545998687e-125 0.2009161100458055 0.769084738454237 0.02999915149995758 2.432417121620856e-52 0.267325359 0.728106819 0.004567822 0 0.7845261 0.19339245 0.016841676 0.005239774 0.9664772716033523 0.03305589229669441 0.0004668360999533164 0</probabilities>
		</cpt>
		<cpt id="NR3C1">
			<state id="absent" />
			<state id="low" />
			<state id="medium" />
			<state id="high" />
			<parents>variable1188</parents>
			<probabilities>0.04091247 0.9424822 0.01660533 0 0.5164808404835192 0.4618269335381731 0.01970764698029235 0.001984578998015421 0.5032911975032912 0.4319020674319021 0.05884796705884798 0.005958768005958768 0.138210437 0.806288058 0.052924853 0.002576652 0.4003793455400379 0.5796930531579693 0.01909118550190912 0.0008364158000836416 0.1871697013101879 0.8079815056558707 0.004848793033941552 5.764713040352992e-62 0.6450687806479365 0.3306845900794623 0.02424662927260112 6.145655815630326e-26 0.69537772 0.23089787 0.06062038 0.01310403</probabilities>
		</cpt>
		<cpt id="WDR17">
			<state id="absent" />
			<state id="low" />
			<state id="medium" />
			<state id="high" />
			<parents>variable1188</parents>
			<probabilities>0.0163345 0.976819718 0.006845782 0 0.50819018 0.47717194 0.01463788 0 0.398511137 0.544100265 0.054490641 0.002897957 0.0946126509461265 0.86336100863361 0.0405631104056311 0.0014632300146323 0.28150284 0.714060616 0.004436544 0 0.1906537858093462 0.8026834021973165 0.006662811993337187 0 0.6070781556070781 0.3510707703510708 0.03561975603561976 0.006231318006231318 0.934427304 0.06035986 0.005212836 0</probabilities>
		</cpt>
		<cpt id="BDP1">
			<state id="absent" />
			<state id="low" />
			<state id="medium" />
			<state id="high" />
			<parents>variable1188</parents>
			<probabilities>1.390443061179495e-37 0.99815704391891 0.001842956081090068 0 0.08774154200000001 0.8842684119999999 0.025433472 0.002556574 0.116467046883533 0.840984015159016 0.04027961995972039 0.002269317997730683 0.005643698892769723 0.9427723820873248 0.05158391901990555 2.933810944257592e-108 0.045722831 0.952748217 0.001528952 0 0.006661311 0.9897804019999999 0.003558287 0 0.4914836925085164 0.5046357134953643 0.003880593996119406 0 0.613728696137287 0.3758171237581713 0.0104541801045418 0</probabilities>
		</cpt>
		<cpt id="NRD1">
			<state id="absent" />
			<state id="low" />
			<state id="medium" />
			<state id="high" />
			<parents>variable1188</parents>
			<probabilities>0.004515273 0.993798468 0.001686259 0 0.2855983214714402 0.7023914467297608 0.01127193199887281 0.0007382997999261701 0.202009422 0.7262503960000001 0.06603254000000001 0.005707642000000001 0.05495673670549567 0.9190865841919087 0.02551274470255127 0.0004439344000443934 0.06889239931107602 0.9140500908594992 0.01705750982942491 2.025140979748591e-200 0.091141978 0.907710691 0.001147331 0 0.380315332 0.563554078 0.052668107 0.003462483 0.55345291 0.37927733 0.0518469 0.01542286</probabilities>
		</cpt>
		<cpt id="GOLGA8B">
			<state id="absent" />
			<state id="low" />
			<state id="medium" />
			<state id="high" />
			<parents>variable1188</parents>
			<probabilities>0 0.998323205 0.001676795 0 0.016378599836214 0.9720038702799612 0.0116175298838247 0 0.032357358 0.890645456 0.067382979 0.009614207 0.003294815000000001 0.9527093790000002 0.04399580600000001 0 0.002094979 0.987506395 0.010398626 0 0.002973832 0.994294207 0.002731961 0 0.16601349 0.80524854 0.02873797 0 0.7881965607881967 0.2091970952091971 0.002606344002606344 0</probabilities>
		</cpt>
		<cpt id="NRCAM">
			<state id="absent" />
			<state id="low" />
			<state id="medium" />
			<state id="high" />
			<parents>variable1188</parents>
			<probabilities>9.227982147647629e-15 0.9975057159600824 0.002494284039908522 0 0.1745842 0.8254158 2.961038e-25 0 0.088730698 0.827182672 0.074447343 0.009639287 0.0113721 0.94215614 0.04598374 0.00048802 0.04114817041148169 0.9470430594704304 0.0118087701180877 0 0.016521167 0.9813764840000002 0.002102349 0 0.237121952762878 0.6933109553066891 0.06024701093975299 0.009320080990679918 0.8840165 0.1159835 0 0</probabilities>
		</cpt>
		<cpt id="NPIPA1">
			<state id="absent" />
			<state id="low" />
			<state id="medium" />
			<state id="high" />
			<parents>variable1188</parents>
			<probabilities>0.0019967144 0.9975170249 0.0004862607 0 0.092881361 0.849413269 0.053850677 0.003854693 0.115106175 0.816004951 0.06549493300000001 0.003393941 0.019389167 0.958714193 0.021415933 0.000480707 0.05653197169595915 0.9434680283040409 1.641566049246981e-27 0 0.01261976 0.97070654 0.0166737 0 0.3408640272691222 0.6171382493710599 0.04199772335981787 5.464051437124115e-18 0.6698404836698405 0.3118052813118053 0.01311262001311262 0.005241615005241615</probabilities>
		</cpt>
		<cpt id="PI4KA">
			<state id="absent" />
			<state id="low" />
			<state id="medium" />
			<state id="high" />
			<parents>variable1188</parents>
			<probabilities>0.006933787993066211 0.9861213140138786 0.006944897993055101 0 0.3760793758 0.6039507884999999 0.0193951355 0.0005747002 0.252794183 0.695016392 0.04700655 0.005182875 0.039580115 0.884375614 0.074678366 0.001365905 0.1447635927618204 0.8439970578001472 0.01123934943803253 8.319269584036522e-179 0.08726729 0.907084344 0.005648366 0 0.6496415050000001 0.339467227 0.009427950000000001 0.001463318 0.758081271 0.22535236 0.011163028 0.005403341</probabilities>
		</cpt>
		<cpt id="PPFIA2">
			<state id="absent" />
			<state id="low" />
			<state id="medium" />
			<state id="high" />
			<parents>variable1188</parents>
			<probabilities>0.004778476210252953 0.9790969430802655 0.01612458070948155 6.072501267190055e-127 0.35589825 0.6398247899999999 0.004276959999999999 0 0.31484744 0.64937673 0.03344228 0.00233355 0.021795114 0.865048924 0.108960289 0.004195673 0.1740313 0.8259687 2.59578e-146 0 0.05062122202484888 0.9387182375487294 0.01066054042642162 4.884983195399328e-262 0.58742985 0.39985093 0.01271922 0 0.5955387340446127 0.3651256863487432 0.03933557960664421 0</probabilities>
		</cpt>
		<cpt id="MAN1A2">
			<state id="absent" />
			<state id="low" />
			<state id="medium" />
			<state id="high" />
			<parents>variable1188</parents>
			<probabilities>0.035896545 0.9628101999999999 0.001293255 0 0.20753993779246 0.7536256732463743 0.03641713296358286 0.002417255997582744 0.216709833 0.706467672 0.07133671 0.005485785 0.09294705 0.87160271 0.03331797 0.00213227 0.1067664626 0.8504185538 0.0420581875 0.0007567961 0.05793052820415362 0.9360173709834614 0.006052100812384874 3.431991893608251e-150 0.6454484573545516 0.3324918916675081 0.02058299797941701 0.001476652998523347 0.7395684400000001 0.2334169290000001 0.02439382600000001 0.002620805</probabilities>
		</cpt>
		<cpt id="TMEM14A">
			<state id="absent" />
			<state id="low" />
			<state id="medium" />
			<state id="high" />
			<parents>variable1188</parents>
			<probabilities>0.115753889 0.879027863 0.005218248 0 0.6385473230000001 0.351091603 0.009334851000000002 0.001026223 0.3051639330516393 0.5172031251720312 0.158006301580063 0.0196266401962664 0.22656254 0.70939606 0.05807832 0.00596308 0.169368775 0.761890744 0.065838296 0.002902185 0.4098628752442824 0.5892211644110418 0.0009159603446759953 1.555442906051249e-269 0.84884105 0.1231603 0.02643399 0.00156466 0.910629319 0.053514806 0.030622496 0.005233379</probabilities>
		</cpt>
		<cpt id="ADGRB3">
			<state id="absent" />
			<state id="low" />
			<state id="medium" />
			<state id="high" />
			<parents>variable1188</parents>
			<probabilities>0.001161191 0.989783561 0.009055248 0 0.1698879898067206 0.7979233521245988 0.03218865806868051 3.095531814268091e-80 0.15324131 0.74759293 0.08790127 0.01126449 0.02677854 0.89005186 0.08036328 0.00280632 0.06459369741625211 0.9129612634815494 0.02244503910219843 1.207601951695922e-295 0.02261927240226193 0.9668417048966842 0.01032667650103267 0.0002123462000212346 0.4119075279999999 0.5558173689999999 0.02760862899999999 0.004666473999999999 0.7880512690000002 0.206866803 0.005081928000000001 0</probabilities>
		</cpt>
		<cpt id="YTHDC2">
			<state id="absent" />
			<state id="low" />
			<state id="medium" />
			<state id="high" />
			<parents>variable1188</parents>
			<probabilities>0.02989948860298995 0.9678356395967835 0.002127447900212745 0.0001374239000137424 0.3504403087715209 0.6233592156026813 0.0261762006551903 2.427497060760252e-05 0.292094994292095 0.6083354756083355 0.08971955308971956 0.009849977009849978 0.118685037 0.8212956340000001 0.058999101 0.001020228 0.138256801382568 0.8408947084089471 0.0208484902084849 1.96582401965824e-86 0.1520834930041593 0.839989761360471 0.0079267456353697 1.276868941264029e-60 0.6398812960000001 0.3151580230000001 0.03583631900000001 0.009124362000000002 0.7423709974237099 0.2072362420723624 0.0346753403467534 0.0157174201571742</probabilities>
		</cpt>
		<cpt id="SRSF7">
			<state id="absent" />
			<state id="low" />
			<state id="medium" />
			<state id="high" />
			<parents>variable1188</parents>
			<probabilities>0.026580485 0.970209538 0.003209977 0 0.43982597 0.54936701 0.01080702 0 0.189988303 0.73845366 0.066554794 0.005003243 0.05704577850570457 0.8921049641892105 0.04997027080499703 0.0008789865000878986 0.06152147 0.9077566 0.03072193 0 0.1824267065108091 0.8175201291772933 5.316431189743429e-05 0 0.52502943 0.45303476 0.02193581 0 0.48826282 0.43623612 0.06239702 0.01310404</probabilities>
		</cpt>
		<cpt id="PDE4D">
			<state id="absent" />
			<state id="low" />
			<state id="medium" />
			<state id="high" />
			<parents>variable1188</parents>
			<probabilities>0.004039431 0.991656888 0.004303681 0 0.1653094971653095 0.7925034667925035 0.03925420303925421 0.002932833002932833 0.208635938 0.731475649 0.050418379 0.009470034 0.02797509 0.924800949 0.046148179 0.001075782 0.0820550768 0.904805547 0.0126326838 0.0005066924 0.03403243085081077 0.9612140240303505 0.004753545118838627 2.864720071618001e-89 0.3267346023267346 0.6325334726325335 0.03334132103334132 0.007390604007390605 0.7249155637542217 0.2645421867728907 0.01054224947288752 8.13673359316332e-246</probabilities>
		</cpt>
		<cpt id="ROCK2">
			<state id="absent" />
			<state id="low" />
			<state id="medium" />
			<state id="high" />
			<parents>variable1188</parents>
			<probabilities>0.006596156993403842 0.9872788670127211 0.006124975993875023 0 0.3200019064000381 0.6593143131862862 0.02068378041367561 5.958303119166062e-210 0.2476927762476928 0.6713709776713711 0.07612811007612812 0.004808136004808137 0.04934113469506588 0.8897804381110219 0.06039105379396089 0.0004873733999512627 0.1600286 0.8280995 0.0118719 9.617598e-234 0.06546400600000001 0.930095195 0.004440799 0 0.641631948 0.345986469 0.009257979 0.003123604 0.816286088162861 0.165353501653535 0.0183604101836041 0</probabilities>
		</cpt>
		<cpt id="NAP1L1">
			<state id="absent" />
			<state id="low" />
			<state id="medium" />
			<state id="high" />
			<parents>variable1188</parents>
			<probabilities>0.006302972993697026 0.9846923250153076 0.009004701990995297 0 0.2265896067976883 0.7590463227713898 0.01436407043092212 1.239072037172162e-112 0.13162229 0.73620745 0.11967385 0.01249641 0.0489166865 0.8926702103 0.057922672 0.0004904312 0.05798012768079489 0.9255512629779494 0.01646860934125563 8.536877658524893e-247 0.064815995 0.932986997 0.002197008 0 0.5085068795085069 0.46326000446326 0.02255858902255859 0.005674527005674528 0.651735766 0.289125433 0.055571575 0.003567226</probabilities>
		</cpt>
		<cpt id="TARBP1">
			<state id="absent" />
			<state id="low" />
			<state id="medium" />
			<state id="high" />
			<parents>variable1188</parents>
			<probabilities>0.001047602 0.992978291 0.005974107 0 0.09302339534883025 0.8920544553972773 0.01492214925389254 1.179321941033903e-98 0.08005405 0.8093244509999999 0.100639334 0.009982164999999999 0.008759977 0.911661311 0.078233394 0.001345318 0.04841071 0.94147667 0.01011262 0 0.006755824993244174 0.9852666560147333 0.007977518992022481 0 0.475492378 0.502876816 0.020276549 0.001354257 0.730332546 0.266051846 0.003615608 0</probabilities>
		</cpt>
		<cpt id="TCERG1">
			<state id="absent" />
			<state id="low" />
			<state id="medium" />
			<state id="high" />
			<parents>variable1188</parents>
			<probabilities>0.002185558 0.994342339 0.003472103 0 0.1408014614080146 0.8284796682847967 0.0291578402915784 0.0015610300156103 0.1738574451738575 0.7269752287269753 0.09661336709661338 0.002553959002553959 0.0136459898 0.9140091334 0.0715272491 0.0008176277 0.05709931 0.9256078599999999 0.01729283 0 0.026446265 0.964128988 0.009424747000000001 0 0.463289016 0.5037332957 0.0322749869 0.0007027014 0.6892018186892019 0.2894448902894449 0.01873253701873254 0.002620754002620754</probabilities>
		</cpt>
		<cpt id="WDR60">
			<state id="absent" />
			<state id="low" />
			<state id="medium" />
			<state id="high" />
			<parents>variable1188</parents>
			<probabilities>0.002869711 0.991782287 0.005348002 0 0.20589239 0.73261327 0.0555442 0.00595014 0.275239739 0.6648844660000001 0.05536968000000001 0.004506115000000001 0.04996744910000001 0.8923941456000002 0.05682817810000002 0.0008102272000000002 0.09537964000000003 0.8889898900000002 0.01563047 0 0.03575832 0.9459136299999999 0.01832805 0 0.3928480400000001 0.5595049400000001 0.03955886000000001 0.008088160000000002 0.7524728000000001 0.23665396 0.01087324 0</probabilities>
		</cpt>
		<cpt id="HERC1">
			<state id="absent" />
			<state id="low" />
			<state id="medium" />
			<state id="high" />
			<parents>variable1188</parents>
			<probabilities>0.001077665 0.9903248840000002 0.008597451000000002 0 0.1423154957305351 0.8224638753260837 0.03522062894338113 1.265229962043101e-133 0.1460516891460517 0.76840993176841 0.07970003407970004 0.005838345005838345 0.01995070601995071 0.9043244299043245 0.07261660807261661 0.003108256003108256 0.05479947164398415 0.9263606277908188 0.01883990056519702 1.595323047859692e-229 0.008548412999999999 0.973724893 0.017507091 0.000219603 0.472398232 0.485479687 0.037390158 0.004731923 0.54254559 0.413313313 0.036367934 0.007773163</probabilities>
		</cpt>
		<cpt id="TTC14">
			<state id="absent" />
			<state id="low" />
			<state id="medium" />
			<state id="high" />
			<parents>variable1188</parents>
			<probabilities>0.002202497 0.988370211 0.009427292 0 0.1699584067983363 0.8058592322343693 0.02418236096729444 3.826122153044886e-37 0.13090712 0.7347213500000001 0.11951214 0.01485939 0.031567311 0.893855834 0.07237362899999999 0.002203226 0.05314258050531426 0.9152594291915259 0.03114114440311411 0.0004568459000456846 0.02980215910593523 0.9654480710365578 0.004749769857506904 9.837136704885898e-294 0.3475081860000001 0.5607191170000001 0.08625974300000001 0.005512954 0.50835235 0.39352545 0.08613951 0.01198269</probabilities>
		</cpt>
		<cpt id="GPM6A">
			<state id="absent" />
			<state id="low" />
			<state id="medium" />
			<state id="high" />
			<parents>variable1188</parents>
			<probabilities>0 0.994457607 0.005542393 0 0.02529567924112962 0.9526301714210947 0.02207414933777552 1.329148960125531e-66 0.002493493 0.704292239 0.260517979 0.032696289 0 0.897799461 0.097143997 0.005056542 0.00362009 0.924724102 0.070317056 0.001338752 0.002534537093270965 0.9968308366833749 0.000634626223354245 1.111600040906882e-225 0.08074281899999999 0.838638604 0.071387635 0.009230942000000001 0.735288826 0.262122292 0.002588882 0</probabilities>
		</cpt>
		<cpt id="CSTF3">
			<state id="absent" />
			<state id="low" />
			<state id="medium" />
			<state id="high" />
			<parents>variable1188</parents>
			<probabilities>0.01621738081086904 0.9670874483543725 0.01669517083475854 1.891494094574705e-197 0.4246537254792236 0.541426932485616 0.03391934203516053 2.362231141733868e-135 0.173292698267073 0.6485270235147298 0.1590489684095103 0.0191313098086869 0.045055821 0.767014614 0.181530062 0.006399503 0.129561902591238 0.8254852165097043 0.04495288089905761 1.02128602042572e-165 0.1517469222 0.8258337028000002 0.0220285476 0.0003908274000000001 0.614022908 0.332019368 0.047737312 0.006220412 0.75808955 0.18860919 0.03492658 0.01837468</probabilities>
		</cpt>
		<cpt id="GRIA2">
			<state id="absent" />
			<state id="low" />
			<state id="medium" />
			<state id="high" />
			<parents>variable1188</parents>
			<probabilities>0 0.96556687 0.03443313 0 0.005761326 0.977773992 0.016464682 0 0.002836277 0.798200538 0.188122923 0.010840262 0 0.8136543482186346 0.1853881661814612 0.0009574855999042514 0 0.95799882 0.04113728 0.0008639 0 0.9954428320000001 0.004557168 0 0.05226507052265069 0.9092760690927606 0.0337806503378065 0.0046782100467821 0.412335443 0.579721324 0.007943232999999999 0</probabilities>
		</cpt>
		<cpt id="MEG3">
			<state id="absent" />
			<state id="low" />
			<state id="medium" />
			<state id="high" />
			<parents>variable1188</parents>
			<probabilities>0 0.6710493613289505 0.3278296746721703 0.001120963998879036 0.0007015344999298466 0.9759655234024034 0.02333294209766671 0 0 0.9025396709025397 0.09456802009456804 0.002892309002892309 0 0.6981306 0.2918019 0.0100675 0 0.9459602810807946 0.05403971891920563 1.06120397877592e-140 0 0.9379784624784755 0.06202153751898073 2.543690898245893e-12 0.1293437 0.8706563 9.689113e-209 0 0.3198852 0.6801148 0 0</probabilities>
		</cpt>
		<cpt id="variable1483">
			<state id="state0" />
			<state id="state1" />
			<state id="state2" />
			<state id="state3" />
			<parents>variable1188</parents>
			<probabilities>0.384783317 0.008173549 0.21013067 0.396912464 0.13485716 0.5760320799999999 0.01442536 0.2746854 0.31380262 0.0578393 0.60253395 0.02582413 0.6107112099999999 0.01642827 0.19170395 0.18115657 0.4502267150870972 3.000649100551752e-05 0.4540278152144721 0.09571546320742519 0.10055034 0.21842147 0.06168337 0.61934482 0.103433667 0.198262251 0.008485012 0.68981907 0.2110459778895402 0.2950002470499976 0.08981323910186761 0.4041405359585947</probabilities>
		</cpt>
		<cpt id="HSP90AA2P">
			<state id="absent" />
			<state id="low" />
			<state id="medium" />
			<state id="high" />
			<parents>variable1483</parents>
			<probabilities>0.2795614 0.7204386 0 0 0.6769168618 0.3225192109 0 0.0005639273 0.08841203 0.91158797 0 0 0.7282754 0.2717246 0 4.227777e-236</probabilities>
		</cpt>
		<cpt id="IGL">
			<state id="absent" />
			<state id="low" />
			<state id="medium" />
			<state id="high" />
			<parents>variable1188</parents>
			<probabilities>4.871557886979858e-22 0.9990005768231868 0.0009994231768133824 0 0.0006530224 0.9673345682 0.0296147179 0.0023976915 0.009734331990265667 0.9754974390245025 0.01270758898729241 0.00206063999793936 0.0004969862 0.9892105242 0.009586143300000001 0.0007063463000000001 1.504730966143554e-63 0.9991417775193102 0.0008582224806899944 3.060212931145209e-160 0.0004249157818136045 0.989934857630788 0.009640226587398302 2.321381900644854e-40 0.03973614079472282 0.9473376189467523 0.0129262402585248 4.049271080985421e-93 0.1004646321004646 0.8707634308707635 0.02353032202353032 0.005241615005241615</probabilities>
		</cpt>
		<cpt id="LOC100128906">
			<state id="absent" />
			<state id="low" />
			<state id="medium" />
			<state id="high" />
			<parents>variable1483</parents>
			<probabilities>6.976206999801918e-131 0.999999999971606 2.839387999919379e-11 1.55456399995586e-76 0.0005639273 0.7900278504 0.207152513 0.0022557093 4.586751202518368e-207 0.9999997441528888 2.55847111296392e-07 3.676879162344878e-97 7.636908910648167e-31 0.9996969883035453 0.0003030116964547632 1.249479985381084e-26</probabilities>
		</cpt>
		<cpt id="variable1442">
			<state id="state0" />
			<state id="state1" />
			<state id="state2" />
			<state id="state3" />
			<state id="state4" />
			<parents>variable1188</parents>
			<probabilities>0 9.639092595158112e-149 1.690131929014459e-17 0.003598041848882243 0.9964019581511179 0.003366721925932117 0.686474184897568 0.3101590931764999 9.994133780129055e-34 1.795659960495481e-77 0.01264503048051116 0.8187054311108065 0.008030632305164029 0.1606189061035185 2.425850092182304e-26 4.932064916154897e-195 0.003870106934208182 0.03636474938179926 0.8635326853199443 0.09623245836404822 5.894734309473551e-191 0.0002616675137375445 0.7129789374313942 0.2382522125082412 0.04850718254662708 3.225645922584498e-138 0.002950389929190641 0.8734251790377957 0.003960833904939986 0.1196635971280737 0.7704765 0.2295235 1.183621e-43 2.605008e-165 1.007694e-266 0.9999286753917552 7.132460824470139e-05 8.498557790850493e-33 2.041386949761467e-265 0</probabilities>
		</cpt>
		<cpt id="ANKRD12">
			<state id="absent" />
			<state id="low" />
			<state id="medium" />
			<state id="high" />
			<parents>variable1442</parents>
			<probabilities>0.3420360363420361 0.5973532595973533 0.05116067905116068 0.009450025009450027 0.1182504618817495 0.7883295912116703 0.08799403391200596 0.005425912994574087 0.05030501221341337 0.9424852414692164 0.007209746317227811 1.423996062655624e-13 0.061167439 0.904270047 0.033441766 0.001120748 0.01280280140128028 0.9870036479987003 0.0001935506000193551 0</probabilities>
		</cpt>
		<cpt id="SFXN1">
			<state id="absent" />
			<state id="low" />
			<state id="medium" />
			<state id="high" />
			<parents>variable1442</parents>
			<probabilities>0.6747659300000001 0.2755313 0.03527016000000001 0.01443261 0.462780577 0.490977626 0.040396801 0.005844996 0.27773294 0.7152791887 0.0066600298 0.0003278415 0.190914771 0.759930522 0.047498721 0.001655986 0.072674554 0.923976749 0.003348697 0</probabilities>
		</cpt>
		<cpt id="RBM26">
			<state id="absent" />
			<state id="low" />
			<state id="medium" />
			<state id="high" />
			<parents>variable1442</parents>
			<probabilities>0.425135975 0.528434037 0.039005527 0.007424461 0.2765738192765738 0.6873967646873969 0.03387726503387727 0.002152151002152151 0.08216498400000001 0.9148688380000002 0.002966178000000001 0 0.03020878460302088 0.9313671790931367 0.03757587960375759 0.0008481567000848157 0.001879422001879422 0.9954441699954443 0.002676408002676408 0</probabilities>
		</cpt>
		<cpt id="ZMYND8">
			<state id="absent" />
			<state id="low" />
			<state id="medium" />
			<state id="high" />
			<parents>variable1442</parents>
			<probabilities>0.5399986350000001 0.4180835540000001 0.03918986200000001 0.002727949 0.297235223 0.65118117 0.046838471 0.004745136 0.1252505030060121 0.8703315208879566 0.004417976106031426 1.504859036116617e-121 0.1091116230890888 0.8623546421137646 0.02808114089719188 0.0004525938999547406 0.03475705703475706 0.9631884239631885 0.002054519002054519 0</probabilities>
		</cpt>
		<cpt id="SUGP2">
			<state id="absent" />
			<state id="low" />
			<state id="medium" />
			<state id="high" />
			<parents>variable1442</parents>
			<probabilities>0.4934569854934571 0.4765244024765244 0.02666121702666122 0.003357395003357395 0.1425035942998562 0.8257054669717813 0.03179093872836244 1.340078946396842e-173 0.03682472896317527 0.955394923044605 0.007546421992453577 0.000233925999766074 0.04023175080463501 0.9332220186644403 0.02654623053092461 4.059737411877523e-320 0.0022439523 0.9975121335 0.0002439142 0</probabilities>
		</cpt>
		<cpt id="WHSC1L1">
			<state id="absent" />
			<state id="low" />
			<state id="medium" />
			<state id="high" />
			<parents>variable1442</parents>
			<probabilities>0.476532331 0.496934755 0.024294748 0.002238166 0.149689839985031 0.813570449418643 0.03622451589637755 0.0005151946999484805 0.0371918859 0.9604860875 0.0020942493 0.0002277773 0.03861552154462086 0.9324048372961935 0.02897964115918564 2.072583082903323e-178 0.003066618000000001 0.9964322010000002 0.0005011810000000001 0</probabilities>
		</cpt>
		<cpt id="PNN">
			<state id="absent" />
			<state id="low" />
			<state id="medium" />
			<state id="high" />
			<parents>variable1442</parents>
			<probabilities>0.44085691 0.49375312 0.05602584 0.00936413 0.2198670772198671 0.7330121847330122 0.04443655204443656 0.002684186002684186 0.093875976 0.90428463 0.001839394 0 0.05107251394892748 0.9166947430833051 0.03089203496910796 0.001340707998659292 0.0146609663 0.9844121414 0.0009268923 0</probabilities>
		</cpt>
		<cpt id="CCDC88A">
			<state id="absent" />
			<state id="low" />
			<state id="medium" />
			<state id="high" />
			<parents>variable1442</parents>
			<probabilities>0.168012032 0.755052403 0.07245836 0.004477205 0.06391596999999999 0.8765533099999998 0.05852717499999999 0.001003545 0.01396285 0.9832473 0.00278985 2.811374e-54 0.02914914202914914 0.9626660429626662 0.008184815008184815 0 0.0011758271 0.9980843836000002 0.0007397893000000002 0</probabilities>
		</cpt>
		<cpt id="MYCBP2">
			<state id="absent" />
			<state id="low" />
			<state id="medium" />
			<state id="high" />
			<parents>variable1442</parents>
			<probabilities>0.39824721 0.58384094 0.01791185 0 0.04609428195390571 0.9030360410969639 0.0468540999531459 0.004015576995984423 0.00622320179463434 0.9875243674116958 0.006252430793669783 6.184062795925927e-230 0.005241327 0.96228736 0.032471313 0 0.000136719799986328 0.999330870600067 0.000532409599946759 0</probabilities>
		</cpt>
		<cpt id="KMT2A">
			<state id="absent" />
			<state id="low" />
			<state id="medium" />
			<state id="high" />
			<parents>variable1442</parents>
			<probabilities>0.4314342435685657 0.5382348144617651 0.02701785697298214 0.003313084996686914 0.078151871 0.85765351 0.060159202 0.004035417 0.01535101930920413 0.9776756560045955 0.006973324686200389 2.41810689118519e-216 0.02800647 0.9527122099999999 0.01928132 0 0.0018277292 0.9978626963 0.0003095745 0</probabilities>
		</cpt>
		<cpt id="KMT2E">
			<state id="absent" />
			<state id="low" />
			<state id="medium" />
			<state id="high" />
			<parents>variable1442</parents>
			<probabilities>0.31292767 0.628335273 0.054253899 0.004483158 0.1025827028974173 0.8349922091650079 0.05723907194276094 0.005186015994813984 0.026942851 0.96759879 0.005135624 0.000322735 0.0194068546 0.9409072472000002 0.03916240830000001 0.0005234899000000001 0.0030532443 0.9966967258 0.0002500299 0</probabilities>
		</cpt>
		<cpt id="RSRP1">
			<state id="absent" />
			<state id="low" />
			<state id="medium" />
			<state id="high" />
			<parents>variable1442</parents>
			<probabilities>0.37107771 0.594444483 0.029997261 0.004480546 0.2007001927992998 0.7759662312240337 0.02158066397841934 0.001752911998247088 0.0489777679 0.9505164524 0.0005057797 0 0.024103187 0.914608279 0.060266521 0.001022013 0.0004997788 0.991367701 0.0081325202 0</probabilities>
		</cpt>
		<cpt id="RPL10">
			<state id="absent" />
			<state id="low" />
			<state id="medium" />
			<state id="high" />
			<parents>variable1442</parents>
			<probabilities>0.5553805900000001 0.3412894400000001 0.08952747000000001 0.0138025 0.404749058595251 0.5414832674585167 0.04950439095049561 0.004263282995736716 0.2662528905 0.7204295550000001 0.0130048449 0.0003127096 0.1540886554845911 0.7861206597213879 0.05931463599406853 0.0004760487999523951 0.1172484878 0.8801989467 0.0024465239 0.0001060416</probabilities>
		</cpt>
		<cpt id="MRPS21">
			<state id="absent" />
			<state id="low" />
			<state id="medium" />
			<state id="high" />
			<parents>variable1442</parents>
			<probabilities>0.67479223 0.25570164 0.05659766 0.01290847 0.461711084 0.477263507 0.053903275 0.007122134 0.3145677968543221 0.6737994932620052 0.0116327098836729 1.39485798605142e-31 0.1883813528116186 0.7439886832560112 0.06466021193533977 0.002969751997030248 0.0910144139089856 0.9067877030932124 0.002197882997802117 0</probabilities>
		</cpt>
		<cpt id="CHD9">
			<state id="absent" />
			<state id="low" />
			<state id="medium" />
			<state id="high" />
			<parents>variable1442</parents>
			<probabilities>0.276152572 0.625066881 0.089957299 0.008823248000000001 0.1125157431125157 0.8171984368171985 0.06717900206717901 0.003106818003106818 0.03948937000000001 0.9545238100000002 0.005986820000000002 0 0.032214678 0.9392623021000002 0.02773683560000001 0.0007861843000000002 0.003062731500306273 0.9965843888996584 0.000352879600035288 0</probabilities>
		</cpt>
		<cpt id="HMGN3">
			<state id="absent" />
			<state id="low" />
			<state id="medium" />
			<state id="high" />
			<parents>variable1442</parents>
			<probabilities>0.3722776116277224 0.5677535994322465 0.05253822994746177 0.007430558992569442 0.191822621 0.752053681 0.05200356 0.004120138 0.08494466000000001 0.912546486 0.002508854 0 0.0215963194 0.9219937434000002 0.05593977840000001 0.0004701588000000001 0.004934057 0.993377906 0.001688037 0</probabilities>
		</cpt>
		<cpt id="PTPRD">
			<state id="absent" />
			<state id="low" />
			<state id="medium" />
			<state id="high" />
			<parents>variable1442</parents>
			<probabilities>0.42944136 0.50921162 0.055700498 0.005646522 0.234003084234003 0.7215306677215306 0.04146149204146149 0.003004756003004756 0.08079547894965879 0.9099308881708985 0.009273632879442772 2.325949969762651e-45 0.0475217141 0.9036048186 0.0480701579 0.0008033094 0.0009927767999007222 0.9964419417003558 0.002565281499743472 0</probabilities>
		</cpt>
		<cpt id="SREK1">
			<state id="absent" />
			<state id="low" />
			<state id="medium" />
			<state id="high" />
			<parents>variable1442</parents>
			<probabilities>0.48638713 0.42262338 0.07351387 0.01747562 0.264174109 0.669861305 0.057591189 0.008373396999999999 0.1202892092622691 0.8698145669757217 0.009896223762009231 6.333185487655283e-86 0.119873025 0.831652508 0.046963348 0.001511119 0.02503977202503977 0.9720785529720787 0.002881675002881676 0</probabilities>
		</cpt>
		<cpt id="PPIP5K2">
			<state id="absent" />
			<state id="low" />
			<state id="medium" />
			<state id="high" />
			<parents>variable1442</parents>
			<probabilities>0.63568728 0.33000092 0.02653617 0.00777563 0.3083304776916696 0.636622055363378 0.04752937595247063 0.00751809099248191 0.1603754919812254 0.8216843589157822 0.01794014910299254 8.774757561262123e-42 0.0943436199056564 0.8247897461752103 0.07634689692365311 0.004519736995480264 0.02738558923320351 0.9697889728459089 0.002825437920887739 1.680880952935333e-117</probabilities>
		</cpt>
		<cpt id="TNRC6B">
			<state id="absent" />
			<state id="low" />
			<state id="medium" />
			<state id="high" />
			<parents>variable1442</parents>
			<probabilities>0.333922864 0.611952032 0.049903956 0.004221148 0.06795353493204645 0.8766995281233004 0.05121890094878109 0.004128035995871963 0.01339678053587122 0.9727643389105736 0.01383888055355522 1.269564050782562e-250 0.015533015 0.948101444 0.035139473 0.001226068 0.001410831 0.9961966990000002 0.00239247 0</probabilities>
		</cpt>
		<cpt id="PCDH9">
			<state id="absent" />
			<state id="low" />
			<state id="medium" />
			<state id="high" />
			<parents>variable677</parents>
			<probabilities>0.07678312700000001 0.8827136370000001 0.037912474 0.002590762 0.00132781999867218 0.9934943650065058 0.005177814994822186 0 0.102189 0.7380826 0.1428001 0.0169283 0.267727709 0.713460781 0.016964614 0.001846896 0.0001712753000171275 0.992520012199252 0.007308712500730871 0 0.09856872999999999 0.89780453 0.00362674 0 0.0013010668 0.9175021233 0.08074779529999999 0.0004490146</probabilities>
		</cpt>
		<cpt id="RBM25">
			<state id="absent" />
			<state id="low" />
			<state id="medium" />
			<state id="high" />
			<parents>variable1442</parents>
			<probabilities>0.2548882020000001 0.7189672970000001 0.02491105300000001 0.001233448 0.05340427300000002 0.8856532520000002 0.05811678400000001 0.002825691 0.007906520339980374 0.9878167424761198 0.004276737183899698 7.41905931901955e-151 0.004509250995490749 0.9370527380629473 0.05669593294330407 0.001742077998257922 2.586047881041798e-127 0.9959220541875855 0.004077945812414492 1.143792947385524e-114</probabilities>
		</cpt>
		<cpt id="MPHOSPH8">
			<state id="absent" />
			<state id="low" />
			<state id="medium" />
			<state id="high" />
			<parents>variable1442</parents>
			<probabilities>0.3149685094490553 0.6544041196321236 0.03062737091882113 1.796022053880662e-148 0.05003546405003547 0.8450349878450351 0.09539255409539256 0.009536994009536994 0.005114996219944838 0.9869319424380735 0.007953061341981638 2.40844210356301e-198 0.002230183015611282 0.9200701064404908 0.07769971054389799 3.439978024079847e-139 0.0004024019000000001 0.9968726602000002 0.0027249379 0</probabilities>
		</cpt>
		<cpt id="SRSF11">
			<state id="absent" />
			<state id="low" />
			<state id="medium" />
			<state id="high" />
			<parents>variable1442</parents>
			<probabilities>0.2204461210000001 0.7213999640000001 0.05240718900000001 0.005746726000000001 0.04200599099999999 0.8978283579999998 0.05722178199999998 0.002943868999999999 0.002875004002875004 0.9910831509910832 0.006041845006041846 0 0.002465341022188069 0.9375585084380266 0.05997615053978535 4.940656458412465e-324 2.952345061999246e-231 0.9961387209189132 0.003861279081086861 0</probabilities>
		</cpt>
		<cpt id="ZRANB2">
			<state id="absent" />
			<state id="low" />
			<state id="medium" />
			<state id="high" />
			<parents>variable1442</parents>
			<probabilities>0.273549702735497 0.689566406895664 0.0368838903688389 2.43157402431574e-49 0.03323103203323104 0.8936915388936916 0.07104295407104297 0.002034475002034475 0.00412123 0.991381717 0.004497053 0 0.0015278631 0.9180452845 0.08004041520000001 0.0003864372 1.70677805291012e-195 0.9983898309500848 0.001610169049915241 0</probabilities>
		</cpt>
		<cpt id="NCOR1">
			<state id="absent" />
			<state id="low" />
			<state id="medium" />
			<state id="high" />
			<parents>variable1442</parents>
			<probabilities>0.4548528045485281 0.4546551845465518 0.0760912607609126 0.0144007501440075 0.214630117 0.695247748 0.083416093 0.006706042 0.0844879333795172 0.89314053572562 0.0223715308948612 1.58960706358428e-15 0.05316527594683473 0.8429237021570763 0.1022552128977448 0.001655808998344191 0.01069247820106925 0.9824429306982445 0.006593142500659316 0.0002714486000271449</probabilities>
		</cpt>
		<cpt id="TTC3">
			<state id="absent" />
			<state id="low" />
			<state id="medium" />
			<state id="high" />
			<parents>variable1442</parents>
			<probabilities>0.3214080540000001 0.6481080740000001 0.02650060100000001 0.003983271000000001 0.01878760698121239 0.8921525051078474 0.08485532291514467 0.004204564995795435 0.001351244021619904 0.9876354158021666 0.01101334017621344 3.211007051376113e-164 0.002691248400269125 0.918109673291811 0.07876475610787648 0.0004343222000434322 4.101185876964424e-194 0.9931611702051648 0.006838829794835105 0</probabilities>
		</cpt>
		<cpt id="LUC7L3">
			<state id="absent" />
			<state id="low" />
			<state id="medium" />
			<state id="high" />
			<parents>variable1442</parents>
			<probabilities>0.026888674 0.862961063 0.101772114 0.008378149 0.0004884397000000001 0.8549343313000002 0.1347824657 0.009794763300000002 0 0.993794851 0.006205149 0 0 0.8019496 0.1980504 1.445567e-68 0 0.99354789 0.00645211 0</probabilities>
		</cpt>
		<cpt id="PNISR">
			<state id="absent" />
			<state id="low" />
			<state id="medium" />
			<state id="high" />
			<parents>variable1442</parents>
			<probabilities>0.05914660305914661 0.841561013841561 0.0902778910902779 0.009014492009014493 0.003793865003793865 0.8767850388767851 0.1174364521174365 0.001984644001984644 0.0003719856 0.9834492537 0.0161787607 0 0 0.8180431218180432 0.1799198561799199 0.002037022002037022 0 0.98806814 0.01193186 0</probabilities>
		</cpt>
		<cpt id="MALAT1">
			<state id="absent" />
			<state id="low" />
			<state id="medium" />
			<state id="high" />
			<parents>variable1442</parents>
			<probabilities>0.001119107 0.8603179480000001 0.135838639 0.002724306 3.69296618464831e-235 0.6881325344066268 0.3060073153003658 0.005860150293007515 0 0.8531007 0.1468993 6.901034e-69 0 0.193200248 0.798681584 0.008118168 0 0.5502703 0.4497297 1.394903e-110</probabilities>
		</cpt>
		<cpt id="variable1484">
			<state id="state0" />
			<state id="state1" />
			<state id="state2" />
			<state id="state3" />
			<parents>variable677</parents>
			<probabilities>0.1971363998842809 0.0101275999940551 0.792732499534666 3.500586997945155e-06 2.988163043925996e-29 0.13166190193543 0.0006883853101192639 0.8676497127544507 0.8814224021185777 0.001390486998609513 0.05978819894021181 0.0573989119426011 0.0244168802441688 0.2280532622805326 0.6910628169106281 0.0564670405646704 1.550705934205005e-41 0.02297094902536423 9.242905607832203e-08 0.9770289585455797 0.0001509561 0.0069576396 0.4359488549 0.5569425494 6.327031766785609e-31 0.917544466179311 4.838685821646041e-05 0.08240714696247256</probabilities>
		</cpt>
		<cpt id="TRIM9">
			<state id="absent" />
			<state id="low" />
			<state id="medium" />
			<state id="high" />
			<parents>variable1484</parents>
			<probabilities>0.6480497012960993 0.3434217006868434 0.008528598017057196 7.894438015788875e-35 0.002422112002422112 0.9499827709499828 0.04625890604625891 0.001336211001336211 0.252228925 0.7405158090000001 0.006901442000000002 0.000353824 0.0008339382680601644 0.9991660617319399 7.365262717910439e-32 3.628612861024128e-150</probabilities>
		</cpt>
		<cpt id="KCNMA1">
			<state id="absent" />
			<state id="low" />
			<state id="medium" />
			<state id="high" />
			<parents>variable1484</parents>
			<probabilities>0.8474040483020308 0.1459874083212823 0.006608543376686971 1.910094108875364e-63 0.060495645 0.8275991110000001 0.108005755 0.003899489 0.359248976 0.618413993 0.021155282 0.001181749 0.004532854086124227 0.9881235187743468 0.007343627139528915 1.127417021420923e-114</probabilities>
		</cpt>
		<cpt id="variable1485">
			<state id="state0" />
			<state id="state1" />
			<state id="state2" />
			<state id="state3" />
			<state id="state4" />
			<parents>variable1188</parents>
			<probabilities>0.004663310924594262 0.9952826839062789 5.400516912673641e-05 3.801517938529455e-22 4.002744935275614e-19 0.2489485111624155 0.4787864214679451 1.551617069571794e-07 5.030974225580079e-14 0.2722649122078821 0.31799138 0.00592332 0.38319077 0.25895984 0.03393469 0.1203261958382385 0.4719601836761586 0.405309285981435 0.002404333916840516 5.873275796859087e-10 0.4772039895014593 0.4883772892556455 0.02601126942774919 1.107602975632612e-13 0.008407451815035128 0.05278777003838622 0.9370821006814275 5.927282004310201e-08 2.422287001761439e-20 0.01013007000736638 0.152690635 0.003632897 0.025691892 0.156802465 0.661182111 0.0001970446078329608 3.866722153710795e-14 1.564774062203245e-08 0.4764595189403242 0.5233434208040635</probabilities>
		</cpt>
		<cpt id="ARGLU1">
			<state id="absent" />
			<state id="low" />
			<state id="medium" />
			<state id="high" />
			<parents>variable1485</parents>
			<probabilities>0.002902011043530166 0.9960191149402869 0.00107887401618311 6.862882102943232e-70 5.599248095184082e-13 0.9975632169580161 0.002436783041423947 7.376453125395573e-76 3.676323275724245e-41 0.89847146738536 0.1001807075135531 0.001347825101086883 0.0242984 0.83435386 0.13062973 0.01071801 0.101043489 0.843952192 0.053824541 0.001179778</probabilities>
		</cpt>
		<cpt id="HNRNPDL">
			<state id="absent" />
			<state id="low" />
			<state id="medium" />
			<state id="high" />
			<parents>variable1485</parents>
			<probabilities>4.732267107315183e-08 0.9826552222839966 0.01734473039333217 5.644782128008587e-75 0.0001277662994506049 0.998457695706632 0.001414537993917487 7.920018965943919e-174 0.001180140951614221 0.874266364155079 0.1245534948933067 2.307154905406648e-44 0.03183155968168441 0.7788960522110395 0.1791656182083438 0.0101067698989323 0.158083803 0.8380798340000002 0.003492989000000001 0.0003433740000000001</probabilities>
		</cpt>
		<cpt id="DDX5">
			<state id="absent" />
			<state id="low" />
			<state id="medium" />
			<state id="high" />
			<parents>variable1485</parents>
			<probabilities>0.008159353640988441 0.9817230568041856 0.01011758955482606 5.267245768241186e-18 2.140147960450066e-05 0.9939488816318247 0.006029716888570832 2.062161961891247e-85 0.004497158004497159 0.8359393578359394 0.155280988155281 0.004282496004282496 0.02881141 0.73971782 0.20430108 0.02716969 0.143241338 0.8034920290000001 0.049301377 0.003965256</probabilities>
		</cpt>
		<cpt id="PAICSP4">
			<state id="absent" />
			<state id="low" />
			<state id="medium" />
			<state id="high" />
			<parents>variable1485</parents>
			<probabilities>0.336307498 0.63291043 0.029715237 0.001066835 0.01092418 0.9703507 0.01872512 5.168068e-50 0.03007962000000001 0.8996469400000002 0.06530677000000001 0.004966670000000001 0.4917353258160998 0.5075090266442189 0.0007556475396714884 9.623425505229745e-15 0.2733411362733412 0.699012035699012 0.02100374702100375 0.006643081006643082</probabilities>
		</cpt>
		<cpt id="SRSF5">
			<state id="absent" />
			<state id="low" />
			<state id="medium" />
			<state id="high" />
			<parents>variable1188</parents>
			<probabilities>9.658706124983658e-05 0.9699503125511572 0.02995310038759312 0 0.06619573774934492 0.9299030683832957 0.003901193867359409 3.4175058838048e-252 0.01311197401311198 0.8745508498745509 0.105512023105512 0.006825153006825153 0.005164483 0.906050268 0.087854882 0.000930367 1.210146048229161e-06 0.9645125384396828 0.03548625141426906 6.191895246771794e-304 0.007935818849219442 0.9920641811507804 1.789490965999672e-42 0 0.082565991082566 0.8568322648568324 0.05747998205747998 0.003121762003121763 0.1081145 0.83393695 0.05009116 0.007857390000000001</probabilities>
		</cpt>
	</nodes>
	<extensions>
		<genie version="1.0" app="GeNIe 2.3.3705.0 ACADEMIC" name="Sub0" faultnameformat="nodestate">
			<node id="CHD5">
				<name>CHD5</name>
				<interior color="e5f6f7" />
				<outline color="0000bb" />
				<font color="000000" name="Arial" size="8" />
				<position>852 328 928 364</position>
				<barchart active="true" width="128" height="90" />
			</node>
			<node id="HOMER1">
				<name>HOMER1</name>
				<interior color="e5f6f7" />
				<outline color="0000bb" />
				<font color="000000" name="Arial" size="8" />
				<position>1006 328 1082 364</position>
				<barchart active="true" width="128" height="90" />
			</node>
			<node id="SYTL2">
				<name>SYTL2</name>
				<interior color="e5f6f7" />
				<outline color="0000bb" />
				<font color="000000" name="Arial" size="8" />
				<position>1160 328 1236 364</position>
				<barchart active="true" width="128" height="90" />
			</node>
			<node id="HRH2">
				<name>HRH2</name>
				<interior color="e5f6f7" />
				<outline color="0000bb" />
				<font color="000000" name="Arial" size="8" />
				<position>1314 328 1390 364</position>
				<barchart active="true" width="128" height="90" />
			</node>
			<node id="LPCAT4">
				<name>LPCAT4</name>
				<interior color="e5f6f7" />
				<outline color="0000bb" />
				<font color="000000" name="Arial" size="8" />
				<position>1468 328 1544 364</position>
				<barchart active="true" width="128" height="90" />
			</node>
			<node id="MIR124_2HG">
				<name>MIR124_2HG</name>
				<interior color="e5f6f7" />
				<outline color="0000bb" />
				<font color="000000" name="Arial" size="8" />
				<position>1622 328 1698 364</position>
				<barchart active="true" width="128" height="90" />
			</node>
			<node id="VPS13A">
				<name>VPS13A</name>
				<interior color="e5f6f7" />
				<outline color="0000bb" />
				<font color="000000" name="Arial" size="8" />
				<position>1776 328 1852 364</position>
				<barchart active="true" width="128" height="90" />
			</node>
			<node id="MICAL2">
				<name>MICAL2</name>
				<interior color="e5f6f7" />
				<outline color="0000bb" />
				<font color="000000" name="Arial" size="8" />
				<position>1930 328 2006 364</position>
				<barchart active="true" width="128" height="90" />
			</node>
			<node id="RYR2">
				<name>RYR2</name>
				<interior color="e5f6f7" />
				<outline color="0000bb" />
				<font color="000000" name="Arial" size="8" />
				<position>2084 328 2160 364</position>
				<barchart active="true" width="128" height="90" />
			</node>
			<node id="PKD1">
				<name>PKD1</name>
				<interior color="e5f6f7" />
				<outline color="0000bb" />
				<font color="000000" name="Arial" size="8" />
				<position>2238 328 2314 364</position>
				<barchart active="true" width="128" height="90" />
			</node>
			<node id="CELF4">
				<name>CELF4</name>
				<interior color="e5f6f7" />
				<outline color="0000bb" />
				<font color="000000" name="Arial" size="8" />
				<position>2392 328 2468 364</position>
				<barchart active="true" width="128" height="90" />
			</node>
			<node id="SNTG1">
				<name>SNTG1</name>
				<interior color="e5f6f7" />
				<outline color="0000bb" />
				<font color="000000" name="Arial" size="8" />
				<position>2546 328 2622 364</position>
				<barchart active="true" width="128" height="90" />
			</node>
			<node id="MNAT1">
				<name>MNAT1</name>
				<interior color="e5f6f7" />
				<outline color="0000bb" />
				<font color="000000" name="Arial" size="8" />
				<position>2700 328 2776 364</position>
				<barchart active="true" width="128" height="90" />
			</node>
			<node id="KALRN">
				<name>KALRN</name>
				<interior color="e5f6f7" />
				<outline color="0000bb" />
				<font color="000000" name="Arial" size="8" />
				<position>2854 328 2930 364</position>
				<barchart active="true" width="128" height="90" />
			</node>
			<node id="RIMS2">
				<name>RIMS2</name>
				<interior color="e5f6f7" />
				<outline color="0000bb" />
				<font color="000000" name="Arial" size="8" />
				<position>3008 328 3084 364</position>
				<barchart active="true" width="128" height="90" />
			</node>
			<node id="OLFM1">
				<name>OLFM1</name>
				<interior color="e5f6f7" />
				<outline color="0000bb" />
				<font color="000000" name="Arial" size="8" />
				<position>678 324 754 360</position>
				<barchart active="true" width="128" height="90" />
			</node>
			<node id="SLC12A5">
				<name>SLC12A5</name>
				<interior color="e5f6f7" />
				<outline color="0000bb" />
				<font color="000000" name="Arial" size="8" />
				<position>3316 328 3392 364</position>
				<barchart active="true" width="128" height="90" />
			</node>
			<node id="STXBP5L">
				<name>STXBP5L</name>
				<interior color="e5f6f7" />
				<outline color="0000bb" />
				<font color="000000" name="Arial" size="8" />
				<position>3470 328 3546 364</position>
				<barchart active="true" width="128" height="90" />
			</node>
			<node id="FBXW7">
				<name>FBXW7</name>
				<interior color="e5f6f7" />
				<outline color="0000bb" />
				<font color="000000" name="Arial" size="8" />
				<position>3624 328 3700 364</position>
				<barchart active="true" width="128" height="90" />
			</node>
			<node id="R3HDM1">
				<name>R3HDM1</name>
				<interior color="e5f6f7" />
				<outline color="0000bb" />
				<font color="000000" name="Arial" size="8" />
				<position>3778 328 3854 364</position>
				<barchart active="true" width="128" height="90" />
			</node>
			<node id="UNC80">
				<name>UNC80</name>
				<interior color="e5f6f7" />
				<outline color="0000bb" />
				<font color="000000" name="Arial" size="8" />
				<position>3932 328 4008 364</position>
				<barchart active="true" width="128" height="90" />
			</node>
			<node id="LINC00632">
				<name>LINC00632</name>
				<interior color="e5f6f7" />
				<outline color="0000bb" />
				<font color="000000" name="Arial" size="8" />
				<position>4086 328 4162 364</position>
				<barchart active="true" width="128" height="90" />
			</node>
			<node id="RBFOX1">
				<name>RBFOX1</name>
				<interior color="e5f6f7" />
				<outline color="0000bb" />
				<font color="000000" name="Arial" size="8" />
				<position>4240 328 4316 364</position>
				<barchart active="true" width="128" height="90" />
			</node>
			<node id="PWARSN">
				<name>PWARSN</name>
				<interior color="e5f6f7" />
				<outline color="0000bb" />
				<font color="000000" name="Arial" size="8" />
				<position>4394 328 4470 364</position>
				<barchart active="true" width="128" height="90" />
			</node>
			<node id="UCHL1">
				<name>UCHL1</name>
				<interior color="e5f6f7" />
				<outline color="0000bb" />
				<font color="000000" name="Arial" size="8" />
				<position>4548 328 4624 364</position>
				<barchart active="true" width="128" height="90" />
			</node>
			<node id="ATP2B1">
				<name>ATP2B1</name>
				<interior color="e5f6f7" />
				<outline color="0000bb" />
				<font color="000000" name="Arial" size="8" />
				<position>4702 328 4778 364</position>
				<barchart active="true" width="128" height="90" />
			</node>
			<node id="MAP2">
				<name>MAP2</name>
				<interior color="e5f6f7" />
				<outline color="0000bb" />
				<font color="000000" name="Arial" size="8" />
				<position>4856 328 4932 364</position>
				<barchart active="true" width="128" height="90" />
			</node>
			<node id="DNM1">
				<name>DNM1</name>
				<interior color="e5f6f7" />
				<outline color="0000bb" />
				<font color="000000" name="Arial" size="8" />
				<position>5010 328 5086 364</position>
				<barchart active="true" width="128" height="90" />
			</node>
			<node id="ARPP21">
				<name>ARPP21</name>
				<interior color="e5f6f7" />
				<outline color="0000bb" />
				<font color="000000" name="Arial" size="8" />
				<position>5164 328 5240 364</position>
				<barchart active="true" width="128" height="90" />
			</node>
			<node id="MIAT">
				<name>MIAT</name>
				<interior color="e5f6f7" />
				<outline color="0000bb" />
				<font color="000000" name="Arial" size="8" />
				<position>5318 328 5394 364</position>
				<barchart active="true" width="128" height="90" />
			</node>
			<node id="APLP2">
				<name>APLP2</name>
				<interior color="e5f6f7" />
				<outline color="0000bb" />
				<font color="000000" name="Arial" size="8" />
				<position>849 825 925 861</position>
				<barchart active="true" width="128" height="90" />
			</node>
			<node id="RPL15">
				<name>RPL15</name>
				<interior color="e5f6f7" />
				<outline color="0000bb" />
				<font color="000000" name="Arial" size="8" />
				<position>1024 837 1100 873</position>
				<barchart active="true" width="128" height="90" />
			</node>
			<node id="PHACTR1">
				<name>PHACTR1</name>
				<interior color="e5f6f7" />
				<outline color="0000bb" />
				<font color="000000" name="Arial" size="8" />
				<position>1178 837 1254 873</position>
				<barchart active="true" width="128" height="90" />
			</node>
			<node id="RGS7">
				<name>RGS7</name>
				<interior color="e5f6f7" />
				<outline color="0000bb" />
				<font color="000000" name="Arial" size="8" />
				<position>1332 837 1408 873</position>
				<barchart active="true" width="128" height="90" />
			</node>
			<node id="NR3C1">
				<name>NR3C1</name>
				<interior color="e5f6f7" />
				<outline color="0000bb" />
				<font color="000000" name="Arial" size="8" />
				<position>1486 837 1562 873</position>
				<barchart active="true" width="128" height="90" />
			</node>
			<node id="WDR17">
				<name>WDR17</name>
				<interior color="e5f6f7" />
				<outline color="0000bb" />
				<font color="000000" name="Arial" size="8" />
				<position>1640 837 1716 873</position>
				<barchart active="true" width="128" height="90" />
			</node>
			<node id="BDP1">
				<name>BDP1</name>
				<interior color="e5f6f7" />
				<outline color="0000bb" />
				<font color="000000" name="Arial" size="8" />
				<position>1794 837 1870 873</position>
				<barchart active="true" width="128" height="90" />
			</node>
			<node id="NRD1">
				<name>NRD1</name>
				<interior color="e5f6f7" />
				<outline color="0000bb" />
				<font color="000000" name="Arial" size="8" />
				<position>1948 837 2024 873</position>
				<barchart active="true" width="128" height="90" />
			</node>
			<node id="GOLGA8B">
				<name>GOLGA8B</name>
				<interior color="e5f6f7" />
				<outline color="0000bb" />
				<font color="000000" name="Arial" size="8" />
				<position>2102 837 2178 873</position>
				<barchart active="true" width="128" height="90" />
			</node>
			<node id="NRCAM">
				<name>NRCAM</name>
				<interior color="e5f6f7" />
				<outline color="0000bb" />
				<font color="000000" name="Arial" size="8" />
				<position>2256 837 2332 873</position>
				<barchart active="true" width="128" height="90" />
			</node>
			<node id="NPIPA1">
				<name>NPIPA1</name>
				<interior color="e5f6f7" />
				<outline color="0000bb" />
				<font color="000000" name="Arial" size="8" />
				<position>2410 837 2486 873</position>
				<barchart active="true" width="128" height="90" />
			</node>
			<node id="PI4KA">
				<name>PI4KA</name>
				<interior color="e5f6f7" />
				<outline color="0000bb" />
				<font color="000000" name="Arial" size="8" />
				<position>2564 837 2640 873</position>
				<barchart active="true" width="128" height="90" />
			</node>
			<node id="PPFIA2">
				<name>PPFIA2</name>
				<interior color="e5f6f7" />
				<outline color="0000bb" />
				<font color="000000" name="Arial" size="8" />
				<position>2718 837 2794 873</position>
				<barchart active="true" width="128" height="90" />
			</node>
			<node id="MAN1A2">
				<name>MAN1A2</name>
				<interior color="e5f6f7" />
				<outline color="0000bb" />
				<font color="000000" name="Arial" size="8" />
				<position>2872 837 2948 873</position>
				<barchart active="true" width="128" height="90" />
			</node>
			<node id="TMEM14A">
				<name>TMEM14A</name>
				<interior color="e5f6f7" />
				<outline color="0000bb" />
				<font color="000000" name="Arial" size="8" />
				<position>3026 837 3102 873</position>
				<barchart active="true" width="128" height="90" />
			</node>
			<node id="ADGRB3">
				<name>ADGRB3</name>
				<interior color="e5f6f7" />
				<outline color="0000bb" />
				<font color="000000" name="Arial" size="8" />
				<position>5815 822 5891 858</position>
				<barchart active="true" width="128" height="90" />
			</node>
			<node id="YTHDC2">
				<name>YTHDC2</name>
				<interior color="e5f6f7" />
				<outline color="0000bb" />
				<font color="000000" name="Arial" size="8" />
				<position>3334 837 3410 873</position>
				<barchart active="true" width="128" height="90" />
			</node>
			<node id="SRSF7">
				<name>SRSF7</name>
				<interior color="e5f6f7" />
				<outline color="0000bb" />
				<font color="000000" name="Arial" size="8" />
				<position>3488 837 3564 873</position>
				<barchart active="true" width="128" height="90" />
			</node>
			<node id="PDE4D">
				<name>PDE4D</name>
				<interior color="e5f6f7" />
				<outline color="0000bb" />
				<font color="000000" name="Arial" size="8" />
				<position>3642 837 3718 873</position>
				<barchart active="true" width="128" height="90" />
			</node>
			<node id="ROCK2">
				<name>ROCK2</name>
				<interior color="e5f6f7" />
				<outline color="0000bb" />
				<font color="000000" name="Arial" size="8" />
				<position>3796 837 3872 873</position>
				<barchart active="true" width="128" height="90" />
			</node>
			<node id="NAP1L1">
				<name>NAP1L1</name>
				<interior color="e5f6f7" />
				<outline color="0000bb" />
				<font color="000000" name="Arial" size="8" />
				<position>3950 837 4026 873</position>
				<barchart active="true" width="128" height="90" />
			</node>
			<node id="TARBP1">
				<name>TARBP1</name>
				<interior color="e5f6f7" />
				<outline color="0000bb" />
				<font color="000000" name="Arial" size="8" />
				<position>4104 837 4180 873</position>
				<barchart active="true" width="128" height="90" />
			</node>
			<node id="TCERG1">
				<name>TCERG1</name>
				<interior color="e5f6f7" />
				<outline color="0000bb" />
				<font color="000000" name="Arial" size="8" />
				<position>4258 837 4334 873</position>
				<barchart active="true" width="128" height="90" />
			</node>
			<node id="WDR60">
				<name>WDR60</name>
				<interior color="e5f6f7" />
				<outline color="0000bb" />
				<font color="000000" name="Arial" size="8" />
				<position>4412 837 4488 873</position>
				<barchart active="true" width="128" height="90" />
			</node>
			<node id="HERC1">
				<name>HERC1</name>
				<interior color="e5f6f7" />
				<outline color="0000bb" />
				<font color="000000" name="Arial" size="8" />
				<position>4566 837 4642 873</position>
				<barchart active="true" width="128" height="90" />
			</node>
			<node id="TTC14">
				<name>TTC14</name>
				<interior color="e5f6f7" />
				<outline color="0000bb" />
				<font color="000000" name="Arial" size="8" />
				<position>4720 837 4796 873</position>
				<barchart active="true" width="128" height="90" />
			</node>
			<node id="GPM6A">
				<name>GPM6A</name>
				<interior color="e5f6f7" />
				<outline color="0000bb" />
				<font color="000000" name="Arial" size="8" />
				<position>4874 837 4950 873</position>
				<barchart active="true" width="128" height="90" />
			</node>
			<node id="CSTF3">
				<name>CSTF3</name>
				<interior color="e5f6f7" />
				<outline color="0000bb" />
				<font color="000000" name="Arial" size="8" />
				<position>5028 837 5104 873</position>
				<barchart active="true" width="128" height="90" />
			</node>
			<node id="GRIA2">
				<name>GRIA2</name>
				<interior color="e5f6f7" />
				<outline color="0000bb" />
				<font color="000000" name="Arial" size="8" />
				<position>5182 837 5258 873</position>
				<barchart active="true" width="128" height="90" />
			</node>
			<node id="MEG3">
				<name>MEG3</name>
				<interior color="e5f6f7" />
				<outline color="0000bb" />
				<font color="000000" name="Arial" size="8" />
				<position>5336 837 5412 873</position>
				<barchart active="true" width="128" height="90" />
			</node>
			<node id="HSP90AA2P">
				<name>HSP90AA2P</name>
				<interior color="e5f6f7" />
				<outline color="0000bb" />
				<font color="000000" name="Arial" size="8" />
				<position>497 1336 573 1372</position>
				<barchart active="true" width="128" height="90" />
			</node>
			<node id="IGL">
				<name>IGL</name>
				<interior color="e5f6f7" />
				<outline color="0000bb" />
				<font color="000000" name="Arial" size="8" />
				<position>5490 837 5566 873</position>
				<barchart active="true" width="128" height="90" />
			</node>
			<node id="LOC100128906">
				<name>LOC100128906</name>
				<interior color="e5f6f7" />
				<outline color="0000bb" />
				<font color="000000" name="Arial" size="8" />
				<position>703 1336 779 1372</position>
				<barchart active="true" width="128" height="90" />
			</node>
			<node id="ANKRD12">
				<name>ANKRD12</name>
				<interior color="e5f6f7" />
				<outline color="0000bb" />
				<font color="000000" name="Arial" size="8" />
				<position>957 1343 1033 1379</position>
				<barchart active="true" width="128" height="90" />
			</node>
			<node id="SFXN1">
				<name>SFXN1</name>
				<interior color="e5f6f7" />
				<outline color="0000bb" />
				<font color="000000" name="Arial" size="8" />
				<position>1121 1348 1197 1384</position>
				<barchart active="true" width="128" height="90" />
			</node>
			<node id="RBM26">
				<name>RBM26</name>
				<interior color="e5f6f7" />
				<outline color="0000bb" />
				<font color="000000" name="Arial" size="8" />
				<position>1275 1348 1351 1384</position>
				<barchart active="true" width="128" height="90" />
			</node>
			<node id="ZMYND8">
				<name>ZMYND8</name>
				<interior color="e5f6f7" />
				<outline color="0000bb" />
				<font color="000000" name="Arial" size="8" />
				<position>1429 1348 1505 1384</position>
				<barchart active="true" width="128" height="90" />
			</node>
			<node id="SUGP2">
				<name>SUGP2</name>
				<interior color="e5f6f7" />
				<outline color="0000bb" />
				<font color="000000" name="Arial" size="8" />
				<position>1583 1348 1659 1384</position>
				<barchart active="true" width="128" height="90" />
			</node>
			<node id="WHSC1L1">
				<name>WHSC1L1</name>
				<interior color="e5f6f7" />
				<outline color="0000bb" />
				<font color="000000" name="Arial" size="8" />
				<position>1737 1348 1813 1384</position>
				<barchart active="true" width="128" height="90" />
			</node>
			<node id="PNN">
				<name>PNN</name>
				<interior color="e5f6f7" />
				<outline color="0000bb" />
				<font color="000000" name="Arial" size="8" />
				<position>1891 1348 1967 1384</position>
				<barchart active="true" width="128" height="90" />
			</node>
			<node id="CCDC88A">
				<name>CCDC88A</name>
				<interior color="e5f6f7" />
				<outline color="0000bb" />
				<font color="000000" name="Arial" size="8" />
				<position>2045 1348 2121 1384</position>
				<barchart active="true" width="128" height="90" />
			</node>
			<node id="MYCBP2">
				<name>MYCBP2</name>
				<interior color="e5f6f7" />
				<outline color="0000bb" />
				<font color="000000" name="Arial" size="8" />
				<position>2199 1348 2275 1384</position>
				<barchart active="true" width="128" height="90" />
			</node>
			<node id="KMT2A">
				<name>KMT2A</name>
				<interior color="e5f6f7" />
				<outline color="0000bb" />
				<font color="000000" name="Arial" size="8" />
				<position>2353 1348 2429 1384</position>
				<barchart active="true" width="128" height="90" />
			</node>
			<node id="KMT2E">
				<name>KMT2E</name>
				<interior color="e5f6f7" />
				<outline color="0000bb" />
				<font color="000000" name="Arial" size="8" />
				<position>2507 1348 2583 1384</position>
				<barchart active="true" width="128" height="90" />
			</node>
			<node id="RSRP1">
				<name>RSRP1</name>
				<interior color="e5f6f7" />
				<outline color="0000bb" />
				<font color="000000" name="Arial" size="8" />
				<position>2661 1348 2737 1384</position>
				<barchart active="true" width="128" height="90" />
			</node>
			<node id="RPL10">
				<name>RPL10</name>
				<interior color="e5f6f7" />
				<outline color="0000bb" />
				<font color="000000" name="Arial" size="8" />
				<position>2815 1348 2891 1384</position>
				<barchart active="true" width="128" height="90" />
			</node>
			<node id="MRPS21">
				<name>MRPS21</name>
				<interior color="e5f6f7" />
				<outline color="0000bb" />
				<font color="000000" name="Arial" size="8" />
				<position>2969 1348 3045 1384</position>
				<barchart active="true" width="128" height="90" />
			</node>
			<node id="CHD9">
				<name>CHD9</name>
				<interior color="e5f6f7" />
				<outline color="0000bb" />
				<font color="000000" name="Arial" size="8" />
				<position>3123 1348 3199 1384</position>
				<barchart active="true" width="128" height="90" />
			</node>
			<node id="HMGN3">
				<name>HMGN3</name>
				<interior color="e5f6f7" />
				<outline color="0000bb" />
				<font color="000000" name="Arial" size="8" />
				<position>3277 1348 3353 1384</position>
				<barchart active="true" width="128" height="90" />
			</node>
			<node id="PTPRD">
				<name>PTPRD</name>
				<interior color="e5f6f7" />
				<outline color="0000bb" />
				<font color="000000" name="Arial" size="8" />
				<position>3431 1348 3507 1384</position>
				<barchart active="true" width="128" height="90" />
			</node>
			<node id="SREK1">
				<name>SREK1</name>
				<interior color="e5f6f7" />
				<outline color="0000bb" />
				<font color="000000" name="Arial" size="8" />
				<position>3585 1348 3661 1384</position>
				<barchart active="true" width="128" height="90" />
			</node>
			<node id="PPIP5K2">
				<name>PPIP5K2</name>
				<interior color="e5f6f7" />
				<outline color="0000bb" />
				<font color="000000" name="Arial" size="8" />
				<position>3739 1348 3815 1384</position>
				<barchart active="true" width="128" height="90" />
			</node>
			<node id="TNRC6B">
				<name>TNRC6B</name>
				<interior color="e5f6f7" />
				<outline color="0000bb" />
				<font color="000000" name="Arial" size="8" />
				<position>3893 1348 3969 1384</position>
				<barchart active="true" width="128" height="90" />
			</node>
			<node id="PCDH9">
				<name>PCDH9</name>
				<interior color="e5f6f7" />
				<outline color="0000bb" />
				<font color="000000" name="Arial" size="8" />
				<position>5472 328 5548 364</position>
				<barchart active="true" width="128" height="90" />
			</node>
			<node id="RBM25">
				<name>RBM25</name>
				<interior color="e5f6f7" />
				<outline color="0000bb" />
				<font color="000000" name="Arial" size="8" />
				<position>4047 1348 4123 1384</position>
				<barchart active="true" width="128" height="90" />
			</node>
			<node id="MPHOSPH8">
				<name>MPHOSPH8</name>
				<interior color="e5f6f7" />
				<outline color="0000bb" />
				<font color="000000" name="Arial" size="8" />
				<position>4201 1348 4277 1384</position>
				<barchart active="true" width="128" height="90" />
			</node>
			<node id="SRSF11">
				<name>SRSF11</name>
				<interior color="e5f6f7" />
				<outline color="0000bb" />
				<font color="000000" name="Arial" size="8" />
				<position>4355 1348 4431 1384</position>
				<barchart active="true" width="128" height="90" />
			</node>
			<node id="ZRANB2">
				<name>ZRANB2</name>
				<interior color="e5f6f7" />
				<outline color="0000bb" />
				<font color="000000" name="Arial" size="8" />
				<position>4509 1348 4585 1384</position>
				<barchart active="true" width="128" height="90" />
			</node>
			<node id="NCOR1">
				<name>NCOR1</name>
				<interior color="e5f6f7" />
				<outline color="0000bb" />
				<font color="000000" name="Arial" size="8" />
				<position>4663 1348 4739 1384</position>
				<barchart active="true" width="128" height="90" />
			</node>
			<node id="TTC3">
				<name>TTC3</name>
				<interior color="e5f6f7" />
				<outline color="0000bb" />
				<font color="000000" name="Arial" size="8" />
				<position>4817 1348 4893 1384</position>
				<barchart active="true" width="128" height="90" />
			</node>
			<node id="LUC7L3">
				<name>LUC7L3</name>
				<interior color="e5f6f7" />
				<outline color="0000bb" />
				<font color="000000" name="Arial" size="8" />
				<position>4971 1348 5047 1384</position>
				<barchart active="true" width="128" height="90" />
			</node>
			<node id="PNISR">
				<name>PNISR</name>
				<interior color="e5f6f7" />
				<outline color="0000bb" />
				<font color="000000" name="Arial" size="8" />
				<position>5125 1348 5201 1384</position>
				<barchart active="true" width="128" height="90" />
			</node>
			<node id="MALAT1">
				<name>MALAT1</name>
				<interior color="e5f6f7" />
				<outline color="0000bb" />
				<font color="000000" name="Arial" size="8" />
				<position>5274 1343 5350 1379</position>
				<barchart active="true" width="128" height="90" />
			</node>
			<node id="TRIM9">
				<name>TRIM9</name>
				<interior color="e5f6f7" />
				<outline color="0000bb" />
				<font color="000000" name="Arial" size="8" />
				<position>431 814 507 850</position>
				<barchart active="true" width="128" height="90" />
			</node>
			<node id="KCNMA1">
				<name>KCNMA1</name>
				<interior color="e5f6f7" />
				<outline color="0000bb" />
				<font color="000000" name="Arial" size="8" />
				<position>676 816 752 852</position>
				<barchart active="true" width="128" height="90" />
			</node>
			<node id="ARGLU1">
				<name>ARGLU1</name>
				<interior color="e5f6f7" />
				<outline color="0000bb" />
				<font color="000000" name="Arial" size="8" />
				<position>5566 1315 5642 1351</position>
				<barchart active="true" width="128" height="90" />
			</node>
			<node id="HNRNPDL">
				<name>HNRNPDL</name>
				<interior color="e5f6f7" />
				<outline color="0000bb" />
				<font color="000000" name="Arial" size="8" />
				<position>5720 1315 5796 1351</position>
				<barchart active="true" width="128" height="90" />
			</node>
			<node id="DDX5">
				<name>DDX5</name>
				<interior color="e5f6f7" />
				<outline color="0000bb" />
				<font color="000000" name="Arial" size="8" />
				<position>5874 1315 5950 1351</position>
				<barchart active="true" width="128" height="90" />
			</node>
			<node id="PAICSP4">
				<name>PAICSP4</name>
				<interior color="e5f6f7" />
				<outline color="0000bb" />
				<font color="000000" name="Arial" size="8" />
				<position>6028 1315 6104 1351</position>
				<barchart active="true" width="128" height="90" />
			</node>
			<node id="SRSF5">
				<name>SRSF5</name>
				<interior color="e5f6f7" />
				<outline color="0000bb" />
				<font color="000000" name="Arial" size="8" />
				<position>5647 832 5723 868</position>
				<barchart active="true" width="128" height="90" />
			</node>
			<node id="variable677">
				<name>variable677</name>
				<interior color="ffcc00" />
				<outline color="0000bb" />
				<font color="000000" name="Arial" size="8" />
				<position>3133 73 3209 109</position>
				<barchart active="true" width="128" height="144" />
			</node>
			<node id="variable1188">
				<name>variable1188</name>
				<interior color="ffcc00" />
				<outline color="0000bb" />
				<font color="000000" name="Arial" size="8" />
				<position>3178 556 3254 592</position>
				<barchart active="true" width="128" height="162" />
			</node>
			<node id="variable1442">
				<name>variable1442</name>
				<interior color="ffcc00" />
				<outline color="0000bb" />
				<font color="000000" name="Arial" size="8" />
				<position>3176 1012 3252 1048</position>
				<barchart active="true" width="128" height="108" />
			</node>
			<node id="variable1483">
				<name>variable1483</name>
				<interior color="ffcc00" />
				<outline color="0000bb" />
				<font color="000000" name="Arial" size="8" />
				<position>582 1145 658 1181</position>
				<barchart active="true" width="128" height="90" />
			</node>
			<node id="variable1484">
				<name>variable1484</name>
				<interior color="ffcc00" />
				<outline color="0000bb" />
				<font color="000000" name="Arial" size="8" />
				<position>562 659 638 695</position>
				<barchart active="true" width="128" height="90" />
			</node>
			<node id="variable1485">
				<name>variable1485</name>
				<interior color="ffcc00" />
				<outline color="0000bb" />
				<font color="000000" name="Arial" size="8" />
				<position>5797 1108 5873 1144</position>
				<barchart active="true" width="128" height="108" />
			</node>
		</genie>
	</extensions>
</smile>
