<?xml version="1.0" encoding="US-ASCII"?>


<!--
	Bayesian network in XMLBIF v0.3 (BayesNet Interchange Format)
	Produced by JavaBayes (http://www.cs.cmu.edu/~javabayes/
	Output created Thu Oct 24 19:18:31 GMT+04:00 2019
-->



<!-- DTD for the XMLBIF 0.3 format -->
<!DOCTYPE BIF [
	<!ELEMENT BIF ( NETWORK )*>
	      <!ATTLIST BIF VERSION CDATA #REQUIRED>
	<!ELEMENT NETWORK ( NAME, ( PROPERTY | VARIABLE | DEFINITION )* )>
	<!ELEMENT NAME (#PCDATA)>
	<!ELEMENT VARIABLE ( NAME, ( OUTCOME |  PROPERTY )* ) >
	      <!ATTLIST VARIABLE TYPE (nature|decision|utility) "nature">
	<!ELEMENT OUTCOME (#PCDATA)>
	<!ELEMENT DEFINITION ( FOR | GIVEN | TABLE | PROPERTY )* >
	<!ELEMENT FOR (#PCDATA)>
	<!ELEMENT GIVEN (#PCDATA)>
	<!ELEMENT TABLE (#PCDATA)>
	<!ELEMENT PROPERTY (#PCDATA)>
]>


<BIF VERSION="0.3">
<NETWORK>
<NAME>LCM</NAME>

<!-- Variables -->
<VARIABLE TYPE="nature">
	<NAME>HSP90AA2P</NAME>
	<OUTCOME>absent</OUTCOME>
	<OUTCOME>low</OUTCOME>
	<OUTCOME>medium</OUTCOME>
	<OUTCOME>high</OUTCOME>
	<PROPERTY>position = (100, 100)</PROPERTY>
</VARIABLE>

<VARIABLE TYPE="nature">
	<NAME>CHD5</NAME>
	<OUTCOME>absent</OUTCOME>
	<OUTCOME>low</OUTCOME>
	<OUTCOME>medium</OUTCOME>
	<OUTCOME>high</OUTCOME>
	<PROPERTY>position = (100, 100)</PROPERTY>
</VARIABLE>

<VARIABLE TYPE="nature">
	<NAME>HOMER1</NAME>
	<OUTCOME>absent</OUTCOME>
	<OUTCOME>low</OUTCOME>
	<OUTCOME>medium</OUTCOME>
	<OUTCOME>high</OUTCOME>
	<PROPERTY>position = (100, 100)</PROPERTY>
</VARIABLE>

<VARIABLE TYPE="nature">
	<NAME>APLP2</NAME>
	<OUTCOME>absent</OUTCOME>
	<OUTCOME>low</OUTCOME>
	<OUTCOME>medium</OUTCOME>
	<OUTCOME>high</OUTCOME>
	<PROPERTY>position = (100, 100)</PROPERTY>
</VARIABLE>

<VARIABLE TYPE="nature">
	<NAME>RPL15</NAME>
	<OUTCOME>absent</OUTCOME>
	<OUTCOME>low</OUTCOME>
	<OUTCOME>medium</OUTCOME>
	<OUTCOME>high</OUTCOME>
	<PROPERTY>position = (100, 100)</PROPERTY>
</VARIABLE>

<VARIABLE TYPE="nature">
	<NAME>ANKRD12</NAME>
	<OUTCOME>absent</OUTCOME>
	<OUTCOME>low</OUTCOME>
	<OUTCOME>medium</OUTCOME>
	<OUTCOME>high</OUTCOME>
	<PROPERTY>position = (100, 100)</PROPERTY>
</VARIABLE>

<VARIABLE TYPE="nature">
	<NAME>SFXN1</NAME>
	<OUTCOME>absent</OUTCOME>
	<OUTCOME>low</OUTCOME>
	<OUTCOME>medium</OUTCOME>
	<OUTCOME>high</OUTCOME>
	<PROPERTY>position = (100, 100)</PROPERTY>
</VARIABLE>

<VARIABLE TYPE="nature">
	<NAME>SYTL2</NAME>
	<OUTCOME>absent</OUTCOME>
	<OUTCOME>low</OUTCOME>
	<OUTCOME>medium</OUTCOME>
	<OUTCOME>high</OUTCOME>
	<PROPERTY>position = (100, 100)</PROPERTY>
</VARIABLE>

<VARIABLE TYPE="nature">
	<NAME>HRH2</NAME>
	<OUTCOME>absent</OUTCOME>
	<OUTCOME>low</OUTCOME>
	<OUTCOME>medium</OUTCOME>
	<OUTCOME>high</OUTCOME>
	<PROPERTY>position = (100, 100)</PROPERTY>
</VARIABLE>

<VARIABLE TYPE="nature">
	<NAME>PHACTR1</NAME>
	<OUTCOME>absent</OUTCOME>
	<OUTCOME>low</OUTCOME>
	<OUTCOME>medium</OUTCOME>
	<OUTCOME>high</OUTCOME>
	<PROPERTY>position = (100, 100)</PROPERTY>
</VARIABLE>

<VARIABLE TYPE="nature">
	<NAME>RGS7</NAME>
	<OUTCOME>absent</OUTCOME>
	<OUTCOME>low</OUTCOME>
	<OUTCOME>medium</OUTCOME>
	<OUTCOME>high</OUTCOME>
	<PROPERTY>position = (100, 100)</PROPERTY>
</VARIABLE>

<VARIABLE TYPE="nature">
	<NAME>LPCAT4</NAME>
	<OUTCOME>absent</OUTCOME>
	<OUTCOME>low</OUTCOME>
	<OUTCOME>medium</OUTCOME>
	<OUTCOME>high</OUTCOME>
	<PROPERTY>position = (100, 100)</PROPERTY>
</VARIABLE>

<VARIABLE TYPE="nature">
	<NAME>NR3C1</NAME>
	<OUTCOME>absent</OUTCOME>
	<OUTCOME>low</OUTCOME>
	<OUTCOME>medium</OUTCOME>
	<OUTCOME>high</OUTCOME>
	<PROPERTY>position = (100, 100)</PROPERTY>
</VARIABLE>

<VARIABLE TYPE="nature">
	<NAME>MIR124_2HG</NAME>
	<OUTCOME>absent</OUTCOME>
	<OUTCOME>low</OUTCOME>
	<OUTCOME>medium</OUTCOME>
	<OUTCOME>high</OUTCOME>
	<PROPERTY>position = (100, 100)</PROPERTY>
</VARIABLE>

<VARIABLE TYPE="nature">
	<NAME>TRIM9</NAME>
	<OUTCOME>absent</OUTCOME>
	<OUTCOME>low</OUTCOME>
	<OUTCOME>medium</OUTCOME>
	<OUTCOME>high</OUTCOME>
	<PROPERTY>position = (100, 100)</PROPERTY>
</VARIABLE>

<VARIABLE TYPE="nature">
	<NAME>VPS13A</NAME>
	<OUTCOME>absent</OUTCOME>
	<OUTCOME>low</OUTCOME>
	<OUTCOME>medium</OUTCOME>
	<OUTCOME>high</OUTCOME>
	<PROPERTY>position = (100, 100)</PROPERTY>
</VARIABLE>

<VARIABLE TYPE="nature">
	<NAME>WDR17</NAME>
	<OUTCOME>absent</OUTCOME>
	<OUTCOME>low</OUTCOME>
	<OUTCOME>medium</OUTCOME>
	<OUTCOME>high</OUTCOME>
	<PROPERTY>position = (100, 100)</PROPERTY>
</VARIABLE>

<VARIABLE TYPE="nature">
	<NAME>RBM26</NAME>
	<OUTCOME>absent</OUTCOME>
	<OUTCOME>low</OUTCOME>
	<OUTCOME>medium</OUTCOME>
	<OUTCOME>high</OUTCOME>
	<PROPERTY>position = (100, 100)</PROPERTY>
</VARIABLE>

<VARIABLE TYPE="nature">
	<NAME>MICAL2</NAME>
	<OUTCOME>absent</OUTCOME>
	<OUTCOME>low</OUTCOME>
	<OUTCOME>medium</OUTCOME>
	<OUTCOME>high</OUTCOME>
	<PROPERTY>position = (100, 100)</PROPERTY>
</VARIABLE>

<VARIABLE TYPE="nature">
	<NAME>RYR2</NAME>
	<OUTCOME>absent</OUTCOME>
	<OUTCOME>low</OUTCOME>
	<OUTCOME>medium</OUTCOME>
	<OUTCOME>high</OUTCOME>
	<PROPERTY>position = (100, 100)</PROPERTY>
</VARIABLE>

<VARIABLE TYPE="nature">
	<NAME>BDP1</NAME>
	<OUTCOME>absent</OUTCOME>
	<OUTCOME>low</OUTCOME>
	<OUTCOME>medium</OUTCOME>
	<OUTCOME>high</OUTCOME>
	<PROPERTY>position = (100, 100)</PROPERTY>
</VARIABLE>

<VARIABLE TYPE="nature">
	<NAME>ZMYND8</NAME>
	<OUTCOME>absent</OUTCOME>
	<OUTCOME>low</OUTCOME>
	<OUTCOME>medium</OUTCOME>
	<OUTCOME>high</OUTCOME>
	<PROPERTY>position = (100, 100)</PROPERTY>
</VARIABLE>

<VARIABLE TYPE="nature">
	<NAME>SUGP2</NAME>
	<OUTCOME>absent</OUTCOME>
	<OUTCOME>low</OUTCOME>
	<OUTCOME>medium</OUTCOME>
	<OUTCOME>high</OUTCOME>
	<PROPERTY>position = (100, 100)</PROPERTY>
</VARIABLE>

<VARIABLE TYPE="nature">
	<NAME>WHSC1L1</NAME>
	<OUTCOME>absent</OUTCOME>
	<OUTCOME>low</OUTCOME>
	<OUTCOME>medium</OUTCOME>
	<OUTCOME>high</OUTCOME>
	<PROPERTY>position = (100, 100)</PROPERTY>
</VARIABLE>

<VARIABLE TYPE="nature">
	<NAME>NRD1</NAME>
	<OUTCOME>absent</OUTCOME>
	<OUTCOME>low</OUTCOME>
	<OUTCOME>medium</OUTCOME>
	<OUTCOME>high</OUTCOME>
	<PROPERTY>position = (100, 100)</PROPERTY>
</VARIABLE>

<VARIABLE TYPE="nature">
	<NAME>PNN</NAME>
	<OUTCOME>absent</OUTCOME>
	<OUTCOME>low</OUTCOME>
	<OUTCOME>medium</OUTCOME>
	<OUTCOME>high</OUTCOME>
	<PROPERTY>position = (100, 100)</PROPERTY>
</VARIABLE>

<VARIABLE TYPE="nature">
	<NAME>CCDC88A</NAME>
	<OUTCOME>absent</OUTCOME>
	<OUTCOME>low</OUTCOME>
	<OUTCOME>medium</OUTCOME>
	<OUTCOME>high</OUTCOME>
	<PROPERTY>position = (100, 100)</PROPERTY>
</VARIABLE>

<VARIABLE TYPE="nature">
	<NAME>GOLGA8B</NAME>
	<OUTCOME>absent</OUTCOME>
	<OUTCOME>low</OUTCOME>
	<OUTCOME>medium</OUTCOME>
	<OUTCOME>high</OUTCOME>
	<PROPERTY>position = (100, 100)</PROPERTY>
</VARIABLE>

<VARIABLE TYPE="nature">
	<NAME>NRCAM</NAME>
	<OUTCOME>absent</OUTCOME>
	<OUTCOME>low</OUTCOME>
	<OUTCOME>medium</OUTCOME>
	<OUTCOME>high</OUTCOME>
	<PROPERTY>position = (100, 100)</PROPERTY>
</VARIABLE>

<VARIABLE TYPE="nature">
	<NAME>MYCBP2</NAME>
	<OUTCOME>absent</OUTCOME>
	<OUTCOME>low</OUTCOME>
	<OUTCOME>medium</OUTCOME>
	<OUTCOME>high</OUTCOME>
	<PROPERTY>position = (100, 100)</PROPERTY>
</VARIABLE>

<VARIABLE TYPE="nature">
	<NAME>IGL</NAME>
	<OUTCOME>absent</OUTCOME>
	<OUTCOME>low</OUTCOME>
	<OUTCOME>medium</OUTCOME>
	<OUTCOME>high</OUTCOME>
	<PROPERTY>position = (100, 100)</PROPERTY>
</VARIABLE>

<VARIABLE TYPE="nature">
	<NAME>NPIPA1</NAME>
	<OUTCOME>absent</OUTCOME>
	<OUTCOME>low</OUTCOME>
	<OUTCOME>medium</OUTCOME>
	<OUTCOME>high</OUTCOME>
	<PROPERTY>position = (100, 100)</PROPERTY>
</VARIABLE>

<VARIABLE TYPE="nature">
	<NAME>PKD1</NAME>
	<OUTCOME>absent</OUTCOME>
	<OUTCOME>low</OUTCOME>
	<OUTCOME>medium</OUTCOME>
	<OUTCOME>high</OUTCOME>
	<PROPERTY>position = (100, 100)</PROPERTY>
</VARIABLE>

<VARIABLE TYPE="nature">
	<NAME>KMT2A</NAME>
	<OUTCOME>absent</OUTCOME>
	<OUTCOME>low</OUTCOME>
	<OUTCOME>medium</OUTCOME>
	<OUTCOME>high</OUTCOME>
	<PROPERTY>position = (100, 100)</PROPERTY>
</VARIABLE>

<VARIABLE TYPE="nature">
	<NAME>PI4KA</NAME>
	<OUTCOME>absent</OUTCOME>
	<OUTCOME>low</OUTCOME>
	<OUTCOME>medium</OUTCOME>
	<OUTCOME>high</OUTCOME>
	<PROPERTY>position = (100, 100)</PROPERTY>
</VARIABLE>

<VARIABLE TYPE="nature">
	<NAME>PPFIA2</NAME>
	<OUTCOME>absent</OUTCOME>
	<OUTCOME>low</OUTCOME>
	<OUTCOME>medium</OUTCOME>
	<OUTCOME>high</OUTCOME>
	<PROPERTY>position = (100, 100)</PROPERTY>
</VARIABLE>

<VARIABLE TYPE="nature">
	<NAME>KMT2E</NAME>
	<OUTCOME>absent</OUTCOME>
	<OUTCOME>low</OUTCOME>
	<OUTCOME>medium</OUTCOME>
	<OUTCOME>high</OUTCOME>
	<PROPERTY>position = (100, 100)</PROPERTY>
</VARIABLE>

<VARIABLE TYPE="nature">
	<NAME>RSRP1</NAME>
	<OUTCOME>absent</OUTCOME>
	<OUTCOME>low</OUTCOME>
	<OUTCOME>medium</OUTCOME>
	<OUTCOME>high</OUTCOME>
	<PROPERTY>position = (100, 100)</PROPERTY>
</VARIABLE>

<VARIABLE TYPE="nature">
	<NAME>MAN1A2</NAME>
	<OUTCOME>absent</OUTCOME>
	<OUTCOME>low</OUTCOME>
	<OUTCOME>medium</OUTCOME>
	<OUTCOME>high</OUTCOME>
	<PROPERTY>position = (100, 100)</PROPERTY>
</VARIABLE>

<VARIABLE TYPE="nature">
	<NAME>TMEM14A</NAME>
	<OUTCOME>absent</OUTCOME>
	<OUTCOME>low</OUTCOME>
	<OUTCOME>medium</OUTCOME>
	<OUTCOME>high</OUTCOME>
	<PROPERTY>position = (100, 100)</PROPERTY>
</VARIABLE>

<VARIABLE TYPE="nature">
	<NAME>RPL10</NAME>
	<OUTCOME>absent</OUTCOME>
	<OUTCOME>low</OUTCOME>
	<OUTCOME>medium</OUTCOME>
	<OUTCOME>high</OUTCOME>
	<PROPERTY>position = (100, 100)</PROPERTY>
</VARIABLE>

<VARIABLE TYPE="nature">
	<NAME>MRPS21</NAME>
	<OUTCOME>absent</OUTCOME>
	<OUTCOME>low</OUTCOME>
	<OUTCOME>medium</OUTCOME>
	<OUTCOME>high</OUTCOME>
	<PROPERTY>position = (100, 100)</PROPERTY>
</VARIABLE>

<VARIABLE TYPE="nature">
	<NAME>CHD9</NAME>
	<OUTCOME>absent</OUTCOME>
	<OUTCOME>low</OUTCOME>
	<OUTCOME>medium</OUTCOME>
	<OUTCOME>high</OUTCOME>
	<PROPERTY>position = (100, 100)</PROPERTY>
</VARIABLE>

<VARIABLE TYPE="nature">
	<NAME>CELF4</NAME>
	<OUTCOME>absent</OUTCOME>
	<OUTCOME>low</OUTCOME>
	<OUTCOME>medium</OUTCOME>
	<OUTCOME>high</OUTCOME>
	<PROPERTY>position = (100, 100)</PROPERTY>
</VARIABLE>

<VARIABLE TYPE="nature">
	<NAME>ADGRB3</NAME>
	<OUTCOME>absent</OUTCOME>
	<OUTCOME>low</OUTCOME>
	<OUTCOME>medium</OUTCOME>
	<OUTCOME>high</OUTCOME>
	<PROPERTY>position = (100, 100)</PROPERTY>
</VARIABLE>

<VARIABLE TYPE="nature">
	<NAME>HMGN3</NAME>
	<OUTCOME>absent</OUTCOME>
	<OUTCOME>low</OUTCOME>
	<OUTCOME>medium</OUTCOME>
	<OUTCOME>high</OUTCOME>
	<PROPERTY>position = (100, 100)</PROPERTY>
</VARIABLE>

<VARIABLE TYPE="nature">
	<NAME>PTPRD</NAME>
	<OUTCOME>absent</OUTCOME>
	<OUTCOME>low</OUTCOME>
	<OUTCOME>medium</OUTCOME>
	<OUTCOME>high</OUTCOME>
	<PROPERTY>position = (100, 100)</PROPERTY>
</VARIABLE>

<VARIABLE TYPE="nature">
	<NAME>SNTG1</NAME>
	<OUTCOME>absent</OUTCOME>
	<OUTCOME>low</OUTCOME>
	<OUTCOME>medium</OUTCOME>
	<OUTCOME>high</OUTCOME>
	<PROPERTY>position = (100, 100)</PROPERTY>
</VARIABLE>

<VARIABLE TYPE="nature">
	<NAME>MNAT1</NAME>
	<OUTCOME>absent</OUTCOME>
	<OUTCOME>low</OUTCOME>
	<OUTCOME>medium</OUTCOME>
	<OUTCOME>high</OUTCOME>
	<PROPERTY>position = (100, 100)</PROPERTY>
</VARIABLE>

<VARIABLE TYPE="nature">
	<NAME>YTHDC2</NAME>
	<OUTCOME>absent</OUTCOME>
	<OUTCOME>low</OUTCOME>
	<OUTCOME>medium</OUTCOME>
	<OUTCOME>high</OUTCOME>
	<PROPERTY>position = (100, 100)</PROPERTY>
</VARIABLE>

<VARIABLE TYPE="nature">
	<NAME>SRSF7</NAME>
	<OUTCOME>absent</OUTCOME>
	<OUTCOME>low</OUTCOME>
	<OUTCOME>medium</OUTCOME>
	<OUTCOME>high</OUTCOME>
	<PROPERTY>position = (100, 100)</PROPERTY>
</VARIABLE>

<VARIABLE TYPE="nature">
	<NAME>PDE4D</NAME>
	<OUTCOME>absent</OUTCOME>
	<OUTCOME>low</OUTCOME>
	<OUTCOME>medium</OUTCOME>
	<OUTCOME>high</OUTCOME>
	<PROPERTY>position = (100, 100)</PROPERTY>
</VARIABLE>

<VARIABLE TYPE="nature">
	<NAME>SREK1</NAME>
	<OUTCOME>absent</OUTCOME>
	<OUTCOME>low</OUTCOME>
	<OUTCOME>medium</OUTCOME>
	<OUTCOME>high</OUTCOME>
	<PROPERTY>position = (100, 100)</PROPERTY>
</VARIABLE>

<VARIABLE TYPE="nature">
	<NAME>PPIP5K2</NAME>
	<OUTCOME>absent</OUTCOME>
	<OUTCOME>low</OUTCOME>
	<OUTCOME>medium</OUTCOME>
	<OUTCOME>high</OUTCOME>
	<PROPERTY>position = (100, 100)</PROPERTY>
</VARIABLE>

<VARIABLE TYPE="nature">
	<NAME>ROCK2</NAME>
	<OUTCOME>absent</OUTCOME>
	<OUTCOME>low</OUTCOME>
	<OUTCOME>medium</OUTCOME>
	<OUTCOME>high</OUTCOME>
	<PROPERTY>position = (100, 100)</PROPERTY>
</VARIABLE>

<VARIABLE TYPE="nature">
	<NAME>KALRN</NAME>
	<OUTCOME>absent</OUTCOME>
	<OUTCOME>low</OUTCOME>
	<OUTCOME>medium</OUTCOME>
	<OUTCOME>high</OUTCOME>
	<PROPERTY>position = (100, 100)</PROPERTY>
</VARIABLE>

<VARIABLE TYPE="nature">
	<NAME>ARGLU1</NAME>
	<OUTCOME>absent</OUTCOME>
	<OUTCOME>low</OUTCOME>
	<OUTCOME>medium</OUTCOME>
	<OUTCOME>high</OUTCOME>
	<PROPERTY>position = (100, 100)</PROPERTY>
</VARIABLE>

<VARIABLE TYPE="nature">
	<NAME>RIMS2</NAME>
	<OUTCOME>absent</OUTCOME>
	<OUTCOME>low</OUTCOME>
	<OUTCOME>medium</OUTCOME>
	<OUTCOME>high</OUTCOME>
	<PROPERTY>position = (100, 100)</PROPERTY>
</VARIABLE>

<VARIABLE TYPE="nature">
	<NAME>OLFM1</NAME>
	<OUTCOME>absent</OUTCOME>
	<OUTCOME>low</OUTCOME>
	<OUTCOME>medium</OUTCOME>
	<OUTCOME>high</OUTCOME>
	<PROPERTY>position = (100, 100)</PROPERTY>
</VARIABLE>

<VARIABLE TYPE="nature">
	<NAME>HNRNPDL</NAME>
	<OUTCOME>absent</OUTCOME>
	<OUTCOME>low</OUTCOME>
	<OUTCOME>medium</OUTCOME>
	<OUTCOME>high</OUTCOME>
	<PROPERTY>position = (100, 100)</PROPERTY>
</VARIABLE>

<VARIABLE TYPE="nature">
	<NAME>NAP1L1</NAME>
	<OUTCOME>absent</OUTCOME>
	<OUTCOME>low</OUTCOME>
	<OUTCOME>medium</OUTCOME>
	<OUTCOME>high</OUTCOME>
	<PROPERTY>position = (100, 100)</PROPERTY>
</VARIABLE>

<VARIABLE TYPE="nature">
	<NAME>TNRC6B</NAME>
	<OUTCOME>absent</OUTCOME>
	<OUTCOME>low</OUTCOME>
	<OUTCOME>medium</OUTCOME>
	<OUTCOME>high</OUTCOME>
	<PROPERTY>position = (100, 100)</PROPERTY>
</VARIABLE>

<VARIABLE TYPE="nature">
	<NAME>SLC12A5</NAME>
	<OUTCOME>absent</OUTCOME>
	<OUTCOME>low</OUTCOME>
	<OUTCOME>medium</OUTCOME>
	<OUTCOME>high</OUTCOME>
	<PROPERTY>position = (100, 100)</PROPERTY>
</VARIABLE>

<VARIABLE TYPE="nature">
	<NAME>STXBP5L</NAME>
	<OUTCOME>absent</OUTCOME>
	<OUTCOME>low</OUTCOME>
	<OUTCOME>medium</OUTCOME>
	<OUTCOME>high</OUTCOME>
	<PROPERTY>position = (100, 100)</PROPERTY>
</VARIABLE>

<VARIABLE TYPE="nature">
	<NAME>KCNMA1</NAME>
	<OUTCOME>absent</OUTCOME>
	<OUTCOME>low</OUTCOME>
	<OUTCOME>medium</OUTCOME>
	<OUTCOME>high</OUTCOME>
	<PROPERTY>position = (100, 100)</PROPERTY>
</VARIABLE>

<VARIABLE TYPE="nature">
	<NAME>FBXW7</NAME>
	<OUTCOME>absent</OUTCOME>
	<OUTCOME>low</OUTCOME>
	<OUTCOME>medium</OUTCOME>
	<OUTCOME>high</OUTCOME>
	<PROPERTY>position = (100, 100)</PROPERTY>
</VARIABLE>

<VARIABLE TYPE="nature">
	<NAME>R3HDM1</NAME>
	<OUTCOME>absent</OUTCOME>
	<OUTCOME>low</OUTCOME>
	<OUTCOME>medium</OUTCOME>
	<OUTCOME>high</OUTCOME>
	<PROPERTY>position = (100, 100)</PROPERTY>
</VARIABLE>

<VARIABLE TYPE="nature">
	<NAME>PCDH9</NAME>
	<OUTCOME>absent</OUTCOME>
	<OUTCOME>low</OUTCOME>
	<OUTCOME>medium</OUTCOME>
	<OUTCOME>high</OUTCOME>
	<PROPERTY>position = (100, 100)</PROPERTY>
</VARIABLE>

<VARIABLE TYPE="nature">
	<NAME>TARBP1</NAME>
	<OUTCOME>absent</OUTCOME>
	<OUTCOME>low</OUTCOME>
	<OUTCOME>medium</OUTCOME>
	<OUTCOME>high</OUTCOME>
	<PROPERTY>position = (100, 100)</PROPERTY>
</VARIABLE>

<VARIABLE TYPE="nature">
	<NAME>UNC80</NAME>
	<OUTCOME>absent</OUTCOME>
	<OUTCOME>low</OUTCOME>
	<OUTCOME>medium</OUTCOME>
	<OUTCOME>high</OUTCOME>
	<PROPERTY>position = (100, 100)</PROPERTY>
</VARIABLE>

<VARIABLE TYPE="nature">
	<NAME>LINC00632</NAME>
	<OUTCOME>absent</OUTCOME>
	<OUTCOME>low</OUTCOME>
	<OUTCOME>medium</OUTCOME>
	<OUTCOME>high</OUTCOME>
	<PROPERTY>position = (100, 100)</PROPERTY>
</VARIABLE>

<VARIABLE TYPE="nature">
	<NAME>RBFOX1</NAME>
	<OUTCOME>absent</OUTCOME>
	<OUTCOME>low</OUTCOME>
	<OUTCOME>medium</OUTCOME>
	<OUTCOME>high</OUTCOME>
	<PROPERTY>position = (100, 100)</PROPERTY>
</VARIABLE>

<VARIABLE TYPE="nature">
	<NAME>TCERG1</NAME>
	<OUTCOME>absent</OUTCOME>
	<OUTCOME>low</OUTCOME>
	<OUTCOME>medium</OUTCOME>
	<OUTCOME>high</OUTCOME>
	<PROPERTY>position = (100, 100)</PROPERTY>
</VARIABLE>

<VARIABLE TYPE="nature">
	<NAME>RBM25</NAME>
	<OUTCOME>absent</OUTCOME>
	<OUTCOME>low</OUTCOME>
	<OUTCOME>medium</OUTCOME>
	<OUTCOME>high</OUTCOME>
	<PROPERTY>position = (100, 100)</PROPERTY>
</VARIABLE>

<VARIABLE TYPE="nature">
	<NAME>WDR60</NAME>
	<OUTCOME>absent</OUTCOME>
	<OUTCOME>low</OUTCOME>
	<OUTCOME>medium</OUTCOME>
	<OUTCOME>high</OUTCOME>
	<PROPERTY>position = (100, 100)</PROPERTY>
</VARIABLE>

<VARIABLE TYPE="nature">
	<NAME>DDX5</NAME>
	<OUTCOME>absent</OUTCOME>
	<OUTCOME>low</OUTCOME>
	<OUTCOME>medium</OUTCOME>
	<OUTCOME>high</OUTCOME>
	<PROPERTY>position = (100, 100)</PROPERTY>
</VARIABLE>

<VARIABLE TYPE="nature">
	<NAME>HERC1</NAME>
	<OUTCOME>absent</OUTCOME>
	<OUTCOME>low</OUTCOME>
	<OUTCOME>medium</OUTCOME>
	<OUTCOME>high</OUTCOME>
	<PROPERTY>position = (100, 100)</PROPERTY>
</VARIABLE>

<VARIABLE TYPE="nature">
	<NAME>PAICSP4</NAME>
	<OUTCOME>absent</OUTCOME>
	<OUTCOME>low</OUTCOME>
	<OUTCOME>medium</OUTCOME>
	<OUTCOME>high</OUTCOME>
	<PROPERTY>position = (100, 100)</PROPERTY>
</VARIABLE>

<VARIABLE TYPE="nature">
	<NAME>PWARSN</NAME>
	<OUTCOME>absent</OUTCOME>
	<OUTCOME>low</OUTCOME>
	<OUTCOME>medium</OUTCOME>
	<OUTCOME>high</OUTCOME>
	<PROPERTY>position = (100, 100)</PROPERTY>
</VARIABLE>

<VARIABLE TYPE="nature">
	<NAME>MPHOSPH8</NAME>
	<OUTCOME>absent</OUTCOME>
	<OUTCOME>low</OUTCOME>
	<OUTCOME>medium</OUTCOME>
	<OUTCOME>high</OUTCOME>
	<PROPERTY>position = (100, 100)</PROPERTY>
</VARIABLE>

<VARIABLE TYPE="nature">
	<NAME>SRSF11</NAME>
	<OUTCOME>absent</OUTCOME>
	<OUTCOME>low</OUTCOME>
	<OUTCOME>medium</OUTCOME>
	<OUTCOME>high</OUTCOME>
	<PROPERTY>position = (100, 100)</PROPERTY>
</VARIABLE>

<VARIABLE TYPE="nature">
	<NAME>UCHL1</NAME>
	<OUTCOME>absent</OUTCOME>
	<OUTCOME>low</OUTCOME>
	<OUTCOME>medium</OUTCOME>
	<OUTCOME>high</OUTCOME>
	<PROPERTY>position = (100, 100)</PROPERTY>
</VARIABLE>

<VARIABLE TYPE="nature">
	<NAME>TTC14</NAME>
	<OUTCOME>absent</OUTCOME>
	<OUTCOME>low</OUTCOME>
	<OUTCOME>medium</OUTCOME>
	<OUTCOME>high</OUTCOME>
	<PROPERTY>position = (100, 100)</PROPERTY>
</VARIABLE>

<VARIABLE TYPE="nature">
	<NAME>LOC100128906</NAME>
	<OUTCOME>absent</OUTCOME>
	<OUTCOME>low</OUTCOME>
	<OUTCOME>medium</OUTCOME>
	<OUTCOME>high</OUTCOME>
	<PROPERTY>position = (100, 100)</PROPERTY>
</VARIABLE>

<VARIABLE TYPE="nature">
	<NAME>ATP2B1</NAME>
	<OUTCOME>absent</OUTCOME>
	<OUTCOME>low</OUTCOME>
	<OUTCOME>medium</OUTCOME>
	<OUTCOME>high</OUTCOME>
	<PROPERTY>position = (100, 100)</PROPERTY>
</VARIABLE>

<VARIABLE TYPE="nature">
	<NAME>ZRANB2</NAME>
	<OUTCOME>absent</OUTCOME>
	<OUTCOME>low</OUTCOME>
	<OUTCOME>medium</OUTCOME>
	<OUTCOME>high</OUTCOME>
	<PROPERTY>position = (100, 100)</PROPERTY>
</VARIABLE>

<VARIABLE TYPE="nature">
	<NAME>MAP2</NAME>
	<OUTCOME>absent</OUTCOME>
	<OUTCOME>low</OUTCOME>
	<OUTCOME>medium</OUTCOME>
	<OUTCOME>high</OUTCOME>
	<PROPERTY>position = (100, 100)</PROPERTY>
</VARIABLE>

<VARIABLE TYPE="nature">
	<NAME>GPM6A</NAME>
	<OUTCOME>absent</OUTCOME>
	<OUTCOME>low</OUTCOME>
	<OUTCOME>medium</OUTCOME>
	<OUTCOME>high</OUTCOME>
	<PROPERTY>position = (100, 100)</PROPERTY>
</VARIABLE>

<VARIABLE TYPE="nature">
	<NAME>NCOR1</NAME>
	<OUTCOME>absent</OUTCOME>
	<OUTCOME>low</OUTCOME>
	<OUTCOME>medium</OUTCOME>
	<OUTCOME>high</OUTCOME>
	<PROPERTY>position = (100, 100)</PROPERTY>
</VARIABLE>

<VARIABLE TYPE="nature">
	<NAME>SRSF5</NAME>
	<OUTCOME>absent</OUTCOME>
	<OUTCOME>low</OUTCOME>
	<OUTCOME>medium</OUTCOME>
	<OUTCOME>high</OUTCOME>
	<PROPERTY>position = (100, 100)</PROPERTY>
</VARIABLE>

<VARIABLE TYPE="nature">
	<NAME>DNM1</NAME>
	<OUTCOME>absent</OUTCOME>
	<OUTCOME>low</OUTCOME>
	<OUTCOME>medium</OUTCOME>
	<OUTCOME>high</OUTCOME>
	<PROPERTY>position = (100, 100)</PROPERTY>
</VARIABLE>

<VARIABLE TYPE="nature">
	<NAME>TTC3</NAME>
	<OUTCOME>absent</OUTCOME>
	<OUTCOME>low</OUTCOME>
	<OUTCOME>medium</OUTCOME>
	<OUTCOME>high</OUTCOME>
	<PROPERTY>position = (100, 100)</PROPERTY>
</VARIABLE>

<VARIABLE TYPE="nature">
	<NAME>CSTF3</NAME>
	<OUTCOME>absent</OUTCOME>
	<OUTCOME>low</OUTCOME>
	<OUTCOME>medium</OUTCOME>
	<OUTCOME>high</OUTCOME>
	<PROPERTY>position = (100, 100)</PROPERTY>
</VARIABLE>

<VARIABLE TYPE="nature">
	<NAME>GRIA2</NAME>
	<OUTCOME>absent</OUTCOME>
	<OUTCOME>low</OUTCOME>
	<OUTCOME>medium</OUTCOME>
	<OUTCOME>high</OUTCOME>
	<PROPERTY>position = (100, 100)</PROPERTY>
</VARIABLE>

<VARIABLE TYPE="nature">
	<NAME>ARPP21</NAME>
	<OUTCOME>absent</OUTCOME>
	<OUTCOME>low</OUTCOME>
	<OUTCOME>medium</OUTCOME>
	<OUTCOME>high</OUTCOME>
	<PROPERTY>position = (100, 100)</PROPERTY>
</VARIABLE>

<VARIABLE TYPE="nature">
	<NAME>LUC7L3</NAME>
	<OUTCOME>absent</OUTCOME>
	<OUTCOME>low</OUTCOME>
	<OUTCOME>medium</OUTCOME>
	<OUTCOME>high</OUTCOME>
	<PROPERTY>position = (100, 100)</PROPERTY>
</VARIABLE>

<VARIABLE TYPE="nature">
	<NAME>PNISR</NAME>
	<OUTCOME>absent</OUTCOME>
	<OUTCOME>low</OUTCOME>
	<OUTCOME>medium</OUTCOME>
	<OUTCOME>high</OUTCOME>
	<PROPERTY>position = (100, 100)</PROPERTY>
</VARIABLE>

<VARIABLE TYPE="nature">
	<NAME>MALAT1</NAME>
	<OUTCOME>absent</OUTCOME>
	<OUTCOME>low</OUTCOME>
	<OUTCOME>medium</OUTCOME>
	<OUTCOME>high</OUTCOME>
	<PROPERTY>position = (100, 100)</PROPERTY>
</VARIABLE>

<VARIABLE TYPE="nature">
	<NAME>MEG3</NAME>
	<OUTCOME>absent</OUTCOME>
	<OUTCOME>low</OUTCOME>
	<OUTCOME>medium</OUTCOME>
	<OUTCOME>high</OUTCOME>
	<PROPERTY>position = (100, 100)</PROPERTY>
</VARIABLE>

<VARIABLE TYPE="nature">
	<NAME>MIAT</NAME>
	<OUTCOME>absent</OUTCOME>
	<OUTCOME>low</OUTCOME>
	<OUTCOME>medium</OUTCOME>
	<OUTCOME>high</OUTCOME>
	<PROPERTY>position = (100, 100)</PROPERTY>
</VARIABLE>

<VARIABLE TYPE="nature">
	<NAME>clustVar</NAME>
	<OUTCOME>cluster_1</OUTCOME>
	<OUTCOME>cluster_2</OUTCOME>
	<OUTCOME>cluster_3</OUTCOME>
	<OUTCOME>cluster_4</OUTCOME>
	<OUTCOME>cluster_5</OUTCOME>
	<OUTCOME>cluster_6</OUTCOME>
	<OUTCOME>cluster_7</OUTCOME>
	<OUTCOME>cluster_8</OUTCOME>
	<OUTCOME>cluster_9</OUTCOME>
	<PROPERTY>position = (100, 100)</PROPERTY>
</VARIABLE>


<!-- Probability distributions -->
<DEFINITION>
	<FOR>HSP90AA2P</FOR>
	<GIVEN>clustVar</GIVEN>
	<TABLE>0.3060372976531702 0.6930653905192533 4.486559117300038E-4 4.4865591584644914E-4 0.6843547700391083 0.312186156762917 0.0017295365989874198 0.0017295365989874198 0.3130963694703153 0.6860559497898827 4.238358358377828E-4 4.2384490396427495E-4 0.5502839551588447 0.4443998616777451 0.002658091581705132 0.002658091581705132 0.4243350648861788 0.5753098787741159 1.7752816985266837E-4 1.7752816985266837E-4 0.4410350149510884 0.5512277535997262 0.0025890566441302888 0.005148174805055166 0.645282767232397 0.35386908061676364 4.24075928556723E-4 4.2407622228258785E-4 0.16519505728466066 0.8325356540485209 0.0011345435069603069 0.0011347451598580013 0.6266842101126183 0.3715858629462996 8.600766717373829E-4 8.698502693445754E-4 </TABLE>
</DEFINITION>

<DEFINITION>
	<FOR>CHD5</FOR>
	<GIVEN>clustVar</GIVEN>
	<TABLE>0.039712910775156963 0.9541319696485134 0.00555065343094481 6.044661453849033E-4 0.9476136735187459 0.04709026513388789 0.003531225912284101 0.0017648354350819477 0.01948594823552177 0.9666130869114099 0.013443440760307504 4.575240927608928E-4 0.9394088982462675 0.055274917693595396 0.0026580924783866687 0.0026580915817504772 0.0034227328148967078 0.9949007501205106 0.0014989763262113257 1.7754073838133775E-4 0.07664883409634589 0.8027881056453395 0.11027636130292301 0.01028669895539154 0.009547505636303546 0.9672786933014158 0.021923768470907382 0.0012500325913734425 0.12469591898873934 0.8483447388016012 0.025781743649137802 0.0011775985605216404 0.1065526285811279 0.803136655523034 0.07689868345838885 0.013412032437449201 </TABLE>
</DEFINITION>

<DEFINITION>
	<FOR>HOMER1</FOR>
	<GIVEN>clustVar</GIVEN>
	<TABLE>0.5077504365723589 0.4867549336937693 0.005032029820098961 4.6259991377299955E-4 0.8697260706265263 0.10958114982370509 0.01724261100187005 0.0034501685478985143 0.18149458122772857 0.7231970831001205 0.087488127185194 0.007820208486956888 0.9273189282988029 0.06733052353580615 0.0026787635256629613 0.0026717846397281094 0.04874792325951948 0.9229075947574413 0.027859723147400726 4.8475883563856416E-4 0.22978734379510532 0.5664158023081485 0.17023457388643576 0.03356228001031037 0.24185732200289092 0.738948084022473 0.018423026429944662 7.715675446915534E-4 0.6217317949819845 0.3516926724575683 0.02430051003607151 0.0022750225243757726 0.6507939398261321 0.3330002975816456 0.011905798910294245 0.004299963681928038 </TABLE>
</DEFINITION>

<DEFINITION>
	<FOR>APLP2</FOR>
	<GIVEN>clustVar</GIVEN>
	<TABLE>0.05067176323676213 0.8482163838334883 0.09415563672735375 0.0069562162023958365 0.650898698129569 0.3166565096650403 0.02907116709053191 0.0033736251148589053 0.12874250675766966 0.8446268392516586 0.025352544623580643 0.0012781093670909906 0.7478499823758624 0.21692275284675525 0.027121636669005803 0.008105628108376471 0.057660178640871834 0.9399871364351101 0.0021750863441143318 1.7759857990374875E-4 0.26897257607911246 0.6897388294160489 0.03609542520718913 0.005193169297649495 0.2076132603603938 0.7904148145693757 0.001547450995733087 4.2447407449734003E-4 0.08401015047324582 0.6539176695888737 0.21882732781050376 0.043244852127376686 0.3202196917331695 0.6634852502241313 0.015128646383521117 0.0011664116591780832 </TABLE>
</DEFINITION>

<DEFINITION>
	<FOR>RPL15</FOR>
	<GIVEN>clustVar</GIVEN>
	<TABLE>0.19269207493329787 0.770921088444787 0.03574114401754961 6.456926043655099E-4 0.647374111112853 0.32516216601840964 0.020556564515770637 0.006907158352966718 0.13901248565756397 0.8035529453821779 0.055610019839307794 0.0018245491209501617 0.6204640032959647 0.33093882102085065 0.04592219684187692 0.0026749788413077723 0.09591505515189246 0.9009732778836871 0.002772404883948175 3.3926208047222665E-4 0.284610640829342 0.6184342137529012 0.08699979275494271 0.009955352662814 0.28827180127714563 0.7057244679406958 0.005578030163776171 4.2570061838256455E-4 0.18877432175687098 0.6469842659407523 0.1445262241252485 0.01971518817712821 0.437292905723741 0.543503748946736 0.01824113293167287 9.622123978503052E-4 </TABLE>
</DEFINITION>

<DEFINITION>
	<FOR>ANKRD12</FOR>
	<GIVEN>clustVar</GIVEN>
	<TABLE>0.02381143320343574 0.9546966097124089 0.019941342931312684 0.0015506141528428346 0.311060614327447 0.6439399058588872 0.03414425863301947 0.010855221180646458 0.05890034577929571 0.9250329700669627 0.01564284293588443 4.2384121785699974E-4 0.32295191327419837 0.5759552314727256 0.08853961289154808 0.012553242361527876 0.01231795155479622 0.987073325179892 4.311950954590913E-4 1.7752816985266843E-4 0.17173046939755032 0.7379235329924421 0.08516419299563081 0.005181804614376733 0.06409971234465549 0.9337100644795816 0.0017661471044647743 4.2407607129812247E-4 0.07358610451381872 0.751091418605897 0.1645170596985495 0.01080541718173479 0.12976956357285013 0.8469063097855751 0.021587305628488672 0.0017368210130862722 </TABLE>
</DEFINITION>

<DEFINITION>
	<FOR>SFXN1</FOR>
	<GIVEN>clustVar</GIVEN>
	<TABLE>0.26572246794717663 0.7180513299034117 0.015350916885619884 8.752852637918182E-4 0.582466874936893 0.3617447932731276 0.04375944340485688 0.012028888385122624 0.18179669233508844 0.781834275187742 0.03523368934174184 0.0011353431354275952 0.7375203430353748 0.21758072607680776 0.026172377534954386 0.01872655335286297 0.07166473302981691 0.9244630302303481 0.0036946693439860773 1.7756739584894876E-4 0.3231687081333259 0.5917292672704051 0.07531817661246756 0.009783847983801393 0.2404699754217802 0.7550013026574105 0.003850840702314361 6.778812184947841E-4 0.3971970154986186 0.5398074118911008 0.051832684726706685 0.011162887883573967 0.48759936194763226 0.4831658314199807 0.02566244747119564 0.003572359161191409 </TABLE>
</DEFINITION>

<DEFINITION>
	<FOR>SYTL2</FOR>
	<GIVEN>clustVar</GIVEN>
	<TABLE>0.6504224656823895 0.34681783488316575 0.002290960532701608 4.687389017433003E-4 0.7901299916029633 0.18893395357639903 0.015761847313547565 0.0051742075070900714 0.1321672124273927 0.8087530081719704 0.05772782071491115 0.001351958685725839 0.7856741913579129 0.17446466819386822 0.029206639518702518 0.010654500929516376 0.059871144323700366 0.9326029924768459 0.007348335026456927 1.7752817299691078E-4 0.19254892028751128 0.656248166009486 0.1278797511860346 0.023323162516968136 0.16053520616922878 0.8308206725632401 0.008211694880809622 4.3242638672147805E-4 0.7771533886217481 0.20909989126566675 0.012421197448246948 0.0013255226643381396 0.7017051257267729 0.2870609776091355 0.008164252764598683 0.003069643899492921 </TABLE>
</DEFINITION>

<DEFINITION>
	<FOR>HRH2</FOR>
	<GIVEN>clustVar</GIVEN>
	<TABLE>0.41034755357988084 0.5791384735200299 0.010065136300067652 4.488366000217062E-4 0.965202380534353 0.029159076940321816 0.0039090059263361355 0.0017295365989889273 0.05147916784847014 0.8881405154442606 0.059310457708696696 0.0010698589985726702 0.9376937112926375 0.05429551691219355 0.0053526802134639 0.002658091581705132 0.019133281050690874 0.9743237828322173 0.006365407924321163 1.7752819277064757E-4 0.19044438995946938 0.6541691452696194 0.14122107658543298 0.014165388185478148 0.15659805216930675 0.8320887504608551 0.010889118475185408 4.240788946527055E-4 0.34924521046910356 0.6061289592664494 0.04121938130186678 0.003406448962580291 0.48908593781651466 0.4920381682050513 0.018014422599509503 8.61471378924542E-4 </TABLE>
</DEFINITION>

<DEFINITION>
	<FOR>PHACTR1</FOR>
	<GIVEN>clustVar</GIVEN>
	<TABLE>0.4107936172935115 0.5854133603476375 0.0028943346215861065 8.986877372648927E-4 0.664109133786536 0.3143581777844952 0.019803151823261127 0.001729536605707615 0.18442525393955342 0.7644195162988187 0.049416956988116406 0.0017382727735115865 0.7802484898819043 0.1971566870124733 0.019936731523917287 0.002658091581705132 0.03353855261999926 0.9568511351947596 0.009432216865262952 1.7809531997811876E-4 0.2643959772181919 0.5967056223915277 0.1183824195844853 0.020515980805795097 0.2045234845305418 0.7813423196368686 0.013705844295650587 4.283515369388561E-4 0.5224005584474134 0.4276594986963157 0.039794443413022046 0.010145499443248832 0.49107642551614195 0.48933941175552736 0.016990264745841723 0.002593897982488895 </TABLE>
</DEFINITION>

<DEFINITION>
	<FOR>RGS7</FOR>
	<GIVEN>clustVar</GIVEN>
	<TABLE>0.22822512670775857 0.7438093020190372 0.02740648139918251 5.590898740218094E-4 0.7926148464821102 0.18827901115438941 0.012188017374418467 0.006918124989081733 0.13572304947777727 0.8210555538011515 0.042647430743043 5.739659780281617E-4 0.9578913039301759 0.03416374374358507 0.0052868278443697165 0.0026581244818692667 0.04915848196605867 0.9484289333185248 0.0022350565455634243 1.7752816985296805E-4 0.3505789206140551 0.5582351833177464 0.08175709949384907 0.009428796574349354 0.272691157193373 0.7217108252708634 0.005173941435491354 4.240761002722176E-4 0.3501241871705758 0.5520013575195803 0.08445978701074429 0.013414668299099517 0.5551771676949878 0.42557636607955424 0.017583075402786023 0.001663390822671821 </TABLE>
</DEFINITION>

<DEFINITION>
	<FOR>LPCAT4</FOR>
	<GIVEN>clustVar</GIVEN>
	<TABLE>0.13998848489459634 0.8350653545143297 0.024063682044992523 8.824785460812371E-4 0.8580285159842126 0.13179183971208064 0.006720571789379528 0.003459072514327115 0.1182242435668095 0.8600392556048239 0.020881405691159823 8.550951372069043E-4 0.9386829642652122 0.05028735540563007 0.00837158766321581 0.002658092665941979 0.02888325479643061 0.9694703942496714 0.0012953297627864143 3.5102119111156253E-4 0.23587246881689683 0.6777039503756376 0.08123527118694074 0.0051883096205249885 0.08441766177555061 0.9079490078933694 0.007208689254646314 4.246410764336743E-4 0.31412460637457956 0.6290631691034054 0.05338617609369317 0.0034260484283216938 0.3853683859996745 0.5988503875727793 0.01490975723283971 8.714691947062521E-4 </TABLE>
</DEFINITION>

<DEFINITION>
	<FOR>NR3C1</FOR>
	<GIVEN>clustVar</GIVEN>
	<TABLE>0.40238335410586434 0.5810319374136169 0.014985692639757613 0.0015990158407611541 0.63808440980192 0.3325264867564384 0.025935471054739354 0.003453632386902353 0.14138212718532953 0.8071381479964094 0.04933891510893955 0.0021408097093216266 0.6887152196696502 0.2367814909876512 0.061204469566820394 0.013298819775878204 0.040919479531701365 0.9433334458825111 0.01556954602532302 1.7752856046441382E-4 0.2769268839880747 0.6204542920002334 0.08958837476048277 0.013030449251209109 0.20036227016048744 0.7933678961785582 0.005716183563991012 5.536500969635063E-4 0.5309977462101032 0.415705919291157 0.048578550928952996 0.00471778356978673 0.5483603287674224 0.4271672909397033 0.021988307221964105 0.0024840730709101764 </TABLE>
</DEFINITION>

<DEFINITION>
	<FOR>MIR124_2HG</FOR>
	<GIVEN>clustVar</GIVEN>
	<TABLE>0.08342956395968774 0.9096690610001478 0.006423062518143755 4.7831252202052885E-4 0.7447879568222272 0.24991582916505461 0.0017326894282870126 0.0035635245844311604 0.008208644733343857 0.9507729175096123 0.04017112721838449 8.47310538659426E-4 0.9320220555018227 0.0626617308321446 0.0026580915817578732 0.0026581220842748676 6.142195005741152E-4 0.9965242049576993 0.002684047318043203 1.7752822368327536E-4 0.044745576386862475 0.8154964758690584 0.12927074643764414 0.010487201306434985 0.009137282897574985 0.984512963187743 0.005925646249234618 4.241076654474118E-4 0.18693311899634496 0.7750122979246458 0.032839705865382214 0.005214877213627142 0.23769062968905985 0.7552892474872757 0.00596461113911186 0.001055511684552534 </TABLE>
</DEFINITION>

<DEFINITION>
	<FOR>TRIM9</FOR>
	<GIVEN>clustVar</GIVEN>
	<TABLE>0.12985584277840798 0.867011665269908 0.0026838314723679566 4.486604793162408E-4 0.3151836916665172 0.6622458893869483 0.020840882347547107 0.0017295365989874402 0.0012776743376817258 0.9720756019948468 0.02579961045569799 8.471132117736121E-4 0.7565609953232828 0.23544085577657156 0.00534005731844062 0.002658091581705132 0.001080136578343407 0.9978662244706644 8.761107758890148E-4 1.775281751031421E-4 0.008793594159538582 0.8335332433056842 0.14479408410495653 0.012879078429820688 0.0014311314841186056 0.9960957159414171 0.0020490340056050736 4.2411856885914584E-4 0.2374113974848077 0.7415350343164104 0.01988865201310557 0.0011649161856762506 0.1329491030868045 0.858566177086696 0.007624637094496798 8.600827320027699E-4 </TABLE>
</DEFINITION>

<DEFINITION>
	<FOR>VPS13A</FOR>
	<GIVEN>clustVar</GIVEN>
	<TABLE>0.262141785515347 0.7349308802730699 0.002478678197680054 4.4865601390286624E-4 0.643904982368204 0.32952401815962795 0.023111950953929827 0.003459048518238233 0.0808487481954456 0.8891340087332567 0.028358968912066587 0.0016582741592311855 0.886120292485756 0.10089079953836107 0.010330777603397089 0.002658130372485689 0.005516279180501249 0.9882855875230664 0.006020600264303578 1.7753303212876035E-4 0.14874842413641962 0.7499949383215428 0.08924383344003796 0.012012804101999586 0.08664202048556913 0.9095413168839472 0.0033925866118952827 4.2407601858834414E-4 0.4310691268972932 0.5488575306268415 0.01616501982566832 0.003908322650196985 0.46230305401592475 0.5199044819457845 0.016069942750411636 0.0017225212878790284 </TABLE>
</DEFINITION>

<DEFINITION>
	<FOR>WDR17</FOR>
	<GIVEN>clustVar</GIVEN>
	<TABLE>0.2882264835178747 0.706515911407476 0.0048089490758577965 4.4865599879133025E-4 0.6023462573550065 0.35630930930999666 0.03615521674603814 0.005189216588958585 0.11110544480769222 0.8593136158634304 0.028647005770903997 9.339335579735507E-4 0.9185350025616917 0.07081659959429282 0.007990291610519703 0.00265810623349575 0.01665458560709476 0.976331759990717 0.006836121370058013 1.7753303213014372E-4 0.19456613938048384 0.6770631890824689 0.11336749346157661 0.015003178075470648 0.20441807608269036 0.7865081491784606 0.008649698723971332 4.2407601487771994E-4 0.4393105681458314 0.5162175523004614 0.04108277528715751 0.0033891042665497055 0.5327268481579526 0.4501634986374695 0.016237493038811435 8.721601657665922E-4 </TABLE>
</DEFINITION>

<DEFINITION>
	<FOR>RBM26</FOR>
	<GIVEN>clustVar</GIVEN>
	<TABLE>0.10442753053594091 0.8921365930550216 0.002987220386730681 4.4865602230669726E-4 0.38592519670536735 0.580869469499585 0.02801532533575811 0.005190008459289551 0.024523428919387896 0.945781205701449 0.029215640893174105 4.7972448598895725E-4 0.42695917179667137 0.5036301879238609 0.056121599742965156 0.013289040536502513 0.0024591434035995834 0.9947753820302472 0.002587946396300549 1.7752816985266864E-4 0.07666083559335998 0.7953860480353291 0.11017498980791854 0.017778126563392536 0.04899290086812748 0.9466825253500696 0.003900497848984823 4.240759328181129E-4 0.2212721716054977 0.7391131031010426 0.03734425663052112 0.0022704686629386097 0.299819811070743 0.681384415991846 0.017935696264010658 8.600766734004301E-4 </TABLE>
</DEFINITION>

<DEFINITION>
	<FOR>MICAL2</FOR>
	<GIVEN>clustVar</GIVEN>
	<TABLE>0.2923580534939909 0.7025078976249656 0.004685392824853496 4.486560561899012E-4 0.9408685241024096 0.055657110923700966 0.0017448271242236839 0.0017295378496657793 0.05320299846516956 0.9170896471429263 0.028859831922183 8.475224697211528E-4 0.9283724043949797 0.06365332266266445 0.0026580915849112826 0.00531618135744463 0.0147072789898379 0.9806642536732338 0.004450910643176995 1.7755669375120367E-4 0.15215853102120702 0.7153719165935181 0.11693559300454107 0.015533959380733797 0.08566223077941724 0.8999537302985626 0.013959960183383463 4.2407873863678286E-4 0.5395749721836162 0.4310721327430914 0.027095569204096448 0.0022573258691960174 0.5421741522641106 0.4393953678112817 0.01670112571047502 0.0017293542141327838 </TABLE>
</DEFINITION>

<DEFINITION>
	<FOR>RYR2</FOR>
	<GIVEN>clustVar</GIVEN>
	<TABLE>0.22695861963564212 0.76469708384545 0.00789562754747256 4.4866897143532367E-4 0.9182140284003045 0.0770524524635839 0.0030029748933833563 0.0017305442427282263 0.038351485336539266 0.929065292974179 0.03215885754563454 4.2436414364719434E-4 0.8395597747536142 0.15176468625567022 0.006017447409010514 0.002658091581705138 0.002412146375623601 0.990601987852245 0.0068083376022788035 1.7752816985271947E-4 0.07080583313958369 0.8279839478769045 0.08622067634203952 0.014989542641472202 0.033353602103432634 0.9570832006963498 0.009139120127595345 4.240770726221745E-4 0.4762451870248309 0.5029676102788496 0.01614520580941663 0.004641996886902921 0.3539592782433628 0.6226390309466507 0.019860710889654562 0.003540979920332009 </TABLE>
</DEFINITION>

<DEFINITION>
	<FOR>BDP1</FOR>
	<GIVEN>clustVar</GIVEN>
	<TABLE>0.04713661898237154 0.9498181422001375 0.002591235533539444 4.540032839514664E-4 0.4920485797642732 0.501032288351904 0.005189595284545871 0.0017295365992769068 0.008756050587673895 0.9577512518601285 0.03306884647535371 4.238510768439655E-4 0.6216674994082131 0.3623853434347823 0.01328906557529965 0.0026580915817051324 3.3513152675809695E-4 0.9975343084524055 0.0019530318509836692 1.775281698526724E-4 0.04776522686905767 0.7896729428458813 0.1470694288306962 0.015492401454364837 0.009669582181549816 0.9843371792490443 0.005569162241667092 4.2407632773864336E-4 0.12349333481006805 0.8509117680016951 0.024450383270110027 0.0011445139181266656 0.11259924899605088 0.8618493682671191 0.02383513865794876 0.0017162440788811965 </TABLE>
</DEFINITION>

<DEFINITION>
	<FOR>ZMYND8</FOR>
	<GIVEN>clustVar</GIVEN>
	<TABLE>0.16679185030191648 0.8300893776857711 0.0026550561303682473 4.637158819443268E-4 0.4506385685259505 0.4923945606176087 0.05523706884963153 0.0017298020068092555 0.07823447537493694 0.8968918561694424 0.0236590503846829 0.001214618070937837 0.5943985084939662 0.3683501340968719 0.029277089779115095 0.00797426763004674 0.03590916464982034 0.9622401598192272 0.0016731473309489278 1.775282000036026E-4 0.20337499819991375 0.7093049677783285 0.07937678443620902 0.007943249585548652 0.07674218121248849 0.9146823871360519 0.008149836200519248 4.2559545094051683E-4 0.3004062974500482 0.650361512124508 0.04355127336756535 0.005680917057878534 0.2914898723299162 0.6744140491617605 0.03063711858794223 0.0034589599203809947 </TABLE>
</DEFINITION>

<DEFINITION>
	<FOR>SUGP2</FOR>
	<GIVEN>clustVar</GIVEN>
	<TABLE>0.05542487617320296 0.9352747756010817 0.008412957248844631 8.873909768706664E-4 0.39249426701351475 0.5723278636292392 0.02999535435331449 0.005182515003931688 0.03402698200012136 0.9433945388534095 0.02215464097037354 4.2383817609559113E-4 0.5710920264724489 0.39611141706944625 0.027471006324341903 0.005325550133763066 0.0024010207064553302 0.9970085423716463 4.1290875204567164E-4 1.775281698526715E-4 0.04025001308024589 0.8921672020671977 0.06499372393899885 0.002589060913557598 0.015856802950567312 0.9766881067972153 0.007031012123375792 4.240781288415587E-4 0.19232025651284262 0.7756006728050223 0.030936470417301704 0.0011426002648332822 0.1052897631391638 0.8723160594030512 0.021521200760865413 8.729766969193584E-4 </TABLE>
</DEFINITION>

<DEFINITION>
	<FOR>WHSC1L1</FOR>
	<GIVEN>clustVar</GIVEN>
	<TABLE>0.03907251784852232 0.9535830455383373 0.006450188659874439 8.942479532660242E-4 0.4216412266462469 0.5591481795053703 0.015751520650770037 0.003459073197612683 0.03705278251903947 0.9413564497830407 0.021166931739563754 4.238359583562373E-4 0.4955071547605055 0.46984169473469606 0.029334967340831526 0.005316183163966844 0.0029559680376235143 0.9961596913145078 7.068124780159986E-4 1.775281698526684E-4 0.09473910279805747 0.8172605045310628 0.08282227914024072 0.00517811353063894 0.028592191206726566 0.9699316995467803 0.0010520332311405134 4.240760153527107E-4 0.13056570686278932 0.8160083187815023 0.05228434538342152 0.0011416289722869489 0.14237629514279906 0.8421393151758733 0.014623811414749117 8.605782665787162E-4 </TABLE>
</DEFINITION>

<DEFINITION>
	<FOR>NRD1</FOR>
	<GIVEN>clustVar</GIVEN>
	<TABLE>0.07722915661659556 0.9057854281668822 0.016523613882478597 4.618013340436462E-4 0.3700820019122675 0.5716860150357104 0.05296554950051562 0.005266433551506458 0.054999351665422094 0.9258680805338777 0.01870871523083165 4.2385256986856326E-4 0.5443025139179505 0.38387276301420187 0.05333768645451001 0.01848703661333752 0.004918052970115096 0.9929587894250177 0.0019456294350145883 1.775281698526684E-4 0.15087722471602544 0.7713536861260217 0.07000178391515512 0.00776730524279775 0.1009032050698995 0.8969244530256771 0.0017482659744687014 4.240759299546428E-4 0.20449197397047197 0.7265629420047589 0.062219852023976084 0.006725232000793147 0.32183565242549445 0.6606006344420199 0.01580665430034608 0.0017570588321396924 </TABLE>
</DEFINITION>

<DEFINITION>
	<FOR>PNN</FOR>
	<GIVEN>clustVar</GIVEN>
	<TABLE>0.06883886508533127 0.9213808660753365 0.009331612487545783 4.4865635178638504E-4 0.34028956529134624 0.5920020571406103 0.0612131509004978 0.0064952266675456175 0.05755654115929658 0.9256964198769092 0.01631935958801888 4.276793757753197E-4 0.4766812798322815 0.4551535010480077 0.05487439083363028 0.013290828286080499 0.013779796106229588 0.9847739025977286 0.001268773126189072 1.7752816985266875E-4 0.15697586870804425 0.7306628457759154 0.0987210277821075 0.01364025773393278 0.09674995881424607 0.9015026351587445 0.0013233300984433509 4.2407592856605E-4 0.16331962437916972 0.7780886105378065 0.05291903044078219 0.005672734642241613 0.24455212470393084 0.7300017943373334 0.022894339942532222 0.002551741016203699 </TABLE>
</DEFINITION>

<DEFINITION>
	<FOR>CCDC88A</FOR>
	<GIVEN>clustVar</GIVEN>
	<TABLE>0.010497569858510367 0.9854485470967842 0.0036052262190084546 4.4865682569694584E-4 0.1743244469535233 0.7789132913754421 0.045028234389269325 0.0017340272817651867 0.03180911762710359 0.9639068873315928 0.003860159203533974 4.2383583776956185E-4 0.1525864509904374 0.7174178563753937 0.11671213636973912 0.013283556264429753 0.0012371908387758242 0.9977280455663595 8.572354250121499E-4 1.7752816985266843E-4 0.05455012183244005 0.8663237675591862 0.07653687742695174 0.0025892331814221926 0.012875689046723258 0.981515384830462 0.005184848485591281 4.240776372234949E-4 0.059112126312484116 0.8953811743643578 0.043237482781974326 0.0022692165411836583 0.04975730486628772 0.9010577020737794 0.047465001775240205 0.0017199912846926524 </TABLE>
</DEFINITION>

<DEFINITION>
	<FOR>GOLGA8B</FOR>
	<GIVEN>clustVar</GIVEN>
	<TABLE>0.0028613213122272558 0.9851811219081116 0.011508888472447892 4.486683072132662E-4 0.1712896748066395 0.7995707285639089 0.027410059813806616 0.0017295368156450654 0.003969898486171951 0.9667674641176125 0.02883880137484775 4.2383602136785836E-4 0.7895571149425451 0.20176203876896534 0.0060227547067845 0.0026580915817051324 1.7811443048022666E-4 0.9977792752723829 0.0018650821272842134 1.7752816985266843E-4 0.013049230943159773 0.8176803984548625 0.1536149664083409 0.01565540419363674 0.004184634872622688 0.9920801330620511 0.003311156136769431 4.240759285567251E-4 0.03475064779523841 0.9117419286682072 0.04675327201922182 0.006754151517332501 0.02893137397013686 0.9595981111779802 0.010610418266501621 8.600965853814862E-4 </TABLE>
</DEFINITION>

<DEFINITION>
	<FOR>NRCAM</FOR>
	<GIVEN>clustVar</GIVEN>
	<TABLE>0.05338876300218789 0.9370791110448575 0.009074145951217326 4.579800017371519E-4 0.2215982503234508 0.7088747466850861 0.05908803074473246 0.010438972246730707 0.011887475511381036 0.9488002695094407 0.03868338671838619 6.288682607919076E-4 0.88629186233318 0.10830975530798526 0.0027398629687458973 0.0026585193900888616 4.86130988324762E-4 0.997043854430602 0.0022924864110292174 1.7752817004399599E-4 0.0276203843941146 0.8846509211403558 0.0734463726245654 0.014282321840964151 0.017403137909979292 0.9797316545133966 0.0024411316448523027 4.240759317715934E-4 0.10816023332517613 0.8082188449311114 0.07468857412725216 0.008932347616460277 0.19921106640590017 0.7969089368922815 0.002959626804464679 9.203698973537872E-4 </TABLE>
</DEFINITION>

<DEFINITION>
	<FOR>MYCBP2</FOR>
	<GIVEN>clustVar</GIVEN>
	<TABLE>0.007813776750168705 0.9792697035763341 0.012241880192916676 6.746394805804385E-4 0.30736889196313905 0.6736660685547884 0.017235502824993972 0.0017295366570785006 0.0033462480180646336 0.9755042447354207 0.020725129843546176 4.2437740296833235E-4 0.4601852902041296 0.5211021404450704 0.016054477769094876 0.0026580915817051324 3.4210316242927436E-4 0.998867242369425 6.131262982930445E-4 1.775281698526685E-4 0.03325158777511786 0.8717966089116623 0.08311866673694386 0.011833136576275941 0.005332479748087925 0.9868306893334916 0.007412754978261156 4.2407594015925394E-4 0.039226261743482614 0.893349838779535 0.06299711687566288 0.004426782601319357 0.05068104544802164 0.9241452079145913 0.023434008985148937 0.0017397376522381408 </TABLE>
</DEFINITION>

<DEFINITION>
	<FOR>IGL</FOR>
	<GIVEN>clustVar</GIVEN>
	<TABLE>5.967165936111794E-4 0.9954438206594018 0.0034959599482581685 4.635027987288902E-4 0.04234697014191236 0.9398238303787324 0.015469325955924299 0.002359873523430938 4.2652236178593214E-4 0.9920316381728644 0.006692612121560396 8.492273437892125E-4 0.10186252343337872 0.8670450261971332 0.024072808734699393 0.007019641634788629 3.006493453349722E-4 0.9980791933001736 0.0014426289902273208 1.7752836426422432E-4 0.008485674049613826 0.9537537699557517 0.027487951570222872 0.010272604424411644 6.758147473516705E-4 0.9868986681711133 0.011837956184003975 5.875608975311709E-4 0.011132894966454726 0.9731523006602828 0.013455822845628533 0.002258981527634046 0.003853205657008544 0.9647433826858243 0.02915549697186008 0.002247914685306915 </TABLE>
</DEFINITION>

<DEFINITION>
	<FOR>NPIPA1</FOR>
	<GIVEN>clustVar</GIVEN>
	<TABLE>0.05157685228190638 0.9438383653355227 0.004135185314655019 4.495970679159433E-4 0.34319052755301604 0.6179030837411645 0.03404188281415749 0.004864505891661846 0.024521969083825236 0.9629313272921319 0.011700726334301331 8.459772897415657E-4 0.6794089847019027 0.30143377151096296 0.01599883443799862 0.0031584093491358062 0.002190381485624969 0.9968361522894503 7.959375275716755E-4 1.775286973530123E-4 0.029329538210789048 0.8017645769156907 0.16112836204233452 0.0077775228311858435 0.012867913183390771 0.9663727638485062 0.020321806767346476 4.3751620075657775E-4 0.1286872335044943 0.8314509271557773 0.036101173997887454 0.0037606653418410328 0.12102857051060252 0.8164718187390456 0.05763959303464468 0.004860017715706943 </TABLE>
</DEFINITION>

<DEFINITION>
	<FOR>PKD1</FOR>
	<GIVEN>clustVar</GIVEN>
	<TABLE>0.02084896077960713 0.9756843048756612 0.0030179420647776086 4.4879227995405435E-4 0.4714952256382053 0.520431984366689 0.0063432533711124455 0.0017295366239932105 0.005705419401178209 0.9788138523307659 0.015055525193909368 4.2520307414643007E-4 0.6620075692169998 0.32203720155176174 0.01329713764953337 0.002658091581705142 4.934372738567703E-4 0.9968633304918247 0.0024657040596169507 1.7752817470162313E-4 0.060908977242322984 0.8490093332780126 0.0745623331186133 0.015519356361051216 0.001517344428915521 0.9733889737010645 0.024246500297904705 8.47181572115256E-4 0.0986428367155098 0.877970642911991 0.022246919694969593 0.0011396006775296367 0.045217212785539834 0.9250159177011468 0.028906717210452987 8.601523028605286E-4 </TABLE>
</DEFINITION>

<DEFINITION>
	<FOR>KMT2A</FOR>
	<GIVEN>clustVar</GIVEN>
	<TABLE>0.013801792548702218 0.9711407187426746 0.014592696116887694 4.6479259173551227E-4 0.37484369069970885 0.6081425427945957 0.014036681451046567 0.002977085054649138 0.02299891759654006 0.9668316400384456 0.009513249801834156 6.561925631801441E-4 0.4642982160827758 0.4851959540919262 0.04253155351697772 0.007974276308320188 0.0018930025203485808 0.9974412688098643 4.882004997191037E-4 1.7752817006805888E-4 0.0844893675665606 0.8403614928628612 0.06878759176915734 0.0063615478014209395 0.014990441435032734 0.9779471672970458 0.0066140364485067285 4.483548194148822E-4 0.06944254164555365 0.8562365772563734 0.07317818636720129 0.0011426947308717256 0.06856287445542726 0.8878567775661225 0.037411049904764376 0.006169298073686021 </TABLE>
</DEFINITION>

<DEFINITION>
	<FOR>PI4KA</FOR>
	<GIVEN>clustVar</GIVEN>
	<TABLE>0.15407446509170356 0.8340870631645271 0.01137168775136947 4.667839923999178E-4 0.6550767819783846 0.3311252125771978 0.010339555661469331 0.0034584497829484853 0.04798139293975764 0.8924625865676672 0.058650464567541014 9.055559250342797E-4 0.7536435930300256 0.22503606515106145 0.013345108920782132 0.007975232898130697 0.007320854735291893 0.9860282369701238 0.0064733801016300645 1.7752819295427895E-4 0.12723878913220493 0.7486441655492825 0.10798849175818138 0.016128553560331004 0.09752419715687524 0.8940155239794697 0.007853544674634977 6.067341890200253E-4 0.2767811969023424 0.6749861612255444 0.04488106786149753 0.0033515740106156594 0.4092098345757628 0.576829248422966 0.012921363795442517 0.0010395532058287938 </TABLE>
</DEFINITION>

<DEFINITION>
	<FOR>PPFIA2</FOR>
	<GIVEN>clustVar</GIVEN>
	<TABLE>0.17312577062187073 0.8259594447074989 4.654559286521238E-4 4.493287419783547E-4 0.5960605812234158 0.3871282858057871 0.015081596371809699 0.0017295365989874196 0.0353301022869176 0.8840080930987643 0.07794876444346054 0.0027130401708576617 0.5753351820708507 0.3794756265130204 0.042531099834423845 0.0026580915817051324 0.0051334758422008665 0.9787660273313933 0.015852663455995793 2.4783337041009304E-4 0.058805764298814206 0.7400525735866395 0.18513085138281712 0.016010810731729087 0.06156155736311803 0.9266923749996848 0.01131483307120217 4.3123456599500256E-4 0.3765303594435606 0.6076094413254465 0.014725216420169052 0.0011349828108237336 0.38618178206445547 0.6079117010409617 0.005046423769640866 8.600931249417314E-4 </TABLE>
</DEFINITION>

<DEFINITION>
	<FOR>KMT2E</FOR>
	<GIVEN>clustVar</GIVEN>
	<TABLE>0.029822986159557047 0.9613685961125567 0.007678453754010223 0.001129963973876124 0.2652905396310953 0.6874735152647966 0.042066866169081917 0.0051690789350263295 0.016525287957131943 0.9580306329722983 0.025020129174520504 4.23949896049303E-4 0.3277521898951303 0.5966105921009286 0.067632894475146 0.008004323528795095 0.0034593905482512674 0.9959131047998442 4.4997648202365964E-4 1.775281698809085E-4 0.09638319693103847 0.8007900641451206 0.09181769113624516 0.011009047787595903 0.016595743545696116 0.9761049920584779 0.0068686173113530515 4.306470844727831E-4 0.0938591959166636 0.8288147627434262 0.07283127275204526 0.004494768587864999 0.09828135134742297 0.8561787834915577 0.040162853629895724 0.0053770115311233555 </TABLE>
</DEFINITION>

<DEFINITION>
	<FOR>RSRP1</FOR>
	<GIVEN>clustVar</GIVEN>
	<TABLE>0.05374226501284154 0.9443811273392291 0.0014279516663013067 4.4865598162795596E-4 0.3424712888154849 0.628132136637562 0.027666655801182754 0.0017299187457704437 0.02447903727542798 0.9234341626852498 0.05123542557578317 8.513744635392321E-4 0.3632269908517482 0.5889168606606716 0.03456627789310604 0.013289870594474302 9.29496532806712E-4 0.9913182837376743 0.0075746915596541925 1.7752816986475178E-4 0.0515648485516433 0.8084849455693224 0.1270337514225473 0.012916454456487212 0.03340830412595107 0.9639933825122435 0.0021742374331494775 4.2407592865577223E-4 0.15423988812888562 0.8155109860575885 0.027977317807712128 0.0022718080058136696 0.22354769981132358 0.7709377323139379 0.004654491202983768 8.600766717547002E-4 </TABLE>
</DEFINITION>

<DEFINITION>
	<FOR>MAN1A2</FOR>
	<GIVEN>clustVar</GIVEN>
	<TABLE>0.11087735348048793 0.849354869637829 0.03878199233165467 9.857845500283525E-4 0.6697983071597851 0.3145829700341928 0.013889186197875728 0.0017295366081465176 0.08242812218920952 0.8863519714436787 0.02998944064258932 0.001230465724522256 0.7251210489175731 0.24035017899626204 0.02921258892526887 0.005316183160895985 0.03650800036995681 0.9618410452596015 0.0014734059838117709 1.7754838662998996E-4 0.15690521789775808 0.7600306158224855 0.07007582429357292 0.012988341986183483 0.05946768040477681 0.9336979763135435 0.006395479267112026 4.3886401456759585E-4 0.23320225024111674 0.6822045403236111 0.07696534997349441 0.007627859461777789 0.23935326821954306 0.7222687088204731 0.034830432263661205 0.0035475906963226755 </TABLE>
</DEFINITION>

<DEFINITION>
	<FOR>TMEM14A</FOR>
	<GIVEN>clustVar</GIVEN>
	<TABLE>0.224922986579855 0.7199037234843589 0.05289809244744752 0.002275197488338647 0.8711089256563865 0.10616137195074066 0.01966678286467087 0.003062919528202085 0.2021856410950678 0.7355392488009812 0.05717482322918885 0.005100286874762131 0.8884469822328571 0.06354716955149084 0.03942273250371999 0.008583115711931974 0.11740032302044164 0.8776111867610241 0.004810378641122172 1.78111577411937E-4 0.4130774027712506 0.4687536597167138 0.10177832752453325 0.016390609987502327 0.42823113559683995 0.5686135495947934 0.002714882136040858 4.404326723260165E-4 0.30269429044816065 0.519728413611095 0.15527051682983375 0.02230677911091066 0.65475767451291 0.3330375683080833 0.010603999517833664 0.0016007576611729438 </TABLE>
</DEFINITION>

<DEFINITION>
	<FOR>RPL10</FOR>
	<GIVEN>clustVar</GIVEN>
	<TABLE>0.22200680161285502 0.7570804746113132 0.020283845059224846 6.288787166067951E-4 0.5298497730793224 0.39223452825829186 0.07442539636550624 0.0034903022968795364 0.1352964861867458 0.8123869700712841 0.05113309898242684 0.0011834447595434035 0.5689407293910544 0.3048843168743885 0.09962769779317895 0.026547255941378082 0.11639326066634058 0.8818803351308875 0.0015212258515201408 2.0517835125179355E-4 0.29080764154558736 0.6076138108203414 0.09632757866284412 0.005250968971227114 0.2768057000237468 0.7167936265390039 0.005706999108012626 6.936743292365297E-4 0.29046503281563385 0.6176966835039711 0.08379482973653139 0.008043453943863542 0.4789416979970176 0.4957420789571317 0.02110918355836058 0.004207039487490007 </TABLE>
</DEFINITION>

<DEFINITION>
	<FOR>MRPS21</FOR>
	<GIVEN>clustVar</GIVEN>
	<TABLE>0.20933818907851054 0.7476256186022585 0.04109265842871323 0.0019435338905175795 0.5900983546761593 0.3369170485806621 0.05597954399645141 0.01700505274672717 0.19227004316555185 0.7677890537351744 0.038305438844974435 0.0016354642542993592 0.7274466841334559 0.20948279569295486 0.052196151888087225 0.01087436828550191 0.08686349417062639 0.910363049097906 0.0025959285613068807 1.7752817016077882E-4 0.35555245207117275 0.5378089119255515 0.0881730730823635 0.018465562920912348 0.3479647399473117 0.6502578874486613 0.0013529009893352311 4.244716146917544E-4 0.32993508803419486 0.5734051119894615 0.08678393231234942 0.009875867663994273 0.5504060815006455 0.42489681496060233 0.02293533041188184 0.0017617731268701673 </TABLE>
</DEFINITION>

<DEFINITION>
	<FOR>CHD9</FOR>
	<GIVEN>clustVar</GIVEN>
	<TABLE>0.030990613845328672 0.9526085917217393 0.01595100970904737 4.49784723884899E-4 0.15373567242998484 0.7047776228268976 0.12419291270301253 0.017293792040105043 0.03250646906381039 0.9544992518268107 0.012569573677630118 4.2470543174880245E-4 0.39900166530245634 0.5470102598056136 0.05132756900972685 0.0026605058822032407 0.003180185933253206 0.9961022404556871 5.400454412069221E-4 1.775281698526694E-4 0.09954157427749827 0.7750882367461565 0.11234882376830438 0.013021365208040953 0.036797484872058195 0.958070412417537 0.00470802678184636 4.240759285586482E-4 0.06852039620599319 0.8434416715138809 0.08353828012677665 0.004499652153349114 0.13649990364641698 0.835543981420567 0.027096036808616112 8.600781243998331E-4 </TABLE>
</DEFINITION>

<DEFINITION>
	<FOR>CELF4</FOR>
	<GIVEN>clustVar</GIVEN>
	<TABLE>0.017627082465647537 0.9605849229840686 0.020872075012729994 9.159195375538448E-4 0.8048043902193969 0.18999584237346434 0.0017405472760285848 0.003459220131110286 0.026461046135041407 0.9399999289066487 0.03298807285324279 5.509521050672768E-4 0.8947571738431449 0.09992664243276346 0.0026580915818147743 0.0026580921422768066 0.003173018897829865 0.9898308807263658 0.006818571744289875 1.7752863151452233E-4 0.0631745732871995 0.8165197248842236 0.0955206145986226 0.024785087229954223 0.01904311395462648 0.9621882324328659 0.017646836819918854 0.0011218167925888137 0.05998716285567128 0.85787753587469 0.07872619367408205 0.003409107595556691 0.08194886512941282 0.8847055893753752 0.02867072557256485 0.004674819922647138 </TABLE>
</DEFINITION>

<DEFINITION>
	<FOR>ADGRB3</FOR>
	<GIVEN>clustVar</GIVEN>
	<TABLE>0.07142355257944978 0.9069727369310304 0.02115284678703454 4.508637024854194E-4 0.4163918851319709 0.5444890695709952 0.032201564775549654 0.0069174805214846065 0.026289379626102585 0.907534879213605 0.06426424005933805 0.0019115011009543422 0.7857447968589856 0.20566917662170658 0.005926911567883625 0.0026591149514242434 0.0014910293058343499 0.9895971320988235 0.008733187514466749 1.7865108087536196E-4 0.08865121201320343 0.7399179943286219 0.14272075591057998 0.028710037747594574 0.024259256920904308 0.9638544510222066 0.01131519021305841 5.711018438308901E-4 0.1538960532543952 0.7617901777208631 0.0786092035267918 0.0057045654979498515 0.20205745331428085 0.7668875666275764 0.03018201391050642 8.729661476363851E-4 </TABLE>
</DEFINITION>

<DEFINITION>
	<FOR>HMGN3</FOR>
	<GIVEN>clustVar</GIVEN>
	<TABLE>0.058253201228214466 0.921229034596826 0.020063616143882863 4.541480310766685E-4 0.301951314207069 0.6181770362851144 0.06431654934084959 0.015555100166966975 0.024042837998040467 0.9462231307535282 0.02931019498437845 4.2383626405268973E-4 0.40113369666381 0.5516760612610166 0.041857569391739805 0.005332672683433609 0.00495371026279444 0.9929789347036505 0.001889826863702371 1.7752816985266837E-4 0.08177159881777381 0.7945233389263748 0.10817540064152986 0.015529661614321632 0.08411625250985534 0.9148543564883449 6.053150732429259E-4 4.2407592855672337E-4 0.09820459655071649 0.803511384771467 0.09489227533463002 0.0033917433431865343 0.2705289011019849 0.7168295770236551 0.011781408946425776 8.601129279341227E-4 </TABLE>
</DEFINITION>

<DEFINITION>
	<FOR>PTPRD</FOR>
	<GIVEN>clustVar</GIVEN>
	<TABLE>0.11141732758654439 0.8644097519546929 0.022857081809504156 0.0013158386492586685 0.5389246507515107 0.4237597961478762 0.03210602125452613 0.005209531846086869 0.030930857076455064 0.9349770816466809 0.03366806001654038 4.240012603237804E-4 0.3200239869804666 0.580473106526478 0.08887271183648214 0.01063019465657324 0.0012832377096439048 0.9958895570602014 0.002649677060298247 1.7752816985635818E-4 0.09549936953102704 0.808124383317835 0.09376524295633233 0.0026110041948055767 0.04523630708193631 0.9493676329668028 0.004971982024659483 4.2407792660151624E-4 0.15596953707670957 0.772368861791738 0.0658561411536133 0.005805459977939022 0.245492737199685 0.7419178178244138 0.010069419135821933 0.0025200258400792704 </TABLE>
</DEFINITION>

<DEFINITION>
	<FOR>SNTG1</FOR>
	<GIVEN>clustVar</GIVEN>
	<TABLE>0.07968297445227103 0.8886645447103533 0.031177736603983614 4.747442333919014E-4 0.5695958926613798 0.3939521985980506 0.031263987950932715 0.005187920789637006 0.03201438196461316 0.9139296146623409 0.05323048239619573 8.255209768503625E-4 0.9291355687709165 0.06283110414114847 0.005374176584104616 0.0026591505038303064 0.004082101117589937 0.9913908292946811 0.004349541402401286 1.7752818532760614E-4 0.0917026588407161 0.7755270697936527 0.12020029460468673 0.012569976760944557 0.04017538109882588 0.9515943015538846 0.00780624097989844 4.2407636739094184E-4 0.11727635908291083 0.8068542218942154 0.07014438491997088 0.005725034102902862 0.11822495470339826 0.8673684195292445 0.012606519766304506 0.0018001060010528246 </TABLE>
</DEFINITION>

<DEFINITION>
	<FOR>MNAT1</FOR>
	<GIVEN>clustVar</GIVEN>
	<TABLE>0.12237159605226425 0.8724734872674494 0.0042711168708060975 8.837998094802939E-4 0.6390202234779677 0.34340534785068333 0.015843859855707302 0.0017305688156416116 0.029631500661865463 0.92274082137271 0.04720382060931521 4.2385735610926103E-4 0.782676234411666 0.1959525166297039 0.013398560607401662 0.00797268835122837 0.001395271893699687 0.99203962033436 0.006387579602087528 1.775281698526716E-4 0.054086039015063606 0.7913413554295987 0.1416271226062018 0.01294548294913584 0.039243475607551745 0.9536336616759082 0.006698786699202916 4.240760173371092E-4 0.2517680771649881 0.7070937648970183 0.038968405352343485 0.0021697525856502293 0.3175494883700774 0.6590588729485714 0.022430465967075437 9.611727142758498E-4 </TABLE>
</DEFINITION>

<DEFINITION>
	<FOR>YTHDC2</FOR>
	<GIVEN>clustVar</GIVEN>
	<TABLE>0.15251909946259487 0.8240366760184976 0.02246736402891927 9.768604899880475E-4 0.6331775202591228 0.3160653988881262 0.04065242241229615 0.010104658440455005 0.1168955964738466 0.8391858283115321 0.0433546147542469 5.63960460374439E-4 0.7316342032901891 0.21198708226032664 0.03776619266475186 0.018612521784732328 0.030453312113652695 0.9671602231196105 0.002167233713493306 2.1923105324340775E-4 0.23617138332061513 0.6303283673586924 0.12312818698427756 0.010372062336415001 0.16270735217214444 0.828011205025469 0.008461002738748023 8.204400636385223E-4 0.2904755705576627 0.6108235834700374 0.08802473036711615 0.010676115605183752 0.3796733937377262 0.5982414165191622 0.02117201880547667 9.131709376349808E-4 </TABLE>
</DEFINITION>

<DEFINITION>
	<FOR>SRSF7</FOR>
	<GIVEN>clustVar</GIVEN>
	<TABLE>0.0922012735650352 0.8813377295219322 0.026012340998978138 4.4865591405450126E-4 0.5027068640980601 0.47388485470824987 0.02167085463977179 0.001737426553918259 0.05315433004911055 0.9081442839463715 0.03827754614678814 4.238398577297525E-4 0.4764662534361697 0.4418711658633622 0.06572615708902499 0.015936423611443103 0.027579772715794502 0.9690289594661735 0.0032137396481792826 1.7752816985266832E-4 0.17853586895199164 0.711577165796545 0.0969420624262541 0.012944902825209352 0.19945305851842376 0.7981530600920559 0.001969805460963665 4.2407592855672315E-4 0.20513698500384073 0.7285021601407723 0.06182256156699307 0.004538293288393976 0.4753854399235833 0.5110502934059957 0.012704162221081845 8.601044493391378E-4 </TABLE>
</DEFINITION>

<DEFINITION>
	<FOR>PDE4D</FOR>
	<GIVEN>clustVar</GIVEN>
	<TABLE>0.07769970012144324 0.9078427425650205 0.013560667831470455 8.968894820656963E-4 0.3039906808266777 0.6560784928917105 0.03128408271357648 0.008646743568035286 0.029632114353670594 0.9333522988981072 0.0365004702385181 5.151165097042035E-4 0.7394127199119844 0.2447050012556837 0.01322267560239029 0.002659603229941509 0.00445207049747107 0.991375219910271 0.003995181422071686 1.7752817018623087E-4 0.09761991679914046 0.7875796741793925 0.09473493319730318 0.020065475824163948 0.043037323504723224 0.9513357253015969 0.00519723023127651 4.2972096240333045E-4 0.2191854036226386 0.724858284099417 0.04813243951885868 0.007823872759085663 0.19825077171234193 0.7570733612545706 0.04026705197843975 0.004408815054647811 </TABLE>
</DEFINITION>

<DEFINITION>
	<FOR>SREK1</FOR>
	<GIVEN>clustVar</GIVEN>
	<TABLE>0.12356506203714208 0.8545208943537571 0.019943556918422034 0.0019704866906786536 0.3480339404143565 0.5489112892090251 0.08753465518897952 0.015520115187638897 0.11505382598928016 0.8534718373146198 0.030625129197946365 8.492074981534427E-4 0.6123925108249586 0.31454512606700685 0.054384849218649285 0.01867751388938516 0.023986810858798183 0.9729910816530101 0.0028445469265141183 1.7756056167770456E-4 0.19788742773542528 0.6771332047071754 0.11463072645105978 0.010348641106339544 0.09646563258544612 0.8958116715108853 0.007298586080043953 4.2410982362464563E-4 0.23742576134713705 0.6756998483582007 0.07369415556060487 0.01318023473405732 0.265954697020482 0.6998611975316011 0.02989264911656597 0.004291456331350994 </TABLE>
</DEFINITION>

<DEFINITION>
	<FOR>PPIP5K2</FOR>
	<GIVEN>clustVar</GIVEN>
	<TABLE>0.1370546139130118 0.7901404925404679 0.06895787564506432 0.0038470179014560967 0.5260471868255836 0.4258227976127873 0.03682318559292833 0.01130682996870084 0.0957548808754217 0.8703830219011782 0.032968432737453514 8.93664485946575E-4 0.7333007098551055 0.23683043462829187 0.017933904984231076 0.011934950532371381 0.02714482047404334 0.9698912852760678 0.0027847979464329952 1.7909630345599528E-4 0.19852327959037647 0.6576415780199123 0.1288359019066039 0.014999240483107398 0.14374086637369096 0.8519280117576415 0.003896965584156519 4.341562845110945E-4 0.252035618097662 0.6796076922482636 0.05823358412816898 0.010123105525905474 0.32587217613059527 0.6508599934886127 0.02022242058764126 0.0030454097931508213 </TABLE>
</DEFINITION>

<DEFINITION>
	<FOR>ROCK2</FOR>
	<GIVEN>clustVar</GIVEN>
	<TABLE>0.16696965088474122 0.8217061413030299 0.010875544578605725 4.4866323362329483E-4 0.6539311051782991 0.32940640240283925 0.011654171217201569 0.005008321201660086 0.0551798146893319 0.8970827371436076 0.04728140939622638 4.560387708342455E-4 0.7977806528334592 0.17824529821933632 0.02126484329688655 0.0027092056503179502 0.006875553603875552 0.9871124782919997 0.005834439934272061 1.775281698526686E-4 0.1419756509433399 0.7328155560539881 0.1202272804156819 0.00498151258699009 0.07390152006201164 0.9202592503799303 0.005415153629501293 4.240759285567288E-4 0.25835342190274474 0.6721108171228996 0.06308435414845524 0.0064514068259006 0.3499458444510492 0.6258087336426864 0.023042514652895602 0.001202907253368895 </TABLE>
</DEFINITION>

<DEFINITION>
	<FOR>KALRN</FOR>
	<GIVEN>clustVar</GIVEN>
	<TABLE>0.21712876417189705 0.7809605843237933 0.0014614729245148784 4.491785797947879E-4 0.690033819413266 0.30296972677088874 0.0052456803875230214 0.0017507734283222385 0.009989793682358541 0.9288817221092178 0.06070464687281515 4.2383733560854783E-4 0.915705443958521 0.07635291987684406 0.0026580916961572447 0.005283544468477621 0.0013354098670522927 0.9918933996748149 0.006593662288280175 1.7752816985266848E-4 0.0391245798520591 0.8135872985594946 0.1420979641960823 0.005190157392363975 0.020003790765471038 0.9722615064258899 0.007310626880073667 4.240759285651517E-4 0.28150075093505944 0.6633203970557233 0.05064812820002023 0.00453072380919707 0.25293681353162456 0.7345257383953633 0.011676729472118494 8.607186008935497E-4 </TABLE>
</DEFINITION>

<DEFINITION>
	<FOR>ARGLU1</FOR>
	<GIVEN>clustVar</GIVEN>
	<TABLE>0.002722673536513186 0.9921742007274122 0.004654468289105912 4.4865744696855476E-4 0.04596101814088764 0.8725243415228396 0.07507980400972468 0.00643483632654811 8.85143905738687E-4 0.9714024720159994 0.026867137190712414 8.452468875495665E-4 0.10165282355577586 0.7851039596416096 0.10792720874762489 0.005316008054989742 1.7752852542092214E-4 0.9971589759073924 0.0024859667989995567 1.7752876818706925E-4 0.002623641908816212 0.8280973445347671 0.15560551462542177 0.01367349893099486 0.0028358074698576975 0.9926022406616286 0.004137060169346522 4.2489169916722395E-4 0.007795502400024744 0.9386393055287965 0.05242834040208379 0.0011368516690950232 0.043394889546047186 0.9461544920866459 0.009590541636295089 8.600767310118021E-4 </TABLE>
</DEFINITION>

<DEFINITION>
	<FOR>RIMS2</FOR>
	<GIVEN>clustVar</GIVEN>
	<TABLE>0.08651695865815032 0.8974211751672981 0.015609915949075414 4.519502254761602E-4 0.7066632109187803 0.28517685650933133 0.006430160631656565 0.0017297719402320662 0.0029265969158157185 0.9435738219667162 0.052460226435167304 0.00103935468230065 0.9097464662924981 0.08493689708353931 0.0026585450422512936 0.002658091581711386 0.0014452225867862861 0.9915263266611608 0.006850922579747356 1.7752817230541257E-4 0.03700566091439808 0.7935140855461628 0.16046834158900977 0.009011911950429451 0.006724284497798396 0.9793780715975872 0.013472529427617473 4.2511447699705653E-4 0.13910253452120167 0.805114060875019 0.05153622717875072 0.004247177425028574 0.08903638989903438 0.8634322064904265 0.044681512048215986 0.0028498915623231236 </TABLE>
</DEFINITION>

<DEFINITION>
	<FOR>OLFM1</FOR>
	<GIVEN>clustVar</GIVEN>
	<TABLE>0.1558276687113747 0.8288160733054536 0.01452677126736659 8.294867158052424E-4 0.5969845748511343 0.399534150416058 0.0017305013044809994 0.0017507734283267276 0.007593296783938632 0.8409488287413026 0.14201021828527052 0.009447656189488141 0.8090411632258747 0.1803604790542869 0.00531481325136074 0.005283544468477621 0.0019720614050831595 0.9927719622306481 0.005078223489394305 1.7775287487452267E-4 0.022365994153281988 0.7831535426224823 0.17680988559651778 0.01767057762771824 0.016962504866369587 0.9663305088840367 0.015897434822883166 8.095514267105099E-4 0.1892827740844019 0.7202621773130501 0.08352395482484623 0.006931093777701789 0.33254166871855073 0.658362810070979 0.008221819331118903 8.737018793514963E-4 </TABLE>
</DEFINITION>

<DEFINITION>
	<FOR>HNRNPDL</FOR>
	<GIVEN>clustVar</GIVEN>
	<TABLE>0.0032953621262911703 0.9855106997511149 0.010744829541731197 4.491085808628043E-4 0.13986516923168876 0.8424383505098675 0.015966842925972387 0.0017296373324714085 0.001457510015563575 0.9586594674616947 0.03944161846229459 4.4140406044709064E-4 0.10258930647250429 0.7819285955981492 0.10219179483617782 0.013290303093168795 2.705865076032238E-4 0.9977463086680959 0.0018055766544482611 1.7752816985266843E-4 0.0033045741140108713 0.8562852060051407 0.13375163831626313 0.006658581564585315 0.0019835365090210017 0.9959983507324088 0.0015940368299915684 4.2407592857846086E-4 0.015578374616619407 0.8790835030202446 0.10376595973854895 0.0015721626245870373 0.04347143333363379 0.9511405897694307 0.004527900029909095 8.600768670262867E-4 </TABLE>
</DEFINITION>

<DEFINITION>
	<FOR>NAP1L1</FOR>
	<GIVEN>clustVar</GIVEN>
	<TABLE>0.06979270896843084 0.9135440281606982 0.016196460227215263 4.668026436558326E-4 0.5207927706510351 0.45290026351365437 0.02113878427346533 0.005168181561845147 0.04508000025520301 0.8995971810878406 0.054475307959042436 8.475106979139294E-4 0.6431323479627336 0.2913487718904031 0.05485503763410382 0.010663842512759467 0.006397559541684087 0.9857218164720164 0.007703067292548129 1.7755669375120367E-4 0.1268618050851934 0.776484452984179 0.07840192699112704 0.018251814939500545 0.07022506009763282 0.9270630264151303 0.002287834748580608 4.2407873865640957E-4 0.1429969273304288 0.732745081849761 0.11555075998894436 0.008707230830865916 0.24627275459755288 0.7349503605618682 0.017714278035398576 0.0010626068051801506 </TABLE>
</DEFINITION>

<DEFINITION>
	<FOR>TNRC6B</FOR>
	<GIVEN>clustVar</GIVEN>
	<TABLE>0.017631775790624818 0.9588281498314 0.02272868175981537 8.11392618159788E-4 0.23124805034187632 0.7167543607596394 0.048538491982332475 0.003459096916151695 0.014205050308121928 0.9616621745682792 0.023281690072676078 8.510850509229592E-4 0.41239724463975774 0.5292782960994696 0.050350215080701394 0.007974244180071397 0.0015845512997155443 0.99561352622072 0.002624375864791269 1.7754661477332274E-4 0.05640034477000275 0.850476853045012 0.08531894041905042 0.007803861765934831 0.00888450955555895 0.9807991685624968 0.009892242368046105 4.2407951389819733E-4 0.06768668327965692 0.8701864839930117 0.05490575851343077 0.00722107421390048 0.06365640969472368 0.8952752650259062 0.037796229153729106 0.0032720961256410986 </TABLE>
</DEFINITION>

<DEFINITION>
	<FOR>SLC12A5</FOR>
	<GIVEN>clustVar</GIVEN>
	<TABLE>0.10089595889832305 0.8674456123701818 0.03108697205861764 5.714566728773557E-4 0.9251442921730638 0.06299694378138468 0.010129227383857155 0.001729536661694429 0.08305437235365358 0.8677305196716121 0.04732464846321927 0.001890459511514912 0.94451576201183 0.05016805135011603 0.0026580950563488913 0.0026580915817051324 0.04324094386501694 0.9548050339747252 0.0017764873998697298 1.7753476038815446E-4 0.1691409135654504 0.7052728186918655 0.10911733317579851 0.016468934566885463 0.08856540045907853 0.8984314051301246 0.012301842009597769 7.013524011991963E-4 0.17327880920693622 0.678770734891546 0.13745215493049773 0.010498300971020103 0.2988222072706264 0.6548358837266273 0.04376360977358741 0.002578299229158719 </TABLE>
</DEFINITION>

<DEFINITION>
	<FOR>STXBP5L</FOR>
	<GIVEN>clustVar</GIVEN>
	<TABLE>0.1450244124123794 0.8500989013053348 0.0044279012987146725 4.4878498357117354E-4 0.8212270527476533 0.17009740182753633 0.0069459701992411645 0.0017295752255693901 0.02663890445245158 0.9213629598683007 0.05157336057283603 4.247751064116255E-4 0.9477306606212381 0.04417720881437524 0.0027760067654281624 0.005316123798958418 0.0013807793022237345 0.9868194764538413 0.011622216074082386 1.7752816985266843E-4 0.067065926722658 0.7999034045310996 0.10956045111925679 0.023470217626985566 0.020506668448690854 0.9719382646905529 0.007130367182540206 4.246996782160331E-4 0.2988638639908819 0.6799752624592689 0.020021301758261608 0.0011395717915877184 0.3062526663849129 0.680786155365562 0.010444222810832557 0.0025169554386926286 </TABLE>
</DEFINITION>

<DEFINITION>
	<FOR>KCNMA1</FOR>
	<GIVEN>clustVar</GIVEN>
	<TABLE>0.16959701783005698 0.8132478263979123 0.016706462863799478 4.4869290823144154E-4 0.530866432555392 0.44148278836308213 0.025921152302665788 0.0017296267788599951 0.04436810244786192 0.8777733442549098 0.07535160173990972 0.002506951557318681 0.8687285817584943 0.12593098589913776 0.002682340760661789 0.002658091581706102 0.004350681982740102 0.985980521080574 0.00949126514025648 1.7753179642946706E-4 0.09497087803358692 0.7664724844903242 0.12967120766025794 0.008885429815830969 0.01444617807535887 0.9664881196554684 0.01864162402046119 4.24078248711288E-4 0.30207179879134943 0.6179142031572054 0.07205484585527051 0.00795915219617474 0.25031450140943 0.725944201916499 0.021472655702272168 0.002268640971798667 </TABLE>
</DEFINITION>

<DEFINITION>
	<FOR>FBXW7</FOR>
	<GIVEN>clustVar</GIVEN>
	<TABLE>0.30267938407379535 0.6958229013185732 0.0010488194411384295 4.488951664929796E-4 0.7790274134270117 0.20932774877670698 0.006939881970027692 0.004704955826253518 0.00841619137611389 0.8589995491451867 0.1301838809252235 0.002400378553475815 0.8726197296864167 0.11677759151185588 0.005286529719122843 0.005316149082604668 0.0017534492646472074 0.9732817316357881 0.024719295038243872 2.4552406132095965E-4 0.028440616105742843 0.6572449257596699 0.2671734621732091 0.04714099596137815 0.0071579555910839905 0.9782121112315313 0.014205763672761888 4.241695046227816E-4 0.41941571432147595 0.5602363510949928 0.01805089891046271 0.0022970356730685764 0.43552087836005304 0.5467089190507616 0.016910124098492334 8.600784906931829E-4 </TABLE>
</DEFINITION>

<DEFINITION>
	<FOR>R3HDM1</FOR>
	<GIVEN>clustVar</GIVEN>
	<TABLE>0.0975291088636131 0.9007638773682713 0.0012583578076298591 4.4865596048567955E-4 0.6318305576271543 0.36471022922764346 0.0017295366436694377 0.0017296765015326558 0.0016054206467571003 0.9303304947076724 0.06764022175533825 4.2386289023235794E-4 0.7799545861113913 0.21472923072519423 0.0026580915817051415 0.0026580915817093305 2.3714871954297562E-4 0.9692567362336852 0.03032858687691915 1.7752816985266843E-4 0.006357880341325117 0.8235912528135565 0.15761694845543023 0.012433918389688124 0.002593046579985418 0.9931348182878578 0.0038480592036000995 4.2407592855677503E-4 0.24014864976741374 0.7559817871331744 0.0013939487320074483 0.002475614367404541 0.24040108575112137 0.7539215022480725 0.004804150674842871 8.732613259632175E-4 </TABLE>
</DEFINITION>

<DEFINITION>
	<FOR>PCDH9</FOR>
	<GIVEN>clustVar</GIVEN>
	<TABLE>0.11406904413941639 0.8801788218916894 0.005303477840154727 4.4865612873948974E-4 0.052591919558690185 0.8771243132092768 0.06682120754002548 0.0034625596920076196 0.0012245936089551282 0.9432596372549825 0.05509193321092547 4.2383592513704673E-4 0.1479461501186157 0.6570491822411515 0.16577101856717336 0.029233649073059552 3.773235834717261E-4 0.9922837511975064 0.007161397049168988 1.775281698526684E-4 0.014995449952652673 0.8285272671834009 0.14864876298645435 0.007828519877492144 0.0023740692568151346 0.9916907993043803 0.0055110555102479445 4.240759285567896E-4 0.21615592161434735 0.7499551573567608 0.029377946333037534 0.0045109746958544574 0.29393959900439703 0.6969848155765583 0.008215270292162052 8.603151268825929E-4 </TABLE>
</DEFINITION>

<DEFINITION>
	<FOR>TARBP1</FOR>
	<GIVEN>clustVar</GIVEN>
	<TABLE>0.045647033136055275 0.9416332843127861 0.012271026602730342 4.48655948428177E-4 0.4836590280278416 0.4945250792131482 0.02008482135999407 0.0017310713990160464 0.012335261679022215 0.9361478053888506 0.05074575112936474 7.711818027624648E-4 0.7153589687040146 0.27400750924269285 0.007975430471587533 0.002658091581705185 0.0012271840363331002 0.9924656251688183 0.006129662624995795 1.7752816985268515E-4 0.03652665887642527 0.7406681743611268 0.1990313954307207 0.023773771331727374 0.009182167284545078 0.9813762379000602 0.009017518886592382 4.240759288022823E-4 0.09983460578167541 0.8062122570819638 0.08742211602720266 0.006531021109158083 0.11930508958498073 0.8679431736589291 0.011684676311796136 0.0010670604442939021 </TABLE>
</DEFINITION>

<DEFINITION>
	<FOR>UNC80</FOR>
	<GIVEN>clustVar</GIVEN>
	<TABLE>0.026649203616890278 0.9560458550868902 0.01685626214840241 4.486791478171476E-4 0.5876618177703783 0.3834707797872183 0.02713786584341561 0.0017295365989878316 0.012378318539851175 0.9360810443991454 0.05103451546411439 5.0612159688903E-4 0.9346646497118002 0.057053616898074706 0.0056236418084199755 0.002658091581705132 6.19862245282116E-4 0.9863007558342418 0.012901853750620189 1.7752816985597213E-4 0.06135516709676739 0.7933871831439371 0.13281529465449277 0.012442355104802686 0.015308216382595765 0.9824758458034213 0.0017918618853958702 4.240759285869533E-4 0.1289426085121069 0.8063673840515558 0.06128639887460422 0.0034036085617329954 0.19097823845943168 0.790104909795678 0.01805671168878937 8.601400561006867E-4 </TABLE>
</DEFINITION>

<DEFINITION>
	<FOR>LINC00632</FOR>
	<GIVEN>clustVar</GIVEN>
	<TABLE>0.010308394378430327 0.985034324725575 0.00420860830370562 4.486725922890507E-4 0.6343815648790453 0.3591826624205142 0.004706236101453124 0.0017295365989874196 0.0019360387814893886 0.9535632087680102 0.04403073081879504 4.7002163170541047E-4 0.5944734735716753 0.40021010459551776 0.002658330251101751 0.002658091581705132 2.0628082751142907E-4 0.9356427324745139 0.06345041442482825 7.005722731463294E-4 0.03480597153493477 0.876112046538055 0.07900555265890262 0.01007642926810771 0.011285814302829664 0.985397484739158 0.0028702332664857157 4.464676915266699E-4 0.04048938163788158 0.9386608820491602 0.01971519279532219 0.0011345435176361009 0.11276501173528311 0.8812651553184211 0.005109756274542178 8.60076671753593E-4 </TABLE>
</DEFINITION>

<DEFINITION>
	<FOR>RBFOX1</FOR>
	<GIVEN>clustVar</GIVEN>
	<TABLE>0.1128215904329133 0.8644741350519819 0.022255094471618896 4.491800434858905E-4 0.7685905178895297 0.21723692040445558 0.012443025090497736 0.001729536615516873 0.012546937041784487 0.8800531455832715 0.10400309463101963 0.0033968227439243985 0.9274082035496692 0.05666840562243968 0.013265299246185872 0.002658091581705132 8.561495411689828E-4 0.9840477684648797 0.014917079833484018 1.7900216046730426E-4 0.05082534152868685 0.7986905171742297 0.1273140504395644 0.023170090857519164 0.035595982020433396 0.9562211367393282 0.0077567156261391474 4.261656140991186E-4 0.29195641966322594 0.6378704289484125 0.0670317624223651 0.0031413889659963556 0.3155749537056966 0.664209032503572 0.0174181619865155 0.0027978518042158585 </TABLE>
</DEFINITION>

<DEFINITION>
	<FOR>TCERG1</FOR>
	<GIVEN>clustVar</GIVEN>
	<TABLE>0.05754420795800433 0.9221324057898119 0.0198747293043772 4.4865694780663973E-4 0.47593879806060074 0.48771869015395125 0.034612974889374974 0.0017295368960731853 0.019344492109162493 0.9298907112071246 0.05034043194441609 4.243647392968002E-4 0.6797717752205079 0.293521717063688 0.021390324613865558 0.0053161831019384485 0.0027715691271905955 0.9935631934966586 0.003487709206298228 1.7752816985271952E-4 0.060147635101059194 0.7432529075484626 0.18624478737158606 0.01035466997889195 0.03009663400659851 0.9607053139414654 0.008773852005520805 4.242000464152008E-4 0.2045252157560722 0.7144467674054739 0.07875433861153876 0.002273678226915102 0.15661605929238911 0.812268580085044 0.027679344480164722 0.0034360161424020173 </TABLE>
</DEFINITION>

<DEFINITION>
	<FOR>RBM25</FOR>
	<GIVEN>clustVar</GIVEN>
	<TABLE>0.013571799205805224 0.9746772565665437 0.011302287119598468 4.4865710805270674E-4 0.1980872731966424 0.7777394686797453 0.02244359268714593 0.0017296654364663587 0.004310308435447405 0.9543427007223189 0.04052017476446011 8.268160777735125E-4 0.27389820349573235 0.6884578549765198 0.0323279562155931 0.0053159853121549 2.097277148915223E-4 0.9956502277607784 0.003955309585132072 1.8473493919789864E-4 0.03688181866514347 0.8018003286454028 0.14370050494964937 0.017617347739804366 0.003320543491352857 0.9930276679097824 0.003224047982933567 4.277406159312646E-4 0.04095168277604059 0.8904785906572871 0.06381137238411794 0.004758354182554278 0.06076712649014478 0.9018727306316542 0.036498900951690845 8.612419265100934E-4 </TABLE>
</DEFINITION>

<DEFINITION>
	<FOR>WDR60</FOR>
	<GIVEN>clustVar</GIVEN>
	<TABLE>0.09235939147731795 0.8876148013148734 0.019576881535941972 4.4892567186675627E-4 0.37736823695837207 0.5706822217845958 0.041974550426420294 0.00997499083061178 0.052411672330922796 0.9108289333287378 0.03620332460892625 5.560697314130238E-4 0.7648381322220663 0.2198616047484702 0.01202437968266467 0.003275883346798827 0.00302109417853156 0.9911093438450477 0.005692033806149121 1.7752817027165193E-4 0.17024770329255495 0.6606331299261498 0.1490046308350095 0.020114535946285882 0.04305195767861919 0.9357758305319935 0.020748070715409336 4.2414107397805123E-4 0.2676548507723743 0.6794939330750802 0.04979795820021268 0.003053257952332848 0.2402572450753474 0.7004411981715918 0.053085645216463105 0.006215911536597704 </TABLE>
</DEFINITION>

<DEFINITION>
	<FOR>DDX5</FOR>
	<GIVEN>clustVar</GIVEN>
	<TABLE>0.0049479307366413535 0.9766919145527454 0.017911052450677936 4.4910225993534587E-4 0.05462039182542474 0.8239007320285695 0.11456644058065411 0.006912435565351461 0.0023612735208056322 0.9516071971263065 0.044511477000580814 0.001520052352307075 0.12105814001642161 0.7490427994383339 0.111283642437099 0.01861541810814565 1.8670321641977826E-4 0.9931537723574201 0.00648199593159805 1.7752849456205414E-4 0.010613479657271538 0.7574096423134934 0.21525113022229184 0.016725747806943154 0.0034140024165043113 0.9914926836529601 0.004668584256784232 4.2472967375150483E-4 0.023565987691291042 0.8790987101927508 0.08718178043248959 0.010153521683468565 0.06648687854881068 0.9288265792279893 0.0038252272421294004 8.613149810706322E-4 </TABLE>
</DEFINITION>

<DEFINITION>
	<FOR>HERC1</FOR>
	<GIVEN>clustVar</GIVEN>
	<TABLE>0.056944377402994184 0.9247061972958538 0.017898351608469955 4.51073692681955E-4 0.480679329947416 0.4779261269894846 0.034481035309663885 0.006913507753435532 0.019358677474835585 0.9150204050605101 0.06450436096693223 0.001116556497722242 0.5385295662845445 0.4164013221150985 0.03708750320878763 0.007981608391569214 0.0012050407683796805 0.9908305884148745 0.007784363499644138 1.800073171016686E-4 0.04975477623217038 0.7834479103991134 0.1374284030799059 0.029368910288810494 0.010834650415215044 0.9690916391395846 0.019372815541570457 7.008949036299511E-4 0.16772973884761144 0.7724343504544294 0.058309203701279795 0.0015267069966793001 0.17415349761971916 0.7879825343644529 0.03614014514152168 0.0017238228743062618 </TABLE>
</DEFINITION>

<DEFINITION>
	<FOR>PAICSP4</FOR>
	<GIVEN>clustVar</GIVEN>
	<TABLE>0.15170323804306288 0.8236941195109722 0.02216575322812102 0.002436889217843942 0.3550972457811937 0.6092664473632635 0.028817975212328654 0.006818331643214113 0.07081341933406261 0.895806392950552 0.03128329337154161 0.0020968943438438217 0.4045640743630799 0.5898729276227896 0.0029048665574079357 0.0026581314567225675 0.012400728056960663 0.968541737733558 0.018879938889595216 1.7759531988609432E-4 0.11253429063552564 0.803911164250497 0.07616046887656902 0.007394076237408399 0.030829165556767582 0.951035550410319 0.017572158485991557 5.631255469217792E-4 0.26617740795698824 0.6957216131426309 0.03568603278957163 0.0024149461108092804 0.15881581828265606 0.8095845453721741 0.029564678944118784 0.002034957401051005 </TABLE>
</DEFINITION>

<DEFINITION>
	<FOR>PWARSN</FOR>
	<GIVEN>clustVar</GIVEN>
	<TABLE>0.04189841576694507 0.9237759833553403 0.03364748638753334 6.781144901814109E-4 0.6113198792289523 0.35904427789236454 0.024449116746374462 0.0051867261323087195 0.0523004964776316 0.8906767811464019 0.0551349911382843 0.0018877312376821118 0.7776176061151052 0.1987568287858398 0.018310118140698765 0.005315446958356232 0.0068442847334343184 0.9815080956978134 0.011470091348016699 1.7752822073558358E-4 0.21865613408420861 0.6947587773903792 0.08133284095186778 0.005252247573544537 0.027152330417726498 0.9649997016082151 0.007423882398563528 4.240855754947352E-4 0.14844612915823507 0.7670417434029767 0.07883109372326834 0.005681033715519835 0.08715409978268619 0.8811256724845937 0.03086013124445629 8.600964882638141E-4 </TABLE>
</DEFINITION>

<DEFINITION>
	<FOR>MPHOSPH8</FOR>
	<GIVEN>clustVar</GIVEN>
	<TABLE>0.009300854102560761 0.9771808529160747 0.013067214328889305 4.510786524751697E-4 0.234949337945298 0.7328528157488882 0.030459122524772012 0.001738723781041884 8.414101848135729E-4 0.9408857986422935 0.05784880836860846 4.2398280428458315E-4 0.3786761779615239 0.5894385757113367 0.029227154745434265 0.002658091581705145 7.28532999457614E-4 0.9969126839763114 0.0021812548543776334 1.775281698533139E-4 0.050070655403819955 0.756261213355873 0.17118733115602916 0.022480800084277944 0.0021407279899807764 0.9864319089291959 0.011003047066556675 4.243160142666045E-4 0.044725943791597236 0.8742251161369522 0.07515207429118786 0.005896865780262649 0.04391921489372976 0.8603586339601449 0.08874882144959302 0.00697332969653239 </TABLE>
</DEFINITION>

<DEFINITION>
	<FOR>SRSF11</FOR>
	<GIVEN>clustVar</GIVEN>
	<TABLE>0.00347397295770316 0.9870410015860488 0.009036369544503096 4.486559117449985E-4 0.2005305019014926 0.7662262845016735 0.0297848052854188 0.0034584083114151828 0.002150845517522681 0.9528731048496673 0.044552213796159285 4.2383583665067827E-4 0.21854686241887356 0.6887017791870542 0.07945987863416253 0.013291479759909677 1.8615142755139767E-4 0.9961316532439651 0.003504667158630783 1.7752816985266843E-4 0.008088337726525795 0.7999597857010805 0.1764176951252763 0.015534181447117391 0.0029640138800059177 0.9887863322267849 0.00782557796465261 4.240759285567233E-4 0.03763077342797335 0.886339900074758 0.07376017015971467 0.0022691563375540178 0.04531566629063461 0.9338017225014131 0.020022534465009064 8.60076742942982E-4 </TABLE>
</DEFINITION>

<DEFINITION>
	<FOR>UCHL1</FOR>
	<GIVEN>clustVar</GIVEN>
	<TABLE>0.009203606267004729 0.9573862088239421 0.03295485377687672 4.553311321764706E-4 0.664388818629556 0.3225322576166155 0.011349387129835025 0.0017295366239932523 0.0013656941405444057 0.8980841415947874 0.09621616095069187 0.004334003313976321 0.7204752670280218 0.2635345366294326 0.013332104760840643 0.002658091581705142 3.802571233625871E-4 0.9847589659829461 0.014683074485471037 1.7770240822026273E-4 0.006715203321883859 0.8307339787274393 0.14670785729934646 0.01584296065133032 0.010621911245703863 0.9849447616780552 0.0037609847226423923 6.723423535987611E-4 0.02504733552247449 0.848055255105978 0.1222981479345924 0.004599261436955195 0.0810292776972513 0.913878787101741 0.004231857851491988 8.600773495155812E-4 </TABLE>
</DEFINITION>

<DEFINITION>
	<FOR>TTC14</FOR>
	<GIVEN>clustVar</GIVEN>
	<TABLE>0.05553126253706523 0.9137625125812703 0.029757762294637946 9.4846258702632E-4 0.33199227460786307 0.579568993999024 0.07981824473532641 0.008620486657786674 0.0337602180741699 0.9078879383343761 0.057475233119382046 8.766104720720385E-4 0.5085876663860981 0.3879353716705054 0.09014469347371934 0.013332268469677167 0.002392771239763384 0.988177270026855 0.009252430534032763 1.7752819934893627E-4 0.07230054786288397 0.7623911538402477 0.1302749823052802 0.03503331599158817 0.03488195685148345 0.9595112758030814 0.00518172175613117 4.25045589303905E-4 0.1414183182696591 0.73675274137862 0.1141767508256721 0.007652189526048852 0.20037884499155012 0.7667223650003937 0.03157480007311241 0.0013239899349439378 </TABLE>
</DEFINITION>

<DEFINITION>
	<FOR>LOC100128906</FOR>
	<GIVEN>clustVar</GIVEN>
	<TABLE>4.487091195429059E-4 0.9946129303125669 0.004485912046105555 4.5244852178458547E-4 0.0017295365989874198 0.9570781207702508 0.03946199564529484 0.0017303469854669914 4.238374391897568E-4 0.9974345672777762 0.0017173250050187055 4.2427027801538624E-4 0.002658091581705132 0.9352227572450088 0.05680421347729214 0.005314937695993999 1.7752816985315E-4 0.9974455559660808 0.002199387003627347 1.7752886043859338E-4 0.002589057773089089 0.9288014305666766 0.06341400374845996 0.005195507911774244 8.456792516359756E-4 0.9433501593004446 0.054553109421335705 0.0012510520265838472 0.0011345436256636617 0.9928317425341316 0.004898619260590634 0.0011350945796140576 8.649856927646842E-4 0.8693010088450581 0.12894533342534492 8.886720368322098E-4 </TABLE>
</DEFINITION>

<DEFINITION>
	<FOR>ATP2B1</FOR>
	<GIVEN>clustVar</GIVEN>
	<TABLE>0.05446788906684094 0.933713440501928 0.010924402207163677 8.942682240674095E-4 0.5463127120953294 0.4415775784167182 0.010380151146273922 0.001729558341678508 0.001197879673097983 0.8130330369724306 0.18484006917014645 9.29014184324911E-4 0.6948569497232984 0.28389335919612974 0.018591599498866716 0.0026580915817051454 2.734684730185631E-4 0.973017264494782 0.026531738862277724 1.775281699216906E-4 0.012032148065958452 0.7474809865520436 0.20210840044939174 0.038378464932606056 0.002663121759445169 0.9894374550810826 0.0074747319440541795 4.246912154178667E-4 0.08350012456091631 0.8050229515083966 0.10354734164004088 0.007929582290646256 0.09497098337731792 0.8902907404205914 0.013877482133494797 8.607940685959062E-4 </TABLE>
</DEFINITION>

<DEFINITION>
	<FOR>ZRANB2</FOR>
	<GIVEN>clustVar</GIVEN>
	<TABLE>0.00685844570073113 0.9851035074626766 0.007589390924647955 4.486559119443137E-4 0.1957630743161598 0.7782622067546907 0.024245182326274248 0.0017295366028752973 0.0024925311281530902 0.9396986818811299 0.05738494797880515 4.23839011911748E-4 0.3298851400731828 0.6275725162552197 0.03988425208989239 0.0026580915817051324 1.7753143849819677E-4 0.998116849261602 0.0015280911300469444 1.775281698526684E-4 0.007006866892018505 0.7586700821665471 0.22394654607359074 0.010376504867843729 4.833852849795085E-4 0.9938126705880875 0.005279868198376159 4.2407592855673876E-4 0.026437657681231966 0.8975938258011348 0.07369097312787591 0.0022775433897574194 0.04677923554191609 0.9040724571613153 0.04744130741067024 0.001706999886098179 </TABLE>
</DEFINITION>

<DEFINITION>
	<FOR>MAP2</FOR>
	<GIVEN>clustVar</GIVEN>
	<TABLE>0.001493415579607896 0.9360148490865754 0.06201577958341722 4.7595575039940014E-4 0.45381700138159 0.520163070741994 0.02266381802719881 0.0033561098492172867 0.0020390568106945397 0.9326150146370398 0.06324351487009788 0.0021024136821678084 0.8253393844409278 0.16364351862824358 0.008040202708972162 0.002976894221856498 2.1231283486014018E-4 0.9861780523101072 0.013432096381177186 1.7753847385542832E-4 0.019170588148960287 0.8307283597086809 0.1294192318020469 0.0206818203403119 0.004309996288599269 0.9937819124860056 0.0014824753528606663 4.256158725343972E-4 0.018766227862490693 0.8420673091054101 0.13017199893664183 0.00899446409545741 0.026372502286824643 0.9473543779910693 0.02369407661366781 0.002579043108438296 </TABLE>
</DEFINITION>

<DEFINITION>
	<FOR>GPM6A</FOR>
	<GIVEN>clustVar</GIVEN>
	<TABLE>0.0066204938831751865 0.9341186191846641 0.0573905554745809 0.0018703314575797458 0.0892449848014417 0.8335793309177292 0.06828447174475057 0.008891212536078795 4.3144972476080013E-4 0.9024080491979384 0.09321190623440656 0.0039485948428942975 0.732816206187616 0.2556910213406416 0.008834659324890557 0.0026581131468519604 1.7753558203713232E-4 0.9950641809152643 0.004580754986797699 1.77528515900663E-4 0.002589257197253599 0.8420086115943829 0.12788794468294656 0.027514186525416904 0.0018559024066381832 0.994009569188457 0.0037099079058391256 4.24620499065854E-4 0.006224381964572415 0.7060398868030757 0.25636999463038007 0.031365736601971804 0.03360312366486703 0.935830571742902 0.02876049875798615 0.0018058058342447774 </TABLE>
</DEFINITION>

<DEFINITION>
	<FOR>NCOR1</FOR>
	<GIVEN>clustVar</GIVEN>
	<TABLE>0.08693603318870523 0.8715154256991495 0.04038568252036759 0.0011628585917777088 0.3620884961919847 0.5361597522815841 0.08792011605258959 0.013831635473841657 0.042429349703981045 0.8755153309748821 0.08044100517182051 0.0016143141493164678 0.49890371436537306 0.4105826314470241 0.07455785891692852 0.015955795270674398 0.0112129795046661 0.98265063631532 0.005762680314955287 3.7370386505842677E-4 0.1426943227593959 0.7059886374653622 0.14352355125450142 0.007793488520740446 0.06892535171641624 0.9190974433669448 0.011550119040258607 4.270858763803561E-4 0.1900725297846245 0.6879160656639837 0.11447018325885765 0.0075412212925340845 0.2259721457918088 0.7188867675293714 0.04840664185190575 0.0067344448269140295 </TABLE>
</DEFINITION>

<DEFINITION>
	<FOR>SRSF5</FOR>
	<GIVEN>clustVar</GIVEN>
	<TABLE>0.0044931239131123695 0.9645039383863346 0.03055428133830173 4.486563622511784E-4 0.0750438618348569 0.8533267115167275 0.0664407262889137 0.005188700359502039 0.004737448184110088 0.9171315365880415 0.0771851859998709 9.458292279776152E-4 0.11157226997204917 0.830889230914705 0.04690627197025306 0.010632227142992806 3.724424561636622E-4 0.9712045811215846 0.028245447927694727 1.775284945570475E-4 0.023734227954935298 0.8563874074571882 0.1023545836688694 0.0175237809190071 0.008825836306444642 0.9900989025813229 6.511851826607837E-4 4.240759295717519E-4 0.020449358283027574 0.8686005680484781 0.10754650568494688 0.003403567983547463 0.0742610506927741 0.9225055815116298 0.002373243723421055 8.601240721750223E-4 </TABLE>
</DEFINITION>

<DEFINITION>
	<FOR>DNM1</FOR>
	<GIVEN>clustVar</GIVEN>
	<TABLE>0.02809774101363257 0.9110533484619516 0.0591686677433659 0.0016802427810500187 0.7432126223396094 0.24663646385728574 0.00842123729876521 0.0017296765043395895 0.009927943926064864 0.8607987383295368 0.12454400511140869 0.004729312632989635 0.8898188573014939 0.10208438336501534 0.002780576171645162 0.005316183161845503 8.873348402684404E-4 0.9856425653884098 0.013290926373545894 1.7917339777566394E-4 0.04503861910247855 0.7373109181870552 0.1968618076910018 0.020788655019464516 0.004659424838047269 0.9628252886720692 0.031685181782245234 8.301047076383078E-4 0.08650855497648507 0.7936515828252596 0.10215591013813244 0.017683952060122778 0.09103243240662619 0.875244857314879 0.030700818857953602 0.003021891420541173 </TABLE>
</DEFINITION>

<DEFINITION>
	<FOR>TTC3</FOR>
	<GIVEN>clustVar</GIVEN>
	<TABLE>0.0021992399712180474 0.9733279740013815 0.023969244674717484 5.03541352682891E-4 0.2201578174166368 0.7356360325804626 0.04247573695904401 0.0017304130438566547 0.003248579689963603 0.9459626667141536 0.050363777435630475 4.2497616025226256E-4 0.4294030309731631 0.5589604700963072 0.0036633522280761356 0.007973146702453337 1.776840959238544E-4 0.9931076662763862 0.006537121457837249 1.775281698526684E-4 0.00977352809381658 0.7986572773123426 0.18125435444386845 0.010314840149972433 9.909931933036165E-4 0.9883096932596397 0.010275231087515442 4.240824595412934E-4 0.01601262703226902 0.8567853232366198 0.12146553102737105 0.005736518703739963 0.020098719064216838 0.933867723530848 0.04187540600865943 0.00415815139627566 </TABLE>
</DEFINITION>

<DEFINITION>
	<FOR>CSTF3</FOR>
	<GIVEN>clustVar</GIVEN>
	<TABLE>0.16010881461333007 0.8029490210009402 0.036483257960786664 4.5890642494283946E-4 0.6149995228047745 0.33817040585483893 0.03926502256685918 0.007565048773527348 0.040065058178128304 0.7938726539010146 0.16155108060947815 0.004511207311379102 0.7405615491719474 0.19493319032062387 0.0415766480894617 0.02292861241796699 0.017359995091284743 0.9667008138321834 0.015704569315312313 2.3462176121956087E-4 0.1856792100364468 0.5616314546705322 0.21791009958408844 0.03477923570893255 0.1632205331019707 0.8145713039124746 0.02140204112687689 8.061218586777469E-4 0.18527494569453073 0.6639188817077114 0.13861522008352242 0.01219095251423549 0.44872040354097054 0.517878993303274 0.03173852185981647 0.0016620812959389293 </TABLE>
</DEFINITION>

<DEFINITION>
	<FOR>GRIA2</FOR>
	<GIVEN>clustVar</GIVEN>
	<TABLE>4.5202540010444404E-4 0.9586660544367759 0.03954283693289212 0.001339083230227616 0.05705211403418609 0.8976304252018841 0.038399381050809256 0.006918079713120535 4.2384531962315363E-4 0.8620006544085577 0.13695872617422156 6.167740975977005E-4 0.41413593732849685 0.5719334399256255 0.01127242868058603 0.002658194065291481 1.775281698526684E-4 0.966126663354513 0.033518280305160505 1.775281704737889E-4 0.005163003629950526 0.6291590332901744 0.34096607510628935 0.024711887973585776 4.240772491365866E-4 0.9944072665496525 0.004744580257521231 4.240759436896052E-4 0.0024218567812534556 0.8429315577661725 0.14895645524998552 0.005690130202588489 0.012105345622057496 0.9661352492892894 0.020899301178415163 8.601039102379077E-4 </TABLE>
</DEFINITION>

<DEFINITION>
	<FOR>ARPP21</FOR>
	<GIVEN>clustVar</GIVEN>
	<TABLE>0.6227005498855274 0.35650554888477837 0.019741954408039587 0.0010519468216547128 0.6295005373655225 0.3463143837804676 0.01901223864770901 0.005172840206300867 0.006436728351081092 0.7513346836110204 0.22491370319021878 0.01731488484767974 0.7817970316103067 0.21284714781005343 0.002673458324854399 0.0026823622547854117 0.0028848284028047282 0.9182002068165502 0.07861316310526224 3.018016753827152E-4 0.014071816184309267 0.6372019467035414 0.2991377709054592 0.049588466206690204 0.03974853168979956 0.905377352884538 0.0539879818644073 8.861335612551749E-4 0.4836991462316752 0.4745434817373407 0.04042423284798479 0.0013331391829994358 0.4532994053045378 0.517695576326629 0.02153543929602641 0.0074695790728069355 </TABLE>
</DEFINITION>

<DEFINITION>
	<FOR>LUC7L3</FOR>
	<GIVEN>clustVar</GIVEN>
