<?xml version="1.0" encoding="ISO-8859-1"?>
<!-- This network was created in GeNIe Academic, which can be used for educational and research purposes only -->
<smile version="1.0" id="Sub0" numsamples="10000" discsamples="10000">
	<nodes>
		<cpt id="clustVar">
			<state id="state0" />
			<state id="state1" />
			<state id="state2" />
			<state id="state3" />
			<state id="state4" />
			<state id="state5" />
			<state id="state6" />
			<state id="state7" />
			<state id="state8" />
			<state id="state9" />
			<probabilities>0.07911570079115701 0.0233297402332974 0.1463645214636452 0.07238017072380171 0.1405443914054439 0.0347173703471737 0.1050856610508566 0.0275309302753093 0.3473029234730293 0.02362859023628591</probabilities>
		</cpt>
		<cpt id="x3324">
			<state id="x0" />
			<state id="low" />
			<state id="medium" />
			<state id="high" />
			<parents>clustVar</parents>
			<probabilities>0.1553888524 0.8430288001 0.000791173 0.0007911745 0.4081675570000001 0.5864963510000001 0.002667880000000001 0.002668212000000001 0.3074710858 0.6916726598 0.0004281266 0.0004281278 0.649524494 0.3487454394 0.0008646068 0.0008654598 0.6498436330350156 0.3492647024650735 0.0004458321999554167 0.0004458322999554167 0.699440948 0.296964034 0.001797509 0.001797509 0.331498059 0.667309943 0.0005959990000000001 0.0005959990000000001 0.4378431444378431 0.5553687945553688 0.002263529002263529 0.004524532004524532 0.4257325157574267 0.5739063634426094 0.000180560399981944 0.000180560399981944 0.547943103 0.446788089 0.002634404 0.002634404</probabilities>
		</cpt>
		<cpt id="x26038">
			<state id="x0" />
			<state id="low" />
			<state id="medium" />
			<state id="high" />
			<parents>clustVar</parents>
			<probabilities>0.0898299588 0.8974668151 0.0119009696 0.0008022565 0.2319980123199801 0.6693194766931948 0.07264279072642792 0.0260397202603972 0.01962625780196263 0.9679034504967904 0.01202437620120244 0.0004459155000445916 0.08533511408533513 0.8384025108384026 0.06922574306922576 0.007036632007036633 0.009530533000000001 0.966753881 0.022394066 0.00132152 0.9613079919999999 0.034911946 0.001966095 0.001813967 0.0235063916 0.9719394285 0.0039118936 0.0006422863 0.06115121400000002 0.8291437970000002 0.102927021 0.006777968000000001 0.003345805400000001 0.9949898073000002 0.001483819500000001 0.0001805678 0.937311307 0.057419885 0.002634404 0.002634404</probabilities>
		</cpt>
		<cpt id="x9456">
			<state id="x0" />
			<state id="low" />
			<state id="medium" />
			<state id="high" />
			<parents>clustVar</parents>
			<probabilities>0.5873240489 0.3952030106 0.0166714683 0.0008014722 0.742905091 0.211397255 0.037615265 0.008082389000000001 0.1760825178239175 0.7302717612697281 0.08624846591375153 0.007397254992602745 0.625154051 0.360592515 0.010814159 0.003439275 0.2335269368233527 0.745490787674549 0.02009484990200949 0.0008874256000887426 0.8701071628701073 0.1117418101117418 0.01456635301456636 0.003584674003584674 0.4574522408 0.5386366435 0.0032865141 0.0006246016 0.2363946476360536 0.5740777942592221 0.1578794384212056 0.03164811968351881 0.047642032 0.924353703 0.027520151 0.000484114 0.927733775 0.06695419399999999 0.002662453 0.002649578</probabilities>
		</cpt>
		<cpt id="x334">
			<state id="x0" />
			<state id="low" />
			<state id="medium" />
			<state id="high" />
			<parents>clustVar</parents>
			<probabilities>0.04449327 0.70859568 0.21746709 0.02944396 0.3359203 0.53740951 0.08744995999999999 0.03922023 0.1260002398739998 0.8474769851525229 0.02524716897475283 0.001275605998724394 0.2734562 0.7134596370000001 0.011951455 0.001132708 0.2115945903000001 0.7864178042000002 0.001541110800000001 0.0004464947000000001 0.6640891090000001 0.308356861 0.02415154500000001 0.003402485000000001 0.05424687300000001 0.8822936750000002 0.06128298900000002 0.002176463 0.250439336 0.711389538 0.035589831 0.002581295 0.05727099340000001 0.9404592612000002 0.0020891363 0.0001806091 0.74913519 0.21488651 0.027792922 0.008185378</probabilities>
		</cpt>
		<cpt id="x6138">
			<state id="x0" />
			<state id="low" />
			<state id="medium" />
			<state id="high" />
			<parents>clustVar</parents>
			<probabilities>0.169874271 0.7164390660000001 0.107157414 0.006529249000000002 0.3755992662440074 0.5007725849922742 0.09760404902395951 0.02602409973975901 0.134417492 0.809847434 0.054477268 0.001257806 0.4178078008 0.56758287 0.0136606629 0.0009486663 0.289617525 0.7041215162 0.0058131154 0.0004478434 0.649220272 0.323779038 0.020139001 0.006861689 0.1898776291189878 0.7836376005783637 0.02587911170258791 0.0006056586000605659 0.2789653372103467 0.6199711938002881 0.08703888912961111 0.0140245798597542 0.09553977170955398 0.9015813300901581 0.002532238300253224 0.000346659900034666 0.623174662 0.329956516 0.044224463 0.002644359</probabilities>
		</cpt>
		<cpt id="x23253">
			<state id="x0" />
			<state id="low" />
			<state id="medium" />
			<state id="high" />
			<parents>clustVar</parents>
			<probabilities>0.041498294 0.832891253 0.119885231 0.005725222 0.19694367 0.68607901 0.10138484 0.01559248 0.05597503700000001 0.9286931140000002 0.01490372 0.0004281290000000001 0.106788555 0.8762250260000002 0.015358433 0.001627986000000001 0.065891561 0.9310969213 0.0025656855 0.0004458322 0.31125556 0.64375384 0.03348257 0.01150803 0.022568172 0.972692923 0.004118688 0.0006202169999999999 0.153126025846874 0.763253997236746 0.07909024492090976 0.004529731995470267 0.0120908526 0.9873140396 0.0004145474 0.0001805604 0.32413871 0.5732325700000001 0.09053113 0.01209759</probabilities>
		</cpt>
		<cpt id="x94081">
			<state id="x0" />
			<state id="low" />
			<state id="medium" />
			<state id="high" />
			<parents>clustVar</parents>
			<probabilities>0.337570308 0.620897779 0.037083564 0.004448349 0.5566818899999999 0.37273355 0.05342236999999998 0.01716219 0.178334214 0.786139353 0.034494154 0.001032279 0.4562685599999999 0.5195224079999999 0.021650327 0.002558705 0.2427437304000001 0.7524612296000002 0.004121886700000001 0.0006731533000000001 0.57914352 0.36554431 0.04521789 0.01009428 0.237863742 0.749154742 0.011906387 0.001075129 0.3011047023011048 0.6186624296186625 0.07040425707040426 0.009828611009828611 0.07071100230000001 0.9254673136 0.0036410977 0.0001805864 0.73498379 0.21720702 0.0259376 0.02187159</probabilities>
		</cpt>
		<cpt id="x54843">
			<state id="x0" />
			<state id="low" />
			<state id="medium" />
			<state id="high" />
			<parents>clustVar</parents>
			<probabilities>0.7725492749227451 0.2201988885779801 0.006319436199368057 0.0009324002999067599 0.723133955723134 0.2403437742403438 0.03382499203382499 0.002697278002697278 0.131143498 0.811040914 0.056565565 0.001250023 0.697167866 0.2952512 0.004643853 0.002937081 0.1446319477 0.846265468 0.0086494452 0.0004531391 0.7902639140000002 0.1919508630000001 0.012406904 0.005378319000000001 0.5837496918 0.4125686369 0.0030847662 0.0005969051 0.18238467 0.67442718 0.12173939 0.02144876 0.0582230835941777 0.934450482106555 0.007145873899285413 0.000180560399981944 0.78846039 0.17463287 0.02634831 0.01055843</probabilities>
		</cpt>
		<cpt id="x3274">
			<state id="x0" />
			<state id="low" />
			<state id="medium" />
			<state id="high" />
			<parents>clustVar</parents>
			<probabilities>0.3031872123031872 0.6690885196690886 0.02597626502597626 0.001748003001748003 0.5566146710000001 0.3835289430000001 0.05241779400000001 0.007438592000000002 0.04895635599999999 0.8946113769999998 0.05550238899999999 0.0009298779999999998 0.4592735905000001 0.5265442919000001 0.0133160795 0.0008660381000000002 0.1324821311 0.8552839642 0.0117880658 0.0004458389 0.9702635729702637 0.02423161102423161 0.003707307003707307 0.001797509001797509 0.4580194234 0.5336004942 0.0077840791 0.0005960033 0.17437888 0.66671988 0.14797118 0.01093006 0.0178757455 0.9757088576 0.0062348365 0.0001805604 0.938213512 0.053851054 0.00530103 0.002634404</probabilities>
		</cpt>
		<cpt id="x221692">
			<state id="x0" />
			<state id="low" />
			<state id="medium" />
			<state id="high" />
			<parents>clustVar</parents>
			<probabilities>0.461569121 0.51115503 0.022850488 0.004425361 0.6717162567171626 0.2821118528211186 0.03498935034989351 0.0111825401118254 0.180245339 0.769088499 0.048954879 0.001711283 0.4583911494583912 0.5257451615257452 0.01311422501311423 0.002749464002749464 0.192471647 0.792457394 0.014618211 0.000452748 0.6604773106604773 0.3189205253189206 0.01880465501880466 0.001797509001797509 0.394120448 0.601834568 0.002856333 0.001188651 0.25105078 0.61536344 0.11541894 0.01816684 0.0322574657 0.958369498 0.009192099 0.0001809373 0.784120491 0.193364467 0.019880638 0.002634404</probabilities>
		</cpt>
		<cpt id="x6000">
			<state id="x0" />
			<state id="low" />
			<state id="medium" />
			<state id="high" />
			<parents>clustVar</parents>
			<probabilities>0.263722603 0.655525963 0.07370369 0.007047744 0.5803493741965063 0.3436182865638172 0.06033355939666441 0.0156987798430122 0.1317484742131748 0.8259959448825996 0.04179908110417991 0.00045649980004565 0.5260019566 0.4580742297 0.0149322958 0.0009915179 0.2682872357 0.7257558907 0.0055110413 0.0004458323 0.794992727 0.186943511 0.012584418 0.005479344 0.2180832705 0.7661803097 0.0151376399 0.0005987799 0.3325098966674901 0.5817048114182951 0.07686330292313669 0.00892198899107801 0.04877617149512238 0.9489474547051052 0.002095813399790418 0.000180560399981944 0.9590341710000002 0.03306529200000001 0.005266084000000001 0.002634453000000001</probabilities>
		</cpt>
		<cpt id="x254531">
			<state id="x0" />
			<state id="low" />
			<state id="medium" />
			<state id="high" />
			<parents>clustVar</parents>
			<probabilities>0.2829005632829006 0.6785079206785081 0.03744757203744757 0.001143944001143944 0.432187652 0.512219844 0.047589615 0.008002888999999999 0.1156931649 0.8646696419 0.018774519 0.0008626742 0.336318131 0.6506112868 0.0120940569 0.0009765253 0.08772758070000002 0.9046571104000002 0.007168770700000002 0.0004465382000000001 0.865576196 0.124002387 0.0068264 0.003595017 0.09101576 0.8816290473 0.026506159 0.0008490337 0.2169770882169771 0.7025548157025547 0.07591106007591106 0.004557036004557036 0.028422182 0.9699761607 0.00124585 0.0003558073 0.9376431730623569 0.05128596094871404 0.008436460991563539 0.002634404997365595</probabilities>
		</cpt>
		<cpt id="x2908">
			<state id="x0" />
			<state id="low" />
			<state id="medium" />
			<state id="high" />
			<parents>clustVar</parents>
			<probabilities>0.507516232 0.449571782 0.039235193 0.003676793 0.5743044357430444 0.3604931336049313 0.05200124052001241 0.0132011901320119 0.1385421468614579 0.8100157761899842 0.0492778949507221 0.002164181997835818 0.51920792 0.46032519 0.01859887 0.00186802 0.1929645115 0.8003263814 0.0060862775 0.0006228296 0.6400008456400009 0.3333883353333884 0.02480948302480948 0.001801336001801336 0.360564911 0.629250905 0.009153813 0.001030371 0.26495434 0.64342459 0.08242959 0.00919148 0.0400253563 0.9444396366 0.0153544464 0.0001805607 0.68909832 0.23703714 0.06069159 0.01317295</probabilities>
		</cpt>
		<cpt id="x100130155">
			<state id="x0" />
			<state id="low" />
			<state id="medium" />
			<state id="high" />
			<parents>clustVar</parents>
			<probabilities>0.166188292 0.8147040600000002 0.017756776 0.001350872 0.31143272 0.62542928 0.04725157 0.01588643 0.0076281639 0.9527780107 0.0387386548 0.0008551706 0.1925662438074337 0.8036362621963636 0.00268527999731472 0.001112213998887786 0.00893929689910607 0.9843841126015617 0.006230732699376926 0.0004458577999554142 0.750420942 0.245896933 0.001797728 0.001884397 0.05283113770000002 0.9401069106000002 0.006464209800000001 0.0005977419000000001 0.04586263695413736 0.8293704941706295 0.1179701968820298 0.006796671993203328 0.0005851272000585128 0.9966494530996649 0.002584859300258486 0.000180560400018056 0.932578497 0.062152671 0.002634404 0.002634428</probabilities>
		</cpt>
		<cpt id="x114088">
			<state id="x0" />
			<state id="low" />
			<state id="medium" />
			<state id="high" />
			<parents>clustVar</parents>
			<probabilities>0.2415124559 0.7497866368 0.007909554399999999 0.0007913529 0.184028331 0.7496602100000002 0.06048536700000001 0.005826092000000001 0.00125330170012533 0.9733461821973346 0.02454541290245454 0.0008551032000855104 0.1188317330118832 0.8756110240875611 0.004692633700469263 0.0008646092000864609 0.0013734497 0.9958767498 0.0023039027 0.0004458978 0.313811967313812 0.6681494116681495 0.01624111201624111 0.001797509001797509 0.0862245148 0.9110075781 0.0021719044 0.0005960027 0.0130355980130356 0.8557304618557305 0.1225906281225906 0.008643312008643314 0.0009926246999007375 0.9980046424001995 0.0008221724999177828 0.000180560399981944 0.760825090239175 0.2312406327687594 0.005299872994700128 0.002634403997365596</probabilities>
		</cpt>
		<cpt id="x23230">
			<state id="x0" />
			<state id="low" />
			<state id="medium" />
			<state id="high" />
			<parents>clustVar</parents>
			<probabilities>0.3831881085 0.6054220583 0.0105968547 0.0007929785 0.5949659440503405 0.353335796466642 0.0394951496050485 0.0122031098779689 0.07904925400000001 0.8917298940000002 0.02767840100000001 0.001542451 0.420409091 0.5702124087 0.0084087598 0.0009697405 0.0840956764 0.9117576923 0.003700799 0.0004458323 0.6403235023596765 0.3325327986674672 0.02354872997645127 0.003594968996405031 0.205076963 0.792418956 0.001908082 0.0005959990000000001 0.13834729 0.76952455 0.08149134 0.01063682 0.005268556999473145 0.9886093820011391 0.00594149619940585 0.0001805647999819435 0.881297692 0.105752184 0.010315649 0.002634475</probabilities>
		</cpt>
		<cpt id="x116966">
			<state id="x0" />
			<state id="low" />
			<state id="medium" />
			<state id="high" />
			<parents>clustVar</parents>
			<probabilities>0.372248223 0.60145196 0.025508591 0.000791226 0.57296848 0.37357209 0.045453595 0.008005834999999999 0.1055227702 0.8653035022 0.0282922194 0.0008815082 0.5115422011488459 0.4755441935524456 0.0120489981987951 0.0008646070999135393 0.1997296571000001 0.7907591150000002 0.009065395600000001 0.0004458323000000001 0.600314682 0.356598693 0.037694157 0.005392468 0.25497135 0.7412718320000001 0.003160819000000001 0.0005959990000000002 0.19537119 0.68977736 0.10140582 0.01344563 0.01617529119838247 0.9769112703023088 0.006732873699326712 0.0001805647999819435 0.9166283499166284 0.07281904007281904 0.007918184007918185 0.002634426002634426</probabilities>
		</cpt>
		<cpt id="x64062">
			<state id="x0" />
			<state id="low" />
			<state id="medium" />
			<state id="high" />
			<parents>clustVar</parents>
			<probabilities>0.178798741 0.8034860243 0.016923799 0.0007914357 0.374005181 0.559180935 0.061478123 0.005335761 0.022873837 0.948103381 0.028583073 0.000439709 0.2642241244 0.7241206999000001 0.0107905689 0.0008646068 0.0472170472952783 0.948219716705178 0.00411740379958826 0.0004458321999554168 0.3807756261922438 0.5843642341563576 0.02946627970533721 0.005393859946061401 0.075740535 0.920103526 0.00355994 0.0005959990000000001 0.07510190924898091 0.8098356319016438 0.09927973900720262 0.0157827198421728 0.002421209999757879 0.9949206221005079 0.002477607499752239 0.000180560399981944 0.42513684 0.50600607 0.05568702 0.01317007</probabilities>
		</cpt>
		<cpt id="x9645">
			<state id="x0" />
			<state id="low" />
			<state id="medium" />
			<state id="high" />
			<parents>clustVar</parents>
			<probabilities>0.5036886934 0.4853516625 0.010168471 0.0007911731 0.59371255 0.3448817 0.05075679 0.01064896 0.05163554905163555 0.9206358029206358 0.02687265102687265 0.0008559970008559971 0.5088568819 0.4776418055 0.0126354821 0.0008658305 0.0844003654 0.9011483317 0.0140054667 0.0004458362 0.9530324170000002 0.043368288 0.001801785 0.00179751 0.2034371392796563 0.7903415825209659 0.005625278999437472 0.0005959991999404001 0.13629791 0.73526676 0.11710067 0.01133466 0.01431247298568752 0.9811461140188539 0.004360831995639168 0.000180580999819419 0.9282281310717718 0.06386865893613133 0.002634403997365595 0.005268805994731194</probabilities>
		</cpt>
		<cpt id="x6262">
			<state id="x0" />
			<state id="low" />
			<state id="medium" />
			<state id="high" />
			<parents>clustVar</parents>
			<probabilities>0.4354191744354191 0.5547266725547266 0.008328120008328119 0.001526033001526033 0.4427563200000001 0.5036187000000001 0.03866030000000001 0.01496468 0.03730790129626921 0.9311379815068862 0.03112580789688742 0.0004283092999571691 0.328187887 0.651426563 0.018736721 0.001648829 0.0319522683 0.9583814984 0.0092204004 0.0004458329 0.92779681 0.06778870300000001 0.002616308 0.001798179 0.1580792191 0.8333451837 0.007979595500000001 0.0005960017 0.06455863000000001 0.84452207 0.07834734 0.01257196 0.0020658847 0.9910860449 0.00666751 0.0001805604 0.8402436720000001 0.150418915 0.006703009 0.002634404</probabilities>
		</cpt>
		<cpt id="x55814">
			<state id="x0" />
			<state id="low" />
			<state id="medium" />
			<state id="high" />
			<parents>clustVar</parents>
			<probabilities>0.1001509200899849 0.8872801570112719 0.01176692719882331 0.0008019956999198004 0.214856188 0.738238289 0.044233116 0.002672407 0.0080645318 0.959908249 0.0315990849 0.0004281343 0.09233184509233185 0.886611889886612 0.01933781101933781 0.001718454001718454 0.009724896499027511 0.984718729401528 0.005110541699488946 0.0004458323999554167 0.4934633080000001 0.4993458110000001 0.005393372 0.001797509000000001 0.0261997912 0.9704234811 0.0027802255 0.0005965022 0.03903946 0.80996307 0.13742488 0.01357259 0.0003212612 0.9975962915 0.0019018869 0.0001805604 0.621529328 0.362665777 0.013170491 0.002634404</probabilities>
		</cpt>
		<cpt id="x23613">
			<state id="x0" />
			<state id="low" />
			<state id="medium" />
			<state id="high" />
			<parents>clustVar</parents>
			<probabilities>0.233954189 0.740117385 0.02350625 0.002422176 0.4022856859771431 0.5067188549328114 0.0802897691971023 0.0107056898929431 0.07581233699999999 0.900561293 0.022438372 0.001187998 0.27086632 0.70665256 0.01899808 0.00348304 0.07584609789241539 0.9151150913084886 0.008591067499140894 0.0004477432999552257 0.446452263 0.50018544 0.051564783 0.001797514 0.1458190519 0.8528082585000002 0.0007685456000000002 0.0006041440000000001 0.18955734 0.72770153 0.07797775999999999 0.00476337 0.0355527735 0.9626134338 0.0016532323 0.0001805604 0.596268221 0.364323966 0.031504609 0.007903204</probabilities>
		</cpt>
		<cpt id="x10147">
			<state id="x0" />
			<state id="low" />
			<state id="medium" />
			<state id="high" />
			<parents>clustVar</parents>
			<probabilities>0.1437151405143715 0.840540252584054 0.01482794940148279 0.0009166575000916658 0.244964435 0.698974404 0.053393266 0.002667895 0.03309649840000001 0.9462792902000002 0.0201960828 0.0004281286000000001 0.0807247488 0.8994164061 0.0189526996 0.0009061455 0.0162775489 0.9757849517 0.0074916667 0.0004458327 0.383727468 0.5817232020000001 0.029163931 0.005385399 0.037999925 0.952777078 0.008154177 0.00106882 0.04010118 0.89286065 0.06477461 0.00226356 0.0022281335 0.9971910567 0.0004002494 0.0001805604 0.5718188054281812 0.3949565786050434 0.02794536097205463 0.005279254994720745</probabilities>
		</cpt>
		<cpt id="x54904">
			<state id="x0" />
			<state id="low" />
			<state id="medium" />
			<state id="high" />
			<parents>clustVar</parents>
			<probabilities>0.079740666 0.889656141 0.029538265 0.001064928 0.2324992176750078 0.6880893231191069 0.07674199923258002 0.0026694599733054 0.0364473298 0.9422841523 0.0208403912 0.0004281267 0.1189089058 0.87118473 0.0090371857 0.0008691785 0.02796842620279684 0.9705366979970537 0.001049043600104904 0.0004458322000445832 0.4227970414227971 0.5591233095591233 0.01448569301448569 0.003593956003593956 0.0328441671 0.9631805095 0.002992701 0.0009826224 0.0901712409017124 0.8342207983422079 0.071080900710809 0.0045270600452706 0.002717654099728235 0.9964019912003598 0.0006997942999300206 0.000180560399981944 0.496483872 0.469115688 0.029131632 0.005268808</probabilities>
		</cpt>
		<cpt id="x4898">
			<state id="x0" />
			<state id="low" />
			<state id="medium" />
			<state id="high" />
			<parents>clustVar</parents>
			<probabilities>0.132502793 0.812823628 0.052298037 0.002375542 0.357187093571871 0.5804057258040574 0.05174414051744141 0.0106630401066304 0.05336628200533663 0.9278365012927837 0.01836908710183691 0.000428129600042813 0.296207017 0.694516076 0.007547449 0.001729458 0.1007088212899291 0.8972389680102761 0.001606378499839362 0.0004458321999554168 0.370818564 0.5719437429999999 0.051755031 0.005482662 0.0640433584 0.9254317367 0.0099287283 0.0005961766 0.135113778 0.789836365 0.06825919499999999 0.006790662 0.004753141500475315 0.9931518012993152 0.00191449680019145 0.000180560400018056 0.5420028245799717 0.3842239561577603 0.0554644894453551 0.0183087298169127</probabilities>
		</cpt>
		<cpt id="x5411">
			<state id="x0" />
			<state id="low" />
			<state id="medium" />
			<state id="high" />
			<parents>clustVar</parents>
			<probabilities>0.124769936 0.844259917 0.029494118 0.001476029 0.29476281 0.62198426 0.06155195 0.02170098 0.05426670460542667 0.9305974267930598 0.01470589770147059 0.0004299709000429971 0.2168155359 0.7636098487 0.0187099262 0.0008646892 0.0969421821 0.9012840747999999 0.0013279109 0.0004458322 0.336036269 0.59530047 0.06327089 0.005392371 0.05255868905255869 0.9406377309406377 0.006207581006207582 0.0005959990005959991 0.150022802 0.737713581 0.103219048 0.009044569000000001 0.0136099532 0.9849748065 0.0012346799 0.0001805604 0.4769937 0.45549094 0.05434304 0.01317232</probabilities>
		</cpt>
		<cpt id="x55704">
			<state id="x0" />
			<state id="low" />
			<state id="medium" />
			<state id="high" />
			<parents>clustVar</parents>
			<probabilities>0.0375174512 0.9413321265 0.0203592154 0.0007912069 0.1023437161023437 0.8178216818178217 0.07449600507449601 0.005338597005338597 0.03068971199693103 0.9658328529034167 0.003049308499695069 0.0004281265999571874 0.0377751970377752 0.9185273629185274 0.04196930504196931 0.001728135001728135 0.0139128227 0.9812792914 0.0043620511 0.0004458348 0.179409974 0.774671538 0.04411647 0.001802018 0.005974183199402582 0.9911719331008828 0.002257884599774212 0.0005959990999404001 0.045512911 0.881108416 0.071114839 0.002263834 0.0011701631 0.9977718143000002 0.0008774622000000003 0.0001805604 0.15072962 0.71943542 0.11666955 0.01316541</probabilities>
		</cpt>
		<cpt id="x440270">
			<state id="x0" />
			<state id="low" />
			<state id="medium" />
			<state id="high" />
			<parents>clustVar</parents>
			<probabilities>0.01626511901626512 0.9554844839554846 0.0258601940258602 0.002390203002390203 0.09123205091232051 0.8352045383520453 0.0602811806028118 0.0132822301328223 0.0037455539 0.9684780121 0.0273483073 0.0004281267 0.016041657 0.971976344 0.011117381 0.000864618 0.004023616499597639 0.9917061149008294 0.003824436399617557 0.0004458321999554168 0.169530082 0.801565708 0.027106701 0.001797509 0.0021894519 0.9887347986 0.008479748800000001 0.0005960007 0.0106297 0.8390851800000002 0.13896674 0.01131838 0.0001810581999818942 0.9978696403002131 0.001768741099823126 0.000180560399981944 0.78566255 0.204047988 0.007655058 0.002634404</probabilities>
		</cpt>
		<cpt id="x4897">
			<state id="x0" />
			<state id="low" />
			<state id="medium" />
			<state id="high" />
			<parents>clustVar</parents>
			<probabilities>0.06527061893472938 0.8826126891173872 0.04844777595155222 0.003668915996331084 0.2673753626737536 0.6511320265113202 0.0699174306991743 0.0115751801157518 0.010767266 0.950022625 0.038736014 0.000474095 0.1684800276 0.8295873973 0.0010622464 0.0008703287 0.01617715339838229 0.9805805803019418 0.002796434099720357 0.0004458321999554168 0.2230491322304913 0.7108674271086742 0.05524969055249689 0.0108337501083375 0.04682719550468272 0.9493133218949313 0.003263215700326322 0.0005962669000596267 0.03027178 0.89086537 0.06554841 0.01331444 0.0004876282999512371 0.9972715552002729 0.002060256099793974 0.000180560399981944 0.877919262 0.114182774 0.005262819 0.002635145</probabilities>
		</cpt>
		<cpt id="x23077">
			<state id="x0" />
			<state id="low" />
			<state id="medium" />
			<state id="high" />
			<parents>clustVar</parents>
			<probabilities>0.020549729 0.936294845 0.040850174 0.002305252 0.1198879388801121 0.7965266482034733 0.07507077092492921 0.008514641991485357 0.003038936300000001 0.9775727646000002 0.0189599865 0.0004283126000000001 0.0326404980326405 0.9514792069514794 0.01425671401425672 0.001623581001623581 0.0053828367 0.9865919539 0.0075793772 0.0004458322 0.3124372790000001 0.6682733890000001 0.017491823 0.001797509000000001 0.0062973858 0.9828071179 0.010285456 0.0006100402999999999 0.021873161 0.890101678 0.078987053 0.009038108 0.0003476131 0.9988754858 0.0005963407 0.0001805604 0.458896231 0.521961547 0.016507818 0.002634404</probabilities>
		</cpt>
		<cpt id="x3535">
			<state id="x0" />
			<state id="low" />
			<state id="medium" />
			<state id="high" />
			<parents>clustVar</parents>
			<probabilities>0.005189792005189793 0.9863763519863764 0.00694271900694272 0.001491137001491137 0.027831581 0.938466484 0.028029914 0.005672021 0.0004309514999569049 0.9923408314007659 0.006371762399362824 0.0008564546999143545 0.001068312001068312 0.9671227799671228 0.03014091403014092 0.001667994001667994 0.000656215 0.9874080399 0.0114526367 0.0004831084 0.03952249 0.9438471899999999 0.01434303 0.00228729 0.000609651 0.9972351279 0.0015553327 0.0005998883999999999 0.006781472 0.955514862 0.02871981 0.008983856 0.0003059944000305994 0.9980753302998076 0.001438114800143811 0.0001805605000180561 0.10167023 0.867316045 0.023827062 0.007186663</probabilities>
		</cpt>
		<cpt id="x9284">
			<state id="x0" />
			<state id="low" />
			<state id="medium" />
			<state id="high" />
			<parents>clustVar</parents>
			<probabilities>0.0910540115 0.8900257179 0.0181269559 0.0007933147 0.20067464 0.6767567600000001 0.10614507 0.01642353 0.0247034591 0.9643787879 0.0100637957 0.0008539573 0.102772658 0.851765678 0.042147767 0.003313897 0.012176658 0.9663908867 0.0209827964 0.0004496589 0.3357573103357573 0.626185958626186 0.0329062950329063 0.005150436005150437 0.0424925586 0.9544062687 0.0025050002 0.0005961725 0.03042015803042016 0.8243733898243735 0.1406686831406687 0.004537769004537769 0.0020409974 0.9970021570000001 0.0007762848 0.0001805608 0.6822694496822694 0.2988588142988588 0.01588202901588203 0.002989707002989707</probabilities>
		</cpt>
		<cpt id="x5310">
			<state id="x0" />
			<state id="low" />
			<state id="medium" />
			<state id="high" />
			<parents>clustVar</parents>
			<probabilities>0.0629430607 0.9210480086 0.0152177502 0.0007911805 0.173275001 0.778955904 0.039767624 0.008001471 0.0056105916 0.9802764385 0.013683931 0.0004290389 0.028092095 0.947488527 0.023554654 0.000864724 0.001402486200140249 0.9727180279972718 0.0249889529024989 0.0008905329000890533 0.474156311 0.518808577 0.005237603 0.001797509 0.012028045 0.9859645128 0.0014112616 0.0005961806 0.04636394 0.8726495399999999 0.07193065999999999 0.009055860000000001 0.0004926819999507318 0.9968969366003103 0.002429820999757018 0.000180560399981944 0.6627492483372508 0.3212153666787846 0.01340098098659902 0.002634403997365596</probabilities>
		</cpt>
		<cpt id="x4297">
			<state id="x0" />
			<state id="low" />
			<state id="medium" />
			<state id="high" />
			<parents>clustVar</parents>
			<probabilities>0.0325380731 0.9184906492 0.0481560044 0.0008152733 0.1704471108295529 0.7417029802582971 0.0793675109206325 0.008482397991517603 0.0222015645 0.9682173189 0.009000919099999999 0.0005801975 0.05053932405053933 0.9136481289136481 0.03064234103064234 0.005170206005170206 0.01600683080160068 0.9768624830976863 0.006655905000665591 0.0004747811000474781 0.3754815983754817 0.6083435616083436 0.01437699101437699 0.001797849001797849 0.0112688835 0.9787539859 0.009375145200000001 0.0006019854 0.07223182507223183 0.8575538598575539 0.06482737906482738 0.005386936005386937 0.001740019299825998 0.9976063637002394 0.0004730565999526944 0.000180560399981944 0.464775514 0.48516583 0.042155445 0.007903211</probabilities>
		</cpt>
		<cpt id="x5297">
			<state id="x0" />
			<state id="low" />
			<state id="medium" />
			<state id="high" />
			<parents>clustVar</parents>
			<probabilities>0.22288666 0.750720695 0.02396125 0.002431395 0.394248906 0.541860098 0.058516691 0.005374305 0.04696698110000001 0.8953998375000002 0.05674268430000001 0.0008904971000000002 0.3844522457 0.602590379 0.0119848165 0.0009725588000000001 0.09161143759083885 0.8999734486100026 0.007860454899213954 0.000554658899944534 0.664873689 0.324340626 0.007191269 0.003594416 0.1323140547 0.8573300628 0.0097581913 0.0005976912 0.1206867 0.75580634 0.11114669 0.01236027 0.007173881 0.986269926 0.0063756326 0.0001805604 0.7527146270000002 0.223670404 0.015710876 0.007904093000000001</probabilities>
		</cpt>
		<cpt id="x8499">
			<state id="x0" />
			<state id="low" />
			<state id="medium" />
			<state id="high" />
			<parents>clustVar</parents>
			<probabilities>0.3114495858 0.6835885685 0.0041677052 0.0007941405 0.4187291164187292 0.5384834745384834 0.04011950704011951 0.002667902002667903 0.033983062 0.887943229 0.075547843 0.002525866 0.3660689862366069 0.6296835924629685 0.003382749900338275 0.0008646714000864672 0.05786462910578646 0.9291614303929161 0.0125189730012519 0.0004549675000454967 0.5963535640000001 0.3877901800000001 0.014058747 0.001797509000000001 0.1309519258 0.8678161021 0.0006355427 0.0005964294 0.06464246000000001 0.7458915100000001 0.17424149 0.01522454 0.004946112499505388 0.9792146795020785 0.01559561009844044 0.0002435978999756402 0.575343592 0.379867435 0.042154569 0.002634404</probabilities>
		</cpt>
		<cpt id="x55904">
			<state id="x0" />
			<state id="low" />
			<state id="medium" />
			<state id="high" />
			<parents>clustVar</parents>
			<probabilities>0.05045810000000001 0.9028514900000002 0.04527289000000001 0.00141752 0.1992474219924742 0.7034730770347307 0.0828273208282732 0.0144521801445218 0.0161134726 0.9606538875 0.0228044595 0.0004281804 0.081026103 0.885216007 0.030286201 0.003471689 0.0171452057 0.9748701333000001 0.0075379075 0.0004467535 0.2639503232639503 0.6873367426873368 0.04334056204334057 0.005372372005372373 0.02490083502490084 0.9711007579711008 0.002734927002734927 0.00126348000126348 0.08120406918795932 0.8129646818703533 0.09529732904702672 0.0105339198946608 0.0033851085 0.9960142572 0.0004200739 0.0001805604 0.3279480396720519 0.5972018064027982 0.0669173989330826 0.007932754992067245</probabilities>
		</cpt>
		<cpt id="x57035">
			<state id="x0" />
			<state id="low" />
			<state id="medium" />
			<state id="high" />
			<parents>clustVar</parents>
			<probabilities>0.1184791989 0.8697973696 0.0109311322 0.0007922993 0.283216899 0.66433293 0.047114389 0.005335782 0.02317341800231734 0.9277037903927704 0.04827136730482714 0.0008514243000851424 0.1791768209 0.8169849698 0.0029736025 0.0008646068 0.03357948489664205 0.9634944275036506 0.002480255399751974 0.0004458321999554168 0.342290242 0.62894757 0.026964459 0.001797729 0.0379241028 0.9607614817 0.0007184165 0.0005959990000000001 0.05359595 0.80570614 0.12935797 0.01133994 0.0009010078999098992 0.9914405616008559 0.007477870099252213 0.000180560399981944 0.36271898 0.58985918 0.03425014 0.0131717</probabilities>
		</cpt>
		<cpt id="x10905">
			<state id="x0" />
			<state id="low" />
			<state id="medium" />
			<state id="high" />
			<parents>clustVar</parents>
			<probabilities>0.1849797991849798 0.7527657607527658 0.05886897805886899 0.003385462003385463 0.35604895 0.5379468400000001 0.09481365000000003 0.01119056 0.080302557 0.888812716 0.029669512 0.001215215 0.21068655 0.75418979 0.03201173 0.00311193 0.0611985004 0.9322180525 0.0061251958 0.0004582513 0.6789065283210934 0.3100446526899553 0.009251309990748689 0.001797508998202491 0.08145814830814582 0.8848697399884869 0.03279035640327903 0.0008817553000881756 0.15505272 0.77084517 0.06146863 0.01263348 0.0362115933 0.962222222 0.0013856094 0.0001805753 0.721310161 0.244454732 0.028966299 0.005268808</probabilities>
		</cpt>
		<cpt id="x28978">
			<state id="x0" />
			<state id="low" />
			<state id="medium" />
			<state id="high" />
			<parents>clustVar</parents>
			<probabilities>0.24991118 0.60318989 0.13059555 0.01630338 0.5573759555737595 0.3365072233650723 0.09535138095351381 0.0107654401076544 0.1958277908041722 0.7434703292565298 0.05601058294398942 0.004691296995308704 0.63392784 0.35439503 0.01048918 0.00118795 0.4368485031 0.5599898811 0.0026768124 0.0004848034 0.8859515938859517 0.1011464131011464 0.01083072001083072 0.002071273002071273 0.195406269 0.765863433 0.037565339 0.001164959 0.4045693859543061 0.4835911451640886 0.09604178903958212 0.0157976798420232 0.1163579512116358 0.8789634761878964 0.004497070200449707 0.0001815024000181502 0.88739743 0.06073749 0.04172869 0.01013639</probabilities>
		</cpt>
		<cpt id="x6134">
			<state id="x0" />
			<state id="low" />
			<state id="medium" />
			<state id="high" />
			<parents>clustVar</parents>
			<probabilities>0.2367407467632592 0.6927098633072901 0.06634106593365893 0.004208323995791676 0.44870089 0.46537953 0.07527513 0.01064445 0.131992077 0.8167801769999998 0.05003127099999999 0.001196475 0.4612618605387382 0.5191587784808412 0.01633565198366435 0.003243708996756291 0.275330891 0.7176491669999999 0.006333863999999998 0.0006860779999999999 0.53100061 0.393848664 0.071518054 0.003632672 0.2161202879 0.7705853416999998 0.0124312383 0.0008631320999999998 0.283149422 0.629261508 0.08298280199999999 0.004606268 0.116170564488383 0.8822652224117736 0.001361525999863848 0.0002026870999797313 0.5682841643171583 0.304989696950103 0.1004370189956298 0.0262891197371088</probabilities>
		</cpt>
		<cpt id="x54460">
			<state id="x0" />
			<state id="low" />
			<state id="medium" />
			<state id="high" />
			<parents>clustVar</parents>
			<probabilities>0.283740423 0.63434392 0.076641103 0.005274554 0.5051907149480929 0.3940863360591366 0.08180638918193613 0.0189165598108344 0.1879383611879383 0.7737987177737986 0.03674648703674648 0.001516434001516434 0.527342907 0.454764692 0.01618947 0.001702931 0.3549261800354926 0.643169472164317 0.001457708300145771 0.000446639500044664 0.59190475 0.33765568 0.05617878 0.01426079 0.172498354 0.794338342 0.031801703 0.001361601 0.34201119 0.55804986 0.08317086999999999 0.01676808 0.08588713990000001 0.9114469502 0.0024853495 0.0001805604 0.7258383927416161 0.2119278778807213 0.05142428948575711 0.0108094398919056</probabilities>
		</cpt>
		<cpt id="x80205">
			<state id="x0" />
			<state id="low" />
			<state id="medium" />
			<state id="high" />
			<parents>clustVar</parents>
			<probabilities>0.051145495 0.895886846 0.050724372 0.002243287 0.156282952843717 0.7175058002824942 0.1207523058792477 0.005458940994541059 0.031088251 0.9566085466000001 0.0118750128 0.0004281896 0.1179871109882013 0.8615542995138445 0.0195939825980406 0.0008646068999135393 0.03671541889632846 0.9578076006042193 0.005031148299496885 0.0004458321999554168 0.1435303385646966 0.7160900228390997 0.1224086787759132 0.0179709598202904 0.0262170445 0.9645813797 0.0086055761 0.0005959997 0.08977459 0.80009539 0.0985424 0.01158762 0.003135459 0.9961412614 0.0005427192 0.0001805604 0.401695024 0.543340652 0.052326459 0.002637865</probabilities>
		</cpt>
		<cpt id="x56853">
			<state id="x0" />
			<state id="low" />
			<state id="medium" />
			<state id="high" />
			<parents>clustVar</parents>
			<probabilities>0.03511626096488375 0.8998743391001258 0.06330614593669386 0.001703253998296746 0.1518034515180345 0.763945597639456 0.07085843070858432 0.0133925201339252 0.025702225 0.942271316 0.031560244 0.000466215 0.06503529406503529 0.9091836389091837 0.0222753990222754 0.003505668003505668 0.01936113998063886 0.9605921460394079 0.01900075098099925 0.001045962998954037 0.8140668538140667 0.1805506741805507 0.001797675001797675 0.003584797003584796 0.015338904 0.9725544779999999 0.01090526 0.001201358 0.05363195 0.83499592 0.09252247 0.01884966 0.003138821900313882 0.9899723585989972 0.006708258900670826 0.0001805606000180561 0.8965761221034239 0.09815506790184492 0.002634403997365595 0.002634405997365594</probabilities>
		</cpt>
		<cpt id="x577">
			<state id="x0" />
			<state id="low" />
			<state id="medium" />
			<state id="high" />
			<parents>clustVar</parents>
			<probabilities>0.110827018110827 0.8226656978226656 0.06434341706434341 0.002163867002163867 0.2780372572196275 0.6553107734468923 0.05545816944541831 0.011193799888062 0.02523496797476503 0.9098674460901325 0.06320577193679422 0.001691813998308186 0.1828606067 0.7898970768 0.0263199492 0.0009223673 0.02391724209760827 0.9630921723036908 0.01237541679876246 0.0006151687999384831 0.410226174 0.55066095 0.031924612 0.007188264 0.0560534516 0.9327010081 0.0106402817 0.0006052586 0.07191777071917772 0.761252897612529 0.1427235414272354 0.0241057902410579 0.001467638899853236 0.9898562261010144 0.008494530799150548 0.0001816041999818396 0.7862374057862375 0.2049588892049589 0.006166806006166807 0.002636899002636899</probabilities>
		</cpt>
		<cpt id="x9324">
			<state id="x0" />
			<state id="low" />
			<state id="medium" />
			<state id="high" />
			<parents>clustVar</parents>
			<probabilities>0.058674611 0.872042301 0.067699574 0.001583514 0.24910044 0.65867681 0.08422359 0.00799916 0.0220995303 0.9493466049 0.028125738 0.0004281268 0.2464481688246448 0.7455504133745551 0.007136805100713681 0.0008646127000864613 0.0834186547 0.9154576939 0.0006778192 0.0004458322 0.29979667 0.62259781 0.06143442 0.0161711 0.05596648679440334 0.9323031292067695 0.01113432969888657 0.0005960542999403945 0.09078090090780901 0.7899078378990784 0.1079933710799337 0.0113178901131789 0.004842390899515761 0.9931722213006828 0.001804827399819517 0.000180560399981944 0.403295224 0.549731628 0.041694864 0.005278284</probabilities>
		</cpt>
		<cpt id="x5789">
			<state id="x0" />
			<state id="low" />
			<state id="medium" />
			<state id="high" />
			<parents>clustVar</parents>
			<probabilities>0.133971911 0.8100095900000002 0.05225584400000002 0.003762655000000001 0.272069828 0.661673513 0.058075516 0.008181143 0.02843580660284358 0.9385233509938524 0.03261263660326127 0.0004282058000428206 0.2223465537776534 0.7676649272323349 0.008262345991737653 0.001726172998273827 0.04095140190000001 0.9538406110000002 0.004762154700000001 0.0004458324000000001 0.549777426 0.418807088 0.027830071 0.003585415 0.100318692 0.880032042 0.018355832 0.001293434 0.09218667999999999 0.817957746 0.085290989 0.004564585 0.0010964182 0.9962683076000002 0.002454713800000001 0.0001805604 0.3168511000000001 0.5824799700000001 0.09013244000000001 0.01053649</probabilities>
		</cpt>
		<cpt id="x54212">
			<state id="x0" />
			<state id="low" />
			<state id="medium" />
			<state id="high" />
			<parents>clustVar</parents>
			<probabilities>0.108203633 0.830849908 0.058657323 0.002289136 0.155607459 0.7590144590000002 0.07764711600000002 0.007730966000000001 0.0306969058 0.9160944943 0.0524594208 0.0007491791 0.1107337371107337 0.8795096358795097 0.007847845007847846 0.001908782001908782 0.03949431049605057 0.9513525897048648 0.008707266699129274 0.0004458330999554167 0.580947244 0.383503 0.030159032 0.005390724 0.0650877973 0.9119090017 0.0224020859 0.0006011151 0.08889102 0.79015539 0.10908653 0.01186706 0.0039537775 0.9917106972 0.0041549649 0.0001805604 0.9219835719219835 0.06998969906998971 0.005389785005389786 0.002636944002636944</probabilities>
		</cpt>
		<cpt id="x4331">
			<state id="x0" />
			<state id="low" />
			<state id="medium" />
			<state id="high" />
			<parents>clustVar</parents>
			<probabilities>0.1930169970000001 0.7851829770000002 0.020307773 0.001492253 0.385569922 0.541036306 0.06570027000000001 0.007693502 0.0288597909 0.9257992426 0.0449128227 0.0004281438 0.2964400361 0.6907179454 0.0119773686 0.0008646499 0.038089959 0.9548188537 0.0066453551 0.0004458322 0.6429356846429357 0.3399807003399807 0.01528562901528563 0.001797986001797986 0.09041312949999999 0.9046603499 0.0042626431 0.0006638775 0.048985113 0.797479142 0.14421874 0.009317005 0.0012771672 0.9923299419 0.0062123305 0.0001805604 0.784292914 0.193932062 0.013872512 0.007902512</probabilities>
		</cpt>
		<cpt id="x64848">
			<state id="x0" />
			<state id="low" />
			<state id="medium" />
			<state id="high" />
			<parents>clustVar</parents>
			<probabilities>0.2440066730000001 0.6943310180000001 0.05812310100000002 0.003539208000000001 0.4408396700000001 0.4567639400000001 0.07654210000000002 0.02585429000000001 0.1150334696115033 0.8431931069843194 0.04120583500412059 0.0005675884000567588 0.3496574025 0.6315596536 0.0179040838 0.0008788601 0.1661411893 0.824840845 0.0080792703 0.0009386954000000001 0.63088209 0.321397982 0.040494863 0.007225065 0.1129375808 0.8678759485999999 0.0185199039 0.0006665667 0.224195612 0.6405219780000001 0.128356382 0.006926028000000002 0.0298769289 0.9678920891 0.0020168675 0.0002141145 0.73133462 0.21256599 0.03764697 0.01845242</probabilities>
		</cpt>
		<cpt id="x6432">
			<state id="x0" />
			<state id="low" />
			<state id="medium" />
			<state id="high" />
			<parents>clustVar</parents>
			<probabilities>0.1533582 0.8014142524 0.0442762714 0.0009512762 0.4342220843422209 0.4896564648965647 0.06332193063321931 0.0127995201279952 0.0495610254 0.9135370225 0.036473823 0.0004281291 0.442106741 0.5483579669999999 0.008670682000000001 0.00086461 0.2060089724 0.7914399549 0.0021052405 0.0004458322 0.504438464 0.473738893 0.020013045 0.001809598 0.056225873 0.919493508 0.02368462 0.0005959990000000001 0.173788476 0.718855327 0.0983021 0.009054097000000001 0.02726691069727331 0.9694433298030557 0.00310919909968908 0.000180560399981944 0.4780510952194891 0.4407316455926836 0.06542854934571452 0.01578870984211291</probabilities>
		</cpt>
		<cpt id="x5144">
			<state id="x0" />
			<state id="low" />
			<state id="medium" />
			<state id="high" />
			<parents>clustVar</parents>
			<probabilities>0.1813390948186609 0.7734234122265765 0.04290092695709907 0.002336565997663434 0.30359652 0.6098478000000001 0.06631222000000001 0.02024346 0.02886652569711335 0.9349434308065057 0.03573443329642655 0.000455610199954439 0.174784366 0.796219032 0.026223686 0.002772916 0.043813958 0.950308721 0.00542967 0.000447651 0.2923406297076593 0.6701530653298469 0.02882638897117361 0.008679915991320083 0.042936946 0.9465648290000001 0.009660815999999999 0.000837409 0.08352105999999999 0.8141068 0.08437934 0.0179928 0.0042638757 0.9916826573 0.0038729066 0.0001805604 0.7375117462624882 0.2467583537532416 0.01309408498690591 0.002635814997364185</probabilities>
		</cpt>
		<cpt id="x140890">
			<state id="x0" />
			<state id="low" />
			<state id="medium" />
			<state id="high" />
			<parents>clustVar</parents>
			<probabilities>0.2030172479698275 0.7450590725494093 0.0472887495271125 0.0046349299536507 0.30257856 0.58372424 0.08469641 0.02900079 0.1128310039 0.8578371789 0.0284752549 0.0008565623000000001 0.2446953630000001 0.7281063420000001 0.022934791 0.004263504000000001 0.0989439119 0.8930100378 0.0076001701 0.0004458802 0.33673779 0.5580760400000001 0.09083683000000001 0.01434934 0.0974132008 0.8861613829 0.0156288318 0.0007965845 0.1921139 0.680875 0.11795656 0.00905454 0.0233951011 0.9737101713 0.0027141381 0.0001805895 0.61452082 0.31298981 0.05399699 0.01849238</probabilities>
		</cpt>
		<cpt id="x23262">
			<state id="x0" />
			<state id="low" />
			<state id="medium" />
			<state id="high" />
			<parents>clustVar</parents>
			<probabilities>0.217636127 0.730563806 0.045379563 0.006420504 0.37510547 0.53717755 0.06944654 0.01827044 0.0945018789 0.873804436 0.0308191126 0.0008745725 0.3057558155 0.6774876902 0.0158457159 0.0009107784 0.147557986 0.849747059 0.002248719 0.000446236 0.5220779000000001 0.4287233000000001 0.03733880000000001 0.01186 0.09882315899999999 0.81512387 0.08247773999999999 0.003575231 0.1812914081870859 0.6862213531377863 0.1190721888092781 0.0134150498658495 0.02638840079999999 0.9711787331999998 0.0022522096 0.0001806564 0.7336342273363423 0.2362430323624303 0.0184903901849039 0.0116323501163235</probabilities>
		</cpt>
		<cpt id="x9475">
			<state id="x0" />
			<state id="low" />
			<state id="medium" />
			<state id="high" />
			<parents>clustVar</parents>
			<probabilities>0.220100882 0.730856973 0.046068364 0.002973781 0.44105855 0.48227462 0.06542766 0.01123917 0.0528402006 0.9015317993999999 0.0451875502 0.0004404498 0.3050634655 0.6765092536999999 0.01750784219999999 0.0009194385999999997 0.07105969699289404 0.9224910365077509 0.006003434299399656 0.0004458321999554168 0.6601917846601918 0.3288776113288777 0.009127943009127943 0.001802661001802661 0.1428030415 0.8523992984000002 0.004201661000000001 0.0005959991000000001 0.13226074 0.74550375 0.11777314 0.00446237 0.006638161699336184 0.9874346601012566 0.005746617799425338 0.000180560399981944 0.7975905200000002 0.17616464 0.02107604 0.005168800000000001</probabilities>
		</cpt>
		<cpt id="x8997">
			<state id="x0" />
			<state id="low" />
			<state id="medium" />
			<state id="high" />
			<parents>clustVar</parents>
			<probabilities>0.233777138 0.74260687 0.021225937 0.002390055 0.390809944 0.537204675 0.064101587 0.007883794 0.009293611699999999 0.9313245689 0.0589536921 0.0004281273 0.2180538165 0.7728544381 0.0082270105 0.0008647349 0.0148176302 0.9769033658 0.0078331718 0.0004458322 0.693556817 0.301049222 0.003596433 0.001797528 0.2164670774 0.781330401 0.0016065184 0.0005960032 0.028132602 0.826529099 0.140759426 0.004578873 0.0009085786999091421 0.9925053657007495 0.006405495199359451 0.000180560399981944 0.917782498 0.076946158 0.002634404 0.00263694</probabilities>
		</cpt>
		<cpt id="x55082">
			<state id="x0" />
			<state id="low" />
			<state id="medium" />
			<state id="high" />
			<parents>clustVar</parents>
			<probabilities>0.0061164522 0.9657440876 0.0273482863 0.0007911739 0.04800965 0.873010526 0.07364194 0.005337884 0.0008031555000000002 0.9732626951000002 0.02508268220000001 0.0008514672000000002 0.0327507476 0.9613650041 0.0050196412 0.0008646071 0.0026378447 0.9921050071 0.0048101661 0.0004469821 0.04231720095768279 0.8751393891248604 0.07715187692284811 0.005391532994608466 0.002662347500266235 0.9941467932994147 0.002594857500259486 0.0005960017000596002 0.002375348002375348 0.8449066388449067 0.1413813801413814 0.01133663301133664 0.0001805607 0.9972807034 0.002358175 0.0001805609 0.1015381541015382 0.7882072217882072 0.1049859231049859 0.005268701005268701</probabilities>
		</cpt>
		<cpt id="x9699">
			<state id="x0" />
			<state id="low" />
			<state id="medium" />
			<state id="high" />
			<parents>clustVar</parents>
			<probabilities>0.113998765 0.843523433 0.040961503 0.001516299 0.167336284 0.753397786 0.070730685 0.008535245 0.0029565227 0.945827286 0.0504166979 0.0007994934 0.08977868200000001 0.8701816830000002 0.03753474600000001 0.002504889000000001 0.005226322 0.9804008692 0.0139265382 0.0004462706 0.7187047670000001 0.27439819 0.005099534000000001 0.001797509000000001 0.074719928 0.9164957865 0.0081880368 0.0005962487 0.02416882202416882 0.8109676328109677 0.1555417631555418 0.009321782009321784 0.0013680808 0.9917684646 0.0066828942 0.0001805604 0.904300964 0.09042953300000001 0.002635099 0.002634404</probabilities>
		</cpt>
		<cpt id="x10439">
			<state id="x0" />
			<state id="low" />
			<state id="medium" />
			<state id="high" />
			<parents>clustVar</parents>
			<probabilities>0.142873306 0.787932152 0.065643136 0.003551406 0.36540994 0.56733786 0.05404934 0.01320286 0.00710269 0.8424643429999999 0.14196633 0.008466637000000001 0.3069089962000001 0.6853945166000001 0.006706457400000002 0.0009900298000000002 0.01388524649861148 0.9683805614031619 0.01691831569830817 0.0008158763999184124 0.6058700476058702 0.3905345043905346 0.00179792000179792 0.001797528001797528 0.146926267 0.849085026 0.0033606309 0.0006280761 0.02340542 0.7878161299999999 0.16896013 0.01981832 0.0016747161 0.9935971651 0.004547374 0.0001807448 0.804936839 0.187158016 0.005268205 0.00263694</probabilities>
		</cpt>
		<cpt id="x9987">
			<state id="x0" />
			<state id="low" />
			<state id="medium" />
			<state id="high" />
			<parents>clustVar</parents>
			<probabilities>0.006838006006838006 0.9377587979377588 0.05433712905433713 0.001066067001066067 0.069788032 0.8311572310000001 0.096386851 0.002667886 0.001503076199849692 0.960988584903901 0.03707530849629247 0.000433030399956697 0.0315803583 0.9630576439 0.004497391 0.0008646068 0.001873259 0.9960733348 0.001607574 0.0004458322 0.139293342 0.8475040770000002 0.011404927 0.001797654000000001 0.0028482939 0.9874207027 0.0091349979 0.0005960055 0.003280415 0.861214883 0.129526537 0.005978165 0.000260850599973915 0.997810012300219 0.001748576699825142 0.000180560399981944 0.10220148 0.78134148 0.10328523 0.01317181</probabilities>
		</cpt>
		<cpt id="x4673">
			<state id="x0" />
			<state id="low" />
			<state id="medium" />
			<state id="high" />
			<parents>clustVar</parents>
			<probabilities>0.104260584 0.821895383 0.070208166 0.003635867 0.29507013 0.5666684500000001 0.12449565 0.01376577 0.04110512958894871 0.9038683009613171 0.05417057945829421 0.0008559899914401002 0.21836437 0.770178243 0.010365382 0.001092005 0.06980329509301966 0.9269075927073093 0.002843275999715672 0.0004458361999554163 0.523133612 0.456284827 0.015680734 0.004900827 0.05827380200582738 0.9309631690930963 0.01016662150101666 0.0005964074000596408 0.12402947 0.79097524 0.06914534 0.01584995 0.006262036000000002 0.9861276760000002 0.007429707000000002 0.000180581 0.640677906 0.292208008 0.058545249 0.008568836999999999</probabilities>
		</cpt>
		<cpt id="x23112">
			<state id="x0" />
			<state id="low" />
			<state id="medium" />
			<state id="high" />
			<parents>clustVar</parents>
			<probabilities>0.04052567695947432 0.9156704600843295 0.04070851995929147 0.003095342996904657 0.17169377 0.72249431 0.09017965 0.01563227 0.01373241620137324 0.9625820779962583 0.02282812710228281 0.0008573787000857379 0.046621637 0.922026443 0.029524298 0.001827622 0.009017944700901797 0.9800744341980077 0.01046178320104618 0.0004458379000445839 0.2211795147788204 0.7265357992734641 0.04868968495131031 0.003595000996404999 0.0106796476 0.9715431499000002 0.0171333113 0.0006438912000000001 0.04413974204413975 0.8762144018762145 0.07278434207278435 0.006861514006861515 0.0015554823 0.9957708696000001 0.0024930715 0.0001805766 0.4139039035860961 0.5281048074718951 0.05008811594991188 0.007903172992096827</probabilities>
		</cpt>
		<cpt id="x57468">
			<state id="x0" />
			<state id="low" />
			<state id="medium" />
			<state id="high" />
			<parents>clustVar</parents>
			<probabilities>0.135607125 0.7622984820000001 0.10041736 0.001677033 0.35359807 0.51137854 0.11667185 0.01835154 0.081121863 0.872361757 0.044931669 0.001584711 0.2531564800000001 0.7049540200000001 0.03907323000000001 0.00281627 0.08835203040000002 0.8980941927000002 0.0128764893 0.0006772876000000001 0.9375465049375465 0.05177855805177856 0.008877428008877428 0.001797509001797509 0.0929964994 0.8868456077 0.019444189 0.0007137039 0.1638959 0.7167837 0.1004739 0.0188465 0.0430633431 0.9550640443 0.0016920453 0.0001805673 0.9407083500592917 0.05402284094597715 0.002634404997365595 0.002634403997365595</probabilities>
		</cpt>
		<cpt id="x9515">
			<state id="x0" />
			<state id="low" />
			<state id="medium" />
			<state id="high" />
			<parents>clustVar</parents>
			<probabilities>0.2410989996758901 0.7504505213249549 0.007658063599234193 0.0007924153999207585 0.3975626356024374 0.5576712174423287 0.03927376096072623 0.005492385994507614 0.02622745600262275 0.9219330270921934 0.05141115670514112 0.000428360200042836 0.2764701 0.7117830979999999 0.009241137 0.002505665 0.0192852889 0.9726268108 0.0076417705 0.0004461298 0.827769792 0.165491048 0.004941606 0.001797554 0.1116448094111645 0.8837253736883726 0.004033814300403381 0.0005960026000596002 0.06720949 0.81389157 0.10069912 0.01819982 0.0011935461 0.9871663206 0.0114595729 0.0001805604 0.942663697 0.046231672 0.005835889 0.005268742</probabilities>
		</cpt>
		<cpt id="x3778">
			<state id="x0" />
			<state id="low" />
			<state id="medium" />
			<state id="high" />
			<parents>clustVar</parents>
			<probabilities>0.275578497 0.673209444 0.050324435 0.0008876240000000001 0.39780536 0.5228657 0.06111084 0.0182181 0.04318068404318069 0.8804379178804379 0.07402134707402136 0.002360051002360052 0.2117958421179584 0.7697991976979918 0.0173915201739152 0.0010134400101344 0.0120920206 0.9678131095 0.0196490356 0.0004458343 0.5291064170000001 0.442181442 0.026914632 0.001797509 0.1305504781 0.8558873094 0.0129662086 0.0005960039 0.07965636 0.78121503 0.12698537 0.01214324 0.004129183800412919 0.986560404998656 0.009129848500912984 0.0001805627000180563 0.8645332489999999 0.130172683 0.002659664 0.002634404</probabilities>
		</cpt>
		<cpt id="x55294">
			<state id="x0" />
			<state id="low" />
			<state id="medium" />
			<state id="high" />
			<parents>clustVar</parents>
			<probabilities>0.4126855515873144 0.5774987764225011 0.009022115990977884 0.0007935559992064439 0.460673605393264 0.477928205220718 0.0454096595459034 0.0159885298401147 0.007614029 0.860458631 0.129481555 0.002445785 0.3977504226000001 0.5871232566000001 0.0142617129 0.0008646079000000002 0.004580207500000001 0.9796049397000002 0.0153688805 0.0004459723000000001 0.7874928130000002 0.2053267320000001 0.005382763 0.001797692 0.246434375 0.7522458164 0.0007237515 0.0005960571 0.02982434 0.69176285 0.24215979 0.03625302 0.0016160731 0.9739627555 0.0241910292 0.0002301422 0.874384239 0.117709892 0.002637076 0.005268793</probabilities>
		</cpt>
		<cpt id="x23518">
			<state id="x0" />
			<state id="low" />
			<state id="medium" />
			<state id="high" />
			<parents>clustVar</parents>
			<probabilities>0.1909132841809087 0.8056931555194307 0.002600324799739968 0.0007932354999206765 0.299706523 0.683096137 0.010682192 0.006515148 0.0012020208 0.9315424173000002 0.06682742780000002 0.0004281341000000001 0.2146168578 0.7820867093 0.0024317913 0.0008646416 0.0014732471 0.9935932886 0.0044876321 0.0004458322 0.6405022890000001 0.355902693 0.001797509000000001 0.001797509000000001 0.0691453477 0.9293459732 0.0009126800999999999 0.0005959990000000001 0.01048103 0.8317358800000002 0.14747211 0.01031098 0.000214791 0.9692604757 0.0303441729 0.0001805604 0.779405668 0.215325524 0.002634404 0.002634404</probabilities>
		</cpt>
		<cpt id="x5101">
			<state id="x0" />
			<state id="low" />
			<state id="medium" />
			<state id="high" />
			<parents>clustVar</parents>
			<probabilities>0.1730014252 0.8068207244000002 0.0193677307 0.0008101197000000002 0.319418604 0.636621218 0.035814401 0.008145777 0.001055865 0.9463464083999999 0.0521696 0.0004281266 0.27108362 0.723092313 0.00495944 0.000864627 0.0014185611 0.9919065272000001 0.0062290795 0.0004458322 0.04634452999999999 0.8832639409999998 0.06679450499999999 0.003597023999999999 0.08658253191341747 0.9092190700907808 0.003602398996397601 0.000595998999404001 0.008065633008065632 0.83600999983601 0.147045016147045 0.008879351008879353 0.0003645115 0.992459055 0.0069958731 0.0001805604 0.1469688853031115 0.6564531343546867 0.1676025832397417 0.02897539710246029</probabilities>
		</cpt>
		<cpt id="x6894">
			<state id="x0" />
			<state id="low" />
			<state id="medium" />
			<state id="high" />
			<parents>clustVar</parents>
			<probabilities>0.0702772059 0.8777592491 0.0510554783 0.0009080667 0.227565602275656 0.6552106765521066 0.09894497098944968 0.0182787501827875 0.01185965090118597 0.939768294293977 0.04786806240478682 0.0005039924000503994 0.0833952864 0.9075986552999999 0.0081413428 0.0008647155 0.0073346506 0.9821462319000001 0.0100732853 0.0004458322 0.4880351315119648 0.4946614455053385 0.01550591398449408 0.001797508998202491 0.04214003395785997 0.949352001050648 0.007911965992088033 0.000595998999404001 0.03697217963027821 0.7555629924443701 0.1874925581250744 0.0199722698002773 0.001187329099881267 0.9927049549007295 0.005927155599407284 0.000180560399981944 0.7116756682883243 0.2777801607222198 0.007909766992090232 0.002634403997365595</probabilities>
		</cpt>
		<cpt id="x285175">
			<state id="x0" />
			<state id="low" />
			<state id="medium" />
			<state id="high" />
			<parents>clustVar</parents>
			<probabilities>0.07872355000000002 0.8823177600000002 0.03658668000000001 0.00237201 0.273827834 0.614944878 0.10855428 0.002673008 0.01133262220113326 0.9370937758937093 0.05112370140511237 0.00044990050004499 0.1536822767 0.838053383 0.0073997231 0.0008646172 0.0153827289 0.9824666371 0.0017048018 0.0004458322 0.5902961330000001 0.3854798060000001 0.022426552 0.001797509000000001 0.0170904764 0.9666771850000002 0.0156363393 0.0005959993000000002 0.05804147058041469 0.8159343881593437 0.1148216811482168 0.0112024601120246 0.0005949110000000001 0.9866794595 0.0125450691 0.0001805604 0.9302821970697179 0.06087989693912011 0.006203501993796498 0.002634403997365596</probabilities>
		</cpt>
		<cpt id="x286411">
			<state id="x0" />
			<state id="low" />
			<state id="medium" />
			<state id="high" />
			<parents>clustVar</parents>
			<probabilities>0.019174679 0.96564533 0.014388818 0.000791173 0.16299513 0.8161563900000002 0.01818060000000001 0.002667880000000001 0.0015958745 0.9549686375999999 0.0429969647 0.0004385232 0.09071034660000001 0.9041280489 0.0042969977 0.0008646068 0.009865590200986559 0.9870388157987039 0.00262580440026258 0.000469789600046979 0.65014087 0.346097099 0.001964522 0.001797509 0.005586488899441351 0.9887165358011283 0.005100792899489921 0.0005961823999403818 0.028861281 0.8837230069999999 0.078414163 0.009001548999999999 0.0002104526 0.9350839867 0.0639932689 0.0007122918 0.595160058 0.399570914 0.002634624 0.002634404</probabilities>
		</cpt>
		<cpt id="x54715">
			<state id="x0" />
			<state id="low" />
			<state id="medium" />
			<state id="high" />
			<parents>clustVar</parents>
			<probabilities>0.2350644223506442 0.7176562771765628 0.04573502045735021 0.0015442800154428 0.3629848 0.5481838 0.0767726 0.0120588 0.01147839 0.8822219100000001 0.10287756 0.00342214 0.28589345 0.69990876 0.01287946 0.00131833 0.034574615 0.9571707114 0.0078071272 0.0004475464 0.784724854784725 0.2062422982062423 0.007235338007235338 0.001797509001797509 0.076226218 0.901703784 0.021473154 0.000596844 0.04800991999999998 0.8110966399999998 0.1227873 0.01810614 0.0008526525999147347 0.9844467038015553 0.01451905029854809 0.0001815932999818407 0.920508056 0.063682985 0.013174555 0.002634404</probabilities>
		</cpt>
		<cpt id="x10915">
			<state id="x0" />
			<state id="low" />
			<state id="medium" />
			<state id="high" />
			<parents>clustVar</parents>
			<probabilities>0.1474727787 0.7986301448000001 0.0531049398 0.0007921366999999999 0.311365803113658 0.5943720959437209 0.08365696083656959 0.0106051401060514 0.0185803372 0.9331790497 0.0478123037 0.0004283094 0.1281284688718715 0.8469787581530214 0.02314381897685618 0.001748953998251046 0.02986937880298694 0.9610470243961047 0.008637702900863771 0.0004458939000445894 0.462598818 0.500849981 0.034753692 0.001797509 0.0377857318 0.9483008857 0.0133173833 0.0005959992 0.05114701905114703 0.7557022697557023 0.184095996184096 0.009054715009054715 0.002661982699733802 0.9938350476006165 0.003322409299667759 0.000180560399981944 0.680231878 0.292660486 0.021838828 0.005268808</probabilities>
		</cpt>
		<cpt id="x58517">
			<state id="x0" />
			<state id="low" />
			<state id="medium" />
			<state id="high" />
			<parents>clustVar</parents>
			<probabilities>0.02818658819718134 0.9356532729064346 0.03536881849646312 0.000791320399920868 0.130650598693494 0.7435293825647061 0.1149928388500716 0.0108271798917282 0.0042614893 0.9561330965 0.0387665483 0.0008388659 0.0449294864 0.9334941645 0.0207117419 0.0008646072000000001 0.0033351011 0.9930298774 0.0031848642 0.0004501573 0.1868731698131268 0.7884179522115821 0.02291122497708878 0.001797652998202347 0.0090437881 0.980633516 0.0097266942 0.0005960017 0.02577337 0.82445281 0.13406155 0.01571227 0.0002090429000209043 0.9957912764995791 0.003813544300381355 0.0001861363000186136 0.2721912242721913 0.6905807846905808 0.0319593940319594 0.005268597005268597</probabilities>
		</cpt>
		<cpt id="x55112">
			<state id="x0" />
			<state id="low" />
			<state id="medium" />
			<state id="high" />
			<parents>clustVar</parents>
			<probabilities>0.20213159 0.764297887 0.03183573 0.001734793 0.37637626 0.53195875 0.07867378 0.01299121 0.0515090508 0.9132747087 0.0347386971 0.0004775434 0.2113484460000001 0.7369114920000001 0.04772010700000001 0.004019955000000001 0.04406046050440605 0.9350385502935039 0.02045509000204551 0.0004458992000445899 0.371748372 0.579515466 0.041283563 0.007452599 0.05769375594230624 0.9251786300748213 0.01653158298346841 0.000596030999403969 0.14779053 0.68861393 0.14509653 0.01849901 0.0028809671 0.991305871 0.0056326015 0.0001805604 0.7665913162334087 0.2152057567847942 0.01331867098668133 0.004884255995115744</probabilities>
		</cpt>
		<cpt id="x1655">
			<state id="x0" />
			<state id="low" />
			<state id="medium" />
			<state id="high" />
			<parents>clustVar</parents>
			<probabilities>0.0115248879 0.9240667037 0.06359615070000001 0.0008122577 0.06744271067442711 0.8363515183635152 0.06702827067028271 0.029177500291775 0.002399545 0.9535898390000001 0.042616545 0.001394071 0.05665692905665694 0.9392662639392664 0.003212182003212182 0.0008646250008646252 0.002634280199736572 0.9919680964008031 0.004950476099504953 0.0004471472999552853 0.056641535 0.823706309 0.112468694 0.007183462 0.0043466698 0.9832839459 0.0117732138 0.0005961705 0.008043073 0.784364265 0.196779126 0.010813536 0.0001875315 0.9933080769 0.0063238309 0.0001805607 0.1204316 0.7508635400000002 0.1102544 0.01845046</probabilities>
		</cpt>
		<cpt id="x8925">
			<state id="x0" />
			<state id="low" />
			<state id="medium" />
			<state id="high" />
			<parents>clustVar</parents>
			<probabilities>0.1217325922 0.8324472327000002 0.04502625690000001 0.0007939182000000002 0.2585394374146057 0.6564420334355796 0.07169241928307582 0.0133261098667389 0.018217153 0.9176223 0.063110974 0.001049573 0.1475988237 0.8214322586 0.0301034889 0.0008654288 0.01060631 0.968725095 0.019934934 0.000733661 0.4785252165214748 0.4834895775165104 0.03258834096741167 0.005396864994603135 0.04122515 0.9449155303 0.0132596684 0.0005996513 0.04922367000000001 0.8010279100000002 0.12737981 0.02236861 0.001175733199882427 0.9911152263008886 0.007526190199247381 0.000182850299981715 0.538819688 0.416557362 0.036719714 0.007903235999999999</probabilities>
		</cpt>
		<cpt id="x780813">
			<state id="x0" />
			<state id="low" />
			<state id="medium" />
			<state id="high" />
			<parents>clustVar</parents>
			<probabilities>0.233629989 0.728396792 0.033487025 0.004486194 0.285580167 0.674114819 0.034747939 0.005557075 0.068739298 0.898432512 0.030830125 0.001998065 0.140203036 0.828451142 0.028866848 0.002478974 0.0309263209 0.950186188 0.0183475304 0.0005399607 0.356191637 0.6101891860000001 0.028222699 0.005396478 0.1236918633 0.8588126445000001 0.0166616337 0.0008338585 0.11274847 0.80325298 0.07698215 0.0070164 0.0119830556 0.9689953968 0.0188409218 0.0001806258 0.402283899 0.592226705 0.00285492 0.002634476</probabilities>
		</cpt>
		<cpt id="x347746">
			<state id="x0" />
			<state id="low" />
			<state id="medium" />
			<state id="high" />
			<parents>clustVar</parents>
			<probabilities>0.1177030668822969 0.8074000731925999 0.07035171692964827 0.004545142995454856 0.21237987 0.7222081 0.05899584 0.00641619 0.051396273 0.892390201 0.054607117 0.001606409 0.07084588410000001 0.9039612807 0.0243282203 0.0008646149 0.0288931981 0.9629681389 0.0076928267 0.0004458363 0.6142421903857578 0.3568783676431216 0.02528420497471579 0.003595236996404762 0.01954007780195401 0.9544545478954455 0.02540791810254079 0.0005974562000597456 0.1857296271857297 0.726067890726068 0.08345891708345891 0.004743565004743566 0.0065418949 0.9821688594 0.0111086853 0.0001805604 0.7772510477772512 0.199218021199218 0.01826267901826268 0.005268252005268253</probabilities>
		</cpt>
		<cpt id="x54737">
			<state id="x0" />
			<state id="low" />
			<state id="medium" />
			<state id="high" />
			<parents>clustVar</parents>
			<probabilities>0.025319227 0.924282709 0.049371623 0.001026441 0.09449045000000003 0.7569265900000002 0.11622903 0.03235393000000001 0.0006224976000622497 0.9435611102943561 0.05538821650553882 0.0004281756000428176 0.0381546960381547 0.8868876678868878 0.07284868907284869 0.002108947002108947 0.002444718900000001 0.9865028918000002 0.0106063724 0.0004460169000000001 0.2363617167636383 0.7331610212668391 0.02867888797132111 0.001798373998201626 0.0028290792 0.9886879803 0.007885807999999999 0.0005971325 0.04282619000000001 0.7713994200000002 0.16962791 0.01614648 0.0007334905 0.9970138515 0.0020720976 0.0001805604 0.377483218 0.593513643 0.026368735 0.002634404</probabilities>
		</cpt>
		<cpt id="x9295">
			<state id="x0" />
			<state id="low" />
			<state id="medium" />
			<state id="high" />
			<parents>clustVar</parents>
			<probabilities>0.0218096169 0.9421056267 0.0352185107 0.0008662457 0.071245082 0.822207342 0.101462768 0.005084808 0.002067059400000001 0.9554257674000002 0.04207904660000001 0.0004281266000000001 0.0356178653 0.9522726678 0.0112448601 0.0008646068 0.0030182438 0.9886702805000001 0.0078656435 0.0004458322 0.2069812972069813 0.7598138237598139 0.02961163302961163 0.003593246003593246 0.0007016688999298331 0.9902619625009738 0.008440369599155964 0.0005959989999404002 0.005182395005182396 0.8057214038057214 0.1755168021755168 0.0135793990135794 0.0001877505 0.9963144657 0.0033172234 0.0001805604 0.2167586221675862 0.6911106569111065 0.0789562107895621 0.0131745101317451</probabilities>
		</cpt>
		<cpt id="x7345">
			<state id="x0" />
			<state id="low" />
			<state id="medium" />
			<state id="high" />
			<parents>clustVar</parents>
			<probabilities>0.012748959 0.905249693 0.08030187699999999 0.001699471 0.08163718918362811 0.7897610621023894 0.1182273488177265 0.010374399896256 0.001181591 0.901328504 0.09338732299999999 0.004102582 0.0738477172 0.9218833476 0.0034043256 0.0008646096 0.009935251800993524 0.9857749608985775 0.003578307000357831 0.0007114803000711481 0.6851893720000001 0.3101357240000001 0.002877395 0.001797509000000001 0.0061605297 0.9663303421 0.0269023526 0.0006067756 0.006668033000000002 0.8299701810000002 0.15031051 0.013051276 0.0003816058 0.985122811 0.014314867 0.0001807162 0.7172042062827959 0.2652261007347739 0.01493528898506471 0.002634403997365596</probabilities>
		</cpt>
		<cpt id="x151613">
			<state id="x0" />
			<state id="low" />
			<state id="medium" />
			<state id="high" />
			<parents>clustVar</parents>
			<probabilities>0.09373964999999999 0.8189833520000001 0.082428284 0.004848714 0.32821034 0.54452906 0.11084419 0.01641641 0.0313217711 0.9113492897 0.056462821 0.0008661182 0.1540003494 0.8219309674 0.0231944057 0.0008742775 0.0342103918 0.9597250606 0.0056184634 0.0004460842 0.329586929 0.582773972 0.08048728300000001 0.007151816 0.04584275469541572 0.9325741549067426 0.02098336419790166 0.0005997261999400274 0.07346563 0.77659072 0.12351784 0.02642581 0.00232060069976794 0.9886469670011353 0.008851871899114813 0.000180560399981944 0.5108155848918441 0.3853845261461547 0.09056530909434689 0.0132345798676542</probabilities>
		</cpt>
		<cpt id="x100128906">
			<state id="x0" />
			<state id="low" />
			<state id="medium" />
			<state id="high" />
			<parents>clustVar</parents>
			<probabilities>0.000791174 0.9971771065 0.0012378156 0.0007939039 0.00266788 0.945539374 0.049124864 0.002667882 0.0004281275999571872 0.9979905142002009 0.001152975099884702 0.0004283830999571617 0.0008921097000000002 0.8717486777000002 0.126404942 0.0009542706000000002 0.0008774634 0.9446829074 0.0531629781 0.0012766511 0.001797509 0.957195934 0.039208066 0.001798491 0.0005960220000000001 0.9941670009000002 0.004629562000000001 0.0006074151000000001 0.002263530997736469 0.9303283480696716 0.06285942093714057 0.0045486999954513 0.000180560400018056 0.9974271125997428 0.002211765900221177 0.0001805611000180561 0.002634404 0.93602477 0.056073458 0.005267368</probabilities>
		</cpt>
		<cpt id="x490">
			<state id="x0" />
			<state id="low" />
			<state id="medium" />
			<state id="high" />
			<parents>clustVar</parents>
			<probabilities>0.07286194999999999 0.86014462 0.06289976 0.00409367 0.1234669787653302 0.7658150623418495 0.09974207900257921 0.0109758798902412 0.0011653715 0.8130314591000002 0.1851807362 0.0006224332000000001 0.08370931390837093 0.9062203633906221 0.009196472300919648 0.0008738504000873851 0.0027278304 0.9887747858 0.0080510711 0.0004463127 0.557810981 0.431435815 0.008955695 0.001797509 0.045881928 0.950044549 0.00306886 0.001004663 0.008227432008227432 0.7579835967579837 0.200830991200831 0.03295798003295798 0.0002646296 0.9737302453 0.0258245647 0.0001805604 0.691691668 0.287236472 0.018437456 0.002634404</probabilities>
		</cpt>
		<cpt id="x9406">
			<state id="x0" />
			<state id="low" />
			<state id="medium" />
			<state id="high" />
			<parents>clustVar</parents>
			<probabilities>0.0135111541 0.9531343421 0.0325401969 0.0008143069 0.08054836999999999 0.74326846 0.16558997 0.0105932 0.002000708799799929 0.9431058054056894 0.05446535699455346 0.0004281287999571871 0.03431938400343194 0.9360965658936097 0.02871942980287194 0.0008646203000864621 0.0004982811000498281 0.9942007683994202 0.004855118300485512 0.0004458322000445832 0.199070238 0.784406431 0.014725822 0.001797509 0.004860477 0.988014179 0.006529345 0.0005959990000000001 0.009819148 0.776208746 0.207181304 0.006790802 0.0001805632999819437 0.9981669187001833 0.001471957599852804 0.000180560399981944 0.329314361 0.624192921 0.043858314 0.002634404</probabilities>
		</cpt>
		<cpt id="x4133">
			<state id="x0" />
			<state id="low" />
			<state id="medium" />
			<state id="high" />
			<parents>clustVar</parents>
			<probabilities>0.008603397 0.8735268470000001 0.115451549 0.002418207 0.05820444 0.8226221 0.10326659 0.01590687 0.001895184998104815 0.9340459720659542 0.0622424069377576 0.001816435998183564 0.018747226 0.958872113 0.020649789 0.001730872 0.00428549319957145 0.9936317511006368 0.001634368999836563 0.0004483866999551613 0.4624325094624325 0.5127484885127485 0.02147618002147618 0.003342822003342822 0.0007907278000790728 0.9510771513951077 0.04753414530475341 0.0005979755000597975 0.01576732 0.84578968 0.11642477 0.02201823 0.0002128817 0.9865606295 0.0130459193 0.0001805695 0.8241799011758201 0.1647943888352056 0.008021700991978298 0.003004008996995991</probabilities>
		</cpt>
		<cpt id="x2823">
			<state id="x0" />
			<state id="low" />
			<state id="medium" />
			<state id="high" />
			<parents>clustVar</parents>
			<probabilities>0.001519549001519549 0.77897997277898 0.2023255272023256 0.01717495101717495 0.0240990097590099 0.7435337225646629 0.1947754080522459 0.0375918596240814 0.0004367454 0.9030545736 0.092629294 0.003879387 0.0308478264 0.9504483053 0.0177049325 0.0009989357999999999 0.001756780000175678 0.9941661111994166 0.003630930600363093 0.0004461782000446178 0.091667574 0.837462343 0.061871677 0.008998406 0.008056255999999999 0.961987614 0.028767481 0.001188649 0.002263732997736267 0.8631290551368709 0.1188001628811998 0.01580704898419295 0.0001805611000180561 0.9953633030995364 0.004275575200427558 0.0001805606000180561 0.7294479810000001 0.2615152510000001 0.006402324000000002 0.002634444000000001</probabilities>
		</cpt>
		<cpt id="x9611">
			<state id="x0" />
			<state id="low" />
			<state id="medium" />
			<state id="high" />
			<parents>clustVar</parents>
			<probabilities>0.129385609 0.7654722309999999 0.09971648599999999 0.005425674 0.3251303932513039 0.5612345056123451 0.09906172099061722 0.0145733801457338 0.040707471 0.879005088 0.078861849 0.001425592 0.2051612212051613 0.7502504387502505 0.04008747404008747 0.004500866004500867 0.06926293260692629 0.918240230291824 0.01204731140120473 0.0004495257000449526 0.35766677 0.54135981 0.08660299 0.01437043 0.0747266863 0.9005783234 0.0240667167 0.0006282736 0.1292034251292034 0.7202412567202413 0.1437174401437175 0.006837878006837879 0.0109589683 0.9831370639 0.0055313889 0.0003725789 0.49456436 0.41439352 0.0752284 0.01581372</probabilities>
		</cpt>
		<cpt id="x6430">
			<state id="x0" />
			<state id="low" />
			<state id="medium" />
			<state id="high" />
			<parents>clustVar</parents>
			<probabilities>0.009150149 0.906740545 0.081801928 0.002307378 0.084856154 0.8450078130000001 0.06724516699999999 0.002890866 0.004080485 0.9181279236 0.0768773868 0.0009142046 0.05984242160598424 0.9366576964936657 0.002635265300263527 0.0008646166000864617 0.0090024248 0.9898818101 0.0006699329 0.0004458322 0.07289727392710271 0.8533675981466323 0.06834246093165752 0.005392666994607333 0.003146561 0.973633866 0.022623574 0.0005959990000000001 0.02585779999999999 0.8583961099999998 0.10020777 0.01553832 0.0003637691999636231 0.9716370326028363 0.02781863749721813 0.0001805606999819439 0.1117483 0.83038698 0.04732731 0.01053741</probabilities>
		</cpt>
		<cpt id="x1759">
			<state id="x0" />
			<state id="low" />
			<state id="medium" />
			<state id="high" />
			<parents>clustVar</parents>
			<probabilities>0.060684709 0.837104414 0.09323916 0.008971717000000001 0.17158962 0.72356822 0.08174035 0.02310181 0.00942085099057915 0.8649956311350044 0.1218903518781097 0.003693165996306834 0.069990308 0.905472016 0.02283723 0.001700446 0.0048671381 0.9623239029 0.0319195165 0.0008894425 0.7555992542444007 0.2396377167603623 0.00296551999703448 0.001797508998202491 0.0192518 0.92477236 0.0544649 0.00151094 0.04028436 0.74233531 0.19504521 0.02233512 0.0008575762 0.9860874581 0.01287253 0.0001824357 0.8875338220000002 0.101132546 0.006064824000000002 0.005268808000000001</probabilities>
		</cpt>
		<cpt id="x7267">
			<state id="x0" />
			<state id="low" />
			<state id="medium" />
			<state id="high" />
			<parents>clustVar</parents>
			<probabilities>0.008591368 0.907418757 0.08231032100000001 0.001679554 0.03612514963874851 0.7973159620268404 0.1534633684653663 0.0130955198690448 0.0031730833 0.9487554379000001 0.0476430187 0.0004284601 0.016367305 0.953133704 0.027073446 0.003425545 0.001110622 0.9873940701 0.0110494726 0.0004458353 0.227086876 0.735425828 0.035689179 0.001798117 0.0008731995000873199 0.9847549443984754 0.01377071490137707 0.0006011412000601141 0.005874726 0.813188401 0.171889175 0.009047698 0.0001806939 0.9931918347000001 0.006446911 0.0001805604 0.427752766 0.557868337 0.006476576 0.007902321</probabilities>
		</cpt>
		<cpt id="x1479">
			<state id="x0" />
			<state id="low" />
			<state id="medium" />
			<state id="high" />
			<parents>clustVar</parents>
			<probabilities>0.148967536 0.733694681 0.109594606 0.007743177 0.4037688924037689 0.4554316334554317 0.1338827001338827 0.006916774006916774 0.037250197 0.801782585 0.156920077 0.004047141 0.421923743 0.553557372 0.022885876 0.001633009 0.1573264658 0.8188236497 0.0229724767 0.0008774078 0.61302005 0.34267185 0.036792873 0.007515227 0.1572337119157234 0.8215481909821548 0.02061921220206192 0.0005988849000598885 0.1716318482836815 0.5765181342348187 0.2201025477989745 0.03174746968252531 0.0172670504 0.9673463933000001 0.0151550854 0.0002314709 0.7433608 0.1951232 0.038288 0.023228</probabilities>
		</cpt>
		<cpt id="x2891">
			<state id="x0" />
			<state id="low" />
			<state id="medium" />
			<state id="high" />
			<parents>clustVar</parents>
			<probabilities>0.0008586678 0.8709953019 0.1246819353 0.003464095 0.023411964 0.833133981 0.135451454 0.008002601 0.0004281354999571864 0.8638232607136177 0.1352752124864725 0.0004733912999526608 0.007550108500755011 0.97940017099794 0.01218494290121849 0.0008647776000864779 0.0004458323000445833 0.9938210782993822 0.005287257200528726 0.0004458322000445832 0.056023911 0.902317715 0.034468426 0.007189948 0.0005962868 0.9816748311 0.0167622762 0.0009666059 0.004519036004519036 0.6566018736566018 0.3164832403164833 0.02239585002239585 0.000180560399981944 0.9664641988033535 0.03317468039668253 0.000180560399981944 0.4116052954116053 0.5729452075729452 0.01281498301281498 0.002634514002634514</probabilities>
		</cpt>
		<cpt id="x10777">
			<state id="x0" />
			<state id="low" />
			<state id="medium" />
			<state id="high" />
			<parents>clustVar</parents>
			<probabilities>0.4862828227 0.4751400051 0.037717314 0.0008598582 0.4860382535139617 0.4677852275322147 0.03757638296242361 0.008600135991399863 0.003719445 0.754576962 0.225201815 0.016501778 0.4553891015446109 0.516102028483898 0.02172392097827608 0.006784948993215051 0.01205235080120524 0.9296334971929633 0.05739071060573907 0.0009234414000923441 0.631621078368379 0.3465323896534677 0.01796092298203908 0.003885608996114392 0.6612363123387636 0.3233798596766201 0.01425801598574198 0.001125811998874188 0.0202292702022927 0.6437865864378659 0.2886029228860292 0.04738122047381221 0.0011699694 0.9209210027 0.0776318733 0.0002771546 0.778463687 0.21438263 0.002652292 0.004501391</probabilities>
		</cpt>
		<cpt id="x51747">
			<state id="x0" />
			<state id="low" />
			<state id="medium" />
			<state id="high" />
			<parents>clustVar</parents>
			<probabilities>0.0007939715 0.8753543408 0.1222252344 0.0016264533 0.007821391 0.734306332 0.225724466 0.032147811 0.0004281653999571835 0.8781772544121822 0.1209664518879034 0.0004281282999571872 0.001691632 0.957827273 0.039614915 0.00086618 0.0004458321999554168 0.9928228112007178 0.006285524399371447 0.0004458321999554168 0.005595274994404726 0.8732152341267848 0.1176021188823979 0.003587371996412629 0.0005959990000000002 0.9789653680000002 0.019842634 0.0005959990000000002 0.00451825 0.56748088 0.40559883 0.02240204 0.0001805604 0.9942207964000001 0.0054180828 0.0001805604 0.0526861 0.84581954 0.0856885 0.01580586</probabilities>
		</cpt>
		<cpt id="x25957">
			<state id="x0" />
			<state id="low" />
			<state id="medium" />
			<state id="high" />
			<parents>clustVar</parents>
			<probabilities>0.0009050732999094927 0.9096159287090384 0.08868758879113124 0.0007914091999208591 0.022922864 0.802782839 0.168975356 0.005318941 0.0004331541 0.8768197331000001 0.1220680713 0.0006790415 0.0045296189 0.9606083548 0.0339922269 0.0008697994 0.0008676791 0.9781663223 0.0205201664 0.0004458322 0.01923936 0.82191326 0.14447869 0.01436869 0.0006211541000000001 0.9763556432000002 0.0224272037 0.0005959990000000002 0.00452661 0.59318994 0.38323829 0.01904516 0.0001805868 0.989037668 0.0106011848 0.0001805604 0.103588691 0.843512005 0.047613812 0.005285492</probabilities>
		</cpt>
		<cpt id="x378938">
			<state id="x0" />
			<state id="low" />
			<state id="medium" />
			<state id="high" />
			<parents>clustVar</parents>
			<probabilities>0.000791173 0.581625158 0.41598358 0.001600089 0.004887075004887075 0.6472600696472601 0.339848013339848 0.008004842008004843 0.0004281265999999999 0.2711719178999999 0.7271111890999999 0.0012887664 0.0009993758999999999 0.9110466777 0.0870872362 0.0008667102 0.0004458322 0.8778496588 0.1208837743 0.0008207347 0.001819631001819631 0.7093980567093982 0.2815934682815935 0.007188844007188845 0.000595998999404001 0.6823642773176356 0.315840990684159 0.001198732998801267 0.002263529 0.31299588 0.6278994369999999 0.056841154 0.000180560399981944 0.5533059756446693 0.4463328107553667 0.0001806531999819347 0.002634404 0.974472826 0.020256655 0.002636115</probabilities>
		</cpt>
		<cpt id="x55384">
			<state id="x0" />
			<state id="low" />
			<state id="medium" />
			<state id="high" />
			<parents>clustVar</parents>
			<probabilities>0.000791173 0.9102117232 0.0881871902 0.0008099136 0.002667912 0.966933303 0.027730905 0.00266788 0.0004281266 0.7571688107 0.2368714854 0.0055315773 0.0008650347000865035 0.9840696334984069 0.01420072400142007 0.0008646078000864608 0.0004458321999554168 0.9331309665066868 0.06571142919342886 0.0007117720999288228 0.16672284 0.829682142 0.001797509 0.001797509 0.0005959989994040011 0.9413208180586793 0.05661323794338678 0.001469944998530055 0.002263529002263529 0.6597028326597029 0.3112958243112958 0.02673781402673782 0.0001805604 0.6708894761999999 0.3278139946 0.0011159688 0.303608021 0.691123171 0.002634404 0.002634404</probabilities>
		</cpt>
		<cpt id="x440823">
			<state id="x0" />
			<state id="low" />
			<state id="medium" />
			<state id="high" />
			<parents>clustVar</parents>
			<probabilities>0.02406881 0.925791332 0.045284676 0.004855182 0.06836926993163071 0.85160990414839 0.07690325792309674 0.003117567996882432 0.0004960974 0.89724874 0.1001838703 0.0020712923 0.016667878 0.903483247 0.073274697 0.006574178 0.0008700806 0.8159014419 0.1779829129 0.0052455646 0.341194129 0.646329527 0.010678835 0.001797509 0.003767231996232769 0.9608218650391782 0.0317744099682256 0.003636492996363508 0.0022720899772791 0.690183303098167 0.2818256771817433 0.02571892974281071 0.0001813508000181351 0.9542860150954285 0.04534783930453478 0.0001847948000184795 0.849382286 0.145201345 0.002781965 0.002634404</probabilities>
		</cpt>
	</nodes>
	<extensions>
		<genie version="1.0" app="GeNIe 2.3.3705.0 ACADEMIC" name="Sub0" faultnameformat="nodestate">
			<node id="x3324">
				<name>x3324</name>
				<interior color="e5f6f7" />
				<outline color="0000bb" />
				<font color="000000" name="Arial" size="8" />
				<position>36 329 112 365</position>
				<barchart active="true" width="128" height="90" />
			</node>
			<node id="x26038">
				<name>x26038</name>
				<interior color="e5f6f7" />
				<outline color="0000bb" />
				<font color="000000" name="Arial" size="8" />
				<position>190 329 266 365</position>
				<barchart active="true" width="128" height="90" />
			</node>
			<node id="x9456">
				<name>x9456</name>
				<interior color="e5f6f7" />
				<outline color="0000bb" />
				<font color="000000" name="Arial" size="8" />
				<position>344 329 420 365</position>
				<barchart active="true" width="128" height="90" />
			</node>
			<node id="x334">
				<name>x334</name>
				<interior color="e5f6f7" />
				<outline color="0000bb" />
				<font color="000000" name="Arial" size="8" />
				<position>498 329 574 365</position>
				<barchart active="true" width="128" height="90" />
			</node>
			<node id="x6138">
				<name>x6138</name>
				<interior color="e5f6f7" />
				<outline color="0000bb" />
				<font color="000000" name="Arial" size="8" />
				<position>652 329 728 365</position>
				<barchart active="true" width="128" height="90" />
			</node>
			<node id="x23253">
				<name>x23253</name>
				<interior color="e5f6f7" />
				<outline color="0000bb" />
				<font color="000000" name="Arial" size="8" />
				<position>806 329 882 365</position>
				<barchart active="true" width="128" height="90" />
			</node>
			<node id="x94081">
				<name>x94081</name>
				<interior color="e5f6f7" />
				<outline color="0000bb" />
				<font color="000000" name="Arial" size="8" />
				<position>960 329 1036 365</position>
				<barchart active="true" width="128" height="90" />
			</node>
			<node id="x54843">
				<name>x54843</name>
				<interior color="e5f6f7" />
				<outline color="0000bb" />
				<font color="000000" name="Arial" size="8" />
				<position>1114 329 1190 365</position>
				<barchart active="true" width="128" height="90" />
			</node>
			<node id="x3274">
				<name>x3274</name>
				<interior color="e5f6f7" />
				<outline color="0000bb" />
				<font color="000000" name="Arial" size="8" />
				<position>1268 329 1344 365</position>
				<barchart active="true" width="128" height="90" />
			</node>
			<node id="x221692">
				<name>x221692</name>
				<interior color="e5f6f7" />
				<outline color="0000bb" />
				<font color="000000" name="Arial" size="8" />
				<position>1422 329 1498 365</position>
				<barchart active="true" width="128" height="90" />
			</node>
			<node id="x6000">
				<name>x6000</name>
				<interior color="e5f6f7" />
				<outline color="0000bb" />
				<font color="000000" name="Arial" size="8" />
				<position>1576 329 1652 365</position>
				<barchart active="true" width="128" height="90" />
			</node>
			<node id="x254531">
				<name>x254531</name>
				<interior color="e5f6f7" />
				<outline color="0000bb" />
				<font color="000000" name="Arial" size="8" />
				<position>1730 329 1806 365</position>
				<barchart active="true" width="128" height="90" />
			</node>
			<node id="x2908">
				<name>x2908</name>
				<interior color="e5f6f7" />
				<outline color="0000bb" />
				<font color="000000" name="Arial" size="8" />
				<position>1884 329 1960 365</position>
				<barchart active="true" width="128" height="90" />
			</node>
			<node id="x100130155">
				<name>x100130155</name>
				<interior color="e5f6f7" />
				<outline color="0000bb" />
				<font color="000000" name="Arial" size="8" />
				<position>2038 329 2114 365</position>
				<barchart active="true" width="128" height="90" />
			</node>
			<node id="x114088">
				<name>x114088</name>
				<interior color="e5f6f7" />
				<outline color="0000bb" />
				<font color="000000" name="Arial" size="8" />
				<position>2192 329 2268 365</position>
				<barchart active="true" width="128" height="90" />
			</node>
			<node id="x23230">
				<name>x23230</name>
				<interior color="e5f6f7" />
				<outline color="0000bb" />
				<font color="000000" name="Arial" size="8" />
				<position>2346 329 2422 365</position>
				<barchart active="true" width="128" height="90" />
			</node>
			<node id="x116966">
				<name>x116966</name>
				<interior color="e5f6f7" />
				<outline color="0000bb" />
				<font color="000000" name="Arial" size="8" />
				<position>2500 329 2576 365</position>
				<barchart active="true" width="128" height="90" />
			</node>
			<node id="x64062">
				<name>x64062</name>
				<interior color="e5f6f7" />
				<outline color="0000bb" />
				<font color="000000" name="Arial" size="8" />
				<position>2654 329 2730 365</position>
				<barchart active="true" width="128" height="90" />
			</node>
			<node id="x9645">
				<name>x9645</name>
				<interior color="e5f6f7" />
				<outline color="0000bb" />
				<font color="000000" name="Arial" size="8" />
				<position>2808 329 2884 365</position>
				<barchart active="true" width="128" height="90" />
			</node>
			<node id="x6262">
				<name>x6262</name>
				<interior color="e5f6f7" />
				<outline color="0000bb" />
				<font color="000000" name="Arial" size="8" />
				<position>2962 329 3038 365</position>
				<barchart active="true" width="128" height="90" />
			</node>
			<node id="x55814">
				<name>x55814</name>
				<interior color="e5f6f7" />
				<outline color="0000bb" />
				<font color="000000" name="Arial" size="8" />
				<position>3116 329 3192 365</position>
				<barchart active="true" width="128" height="90" />
			</node>
			<node id="x23613">
				<name>x23613</name>
				<interior color="e5f6f7" />
				<outline color="0000bb" />
				<font color="000000" name="Arial" size="8" />
				<position>3270 329 3346 365</position>
				<barchart active="true" width="128" height="90" />
			</node>
			<node id="x10147">
				<name>x10147</name>
				<interior color="e5f6f7" />
				<outline color="0000bb" />
				<font color="000000" name="Arial" size="8" />
				<position>3424 329 3500 365</position>
				<barchart active="true" width="128" height="90" />
			</node>
			<node id="x54904">
				<name>x54904</name>
				<interior color="e5f6f7" />
				<outline color="0000bb" />
				<font color="000000" name="Arial" size="8" />
				<position>3578 329 3654 365</position>
				<barchart active="true" width="128" height="90" />
			</node>
			<node id="x4898">
				<name>x4898</name>
				<interior color="e5f6f7" />
				<outline color="0000bb" />
				<font color="000000" name="Arial" size="8" />
				<position>3732 329 3808 365</position>
				<barchart active="true" width="128" height="90" />
			</node>
			<node id="x5411">
				<name>x5411</name>
				<interior color="e5f6f7" />
				<outline color="0000bb" />
				<font color="000000" name="Arial" size="8" />
				<position>3886 329 3962 365</position>
				<barchart active="true" width="128" height="90" />
			</node>
			<node id="x55704">
				<name>x55704</name>
				<interior color="e5f6f7" />
				<outline color="0000bb" />
				<font color="000000" name="Arial" size="8" />
				<position>4040 329 4116 365</position>
				<barchart active="true" width="128" height="90" />
			</node>
			<node id="x440270">
				<name>x440270</name>
				<interior color="e5f6f7" />
				<outline color="0000bb" />
				<font color="000000" name="Arial" size="8" />
				<position>4194 329 4270 365</position>
				<barchart active="true" width="128" height="90" />
			</node>
			<node id="x4897">
				<name>x4897</name>
				<interior color="e5f6f7" />
				<outline color="0000bb" />
				<font color="000000" name="Arial" size="8" />
				<position>4348 329 4424 365</position>
				<barchart active="true" width="128" height="90" />
			</node>
			<node id="x23077">
				<name>x23077</name>
				<interior color="e5f6f7" />
				<outline color="0000bb" />
				<font color="000000" name="Arial" size="8" />
				<position>4502 329 4578 365</position>
				<barchart active="true" width="128" height="90" />
			</node>
			<node id="x3535">
				<name>x3535</name>
				<interior color="e5f6f7" />
				<outline color="0000bb" />
				<font color="000000" name="Arial" size="8" />
				<position>4656 329 4732 365</position>
				<barchart active="true" width="128" height="90" />
			</node>
			<node id="x9284">
				<name>x9284</name>
				<interior color="e5f6f7" />
				<outline color="0000bb" />
				<font color="000000" name="Arial" size="8" />
				<position>4810 329 4886 365</position>
				<barchart active="true" width="128" height="90" />
			</node>
			<node id="x5310">
				<name>x5310</name>
				<interior color="e5f6f7" />
				<outline color="0000bb" />
				<font color="000000" name="Arial" size="8" />
				<position>4964 329 5040 365</position>
				<barchart active="true" width="128" height="90" />
			</node>
			<node id="x4297">
				<name>x4297</name>
				<interior color="e5f6f7" />
				<outline color="0000bb" />
				<font color="000000" name="Arial" size="8" />
				<position>5118 329 5194 365</position>
				<barchart active="true" width="128" height="90" />
			</node>
			<node id="x5297">
				<name>x5297</name>
				<interior color="e5f6f7" />
				<outline color="0000bb" />
				<font color="000000" name="Arial" size="8" />
				<position>5272 329 5348 365</position>
				<barchart active="true" width="128" height="90" />
			</node>
			<node id="x8499">
				<name>x8499</name>
				<interior color="e5f6f7" />
				<outline color="0000bb" />
				<font color="000000" name="Arial" size="8" />
				<position>5426 329 5502 365</position>
				<barchart active="true" width="128" height="90" />
			</node>
			<node id="x55904">
				<name>x55904</name>
				<interior color="e5f6f7" />
				<outline color="0000bb" />
				<font color="000000" name="Arial" size="8" />
				<position>5580 329 5656 365</position>
				<barchart active="true" width="128" height="90" />
			</node>
			<node id="x57035">
				<name>x57035</name>
				<interior color="e5f6f7" />
				<outline color="0000bb" />
				<font color="000000" name="Arial" size="8" />
				<position>5734 329 5810 365</position>
				<barchart active="true" width="128" height="90" />
			</node>
			<node id="x10905">
				<name>x10905</name>
				<interior color="e5f6f7" />
				<outline color="0000bb" />
				<font color="000000" name="Arial" size="8" />
				<position>5888 329 5964 365</position>
				<barchart active="true" width="128" height="90" />
			</node>
			<node id="x28978">
				<name>x28978</name>
				<interior color="e5f6f7" />
				<outline color="0000bb" />
				<font color="000000" name="Arial" size="8" />
				<position>6042 329 6118 365</position>
				<barchart active="true" width="128" height="90" />
			</node>
			<node id="x6134">
				<name>x6134</name>
				<interior color="e5f6f7" />
				<outline color="0000bb" />
				<font color="000000" name="Arial" size="8" />
				<position>6196 329 6272 365</position>
				<barchart active="true" width="128" height="90" />
			</node>
			<node id="x54460">
				<name>x54460</name>
				<interior color="e5f6f7" />
				<outline color="0000bb" />
				<font color="000000" name="Arial" size="8" />
				<position>6350 329 6426 365</position>
				<barchart active="true" width="128" height="90" />
			</node>
			<node id="x80205">
				<name>x80205</name>
				<interior color="e5f6f7" />
				<outline color="0000bb" />
				<font color="000000" name="Arial" size="8" />
				<position>6504 329 6580 365</position>
				<barchart active="true" width="128" height="90" />
			</node>
			<node id="x56853">
				<name>x56853</name>
				<interior color="e5f6f7" />
				<outline color="0000bb" />
				<font color="000000" name="Arial" size="8" />
				<position>6658 329 6734 365</position>
				<barchart active="true" width="128" height="90" />
			</node>
			<node id="x577">
				<name>x577</name>
				<interior color="e5f6f7" />
				<outline color="0000bb" />
				<font color="000000" name="Arial" size="8" />
				<position>6812 329 6888 365</position>
				<barchart active="true" width="128" height="90" />
			</node>
			<node id="x9324">
				<name>x9324</name>
				<interior color="e5f6f7" />
				<outline color="0000bb" />
				<font color="000000" name="Arial" size="8" />
				<position>6966 329 7042 365</position>
				<barchart active="true" width="128" height="90" />
			</node>
			<node id="x5789">
				<name>x5789</name>
				<interior color="e5f6f7" />
				<outline color="0000bb" />
				<font color="000000" name="Arial" size="8" />
				<position>7120 329 7196 365</position>
				<barchart active="true" width="128" height="90" />
			</node>
			<node id="x54212">
				<name>x54212</name>
				<interior color="e5f6f7" />
				<outline color="0000bb" />
				<font color="000000" name="Arial" size="8" />
				<position>7274 329 7350 365</position>
				<barchart active="true" width="128" height="90" />
			</node>
			<node id="x4331">
				<name>x4331</name>
				<interior color="e5f6f7" />
				<outline color="0000bb" />
				<font color="000000" name="Arial" size="8" />
				<position>7428 329 7504 365</position>
				<barchart active="true" width="128" height="90" />
			</node>
			<node id="x64848">
				<name>x64848</name>
				<interior color="e5f6f7" />
				<outline color="0000bb" />
				<font color="000000" name="Arial" size="8" />
				<position>7582 329 7658 365</position>
				<barchart active="true" width="128" height="90" />
			</node>
			<node id="x6432">
				<name>x6432</name>
				<interior color="e5f6f7" />
				<outline color="0000bb" />
				<font color="000000" name="Arial" size="8" />
				<position>7736 329 7812 365</position>
				<barchart active="true" width="128" height="90" />
			</node>
			<node id="x5144">
				<name>x5144</name>
				<interior color="e5f6f7" />
				<outline color="0000bb" />
				<font color="000000" name="Arial" size="8" />
				<position>7890 329 7966 365</position>
				<barchart active="true" width="128" height="90" />
			</node>
			<node id="x140890">
				<name>x140890</name>
				<interior color="e5f6f7" />
				<outline color="0000bb" />
				<font color="000000" name="Arial" size="8" />
				<position>8044 329 8120 365</position>
				<barchart active="true" width="128" height="90" />
			</node>
			<node id="x23262">
				<name>x23262</name>
				<interior color="e5f6f7" />
				<outline color="0000bb" />
				<font color="000000" name="Arial" size="8" />
				<position>8198 329 8274 365</position>
				<barchart active="true" width="128" height="90" />
			</node>
			<node id="x9475">
				<name>x9475</name>
				<interior color="e5f6f7" />
				<outline color="0000bb" />
				<font color="000000" name="Arial" size="8" />
				<position>8352 329 8428 365</position>
				<barchart active="true" width="128" height="90" />
			</node>
			<node id="x8997">
				<name>x8997</name>
				<interior color="e5f6f7" />
				<outline color="0000bb" />
				<font color="000000" name="Arial" size="8" />
				<position>8506 329 8582 365</position>
				<barchart active="true" width="128" height="90" />
			</node>
			<node id="x55082">
				<name>x55082</name>
				<interior color="e5f6f7" />
				<outline color="0000bb" />
				<font color="000000" name="Arial" size="8" />
				<position>8660 329 8736 365</position>
				<barchart active="true" width="128" height="90" />
			</node>
			<node id="x9699">
				<name>x9699</name>
				<interior color="e5f6f7" />
				<outline color="0000bb" />
				<font color="000000" name="Arial" size="8" />
				<position>8814 329 8890 365</position>
				<barchart active="true" width="128" height="90" />
			</node>
			<node id="x10439">
				<name>x10439</name>
				<interior color="e5f6f7" />
				<outline color="0000bb" />
				<font color="000000" name="Arial" size="8" />
				<position>8968 329 9044 365</position>
				<barchart active="true" width="128" height="90" />
			</node>
			<node id="x9987">
				<name>x9987</name>
				<interior color="e5f6f7" />
				<outline color="0000bb" />
				<font color="000000" name="Arial" size="8" />
				<position>9122 329 9198 365</position>
				<barchart active="true" width="128" height="90" />
			</node>
			<node id="x4673">
				<name>x4673</name>
				<interior color="e5f6f7" />
				<outline color="0000bb" />
				<font color="000000" name="Arial" size="8" />
				<position>9276 329 9352 365</position>
				<barchart active="true" width="128" height="90" />
			</node>
			<node id="x23112">
				<name>x23112</name>
				<interior color="e5f6f7" />
				<outline color="0000bb" />
				<font color="000000" name="Arial" size="8" />
				<position>9430 329 9506 365</position>
				<barchart active="true" width="128" height="90" />
			</node>
			<node id="x57468">
				<name>x57468</name>
				<interior color="e5f6f7" />
				<outline color="0000bb" />
				<font color="000000" name="Arial" size="8" />
				<position>9584 329 9660 365</position>
				<barchart active="true" width="128" height="90" />
			</node>
			<node id="x9515">
				<name>x9515</name>
				<interior color="e5f6f7" />
				<outline color="0000bb" />
				<font color="000000" name="Arial" size="8" />
				<position>9738 329 9814 365</position>
				<barchart active="true" width="128" height="90" />
			</node>
			<node id="x3778">
				<name>x3778</name>
				<interior color="e5f6f7" />
				<outline color="0000bb" />
				<font color="000000" name="Arial" size="8" />
				<position>9892 329 9968 365</position>
				<barchart active="true" width="128" height="90" />
			</node>
			<node id="x55294">
				<name>x55294</name>
				<interior color="e5f6f7" />
				<outline color="0000bb" />
				<font color="000000" name="Arial" size="8" />
				<position>10046 329 10122 365</position>
				<barchart active="true" width="128" height="90" />
			</node>
			<node id="x23518">
				<name>x23518</name>
				<interior color="e5f6f7" />
				<outline color="0000bb" />
				<font color="000000" name="Arial" size="8" />
				<position>10200 329 10276 365</position>
				<barchart active="true" width="128" height="90" />
			</node>
			<node id="x5101">
				<name>x5101</name>
				<interior color="e5f6f7" />
				<outline color="0000bb" />
				<font color="000000" name="Arial" size="8" />
				<position>10354 329 10430 365</position>
				<barchart active="true" width="128" height="90" />
			</node>
			<node id="x6894">
				<name>x6894</name>
				<interior color="e5f6f7" />
				<outline color="0000bb" />
				<font color="000000" name="Arial" size="8" />
				<position>10508 329 10584 365</position>
				<barchart active="true" width="128" height="90" />
			</node>
			<node id="x285175">
				<name>x285175</name>
