<?xml version="1.0" encoding="ISO-8859-1"?>
<!-- This network was created in GeNIe Academic, which can be used for educational and research purposes only -->
<smile version="1.0" id="Sub0" numsamples="10000" discsamples="10000">
	<nodes>
		<cpt id="clustVar">
			<state id="cluster_1" />
			<state id="cluster_2" />
			<state id="cluster_3" />
			<state id="cluster_4" />
			<state id="cluster_5" />
			<state id="cluster_6" />
			<state id="cluster_7" />
			<state id="cluster_8" />
			<state id="cluster_9" />
			<probabilities>0.13966741 0.03609146 0.14785744 0.02341782 0.35326027 0.02404725 0.14777363 0.05511776 0.07276696000000001</probabilities>
		</cpt>
		<cpt id="x3324">
			<state id="x0" />
			<state id="low" />
			<state id="medium" />
			<state id="high" />
			<parents>clustVar</parents>
			<probabilities>0.3060372977 0.6930653905 0.0004486559 0.0004486559 0.6843547693156452 0.3121861566878139 0.001729536998270463 0.001729536998270463 0.3130963695 0.6860559498 0.0004238358 0.0004238449 0.550283954449716 0.4443998615556001 0.002658091997341908 0.002658091997341908 0.4243350648575665 0.575309878742469 0.0001775281999822472 0.0001775281999822472 0.4410350145589649 0.5512277534487722 0.002589056997410943 0.005148174994851824 0.6452827672645283 0.3538690806353869 0.0004240759000424076 0.0004240762000424077 0.165195057 0.832535654 0.001134544 0.001134745 0.6266842101 0.3715858629 0.0008600767 0.0008698503</probabilities>
		</cpt>
		<cpt id="x26038">
			<state id="x0" />
			<state id="low" />
			<state id="medium" />
			<state id="high" />
			<parents>clustVar</parents>
			<probabilities>0.03971291080397129 0.9541319696954133 0.005550653400555066 0.0006044661000604467 0.947613674 0.047090265 0.003531226 0.001764835 0.0194859482 0.9666130868999998 0.0134434408 0.0004575240999999999 0.939408898 0.055274918 0.002658092 0.002658092 0.003422732800342273 0.9949007501994901 0.001498976300149898 0.0001775407000177541 0.07664883 0.8027881100000001 0.11027636 0.0102867 0.009547506000000001 0.967278693 0.021923768 0.001250033 0.1246959188753041 0.8483447381516553 0.02578174397421826 0.001177598998822401 0.10655263 0.8031366599999999 0.07689868 0.01341203</probabilities>
		</cpt>
		<cpt id="x9456">
			<state id="x0" />
			<state id="low" />
			<state id="medium" />
			<state id="high" />
			<parents>clustVar</parents>
			<probabilities>0.5077504366000001 0.4867549337000001 0.005032029800000001 0.0004625999000000001 0.8697260701302738 0.1095811498904188 0.01724261098275739 0.00345016899654983 0.1814945811814946 0.7231970837231971 0.08748812708748813 0.007820208007820208 0.927318927072681 0.06733052393266947 0.002678763997321236 0.002671784997328215 0.04874792330000002 0.9229075948000002 0.02785972310000001 0.0004847588000000001 0.2297873422978734 0.5664158056641579 0.1702345717023457 0.0335622803356228 0.2418573220241858 0.7389480840738948 0.0184230264018423 0.0007715675000771567 0.621731795 0.351692672 0.02430051 0.002275023 0.650793939349206 0.3330002976669996 0.0119057989880942 0.004299963995700036</probabilities>
		</cpt>
		<cpt id="x334">
			<state id="x0" />
			<state id="low" />
			<state id="medium" />
			<state id="high" />
			<parents>clustVar</parents>
			<probabilities>0.05067176300000002 0.8482163840000002 0.09415563700000003 0.006956216000000002 0.650898698 0.31665651 0.029071167 0.003373625 0.128742507 0.844626839 0.025352545 0.001278109 0.747849982 0.216922753 0.027121637 0.008105628 0.05766017860576602 0.9399871364939987 0.002175086300217509 0.0001775986000177598 0.2689725762689726 0.689738829689739 0.03609542503609543 0.00519316900519317 0.2076132603792387 0.7904148145209586 0.001547450999845255 0.0004244740999575527 0.08401015000000001 0.65391767 0.21882733 0.04324485 0.320219692 0.66348525 0.015128646 0.001166412</probabilities>
		</cpt>
		<cpt id="x6138">
			<state id="x0" />
			<state id="low" />
			<state id="medium" />
			<state id="high" />
			<parents>clustVar</parents>
			<probabilities>0.1926920749192692 0.7709210884770921 0.03574114400357412 0.0006456926000645692 0.6473741110000001 0.325162166 0.020556565 0.006907158000000002 0.139012486 0.803552945 0.05561002 0.001824549 0.620464003 0.330938821 0.045922197 0.002674979 0.09591505519040849 0.9009732778099027 0.002772404899722759 0.0003392620999660738 0.2846106407153893 0.6184342133815657 0.08699979291300021 0.009955352990044646 0.2882718013 0.7057244679 0.0055780302 0.0004257006 0.18877432 0.64698427 0.14452622 0.01971519 0.4372929057437293 0.5435037489543504 0.01824113290182411 0.0009622124000962212</probabilities>
		</cpt>
		<cpt id="x23253">
			<state id="x0" />
			<state id="low" />
			<state id="medium" />
			<state id="high" />
			<parents>clustVar</parents>
			<probabilities>0.02381143300000001 0.9546966100000002 0.019941343 0.001550614000000001 0.31106061 0.6439399099999999 0.03414426 0.01085522 0.0589003458 0.9250329701 0.0156428429 0.0004238412 0.3229519132295191 0.5759552357595523 0.08853961088539609 0.0125532401255324 0.0123179515987682 0.9870733251012926 0.0004311950999568804 0.0001775281999822472 0.171730469 0.737923533 0.085164193 0.005181805 0.0640997123 0.9337100645 0.0017661471 0.0004240761 0.07358610000000002 0.7510914200000002 0.16451706 0.01080542 0.1297695638702304 0.8469063091530936 0.02158730597841269 0.001736820998263179</probabilities>
		</cpt>
		<cpt id="x94081">
			<state id="x0" />
			<state id="low" />
			<state id="medium" />
			<state id="high" />
			<parents>clustVar</parents>
			<probabilities>0.2657224679 0.7180513299 0.0153509169 0.0008752852999999999 0.5824668758246687 0.3617447936174479 0.0437594404375944 0.0120288901202889 0.1817966921817967 0.7818342757818344 0.03523368903523369 0.001135343001135343 0.73752034 0.21758073 0.02617238 0.01872655 0.07166473300716648 0.9244630302924465 0.003694669300369468 0.0001775674000177568 0.3231687080000001 0.5917292670000001 0.07531817700000001 0.009783848000000001 0.2404699754 0.7550013027 0.0038508407 0.0006778812 0.39719702 0.53980741 0.05183268 0.01116289 0.4875993624875994 0.4831658314831659 0.02566244702566245 0.00357235900357236</probabilities>
		</cpt>
		<cpt id="x54843">
			<state id="x0" />
			<state id="low" />
			<state id="medium" />
			<state id="high" />
			<parents>clustVar</parents>
			<probabilities>0.6504224657000001 0.3468178349000001 0.0022909605 0.0004687389000000001 0.7901299912098699 0.188933953811066 0.01576184698423815 0.005174207994825791 0.132167212 0.8087530080000001 0.057727821 0.001351959 0.7856741900000001 0.17446467 0.02920664 0.0106545 0.0598711443 0.9326029925 0.007348335 0.0001775282 0.19254892 0.65624817 0.12787975 0.02332316 0.1605352061839465 0.8308206725169179 0.008211694899178831 0.0004324263999567574 0.777153389 0.209099891 0.012421197 0.001325523 0.7017051252982949 0.287060977712939 0.008164252991835746 0.003069643996930355</probabilities>
		</cpt>
		<cpt id="x3274">
			<state id="x0" />
			<state id="low" />
			<state id="medium" />
			<state id="high" />
			<parents>clustVar</parents>
			<probabilities>0.4103475536 0.5791384735 0.0100651363 0.0004488366 0.9652023800347977 0.02915907697084092 0.003909005996090995 0.001729536998270463 0.051479168 0.888140515 0.059310458 0.001069859 0.937693711 0.054295517 0.00535268 0.002658092 0.0191332811 0.9743237828 0.0063654079 0.0001775282 0.1904443880955561 0.6541691434583086 0.1412210785877892 0.0141653898583461 0.1565980521843402 0.8320887504167911 0.01088911849891109 0.0004240788999575921 0.3492452103492452 0.606128959606129 0.04121938104121938 0.003406449003406449 0.4890859378 0.4920381682 0.0180144226 0.0008614714</probabilities>
		</cpt>
		<cpt id="x221692">
			<state id="x0" />
			<state id="low" />
			<state id="medium" />
			<state id="high" />
			<parents>clustVar</parents>
			<probabilities>0.4107936173410794 0.5854133603585414 0.002894334600289433 0.0008986877000898688 0.6641091333358908 0.3143581776856418 0.01980315198019685 0.001729536998270463 0.184425254 0.764419516 0.049416957 0.001738273 0.7802484892197515 0.1971566868028433 0.01993673198006327 0.002658091997341908 0.0335385526 0.9568511352 0.0094322169 0.0001780953 0.26439598 0.59670562 0.11838242 0.02051598 0.2045234845204524 0.7813423196781343 0.01370584430137058 0.0004283515000428351 0.52240056 0.4276595 0.03979444 0.0101455 0.4910764255089236 0.4893394115106605 0.01699026498300973 0.002593897997406102</probabilities>
		</cpt>
		<cpt id="x6000">
			<state id="x0" />
			<state id="low" />
			<state id="medium" />
			<state id="high" />
			<parents>clustVar</parents>
			<probabilities>0.2282251267 0.743809302 0.0274064814 0.0005590899 0.7926148467926148 0.188279011188279 0.01218801701218802 0.006918125006918126 0.135723049 0.821055554 0.042647431 0.000573966 0.957891304 0.034163744 0.005286828 0.002658124 0.049158482 0.9484289333 0.0022350565 0.0001775282 0.350578921 0.558235183 0.081757099 0.009428796999999999 0.2726911572 0.7217108253000001 0.005173941400000001 0.0004240761000000001 0.3501241864987581 0.5520013544799863 0.0844597891554021 0.0134146698658533 0.5551771680000001 0.425576366 0.017583075 0.001663391</probabilities>
		</cpt>
		<cpt id="x254531">
			<state id="x0" />
			<state id="low" />
			<state id="medium" />
			<state id="high" />
			<parents>clustVar</parents>
			<probabilities>0.1399884849139989 0.8350653545835067 0.02406368200240637 0.0008824785000882481 0.8580285151419715 0.1317918398682082 0.006720571993279429 0.003459072996540928 0.1182242436 0.8600392556000001 0.0208814057 0.0008550951 0.938682964 0.050287355 0.008371587999999999 0.002658093 0.0288832548 0.9694703942 0.0012953298 0.0003510212 0.23587247 0.6777039500000001 0.08123527 0.00518831 0.08441766179155824 0.9079490078092051 0.007208689299279132 0.0004246410999575359 0.3141246063141246 0.6290631696290633 0.05338617605338618 0.003426048003426048 0.385368386 0.5988503876 0.0149097572 0.0008714692</probabilities>
		</cpt>
		<cpt id="x2908">
			<state id="x0" />
			<state id="low" />
			<state id="medium" />
			<state id="high" />
			<parents>clustVar</parents>
			<probabilities>0.402383354 0.581031937 0.014985693 0.001599016 0.63808441 0.332526487 0.025935471 0.003453632 0.1413821285861787 0.8071381419286187 0.04933891950661081 0.0021408099785919 0.68871522 0.23678149 0.06120447 0.01329882 0.0409194795 0.9433334459 0.015569546 0.0001775286 0.2769268827692689 0.620454296204543 0.08958837089588371 0.0130304501303045 0.2003622701799638 0.7933678961206633 0.005716183599428382 0.000553650099944635 0.530997746 0.415705919 0.048578551 0.004717784 0.548360329 0.427167291 0.021988307 0.002484073</probabilities>
		</cpt>
		<cpt id="x100130155">
			<state id="x0" />
			<state id="low" />
			<state id="medium" />
			<state id="high" />
			<parents>clustVar</parents>
			<probabilities>0.083429564 0.909669061 0.0064230625 0.0004783125 0.744787957 0.249915829 0.001732689 0.003563525 0.008208644700820864 0.9507729175950773 0.04017112720401711 0.0008473105000847311 0.9320220550679779 0.06266173093733826 0.002658091997341908 0.002658121997341878 0.0006142195 0.9965242050000001 0.0026840473 0.0001775282 0.04474557955254421 0.8154964718450353 0.1292707487072925 0.010487199895128 0.0091372829 0.9845129632 0.0059256462 0.0004241077 0.186933119 0.775012298 0.032839706 0.005214877 0.23769063 0.755289247 0.005964611 0.001055512</probabilities>
		</cpt>
		<cpt id="x114088">
			<state id="x0" />
			<state id="low" />
			<state id="medium" />
			<state id="high" />
			<parents>clustVar</parents>
			<probabilities>0.1298558427870144 0.8670116652132988 0.002683831499731617 0.0004486604999551339 0.315183692 0.662245889 0.020840882 0.001729537 0.0012776743 0.972075602 0.0257996105 0.0008471132 0.7565609950000002 0.2354408560000001 0.005340057 0.002658092 0.001080136599891986 0.9978662244002133 0.0008761107999123889 0.0001775281999822472 0.008793594008793594 0.8335332438335333 0.1447940841447941 0.01287907801287908 0.0014311315 0.9960957159 0.002049034 0.0004241186 0.2374113972374114 0.741535034741535 0.01988865201988865 0.001164916001164916 0.1329491031 0.8585661771 0.0076246371 0.0008600827</probabilities>
		</cpt>
		<cpt id="x23230">
			<state id="x0" />
			<state id="low" />
			<state id="medium" />
			<state id="high" />
			<parents>clustVar</parents>
			<probabilities>0.262141786 0.73493088 0.002478678 0.000448656 0.643904982 0.329524018 0.023111951 0.003459049 0.08084874800000001 0.8891340090000002 0.02835896900000001 0.001658274 0.88612029 0.1008908 0.01033078 0.00265813 0.005516279 0.988285588 0.0060206 0.000177533 0.1487484214874842 0.7499949474999493 0.08924383089243829 0.012012800120128 0.08664202 0.909541317 0.003392587 0.000424076 0.4310691265689308 0.5488575304511424 0.01616501998383498 0.003908322996091677 0.462303054 0.5199044819999999 0.016069943 0.001722521</probabilities>
		</cpt>
		<cpt id="x116966">
			<state id="x0" />
			<state id="low" />
			<state id="medium" />
			<state id="high" />
			<parents>clustVar</parents>
			<probabilities>0.288226484 0.706515911 0.004808949 0.000448656 0.602346257 0.356309309 0.036155217 0.005189217 0.1111054447888895 0.8593136158140686 0.0286470057971353 0.0009339335999066066 0.918535002081465 0.07081659992918339 0.007990291992009707 0.002658105997341894 0.016654586 0.97633176 0.006836121 0.000177533 0.19456614 0.67706319 0.11336749 0.01500318 0.204418076 0.786508149 0.008649699 0.000424076 0.4393105684393106 0.5162175525162176 0.04108277504108278 0.003389104003389104 0.5327268482 0.4501634986 0.016237493 0.0008721602</probabilities>
		</cpt>
		<cpt id="x64062">
			<state id="x0" />
			<state id="low" />
			<state id="medium" />
			<state id="high" />
			<parents>clustVar</parents>
			<probabilities>0.104427531 0.892136593 0.00298722 0.000448656 0.3859251973859252 0.5808694695808695 0.02801532502801533 0.005190008005190008 0.0245234289 0.9457812057 0.0292156409 0.0004797245 0.4269591700000001 0.5036301900000001 0.05612160000000001 0.01328904 0.0024591434 0.994775382 0.0025879464 0.0001775282 0.07666083923339161 0.7953860420461396 0.1101749888982501 0.0177781298222187 0.0489929009 0.9466825254 0.0039004978 0.0004240759 0.2212721717787278 0.739113102260887 0.03734425696265575 0.002270468997729531 0.299819811070018 0.6813844159318615 0.01793569629820643 0.0008600766999139923</probabilities>
		</cpt>
		<cpt id="x9645">
			<state id="x0" />
			<state id="low" />
			<state id="medium" />
			<state id="high" />
			<parents>clustVar</parents>
			<probabilities>0.2923580535 0.7025078976 0.0046853928 0.0004486561 0.940868524 0.055657111 0.001744827 0.001729538 0.05320299850000001 0.9170896471000002 0.02885983190000001 0.0008475225000000002 0.928372404 0.063653323 0.002658092 0.005316181 0.014707279 0.9806642537 0.0044509106 0.0001775567 0.15215853 0.71537192 0.11693559 0.01553396 0.0856622308 0.8999537303 0.0139599602 0.0004240787 0.539574972 0.431072133 0.027095569 0.002257326 0.5421741520000001 0.4393953680000001 0.016701126 0.001729354</probabilities>
		</cpt>
		<cpt id="x6262">
			<state id="x0" />
			<state id="low" />
			<state id="medium" />
			<state id="high" />
			<parents>clustVar</parents>
			<probabilities>0.2269586197730414 0.7646970832353028 0.007895627992104371 0.000448668999551331 0.918214028918214 0.07705245207705246 0.003002975003002975 0.001730544001730544 0.03835148530383515 0.9290652930929065 0.03215885750321588 0.0004243641000424365 0.839559775 0.151764686 0.006017447 0.002658092 0.002412146399758786 0.9906019878009398 0.006808337599319166 0.0001775281999822472 0.07080583 0.82798395 0.08622067999999999 0.01498954 0.0333536021 0.9570832007 0.0091391201 0.0004240771 0.476245187 0.50296761 0.016145206 0.004641997 0.35395928 0.62263903 0.01986071 0.00354098</probabilities>
		</cpt>
		<cpt id="x55814">
			<state id="x0" />
			<state id="low" />
			<state id="medium" />
			<state id="high" />
			<parents>clustVar</parents>
			<probabilities>0.047136619 0.9498181422 0.0025912355 0.0004540033 0.49204858 0.501032288 0.005189595 0.001729537 0.008756050599124396 0.9577512518042248 0.03306884649669312 0.0004238510999576149 0.621667499 0.362385343 0.013289066 0.002658092 0.0003351314999664868 0.9975343084002466 0.001953031899804697 0.0001775281999822472 0.04776523000000001 0.7896729400000002 0.14706943 0.0154924 0.00966958220096696 0.9843371792984337 0.005569162200556916 0.0004240763000424077 0.123493335 0.850911768 0.024450383 0.001144514 0.112599249 0.861849368 0.023835139 0.001716244</probabilities>
		</cpt>
		<cpt id="x23613">
			<state id="x0" />
			<state id="low" />
			<state id="medium" />
			<state id="high" />
			<parents>clustVar</parents>
			<probabilities>0.1667918503 0.8300893777 0.0026550561 0.0004637159 0.4506385685493614 0.4923945605076054 0.05523706894476293 0.001729801998270198 0.07823447507823449 0.8968918568968919 0.02365905002365905 0.001214618001214618 0.594398508 0.368350134 0.02927709 0.007974268 0.03590916460359092 0.962240159896224 0.001673147300167315 0.0001775282000177528 0.203375 0.70930497 0.07937677999999999 0.007943250000000001 0.0767421812 0.9146823871 0.0081498362 0.0004255955 0.3004062973004063 0.6503615126503616 0.04355127304355128 0.005680917005680917 0.29148987 0.6744140500000001 0.03063712000000001 0.003458960000000001</probabilities>
		</cpt>
		<cpt id="x10147">
			<state id="x0" />
			<state id="low" />
			<state id="medium" />
			<state id="high" />
			<parents>clustVar</parents>
			<probabilities>0.055424876 0.935274776 0.008412957 0.000887391 0.392494267 0.572327864 0.029995354 0.005182515 0.0340269819965973 0.9433945388056606 0.02215464099778454 0.0004238381999576162 0.5710920242890798 0.3961114160388858 0.02747100972528991 0.005325549946744501 0.002401020699759898 0.9970085423002991 0.0004129087999587092 0.0001775281999822472 0.040250013 0.892167202 0.064993724 0.002589061 0.015856803 0.9766881068 0.0070310121 0.0004240781 0.19232026 0.77560067 0.03093647 0.0011426 0.1052897631 0.8723160594 0.0215212008 0.0008729767</probabilities>
		</cpt>
		<cpt id="x54904">
			<state id="x0" />
			<state id="low" />
			<state id="medium" />
			<state id="high" />
			<parents>clustVar</parents>
			<probabilities>0.03907251796092748 0.9535830450464169 0.006450188993549811 0.0008942479991057519 0.4216412265783587 0.5591481794408518 0.01575152098424848 0.003459072996540927 0.03705278296294721 0.9413564490586435 0.02116693197883307 0.000423835999576164 0.495507155 0.469841695 0.029334967 0.005316183 0.002955968 0.9961596913 0.0007068125 0.0001775282 0.0947391029052609 0.8172605041827394 0.08282227891717771 0.005178113994821886 0.028592191 0.9699317 0.001052033 0.000424076 0.130565707 0.816008319 0.052284345 0.001141629 0.1423762951 0.8421393152000002 0.0146238114 0.0008605783000000002</probabilities>
		</cpt>
		<cpt id="x4898">
			<state id="x0" />
			<state id="low" />
			<state id="medium" />
			<state id="high" />
			<parents>clustVar</parents>
			<probabilities>0.07722915660000002 0.9057854282000002 0.0165236139 0.0004618013000000001 0.370082001629918 0.571686014428314 0.05296554994703444 0.005266433994733566 0.0549993517 0.9258680805 0.0187087152 0.0004238526 0.5443025100000001 0.3838727600000001 0.05333769000000001 0.01848704 0.004918053 0.9929587894 0.0019456294 0.0001775282 0.150877225 0.771353686 0.070001784 0.007767305 0.1009032051 0.896924453 0.001748266 0.0004240759 0.204491974 0.726562942 0.062219852 0.006725232 0.3218356523218357 0.6606006346606007 0.01580665401580665 0.001757059001757059</probabilities>
		</cpt>
		<cpt id="x5411">
			<state id="x0" />
			<state id="low" />
			<state id="medium" />
			<state id="high" />
			<parents>clustVar</parents>
			<probabilities>0.06883886509311611 0.921380866007862 0.009331612499066838 0.0004486563999551344 0.340289565 0.592002057 0.061213151 0.006495227 0.05755654119424435 0.9256964198074303 0.01631935959836806 0.0004276793999572321 0.47668128 0.4551535 0.05487439 0.01329083 0.0137797961 0.9847739026 0.0012687731 0.0001775282 0.1569758684302413 0.7306628426933716 0.09872102901278972 0.0136402598635974 0.09674995879999999 0.9015026352 0.0013233301 0.0004240759 0.163319624 0.778088611 0.05291903 0.005672735 0.244552125 0.730001794 0.02289434 0.002551741</probabilities>
		</cpt>
		<cpt id="x55704">
			<state id="x0" />
			<state id="low" />
			<state id="medium" />
			<state id="high" />
			<parents>clustVar</parents>
			<probabilities>0.0104975699 0.9854485471000002 0.003605226200000001 0.0004486568000000001 0.1743244471743245 0.7789132917789133 0.04502823404502824 0.001734027001734027 0.03180911760318091 0.9639068873963906 0.003860159200386016 0.0004238358000423836 0.1525864484741355 0.7174178528258215 0.1167121388328786 0.0132835598671644 0.0012371908 0.9977280455999999 0.0008572353999999999 0.0001775282 0.054550122 0.866323768 0.076536877 0.002589233 0.01287568900128757 0.9815153848981516 0.005184848500518485 0.0004240776000424078 0.059112126 0.8953811739999999 0.043237483 0.002269217 0.049757305 0.901057702 0.047465002 0.001719991</probabilities>
		</cpt>
		<cpt id="x440270">
			<state id="x0" />
			<state id="low" />
			<state id="medium" />
			<state id="high" />
			<parents>clustVar</parents>
			<probabilities>0.0028613213 0.9851811219 0.0115088885 0.0004486683 0.1712896748287103 0.7995707282004293 0.02741005997258994 0.001729536998270463 0.003969898003969899 0.9667674649667676 0.0288388010288388 0.0004238360004238361 0.7895571142104428 0.201762038798238 0.006022754993977245 0.002658091997341908 0.0001781144 0.9977792753 0.0018650821 0.0001775282 0.01304923 0.8176804 0.15361497 0.0156554 0.0041846349 0.9920801331 0.0033111561 0.0004240759 0.03475064796524935 0.9117419280882579 0.04675327195324672 0.006754151993245847 0.02893137399710686 0.9595981111040403 0.01061041829893896 0.0008600965999139903</probabilities>
		</cpt>
		<cpt id="x4897">
			<state id="x0" />
			<state id="low" />
			<state id="medium" />
			<state id="high" />
			<parents>clustVar</parents>
			<probabilities>0.05338876300000001 0.9370791110000002 0.009074146000000002 0.0004579800000000001 0.22159825 0.70887475 0.05908803 0.01043897 0.0118874755 0.9488002695 0.0386833867 0.0006288683 0.8862918628862919 0.1083097551083098 0.002739863002739863 0.002658519002658519 0.000486131 0.9970438544 0.0022924864 0.0001775282 0.0276203802762038 0.8846509288465093 0.07344637073446371 0.0142823201428232 0.01740313790174031 0.9797316545979732 0.002441131600244113 0.0004240759000424076 0.108160233 0.8082188450000002 0.07468857400000001 0.008932348000000001 0.1992110664000001 0.7969089369000002 0.002959626800000001 0.0009203699000000002</probabilities>
		</cpt>
		<cpt id="x23077">
			<state id="x0" />
			<state id="low" />
			<state id="medium" />
			<state id="high" />
			<parents>clustVar</parents>
			<probabilities>0.007813776799218623 0.9792697035020732 0.01224188019877581 0.0006746394999325362 0.3073688916926312 0.673666068326334 0.0172355029827645 0.001729536998270463 0.003346248000334625 0.9755042447975504 0.02072512980207251 0.0004243774000424377 0.46018529 0.52110214 0.016054478 0.002658092 0.0003421031999657897 0.9988672423001133 0.0006131262999386874 0.0001775281999822472 0.0332515896674841 0.8717966012820341 0.08311866916881332 0.0118331398816686 0.005332479700533248 0.986830689398683 0.007412755000741276 0.0004240759000424076 0.03922626196077373 0.89334983810665 0.06299711693700288 0.004426782995573217 0.050681045 0.924145208 0.023434009 0.001739738</probabilities>
		</cpt>
		<cpt id="x3535">
			<state id="x0" />
			<state id="low" />
			<state id="medium" />
			<state id="high" />
			<parents>clustVar</parents>
			<probabilities>0.0005967166000000001 0.9954438207 0.0034959599 0.0004635028 0.04234697 0.93982383 0.015469326 0.002359874 0.0004265224 0.9920316382 0.0066926121 0.0008492273 0.101862523 0.867045026 0.024072809 0.007019642 0.0003006493 0.9980791933000002 0.001442629 0.0001775284 0.008485674000000002 0.9537537700000002 0.02748795200000001 0.010272604 0.0006758147 0.9868986682000001 0.0118379562 0.0005875609 0.0111328949888671 0.9731523000268477 0.01345582298654418 0.002258981997741018 0.003853205996146794 0.9647433820352564 0.0291554969708445 0.002247914997752085</probabilities>
		</cpt>
		<cpt id="x9284">
			<state id="x0" />
			<state id="low" />
			<state id="medium" />
			<state id="high" />
			<parents>clustVar</parents>
			<probabilities>0.0515768523 0.9438383653 0.0041351853 0.0004495971 0.3431905276568095 0.6179030833820969 0.03404188296595811 0.004864505995135494 0.0245219691 0.9629313273 0.0117007263 0.0008459773 0.679408985 0.301433772 0.015998834 0.003158409 0.002190381500000001 0.9968361523000002 0.0007959375000000002 0.0001775287 0.029329538 0.801764577 0.161128362 0.007777523 0.0128679132 0.9663727638 0.0203218068 0.0004375162 0.128687234 0.831450927 0.036101174 0.003760665 0.1210285708789715 0.8164718181835283 0.05763959294236042 0.004860017995139983</probabilities>
		</cpt>
		<cpt id="x5310">
			<state id="x0" />
			<state id="low" />
			<state id="medium" />
			<state id="high" />
			<parents>clustVar</parents>
			<probabilities>0.02084896079791511 0.9756843048024316 0.003017942099698206 0.0004487922999551207 0.471495226 0.520431984 0.006343253 0.001729537 0.0057054194 0.9788138523 0.0150555252 0.0004252031 0.6620075683379926 0.3220372016779628 0.01329713798670286 0.002658091997341908 0.0004934372999506562 0.9968633304003136 0.002465704099753429 0.0001775281999822472 0.06090898 0.84900933 0.07456233 0.01551936 0.0015173444 0.9733889737000002 0.02424650030000001 0.0008471816000000002 0.09864283690135715 0.8779706421220294 0.02224691997775308 0.001139600998860399 0.0452172128 0.9250159177 0.0289067172 0.0008601523</probabilities>
		</cpt>
		<cpt id="x4297">
			<state id="x0" />
			<state id="low" />
			<state id="medium" />
			<state id="high" />
			<parents>clustVar</parents>
			<probabilities>0.01380179250138018 0.9711407187971141 0.01459269610145927 0.0004647926000464793 0.374843691 0.608142543 0.014036681 0.002977085 0.0229989176 0.96683164 0.0095132498 0.0006561926 0.4642982160000001 0.4851959540000001 0.04253155400000001 0.007974276000000002 0.0018930025 0.9974412687999999 0.0004882005 0.0001775282 0.08448936791551064 0.8403614921596386 0.06878759193121241 0.006361547993638453 0.01499044140149904 0.9779471673977947 0.006614036400661404 0.0004483548000448355 0.069442542 0.856236577 0.07317818600000001 0.001142695 0.06856287400000001 0.8878567780000002 0.03741105000000001 0.006169298000000002</probabilities>
		</cpt>
		<cpt id="x5297">
			<state id="x0" />
			<state id="low" />
			<state id="medium" />
			<state id="high" />
			<parents>clustVar</parents>
			<probabilities>0.154074465 0.834087063 0.011371688 0.000466784 0.65507678 0.33112521 0.01033956 0.00345845 0.0479813929 0.8924625866 0.0586504646 0.0009055559 0.7536435930000002 0.2250360650000001 0.013345109 0.007975233000000002 0.0073208547 0.986028237 0.0064733801 0.0001775282 0.12723879 0.7486441700000001 0.10798849 0.01612855 0.0975241971902476 0.8940155239105986 0.007853544699214647 0.0006067341999393268 0.276781197 0.6749861610000001 0.04488106800000001 0.003351574000000001 0.409209835 0.576829248 0.012921364 0.001039553</probabilities>
		</cpt>
		<cpt id="x8499">
			<state id="x0" />
			<state id="low" />
			<state id="medium" />
			<state id="high" />
			<parents>clustVar</parents>
			<probabilities>0.1731257706173126 0.825959444782596 0.0004654559000465456 0.0004493287000449329 0.596060581 0.387128286 0.015081596 0.001729537 0.035330100353301 0.8840080988400809 0.07794876077948761 0.0027130400271304 0.5753351814246648 0.3794756266205243 0.0425310999574689 0.002658091997341908 0.0051334758 0.9787660273 0.0158526635 0.0002478334 0.05880576058805759 0.7400525774005257 0.1851308518513085 0.0160108101601081 0.06156155739384384 0.9266923749073308 0.01131483309886852 0.0004312345999568766 0.3765303593765303 0.6076094416076095 0.01472521601472522 0.001134983001134983 0.3861817821 0.607911701 0.0050464238 0.0008600931</probabilities>
		</cpt>
		<cpt id="x55904">
			<state id="x0" />
			<state id="low" />
			<state id="medium" />
			<state id="high" />
			<parents>clustVar</parents>
			<probabilities>0.029822986 0.961368596 0.007678454 0.001129964 0.26529054 0.687473515 0.042066866 0.005169079 0.01652528799834747 0.958030632904197 0.02502012919749799 0.000423949899957605 0.3277521900000001 0.5966105920000001 0.06763289400000001 0.008004324000000002 0.0034593905 0.9959131047999999 0.0004499765 0.0001775282 0.09638320000000003 0.8007900600000002 0.09181769000000001 0.01100905 0.0165957435 0.9761049921 0.0068686173 0.0004306471 0.09385919590614081 0.8288147621711852 0.07283127292716872 0.004494768995505231 0.098281351 0.8561787830000001 0.040162854 0.005377012</probabilities>
		</cpt>
		<cpt id="x57035">
			<state id="x0" />
			<state id="low" />
			<state id="medium" />
			<state id="high" />
			<parents>clustVar</parents>
			<probabilities>0.053742265 0.944381127 0.001427952 0.000448656 0.3424712886575287 0.6281321363718678 0.02766665597233334 0.001729918998270081 0.0244790372975521 0.9234341626076565 0.05123542559487646 0.0008513744999148626 0.36322699 0.58891686 0.03456628 0.01328987 0.0009294965 0.9913182837 0.0075746916 0.0001775282 0.05156485000000002 0.8084849500000002 0.12703375 0.01291645 0.03340830410334083 0.9639933825963993 0.002174237400217424 0.0004240759000424076 0.154239888 0.815510986 0.027977318 0.002271808 0.2235476998 0.7709377323 0.0046544912 0.0008600767</probabilities>
		</cpt>
		<cpt id="x10905">
			<state id="x0" />
			<state id="low" />
			<state id="medium" />
			<state id="high" />
			<parents>clustVar</parents>
			<probabilities>0.1108773535 0.8493548696 0.0387819923 0.0009857846 0.669798307 0.31458297 0.013889186 0.001729537 0.08242812200000001 0.886351971 0.029989441 0.001230466 0.725121049 0.240350179 0.029212589 0.005316183 0.0365080003963492 0.961841045203816 0.001473405999852659 0.0001775483999822452 0.15690522 0.76003062 0.07007582 0.01298834 0.05946768005946768 0.9336979769336979 0.006395479006395478 0.000438864000438864 0.2332022502332023 0.6822045406822046 0.07696535007696535 0.007627859007627859 0.239353268 0.722268709 0.034830432 0.003547591</probabilities>
		</cpt>
		<cpt id="x28978">
			<state id="x0" />
			<state id="low" />
			<state id="medium" />
			<state id="high" />
			<parents>clustVar</parents>
			<probabilities>0.224922987224923 0.7199037237199039 0.0528980920528981 0.002275197002275197 0.87110893 0.10616137 0.01966678 0.00306292 0.202185641 0.735539249 0.057174823 0.005100287 0.888446981111553 0.06354716993645282 0.03942273296057727 0.008583115991416883 0.117400323 0.8776111868000001 0.0048103786 0.0001781116 0.4130774 0.46875366 0.10177833 0.01639061 0.4282311356 0.5686135496 0.0027148821 0.0004404327 0.30269429 0.5197284100000001 0.15527052 0.02230678 0.6547576743452423 0.3330375676669624 0.010603999989396 0.001600757998399242</probabilities>
		</cpt>
		<cpt id="x6134">
			<state id="x0" />
			<state id="low" />
			<state id="medium" />
			<state id="high" />
			<parents>clustVar</parents>
			<probabilities>0.2220068016 0.7570804746000001 0.0202838451 0.0006288786999999999 0.5298497735298499 0.3922345283922346 0.0744253960744254 0.003490302003490302 0.135296486 0.81238697 0.051133099 0.001183445 0.5689407243105928 0.3048843169511569 0.09962769900372302 0.0265472597345274 0.1163932606883607 0.881880335011812 0.001521225899847877 0.0002051783999794822 0.2908076417091923 0.6076138103923862 0.09632757890367241 0.00525096899474903 0.2768057000276806 0.7167936265716793 0.0057069991005707 0.0006936743000693675 0.2904650327095349 0.6176966833823032 0.08379482991620517 0.008043453991956545 0.478941698 0.495742079 0.021109184 0.004207039</probabilities>
		</cpt>
		<cpt id="x54460">
			<state id="x0" />
			<state id="low" />
			<state id="medium" />
			<state id="high" />
			<parents>clustVar</parents>
			<probabilities>0.209338189 0.747625619 0.041092658 0.001943534 0.5900983559009836 0.3369170533691705 0.05597954055979541 0.0170050501700505 0.192270043 0.767789054 0.038305439 0.001635464 0.72744668 0.2094828 0.05219615 0.01087437 0.08686349419131366 0.9103630490089637 0.002595928599740407 0.0001775281999822472 0.3555524535555246 0.5378089153780892 0.08817307088173072 0.0184655601846556 0.3479647399347965 0.6502578874650258 0.00135290100013529 0.0004244716000424471 0.329935088 0.5734051120000001 0.08678393200000001 0.009875868000000001 0.550406082 0.424896815 0.02293533 0.001761773</probabilities>
		</cpt>
		<cpt id="x80205">
			<state id="x0" />
			<state id="low" />
			<state id="medium" />
			<state id="high" />
			<parents>clustVar</parents>
			<probabilities>0.03099061380309906 0.9526085917952609 0.0159510097015951 0.0004497847000449785 0.1537356715373567 0.7047776270477764 0.1241929112419291 0.0172937901729379 0.0325064691 0.9544992518000002 0.0125695737 0.0004247054000000001 0.399001665 0.54701026 0.051327569 0.002660506 0.0031801859 0.9961022405 0.0005400454 0.0001775282 0.09954157 0.77508824 0.11234882 0.01302137 0.0367974849 0.9580704124 0.0047080268 0.0004240759 0.068520396 0.843441672 0.08353828000000001 0.004499652 0.13649990361365 0.8355439814835546 0.02709603680270961 0.0008600781000860081</probabilities>
		</cpt>
		<cpt id="x56853">
			<state id="x0" />
			<state id="low" />
			<state id="medium" />
			<state id="high" />
			<parents>clustVar</parents>
			<probabilities>0.0176270825 0.960584923 0.020872075 0.0009159195 0.8048043908048045 0.1899958421899959 0.001740547001740547 0.00345922000345922 0.0264610461 0.9399999288999999 0.0329880729 0.0005509521 0.894757174 0.099926642 0.002658092 0.002658092 0.003173018900317302 0.9898308807989831 0.006818571700681857 0.0001775286000177529 0.06317457063174571 0.8165197281651972 0.09552061095520611 0.0247850902478509 0.019043114 0.962188232 0.017646837 0.001121817 0.05998716294001284 0.8578775351421224 0.07872619392127379 0.003409107996590892 0.08194886918051131 0.8847055811529443 0.0286707297132927 0.004674819953251801</probabilities>
		</cpt>
		<cpt id="x577">
			<state id="x0" />
			<state id="low" />
			<state id="medium" />
			<state id="high" />
			<parents>clustVar</parents>
			<probabilities>0.0714235526 0.9069727369 0.0211528468 0.0004508637 0.4163918845836081 0.5444890694555109 0.03220156496779843 0.006917480993082518 0.02628938 0.907534879 0.06426424 0.001911501 0.7857447962142553 0.2056691767943309 0.005926911994073089 0.002659114997340885 0.0014910293 0.9895971321 0.0087331875 0.0001786511 0.08865120999999999 0.73991799 0.14272076 0.02871004 0.02425925690242593 0.9638544510963855 0.01131519020113152 0.0005711018000571102 0.153896053 0.761790178 0.078609204 0.005704565 0.2020574533202057 0.7668875666766888 0.0301820139030182 0.0008729661000872966</probabilities>
		</cpt>
		<cpt id="x9324">
			<state id="x0" />
			<state id="low" />
			<state id="medium" />
			<state id="high" />
			<parents>clustVar</parents>
			<probabilities>0.05825320100000001 0.9212290350000002 0.020063616 0.0004541480000000001 0.30195131 0.61817704 0.06431655 0.0155551 0.02404283799759572 0.9462231307053777 0.02931019499706898 0.0004238362999576164 0.401133697 0.551676061 0.041857569 0.005332673 0.004953710299504629 0.9929789346007021 0.001889826899811017 0.0001775281999822472 0.0817716 0.79452334 0.1081754 0.01552966 0.0841162525 0.9148543565 0.0006053151 0.0004240759 0.098204597 0.803511385 0.094892275 0.003391743 0.2705289011270529 0.716829577071683 0.01178140890117814 0.0008601129000860113</probabilities>
		</cpt>
		<cpt id="x5789">
			<state id="x0" />
			<state id="low" />
			<state id="medium" />
			<state id="high" />
			<parents>clustVar</parents>
			<probabilities>0.1114173278885827 0.8644097511355902 0.02285708197714292 0.001315838998684161 0.538924651 0.423759796 0.032106021 0.005209532 0.0309308571 0.9349770816 0.03366806 0.0004240013 0.32002399 0.5804731100000001 0.08887271000000001 0.01063019 0.001283237699871676 0.995889557000411 0.002649677099735032 0.0001775281999822472 0.09549937 0.808124383 0.093765243 0.002611004 0.04523630709999999 0.9493676329999998 0.004971981999999999 0.0004240778999999999 0.15596954 0.77236886 0.06585613999999999 0.00580546 0.245492737 0.741917818 0.010069419 0.002520026</probabilities>
		</cpt>
		<cpt id="x54212">
			<state id="x0" />
			<state id="low" />
			<state id="medium" />
			<state id="high" />
			<parents>clustVar</parents>
			<probabilities>0.0796829745 0.8886645447 0.0311777366 0.0004747442 0.5695958924304041 0.3939521986060478 0.03126398796873601 0.005187920994812079 0.032014382 0.913929615 0.053230482 0.000825521 0.9291355680708644 0.06283110393716888 0.005374176994625822 0.002659150997340849 0.0040821011 0.9913908293 0.0043495414 0.0001775282 0.09170266000000001 0.77552707 0.12020029 0.01256998 0.04017538109598246 0.9515943015048406 0.007806240999219376 0.0004240763999575923 0.117276359 0.806854222 0.070144385 0.005725034 0.1182249548817751 0.8673684191326317 0.01260651998739348 0.001800105998199894</probabilities>
		</cpt>
		<cpt id="x4331">
			<state id="x0" />
			<state id="low" />
			<state id="medium" />
			<state id="high" />
			<parents>clustVar</parents>
			<probabilities>0.1223715960877628 0.8724734872127526 0.004271116899572889 0.0008837997999116199 0.6390202230000001 0.343405348 0.01584386 0.001730569 0.02963150069703685 0.9227408213077259 0.04720382059527962 0.0004238573999576143 0.782676234 0.195952517 0.013398561 0.007972688 0.0013952719 0.9920396203 0.0063875796 0.0001775282 0.05408604000000002 0.7913413600000002 0.14162712 0.01294548 0.03924347596075652 0.9536336610463663 0.006698786993301213 0.000424075999575924 0.251768077 0.7070937650000001 0.038968405 0.002169753 0.3175494884 0.6590588729 0.022430466 0.0009611727</probabilities>
		</cpt>
		<cpt id="x64848">
			<state id="x0" />
			<state id="low" />
			<state id="medium" />
			<state id="high" />
			<parents>clustVar</parents>
			<probabilities>0.1525190995 0.824036676 0.022467364 0.0009768604999999999 0.6331775199999999 0.3160653999999999 0.04065241999999999 0.01010466 0.1168955964883104 0.8391858282160815 0.04335461479566454 0.0005639604999436039 0.731634207316342 0.2119870821198708 0.03776619037766189 0.0186125201861252 0.03045331209999999 0.9671602230999998 0.0021672337 0.0002192310999999999 0.23617138 0.63032837 0.12312819 0.01037206 0.1627073522 0.828011205 0.008461002699999999 0.0008204401 0.29047557 0.61082358 0.08802473 0.01067612 0.3796733937379674 0.5982414165598242 0.02117201880211721 0.0009131709000913173</probabilities>
		</cpt>
		<cpt id="x6432">
			<state id="x0" />
			<state id="low" />
			<state id="medium" />
			<state id="high" />
			<parents>clustVar</parents>
			<probabilities>0.09220127359999999 0.8813377295 0.026012341 0.0004486559 0.5027068634972932 0.4738848545261152 0.02167085497832915 0.001737426998262573 0.05315433000531544 0.9081442839908145 0.03827754610382775 0.000423839900042384 0.4764662500000001 0.4418711700000001 0.06572616000000002 0.01593642 0.0275797727 0.9690289595 0.0032137396 0.0001775282 0.17853587 0.71157717 0.09694206 0.0129449 0.1994530585 0.7981530601 0.0019698055 0.0004240759 0.205136985 0.72850216 0.061822562 0.004538293 0.4753854399475385 0.511050293451105 0.01270416220127042 0.0008601044000860104</probabilities>
		</cpt>
		<cpt id="x5144">
			<state id="x0" />
			<state id="low" />
			<state id="medium" />
			<state id="high" />
			<parents>clustVar</parents>
			<probabilities>0.0776997001 0.9078427426 0.0135606678 0.0008968895 0.3039906806960093 0.6560784923439215 0.03128408296871591 0.008646743991353255 0.0296321144 0.9333522989 0.0365004702 0.0005151165 0.73941272 0.244705001 0.013222676 0.002659603 0.0044520705 0.9913752199 0.0039951814 0.0001775282 0.09761992000000003 0.7875796700000002 0.09473493000000002 0.02006548 0.043037324 0.951335725 0.00519723 0.000429721 0.2191854037808146 0.7248582832751418 0.04813243995186756 0.007823872992176129 0.198250772 0.757073361 0.040267052 0.004408815</probabilities>
		</cpt>
		<cpt id="x140890">
			<state id="x0" />
			<state id="low" />
			<state id="medium" />
			<state id="high" />
			<parents>clustVar</parents>
			<probabilities>0.123565062 0.8545208940000002 0.019943557 0.001970487 0.3480339365196606 0.5489112845108872 0.08753465912465341 0.0155201198447988 0.115053826 0.8534718373 0.0306251292 0.0008492075 0.6123925099999999 0.31454513 0.05438485 0.01867751 0.02398681089760132 0.9729910816027009 0.002844546899715545 0.0001775605999822439 0.19788743 0.6771332 0.11463073 0.01034864 0.09646563260000003 0.8958116715000002 0.007298586100000001 0.0004241098000000001 0.23742576 0.67569985 0.07369415999999999 0.01318023 0.265954697 0.699861198 0.029892649 0.004291456</probabilities>
		</cpt>
		<cpt id="x23262">
			<state id="x0" />
			<state id="low" />
			<state id="medium" />
			<state id="high" />
			<parents>clustVar</parents>
			<probabilities>0.1370546138629454 0.7901404922098595 0.06895787593104212 0.003847017996152982 0.5260471847395281 0.425822795741772 0.0368231896317681 0.0113068298869317 0.09575488089999998 0.8703830218999998 0.03296843269999999 0.0008936644999999998 0.7333007173330072 0.2368304323683043 0.017933900179339 0.0119349501193495 0.0271448205 0.9698912853 0.0027847979 0.0001790963 0.1985232800000001 0.6576415800000001 0.1288359 0.01499924 0.1437408663856259 0.8519280117148071 0.003896965599610303 0.0004341562999565844 0.25203562 0.67960769 0.05823358 0.01012311 0.32587218 0.6508599900000001 0.02022242 0.00304541</probabilities>
		</cpt>
		<cpt id="x9475">
			<state id="x0" />
			<state id="low" />
			<state id="medium" />
			<state id="high" />
			<parents>clustVar</parents>
			<probabilities>0.1669696509 0.8217061413 0.0108755446 0.0004486632 0.6539311056539311 0.3294064023294064 0.01165417101165417 0.005008321005008321 0.0551798147 0.8970827371 0.0472814094 0.0004560388 0.797780653 0.178245298 0.021264843 0.002709206 0.0068755536 0.9871124783 0.0058344399 0.0001775282 0.141975651 0.732815556 0.12022728 0.004981513 0.07390152010000001 0.9202592504 0.0054151536 0.0004240759 0.258353422 0.672110817 0.063084354 0.006451407 0.349945844 0.625808734 0.023042515 0.001202907</probabilities>
		</cpt>
		<cpt id="x8997">
			<state id="x0" />
			<state id="low" />
			<state id="medium" />
			<state id="high" />
			<parents>clustVar</parents>
			<probabilities>0.2171287642 0.7809605843 0.0014614729 0.0004491786 0.6900338196900337 0.3029697273029697 0.005245680005245679 0.001750773001750773 0.009989793700000001 0.9288817221000002 0.06070464690000001 0.0004238373000000001 0.915705444 0.07635292 0.002658092 0.005283544 0.001335409899866459 0.9918933996008107 0.006593662299340633 0.0001775281999822472 0.03912458 0.813587299 0.142097964 0.005190157 0.0200037908 0.9722615064 0.0073106269 0.0004240759 0.281500751 0.6633203970000001 0.05064812800000001 0.004530724000000001 0.2529368135 0.7345257384 0.0116767295 0.0008607186</probabilities>
		</cpt>
		<cpt id="x55082">
			<state id="x0" />
			<state id="low" />
			<state id="medium" />
			<state id="high" />
			<parents>clustVar</parents>
			<probabilities>0.002722673500272267 0.9921742007992174 0.004654468300465447 0.0004486574000448658 0.045961018 0.872524342 0.075079804 0.006434836 0.0008851439 0.971402472 0.0268671372 0.0008452469 0.1016528238983472 0.7851039592148961 0.1079272088920728 0.005316007994683992 0.0001775285 0.9971589759 0.0024859668 0.0001775288 0.002623641997376358 0.8280973441719027 0.1556055148443945 0.0136734989863265 0.002835807499716419 0.9926022406007398 0.004137060199586293 0.0004248916999575108 0.007795502 0.938639306 0.05242834 0.001136852 0.04339488950433949 0.9461544921946154 0.009590541600959054 0.0008600767000860077</probabilities>
		</cpt>
		<cpt id="x9699">
			<state id="x0" />
			<state id="low" />
			<state id="medium" />
			<state id="high" />
			<parents>clustVar</parents>
			<probabilities>0.08651695869999999 0.8974211752 0.0156099159 0.0004519502 0.7066632102933369 0.2851768567148232 0.00643016099356984 0.001729771998270228 0.002926597 0.9435738220000002 0.05246022600000001 0.001039355 0.9097464660000002 0.08493689700000001 0.002658545 0.002658092 0.001445222599855478 0.9915263266008473 0.006850922599314907 0.0001775281999822472 0.03700566096299434 0.7935140852064858 0.1604683418395317 0.009011911990988088 0.0067242845 0.9793780716 0.0134725294 0.0004251145 0.139102535 0.8051140609999998 0.05153622699999998 0.004247177 0.08903639000000001 0.863432206 0.044681512 0.002849892</probabilities>
		</cpt>
		<cpt id="x10439">
			<state id="x0" />
			<state id="low" />
			<state id="medium" />
			<state id="high" />
			<parents>clustVar</parents>
			<probabilities>0.1558276687 0.8288160733 0.0145267713 0.0008294867 0.5969845755969845 0.399534150399534 0.001730501001730501 0.001750773001750773 0.007593297 0.840948829 0.142010218 0.009447656 0.8090411638090412 0.1803604791803605 0.005314813005314814 0.005283544005283545 0.0019720614 0.9927719622000002 0.005078223500000001 0.0001777529 0.02236599 0.78315354 0.17680989 0.01767058 0.0169625049 0.9663305089000001 0.0158974348 0.0008095514 0.189282774 0.7202621769999999 0.083523955 0.006931094 0.3325416687 0.6583628101 0.008221819300000001 0.0008737019</probabilities>
		</cpt>
		<cpt id="x9987">
			<state id="x0" />
			<state id="low" />
			<state id="medium" />
			<state id="high" />
			<parents>clustVar</parents>
			<probabilities>0.0032953621 0.9855106997999999 0.0107448295 0.0004491086 0.139865169 0.8424383510000002 0.015966843 0.001729637 0.001457509999854249 0.958659467404134 0.03944161849605583 0.0004414040999558596 0.1025893 0.7819286 0.1021918 0.0132903 0.0002705864999729414 0.9977463086002254 0.001805576699819442 0.0001775281999822472 0.003304574 0.856285206 0.133751638 0.006658582 0.001983536500198353 0.9959983507995999 0.001594036800159404 0.0004240759000424076 0.01557837498442162 0.8790835021209165 0.103765959896234 0.001572162998427837 0.0434714333 0.9511405898 0.0045279 0.0008600769</probabilities>
		</cpt>
		<cpt id="x4673">
			<state id="x0" />
			<state id="low" />
			<state id="medium" />
			<state id="high" />
			<parents>clustVar</parents>
			<probabilities>0.06979270899999999 0.9135440282 0.0161964602 0.0004668026 0.5207927704792072 0.4529002635470998 0.02113878397886122 0.005168181994831819 0.045080000295492 0.8995971810100403 0.05447530799455247 0.0008475106999152489 0.64313235 0.29134877 0.05485504 0.01066384 0.0063975595 0.9857218165 0.0077030673 0.0001775567 0.12686181 0.7764844500000002 0.07840193000000001 0.01825181 0.07022506010702251 0.9270630264927063 0.002287834700228784 0.0004240787000424079 0.142996927 0.732745082 0.11555076 0.008707230999999999 0.2462727547537272 0.7349503602650496 0.01771427798228572 0.001062606998937393</probabilities>
		</cpt>
		<cpt id="x23112">
			<state id="x0" />
			<state id="low" />
			<state id="medium" />
			<state id="high" />
			<parents>clustVar</parents>
			<probabilities>0.0176317758 0.9588281498000002 0.0227286818 0.0008113926000000002 0.23124805 0.716754361 0.048538492 0.003459097 0.0142050502985795 0.9616621745038338 0.02328169009767183 0.0008510850999148915 0.412397245 0.529278296 0.050350215 0.007974244 0.0015845513 0.9956135262 0.0026243759 0.0001775466 0.056400345 0.850476853 0.08531894 0.007803862 0.008884509599111549 0.9807991685019202 0.009892242399010775 0.000424079499957592 0.067686683 0.870186484 0.054905759 0.007221074 0.06365641 0.895275265 0.037796229 0.003272096</probabilities>
		</cpt>
		<cpt id="x57468">
			<state id="x0" />
			<state id="low" />
			<state id="medium" />
			<state id="high" />
			<parents>clustVar</parents>
			<probabilities>0.1008959588899104 0.8674456123132553 0.0310869720968913 0.0005714566999428544 0.925144292 0.062996944 0.010129227 0.001729537 0.08305437 0.8677305199999999 0.04732465 0.00189046 0.944515762 0.050168051 0.002658095 0.002658092 0.04324094389567591 0.9548050339045195 0.001776487399822351 0.0001775347999822465 0.1691409116914091 0.7052728270527282 0.1091173310911733 0.0164689301646893 0.0885654005 0.8984314051 0.012301842 0.0007013523999999999 0.1732788 0.6787707000000001 0.1374522 0.0104983 0.298822207 0.654835884 0.04376361 0.002578299</probabilities>
		</cpt>
		<cpt id="x9515">
			<state id="x0" />
			<state id="low" />
			<state id="medium" />
			<state id="high" />
			<parents>clustVar</parents>
			<probabilities>0.1450244121450244 0.850098901850099 0.004427901004427901 0.000448785000448785 0.821227053 0.170097402 0.00694597 0.001729575 0.02663890449733611 0.9213629598078639 0.05157336059484267 0.0004247750999575226 0.9477306600522692 0.04417720895582279 0.002776006997223993 0.005316123994683876 0.001380779299861922 0.9868194764013181 0.01162221609883778 0.0001775281999822472 0.06706592999999998 0.7999033999999998 0.10956045 0.02347021999999999 0.0205066684 0.9719382647 0.0071303672 0.0004246997 0.298863864 0.679975262 0.020021302 0.001139572 0.3062526663062527 0.6807861556807862 0.01044422301044422 0.002516955002516955</probabilities>
		</cpt>
		<cpt id="x3778">
			<state id="x0" />
			<state id="low" />
			<state id="medium" />
			<state id="high" />
			<parents>clustVar</parents>
			<probabilities>0.1695970178 0.8132478264 0.0167064629 0.0004486929 0.530866433 0.441482788 0.025921152 0.001729627 0.04436810200000001 0.8777733440000002 0.07535160200000002 0.002506952 0.8687285811312716 0.125930985874069 0.00268234099731766 0.002658091997341908 0.004350682 0.9859805211 0.0094912651 0.0001775318 0.09497087999999999 0.76647248 0.12967121 0.00888543 0.0144461781 0.9664881197 0.018641624 0.0004240782 0.302071799 0.6179142030000001 0.07205484600000002 0.007959152000000002 0.250314501 0.725944202 0.021472656 0.002268641</probabilities>
		</cpt>
		<cpt id="x55294">
			<state id="x0" />
			<state id="low" />
			<state id="medium" />
			<state id="high" />
			<parents>clustVar</parents>
			<probabilities>0.3026793841 0.6958229013 0.0010488194 0.0004488952 0.7790274130000002 0.2093277490000001 0.006939882000000001 0.004704956000000001 0.008416191 0.858999549 0.130183881 0.002400379 0.8726197291273803 0.1167775918832224 0.005286529994713469 0.005316148994683851 0.0017534493 0.9732817316 0.024719295 0.0002455241 0.0284406197155938 0.6572449234275508 0.2671734573282654 0.04714099952859001 0.0071579556 0.9782121112 0.0142057637 0.0004241695 0.419415714 0.560236351 0.018050899 0.002297036 0.4355208783564479 0.546708919045329 0.01691012409830899 0.0008600784999139922</probabilities>
		</cpt>
		<cpt id="x23518">
			<state id="x0" />
			<state id="low" />
			<state id="medium" />
			<state id="high" />
			<parents>clustVar</parents>
			<probabilities>0.097529109 0.900763877 0.001258358 0.000448656 0.6318305573681694 0.3647102286352897 0.001729536998270463 0.001729676998270323 0.0016054206 0.9303304947000002 0.06764022180000001 0.0004238629000000001 0.7799545852200456 0.2147292307852708 0.002658091997341908 0.002658091997341908 0.0002371487 0.9692567362 0.0303285869 0.0001775282 0.00635788 0.82359125 0.15761695 0.01243392 0.0025930466 0.9931348183000001 0.0038480592 0.0004240759 0.24014865 0.7559817870000002 0.001393949 0.002475614000000001 0.2404010858000001 0.7539215022000002 0.004804150700000001 0.0008732613000000002</probabilities>
		</cpt>
		<cpt id="x5101">
			<state id="x0" />
			<state id="low" />
			<state id="medium" />
			<state id="high" />
			<parents>clustVar</parents>
			<probabilities>0.1140690441114069 0.880178821988018 0.005303477800530349 0.0004486561000448657 0.05259192 0.87712431 0.06682121000000001 0.00346256 0.0012245936 0.9432596373 0.0550919332 0.0004238359 0.14794615 0.65704918 0.16577102 0.02923365 0.0003773236 0.9922837512 0.007161397 0.0001775282 0.01499545 0.82852727 0.14864876 0.00782852 0.0023740693 0.9916907993 0.0055110555 0.0004240759 0.216155922 0.749955157 0.029377946 0.004510975 0.293939599 0.6969848156 0.008215270300000001 0.0008603151</probabilities>
		</cpt>
		<cpt id="x6894">
			<state id="x0" />
			<state id="low" />
			<state id="medium" />
			<state id="high" />
			<parents>clustVar</parents>
			<probabilities>0.0456470331045647 0.9416332843941634 0.0122710266012271 0.0004486559000448656 0.483659028483659 0.4945250794945251 0.02008482102008482 0.001731071001731071 0.0123352617 0.9361478054 0.0507457511 0.0007711818 0.715358969 0.274007509 0.00797543 0.002658092 0.001227184 0.9924656252 0.0061296626 0.0001775282 0.03652666 0.74066817 0.1990314 0.02377377 0.0091821673 0.9813762378999999 0.0090175189 0.0004240759 0.09983460600000001 0.806212257 0.08742211599999999 0.006531021 0.11930509 0.86794317 0.01168468 0.00106706</probabilities>
		</cpt>
		<cpt id="x285175">
			<state id="x0" />
			<state id="low" />
			<state id="medium" />
			<state id="high" />
			<parents>clustVar</parents>
			<probabilities>0.02664920360266492 0.9560458551956046 0.01685626210168563 0.0004486791000448679 0.5876618174123382 0.3834707796165293 0.02713786597286214 0.001729536998270463 0.0123783185 0.9360810444 0.0510345155 0.0005061216 0.9346646490653354 0.05705361694294639 0.005623641994376359 0.002658091997341908 0.0006198622 0.9863007558 0.0129018538 0.0001775282 0.06135517 0.79338718 0.13281529 0.01244236 0.0153082164 0.9824758458 0.0017918619 0.0004240759 0.1289426088710574 0.8063673831936327 0.06128639893871361 0.003403608996596392 0.1909782384809022 0.7901049097209896 0.01805671169819433 0.0008601400999139861</probabilities>
		</cpt>
		<cpt id="x286411">
			<state id="x0" />
			<state id="low" />
			<state id="medium" />
			<state id="high" />
			<parents>clustVar</parents>
			<probabilities>0.0103083944 0.9850343247 0.0042086083 0.0004486726 0.634381565 0.359182662 0.004706236 0.001729537 0.0019360388 0.9535632088 0.0440307308 0.0004700216 0.5944734734055266 0.40021010459979 0.00265832999734167 0.002658091997341908 0.0002062808000000001 0.9356427325000002 0.06345041440000002 0.0007005723000000001 0.03480597 0.87611205 0.07900554999999999 0.01007643 0.0112858143 0.9853974847 0.0028702333 0.0004464677 0.04048938195951062 0.9386608810613393 0.01971519298028481 0.001134543998865456 0.1127650117 0.8812651553 0.0051097563 0.0008600767</probabilities>
		</cpt>
		<cpt id="x54715">
			<state id="x0" />
			<state id="low" />
			<state id="medium" />
			<state id="high" />
			<parents>clustVar</parents>
			<probabilities>0.11282159 0.86447414 0.02225509 0.00044918 0.768590518 0.21723692 0.012443025 0.001729537 0.01254693698745306 0.8800531451199467 0.1040030948959969 0.003396822996603177 0.927408203072592 0.0566684059433316 0.0132652989867347 0.002658091997341908 0.0008561495 0.9840477685 0.0149170798 0.0001790022 0.05082534 0.79869052 0.12731405 0.02317009 0.0355959820035596 0.9562211367956222 0.007756715600775671 0.0004261656000426166 0.29195642 0.637870429 0.06703176199999999 0.003141389 0.3155749536844251 0.6642090323357909 0.01741816198258184 0.002797851997202148</probabilities>
		</cpt>
		<cpt id="x10915">
			<state id="x0" />
			<state id="low" />
			<state id="medium" />
			<state id="high" />
			<parents>clustVar</parents>
			<probabilities>0.057544208 0.9221324058 0.0198747293 0.0004486569 0.475938798 0.48771869 0.034612975 0.001729537 0.01934449210193445 0.9298907112929891 0.05034043190503405 0.0004243647000424365 0.679771775 0.293521717 0.021390325 0.005316183 0.0027715691 0.9935631935 0.0034877092 0.0001775282 0.06014763939852361 0.7432529025674711 0.1862447881375521 0.0103546698964533 0.030096634 0.960705314 0.008773852 0.0004242 0.204525216 0.714446767 0.07875433900000001 0.002273678 0.1566160591566161 0.8122685808122687 0.02767934402767935 0.003436016003436016</probabilities>
		</cpt>
		<cpt id="x58517">
			<state id="x0" />
			<state id="low" />
			<state id="medium" />
			<state id="high" />
			<parents>clustVar</parents>
			<probabilities>0.0135717992 0.9746772566 0.0113022871 0.0004486571 0.198087273 0.777739469 0.022443593 0.001729665 0.0043103084 0.9543427007 0.0405201748 0.0008268161 0.2738982032738982 0.688457855688458 0.03232795603232796 0.005315985005315985 0.0002097277 0.9956502278 0.0039553096 0.0001847349 0.03688182000000001 0.8018003300000002 0.1437005 0.01761735 0.003320543500000001 0.9930276679000002 0.003224048000000001 0.0004277406000000001 0.040951683 0.890478591 0.06381137200000001 0.004758354 0.0607671265 0.9018727305999999 0.036498901 0.0008612419</probabilities>
		</cpt>
		<cpt id="x55112">
			<state id="x0" />
			<state id="low" />
			<state id="medium" />
			<state id="high" />
			<parents>clustVar</parents>
			<probabilities>0.09235939149999998 0.8876148012999998 0.0195768815 0.0004489256999999999 0.377368237 0.570682222 0.04197455 0.009974991000000001 0.05241167230524117 0.910828933391083 0.03620332460362034 0.000556069700055607 0.7648381320000002 0.219861605 0.01202438 0.003275883000000001 0.0030210942 0.9911093438 0.0056920338 0.0001775282 0.1702477 0.66063313 0.14900463 0.02011454 0.0430519577 0.9357758305 0.0207480707 0.0004241411 0.267654851 0.679493933 0.049797958 0.003053258 0.240257245 0.700441198 0.053085645 0.006215912</probabilities>
		</cpt>
		<cpt id="x1655">
			<state id="x0" />
			<state id="low" />
			<state id="medium" />
			<state id="high" />
			<parents>clustVar</parents>
			<probabilities>0.004947930699505207 0.9766919145023308 0.01791105249820889 0.0004491022999550897 0.0546203919453796 0.8239007311760992 0.1145664408854336 0.006912435993087563 0.002361274 0.951607197 0.044511477 0.001520052 0.12105814 0.7490428 0.11128364 0.01861542 0.0001867032 0.9931537724 0.0064819959 0.0001775285 0.01061348 0.75740964 0.21525113 0.01672575 0.0034140023996586 0.9914926836008507 0.004668584299533141 0.000424729699957527 0.02356599 0.8790987099999999 0.08718178 0.01015352 0.066486879 0.928826579 0.003825227 0.000861315</probabilities>
		</cpt>
		<cpt id="x8925">
			<state id="x0" />
			<state id="low" />
			<state id="medium" />
			<state id="high" />
			<parents>clustVar</parents>
			<probabilities>0.0569443774 0.9247061973 0.0178983516 0.0004510737 0.48067933 0.477926127 0.034481035 0.006913508 0.01935867701935868 0.9150204059150203 0.06450436106450434 0.001116556001116556 0.5385295665385297 0.4164013224164014 0.03708750303708751 0.007981608007981608 0.0012050408 0.9908305884 0.0077843635 0.0001800073 0.04975478 0.78344791 0.1374284 0.02936891 0.01083465040108346 0.9690916391969091 0.01937281550193728 0.0007008949000700894 0.167729739 0.77243435 0.058309204 0.001526707 0.174153498 0.7879825340000002 0.03614014500000001 0.001723823</probabilities>
		</cpt>
		<cpt id="x780813">
			<state id="x0" />
			<state id="low" />
			<state id="medium" />
			<state id="high" />
			<parents>clustVar</parents>
			<probabilities>0.151703238 0.82369412 0.022165753 0.002436889 0.355097246 0.609266447 0.028817975 0.006818332 0.07081341907081343 0.8958063938958064 0.03128329303128329 0.002096894002096894 0.404564074 0.589872928 0.002904867 0.002658131 0.0124007281 0.9685417377 0.0188799389 0.0001775953 0.112534291 0.8039111640000002 0.07616046900000001 0.007394076000000002 0.0308291656 0.9510355504 0.0175721585 0.0005631255 0.266177408 0.695721613 0.035686033 0.002414946 0.1588158181588158 0.8095845458095846 0.02956467902956468 0.002034957002034957</probabilities>
		</cpt>
		<cpt id="x347746">
			<state id="x0" />
			<state id="low" />
			<state id="medium" />
			<state id="high" />
			<parents>clustVar</parents>
			<probabilities>0.04189841579581016 0.9237759833076223 0.03364748639663526 0.0006781144999321886 0.6113198790000001 0.359044278 0.02444911700000001 0.005186726000000001 0.0523004960523005 0.8906767818906769 0.055134991055135 0.001887731001887731 0.777617606 0.198756829 0.018310118 0.005315447 0.006844284700684428 0.9815080957981508 0.01147009130114701 0.0001775282000177528 0.218656134 0.694758777 0.081332841 0.005252248 0.0271523304 0.9649997016 0.0074238824 0.0004240856 0.148446129 0.7670417430000001 0.078831094 0.005681034 0.08715409980000001 0.8811256725000002 0.03086013120000001 0.0008600965000000003</probabilities>
		</cpt>
		<cpt id="x54737">
			<state id="x0" />
			<state id="low" />
			<state id="medium" />
			<state id="high" />
			<parents>clustVar</parents>
			<probabilities>0.0093008541 0.9771808529 0.0130672143 0.0004510787 0.2349493377650507 0.7328528152671473 0.03045912296954088 0.001738723998261276 0.0008414102000000002 0.9408857986000002 0.05784880840000001 0.0004239828000000001 0.3786761776213238 0.5894385754105615 0.02922715497077285 0.002658091997341908 0.0007285329999271467 0.9969126839003087 0.002181254899781875 0.0001775281999822472 0.05007066 0.75626121 0.17118733 0.0224808 0.002140728 0.986431909 0.011003047 0.000424316 0.044725944 0.8742251160000002 0.07515207400000001 0.005896866000000001 0.04391921043919211 0.8603586386035864 0.08874882088748821 0.006973330069733301</probabilities>
		</cpt>
		<cpt id="x9295">
			<state id="x0" />
			<state id="low" />
			<state id="medium" />
			<state id="high" />
			<parents>clustVar</parents>
			<probabilities>0.003473973000000001 0.9870410016000002 0.009036369500000002 0.0004486559000000001 0.200530502 0.766226285 0.029784805 0.003458408 0.002150845500215084 0.9528731048952873 0.04455221380445522 0.0004238358000423836 0.21854686 0.68870178 0.07945988 0.01329148 0.0001861514 0.9961316532 0.0035046672 0.0001775282 0.008088338 0.799959786 0.176417695 0.015534181 0.0029640139 0.9887863322 0.007825578 0.0004240759 0.03763077303763077 0.88633990088634 0.07376017007376018 0.002269156002269156 0.0453156663 0.9338017225 0.0200225345 0.0008600767</probabilities>
		</cpt>
		<cpt id="x7345">
			<state id="x0" />
			<state id="low" />
			<state id="medium" />
			<state id="high" />
			<parents>clustVar</parents>
			<probabilities>0.0092036063 0.9573862088 0.0329548538 0.0004553311 0.6643888183356111 0.3225322576774677 0.01134938698865061 0.001729536998270463 0.001365694 0.8980841420000002 0.09621616100000002 0.004334003000000001 0.7204752662795246 0.2635345367364654 0.01333210498666789 0.002658091997341908 0.0003802571 0.984758966 0.0146830745 0.0001777024 0.006715203 0.830733979 0.146707857 0.015842961 0.0106219112 0.9849447617 0.0037609847 0.0006723424 0.02504733600000001 0.8480552550000002 0.122298148 0.004599261000000001 0.0810292777 0.9138787871 0.0042318579 0.0008600773</probabilities>
		</cpt>
		<cpt id="x151613">
			<state id="x0" />
			<state id="low" />
			<state id="medium" />
			<state id="high" />
			<parents>clustVar</parents>
			<probabilities>0.0555312625 0.9137625126 0.0297577623 0.0009484625999999999 0.3319922746680078 0.579568993420431 0.07981824492018176 0.008620486991379513 0.0337602181 0.9078879383 0.0574752331 0.0008766105 0.50858767 0.38793537 0.09014469 0.01333227 0.002392771200239278 0.9881772700988177 0.009252430500925243 0.0001775282000177528 0.07230055000000001 0.76239115 0.13027498 0.03503332 0.03488195689651181 0.959511275704049 0.005181721799481828 0.0004250455999574956 0.14141832 0.73675274 0.11417675 0.00765219 0.20037884 0.76672237 0.0315748 0.00132399</probabilities>
		</cpt>
		<cpt id="x100128906">
			<state id="x0" />
			<state id="low" />
			<state id="medium" />
			<state id="high" />
			<parents>clustVar</parents>
			<probabilities>0.0004487091000448709 0.9946129303994613 0.004485912000448591 0.0004524485000452448 0.001729536998270463 0.9570781200429218 0.039461995960538 0.001730346998269653 0.0004238374 0.9974345673 0.001717325 0.0004242703 0.002658092 0.935222757 0.056804213 0.005314938 0.0001775281999822472 0.9974455559002554 0.002199386999780061 0.0001775288999822471 0.002589057997410943 0.9288014300711988 0.063414003936586 0.005195507994804493 0.0008456793 0.9433501593 0.0545531094 0.001251052 0.001134543998865456 0.9928317420071682 0.00489861899510138 0.001135094998864905 0.0008649857000864986 0.8693010088869302 0.1289453334128945 0.0008886720000888671</probabilities>
		</cpt>
		<cpt id="x490">
			<state id="x0" />
			<state id="low" />
			<state id="medium" />
			<state id="high" />
			<parents>clustVar</parents>
			<probabilities>0.0544678891 0.9337134405 0.0109244022 0.0008942682 0.5463127125463128 0.4415775784415776 0.01038015101038015 0.001729558001729558 0.001197879699880212 0.8130330369186967 0.184840069181516 0.0009290141999070986 0.69485695 0.283893359 0.018591599 0.002658092 0.0002734684999726532 0.9730172644026983 0.02653173889734683 0.0001775281999822472 0.01203215 0.74748099 0.2021084 0.03837846 0.0026631218 0.9894374551 0.0074747319 0.0004246912 0.08350012491649986 0.8050229511949769 0.1035473418964526 0.007929581992070417 0.09497098340000003 0.8902907404000002 0.0138774821 0.0008607941000000003</probabilities>
		</cpt>
		<cpt id="x9406">
			<state id="x0" />
			<state id="low" />
			<state id="medium" />
			<state id="high" />
			<parents>clustVar</parents>
			<probabilities>0.0068584457 0.9851035075 0.0075893909 0.0004486559 0.195763074 0.778262207 0.024245182 0.001729537 0.002492531 0.939698682 0.057384948 0.000423839 0.32988514 0.627572516 0.039884252 0.002658092 0.0001775314 0.9981168493 0.0015280911 0.0001775282 0.007006867000000002 0.7586700820000002 0.2239465460000001 0.010376505 0.0004833853 0.9938126706 0.0052798682 0.0004240759 0.026437658 0.897593826 0.07369097300000001 0.002277543 0.0467792395322076 0.9040724509592756 0.04744130952558691 0.00170699998293</probabilities>
		</cpt>
		<cpt id="x4133">
			<state id="x0" />
			<state id="low" />
			<state id="medium" />
			<state id="high" />
			<parents>clustVar</parents>
			<probabilities>0.001493415599850659 0.9360148490063985 0.06201577959379842 0.0004759557999524044 0.453817 0.5201630699999999 0.02266382 0.00335611 0.002039056997960943 0.9326150140673849 0.06324351493675648 0.002102413997897586 0.8253393840000002 0.163643519 0.008040203000000001 0.002976894000000001 0.0002123128 0.9861780523 0.0134320964 0.0001775385 0.01917059 0.8307283600000001 0.12941923 0.02068182 0.004309996299569 0.9937819124006219 0.001482475399851752 0.0004256158999574384 0.018766228 0.842067309 0.130171999 0.008994464000000001 0.026372502 0.947354378 0.023694077 0.002579043</probabilities>
		</cpt>
		<cpt id="x2823">
			<state id="x0" />
			<state id="low" />
			<state id="medium" />
			<state id="high" />
			<parents>clustVar</parents>
			<probabilities>0.006620494006620495 0.9341186199341187 0.05739055505739056 0.001870331001870331 0.08924498491075501 0.8335793301664206 0.06828447193171552 0.008891212991108786 0.0004314497000431451 0.902408049290241 0.09321190620932121 0.00394859480039486 0.7328162067328162 0.255691021255691 0.00883465900883466 0.002658113002658113 0.0001775356 0.9950641809 0.004580755 0.0001775285 0.002589256997410743 0.8420086111579913 0.1278879448721121 0.02751418697248581 0.0018559024 0.9940095692000001 0.0037099079 0.0004246205 0.006224381993775618 0.7060398862939602 0.25636999474363 0.03136573696863427 0.03360312396639688 0.9358305710641696 0.0287604989712395 0.001805805998194194</probabilities>
		</cpt>
		<cpt id="x9611">
			<state id="x0" />
			<state id="low" />
			<state id="medium" />
			<state id="high" />
			<parents>clustVar</parents>
			<probabilities>0.08693603291306397 0.8715154251284847 0.04038568295961432 0.001162858998837141 0.3620884963791151 0.5361597446384027 0.08792011912079882 0.0138316398616836 0.04242935 0.875515331 0.080441005 0.001614314 0.4989037100000001 0.4105826300000001 0.07455786000000002 0.0159558 0.0112129795 0.9826506363 0.0057626803 0.0003737039 0.142694323 0.7059886369999999 0.143523551 0.007793488999999998 0.0689253517 0.9190974434 0.011550119 0.0004270859 0.19007253 0.687916066 0.114470183 0.007541221 0.2259721457740279 0.7188867672811131 0.04840664195159335 0.006734444993265555</probabilities>
		</cpt>
		<cpt id="x6430">
			<state id="x0" />
			<state id="low" />
			<state id="medium" />
			<state id="high" />
			<parents>clustVar</parents>
			<probabilities>0.0044931239 0.9645039384 0.0305542813 0.0004486564 0.07504386 0.85332671 0.06644073 0.0051887 0.0047374482 0.9171315366 0.077185186 0.0009458292 0.11157227 0.83088923 0.04690627 0.01063223 0.0003724425 0.9712045811 0.0282454479 0.0001775285 0.02373423000000001 0.8563874100000002 0.10235458 0.01752378 0.008825836300000001 0.9900989026 0.0006511852 0.0004240759 0.020449358 0.868600568 0.107546506 0.003403568 0.0742610507 0.9225055814999999 0.0023732437 0.0008601241</probabilities>
		</cpt>
		<cpt id="x1759">
			<state id="x0" />
			<state id="low" />
			<state id="medium" />
			<state id="high" />
			<parents>clustVar</parents>
			<probabilities>0.028097741 0.911053348 0.059168668 0.001680243 0.743212622 0.246636464 0.008421237 0.001729677 0.009927944000000001 0.8607987380000002 0.124544005 0.004729313000000001 0.8898188578898188 0.1020843831020844 0.002780576002780576 0.005316183005316184 0.0008873348000000002 0.9856425654000002 0.0132909264 0.0001791734 0.04503861954961381 0.7373109126268909 0.1968618080313819 0.0207886597921134 0.0046594248 0.9628252886999999 0.0316851818 0.0008301047 0.08650855086508549 0.7936515879365158 0.1021559110215591 0.0176839501768395 0.09103243209103244 0.8752448578752449 0.03070081903070082 0.003021891003021891</probabilities>
		</cpt>
		<cpt id="x7267">
			<state id="x0" />
			<state id="low" />
			<state id="medium" />
			<state id="high" />
			<parents>clustVar</parents>
			<probabilities>0.002199239999780076 0.9733279739026672 0.02396924469760308 0.0005035413999496458 0.220157817 0.735636033 0.042475737 0.001730413 0.0032485797 0.9459626667 0.0503637774 0.0004249762 0.429403031 0.55896047 0.003663352 0.007973147 0.0001776840999822316 0.9931076662006892 0.006537121499346287 0.0001775281999822472 0.009773528009773529 0.7986572777986574 0.1812543541812544 0.01031484001031484 0.0009909931999009009 0.9883096932011692 0.01027523109897248 0.0004240824999575919 0.016012627 0.856785323 0.121465531 0.005736519 0.020098719 0.933867724 0.041875406 0.004158151</probabilities>
		</cpt>
		<cpt id="x1479">
			<state id="x0" />
			<state id="low" />
			<state id="medium" />
			<state id="high" />
			<parents>clustVar</parents>
			<probabilities>0.1601088146 0.802949021 0.036483258 0.0004589064 0.6149995223850004 0.3381704056618295 0.03926502296073497 0.007565048992434951 0.040065058 0.793872654 0.161551081 0.004511207 0.74056155 0.19493319 0.04157665 0.02292861 0.0173599951 0.9667008138000002 0.0157045693 0.0002346218 0.18567921 0.56163145 0.2179101 0.03477924 0.1632205331 0.8145713039 0.0214020411 0.0008061219 0.18527495 0.66391888 0.13861522 0.01219095 0.448720404 0.517878993 0.031738522 0.001662081</probabilities>
		</cpt>
		<cpt id="x2891">
			<state id="x0" />
			<state id="low" />
			<state id="medium" />
			<state id="high" />
			<parents>clustVar</parents>
			<probabilities>0.0004520254000452026 0.9586660544958666 0.03954283690395428 0.001339083200133908 0.05705211 0.89763043 0.03839938 0.00691808 0.0004238453 0.8620006544 0.1369587262 0.0006167741 0.414135937 0.57193344 0.011272429 0.002658194 0.0001775281999822472 0.9661266633033873 0.03351828029664818 0.0001775281999822472 0.005163004 0.629159033 0.340966075 0.024711888 0.0004240772000424077 0.9944072665994408 0.004744580300474458 0.0004240759000424076 0.002421857 0.8429315580000002 0.148956455 0.005690130000000001 0.0121053456 0.9661352493000001 0.0208993012 0.0008601039</probabilities>
		</cpt>
		<cpt id="x10777">
			<state id="x0" />
			<state id="low" />
			<state id="medium" />
			<state id="high" />
			<parents>clustVar</parents>
			<probabilities>0.62270055 0.356505549 0.019741954 0.001051947 0.6295005400000001 0.34631438 0.01901224 0.005172840000000001 0.006436728 0.751334684 0.224913703 0.017314885 0.7817970319999999 0.212847148 0.002673458 0.002682362 0.0028848284 0.9182002068 0.07861316309999999 0.0003018017 0.0140718198592818 0.6372019436279807 0.2991377670086224 0.04958846950411531 0.03974853169602514 0.9053773528094623 0.0539879818946012 0.0008861335999113866 0.483699146 0.474543482 0.040424233 0.001333139 0.4532994054532994 0.5176955765176957 0.02153543902153544 0.007469579007469579</probabilities>
		</cpt>
		<cpt id="x51747">
			<state id="x0" />
			<state id="low" />
			<state id="medium" />
			<state id="high" />
			<parents>clustVar</parents>
			<probabilities>0.0004486561 0.9710655889000001 0.0280370989 0.0004486561 0.008661616 0.867781294 0.118849056 0.004708034 0.0004238725000000001 0.8704356695000002 0.1287166136 0.0004238444000000001 0.05313631053136311 0.8446215884462159 0.08629430086294301 0.01594780015947801 0.0001775281999822472 0.9939641927006037 0.005680750899431925 0.0001775281999822472 0.005152447 0.555306748 0.412472928 0.027067877 0.0004240759000424076 0.9922954886992296 0.006856359500685636 0.0004240759000424076 0.00114742 0.7867511 0.20104522 0.01105626 0.001720173 0.936332033 0.059300235 0.002647559</probabilities>
		</cpt>
		<cpt id="x25957">
			<state id="x0" />
			<state id="low" />
			<state id="medium" />
			<state id="high" />
			<parents>clustVar</parents>
			<probabilities>0.0004589186 0.9650121312 0.0340802943 0.0004486559 0.0220172602201726 0.8189783581897836 0.1451739514517395 0.0138304301383043 0.0004285724 0.8710139423 0.1277589754 0.0007985099 0.107041852 0.839475502 0.048157421 0.005325225 0.0001775565 0.9886245086 0.0110204067 0.0001775282 0.00517812 0.5843900900000001 0.3894190300000001 0.02101276 0.0008373645999162635 0.979459927402054 0.01927863209807213 0.0004240758999575924 0.004239721995760277 0.8586370701413628 0.1359114938640885 0.001211713998788286 0.006238948 0.9475407 0.04455871 0.001661642</probabilities>
		</cpt>
		<cpt id="x378938">
			<state id="x0" />
			<state id="low" />
			<state id="medium" />
			<state id="high" />
			<parents>clustVar</parents>
			<probabilities>0.0004486559 0.6845109914 0.3140771138 0.0009632389 0.001737653001737653 0.713288967713289 0.2780564812780565 0.006916898006916899 0.0004238358 0.2678830969 0.7301253634 0.0015677039 0.002658091997341908 0.9736225360263774 0.02105936197894064 0.00266000999733999 0.0001775281999822471 0.5520748730447924 0.4475699629552429 0.0001776357999822364 0.002589057 0.347621055 0.5839573809999999 0.06583250699999998 0.0004240759000424076 0.87849926738785 0.1202919908120292 0.0007846659000784667 0.001134543998865456 0.5248261924751738 0.4707801515292198 0.003259111996740888 0.0017161172 0.8861870559 0.1112337656 0.0008630613</probabilities>
		</cpt>
		<cpt id="x55384">
			<state id="x0" />
			<state id="low" />
			<state id="medium" />
			<state id="high" />
			<parents>clustVar</parents>
			<probabilities>0.0004486559 0.9400615617 0.0588664457 0.0006233367 0.160468535 0.836072391 0.001729537 0.001729537 0.0004238358000423836 0.7557658215755766 0.2380056492238006 0.005804693400580469 0.3062579266937421 0.6884258893115742 0.002658091997341908 0.002658091997341908 0.0001775281999822472 0.6725030206327497 0.3261263631673874 0.001193087999880691 0.002589056997410944 0.6726794743273207 0.2956935357043065 0.02903793297096207 0.0004240759 0.9360097116 0.0627273554 0.0008388571 0.001134544 0.906305718 0.091424332 0.001135406 0.0008614067 0.9866714844 0.0116070321 0.0008600768</probabilities>
		</cpt>
		<cpt id="x440823">
			<state id="x0" />
			<state id="low" />
			<state id="medium" />
			<state id="high" />
			<parents>clustVar</parents>
			<probabilities>0.007463545 0.953653689 0.035308603 0.003574163 0.347002758 0.63924471 0.012022995 0.001729537 0.0004491627 0.892563481 0.1045005531 0.0024868032 0.8511868391488133 0.1433217608566782 0.002833307997166692 0.002658091997341908 0.000177933 0.9536267541 0.0460132173 0.0001820956 0.002602691 0.675523073 0.297564658 0.024309578 0.0007758352 0.8238589463 0.1699746844 0.0053905341 0.034694368 0.906452232 0.051788518 0.007064882 0.02152745102152745 0.9002409839002411 0.07323207307323207 0.004999492004999492</probabilities>
		</cpt>
	</nodes>
	<extensions>
		<genie version="1.0" app="GeNIe 2.3.3705.0 ACADEMIC" name="Sub0" faultnameformat="nodestate">
			<node id="x3324">
				<name>x3324</name>
				<interior color="e5f6f7" />
				<outline color="0000bb" />
				<font color="000000" name="Arial" size="8" />
				<position>96 1274 172 1310</position>
				<barchart active="true" width="128" height="90" />
			</node>
			<node id="x26038">
				<name>x26038</name>
				<interior color="e5f6f7" />
				<outline color="0000bb" />
				<font color="000000" name="Arial" size="8" />
				<position>250 1274 326 1310</position>
				<barchart active="true" width="128" height="90" />
			</node>
			<node id="x9456">
				<name>x9456</name>
				<interior color="e5f6f7" />
				<outline color="0000bb" />
				<font color="000000" name="Arial" size="8" />
				<position>404 1274 480 1310</position>
				<barchart active="true" width="128" height="90" />
			</node>
			<node id="x334">
				<name>x334</name>
				<interior color="e5f6f7" />
				<outline color="0000bb" />
				<font color="000000" name="Arial" size="8" />
				<position>558 1274 634 1310</position>
				<barchart active="true" width="128" height="90" />
			</node>
			<node id="x6138">
				<name>x6138</name>
				<interior color="e5f6f7" />
				<outline color="0000bb" />
				<font color="000000" name="Arial" size="8" />
				<position>712 1274 788 1310</position>
				<barchart active="true" width="128" height="90" />
			</node>
			<node id="x23253">
				<name>x23253</name>
				<interior color="e5f6f7" />
				<outline color="0000bb" />
				<font color="000000" name="Arial" size="8" />
				<position>866 1274 942 1310</position>
				<barchart active="true" width="128" height="90" />
			</node>
			<node id="x94081">
				<name>x94081</name>
				<interior color="e5f6f7" />
				<outline color="0000bb" />
				<font color="000000" name="Arial" size="8" />
				<position>1020 1274 1096 1310</position>
				<barchart active="true" width="128" height="90" />
			</node>
			<node id="x54843">
				<name>x54843</name>
				<interior color="e5f6f7" />
				<outline color="0000bb" />
				<font color="000000" name="Arial" size="8" />
				<position>1174 1274 1250 1310</position>
				<barchart active="true" width="128" height="90" />
			</node>
			<node id="x3274">
				<name>x3274</name>
				<interior color="e5f6f7" />
				<outline color="0000bb" />
				<font color="000000" name="Arial" size="8" />
				<position>1328 1274 1404 1310</position>
				<barchart active="true" width="128" height="90" />
			</node>
			<node id="x221692">
				<name>x221692</name>
				<interior color="e5f6f7" />
				<outline color="0000bb" />
				<font color="000000" name="Arial" size="8" />
				<position>1482 1274 1558 1310</position>
				<barchart active="true" width="128" height="90" />
			</node>
			<node id="x6000">
				<name>x6000</name>
				<interior color="e5f6f7" />
				<outline color="0000bb" />
				<font color="000000" name="Arial" size="8" />
				<position>1636 1274 1712 1310</position>
				<barchart active="true" width="128" height="90" />
			</node>
			<node id="x254531">
				<name>x254531</name>
				<interior color="e5f6f7" />
				<outline color="0000bb" />
				<font color="000000" name="Arial" size="8" />
				<position>1790 1274 1866 1310</position>
				<barchart active="true" width="128" height="90" />
			</node>
			<node id="x2908">
				<name>x2908</name>
				<interior color="e5f6f7" />
				<outline color="0000bb" />
				<font color="000000" name="Arial" size="8" />
				<position>1944 1274 2020 1310</position>
				<barchart active="true" width="128" height="90" />
			</node>
			<node id="x100130155">
				<name>x100130155</name>
				<interior color="e5f6f7" />
				<outline color="0000bb" />
				<font color="000000" name="Arial" size="8" />
				<position>2098 1274 2174 1310</position>
				<barchart active="true" width="128" height="90" />
			</node>
			<node id="x114088">
				<name>x114088</name>
				<interior color="e5f6f7" />
				<outline color="0000bb" />
				<font color="000000" name="Arial" size="8" />
				<position>2252 1274 2328 1310</position>
				<barchart active="true" width="128" height="90" />
			</node>
			<node id="x23230">
				<name>x23230</name>
				<interior color="e5f6f7" />
				<outline color="0000bb" />
				<font color="000000" name="Arial" size="8" />
				<position>2406 1274 2482 1310</position>
				<barchart active="true" width="128" height="90" />
			</node>
			<node id="x116966">
				<name>x116966</name>
				<interior color="e5f6f7" />
				<outline color="0000bb" />
				<font color="000000" name="Arial" size="8" />
				<position>2560 1274 2636 1310</position>
				<barchart active="true" width="128" height="90" />
			</node>
			<node id="x64062">
				<name>x64062</name>
				<interior color="e5f6f7" />
				<outline color="0000bb" />
				<font color="000000" name="Arial" size="8" />
				<position>2714 1274 2790 1310</position>
				<barchart active="true" width="128" height="90" />
			</node>
			<node id="x9645">
				<name>x9645</name>
				<interior color="e5f6f7" />
				<outline color="0000bb" />
				<font color="000000" name="Arial" size="8" />
				<position>2868 1274 2944 1310</position>
				<barchart active="true" width="128" height="90" />
			</node>
			<node id="x6262">
				<name>x6262</name>
				<interior color="e5f6f7" />
				<outline color="0000bb" />
				<font color="000000" name="Arial" size="8" />
				<position>3022 1274 3098 1310</position>
				<barchart active="true" width="128" height="90" />
			</node>
			<node id="x55814">
				<name>x55814</name>
				<interior color="e5f6f7" />
				<outline color="0000bb" />
				<font color="000000" name="Arial" size="8" />
				<position>3176 1274 3252 1310</position>
				<barchart active="true" width="128" height="90" />
			</node>
			<node id="x23613">
				<name>x23613</name>
				<interior color="e5f6f7" />
				<outline color="0000bb" />
				<font color="000000" name="Arial" size="8" />
				<position>3330 1274 3406 1310</position>
				<barchart active="true" width="128" height="90" />
			</node>
			<node id="x10147">
				<name>x10147</name>
				<interior color="e5f6f7" />
				<outline color="0000bb" />
				<font color="000000" name="Arial" size="8" />
				<position>3484 1274 3560 1310</position>
				<barchart active="true" width="128" height="90" />
			</node>
			<node id="x54904">
				<name>x54904</name>
				<interior color="e5f6f7" />
				<outline color="0000bb" />
				<font color="000000" name="Arial" size="8" />
				<position>3638 1274 3714 1310</position>
				<barchart active="true" width="128" height="90" />
			</node>
			<node id="x4898">
				<name>x4898</name>
				<interior color="e5f6f7" />
				<outline color="0000bb" />
				<font color="000000" name="Arial" size="8" />
				<position>3792 1274 3868 1310</position>
				<barchart active="true" width="128" height="90" />
			</node>
			<node id="x5411">
				<name>x5411</name>
				<interior color="e5f6f7" />
				<outline color="0000bb" />
				<font color="000000" name="Arial" size="8" />
				<position>3946 1274 4022 1310</position>
				<barchart active="true" width="128" height="90" />
			</node>
			<node id="x55704">
				<name>x55704</name>
				<interior color="e5f6f7" />
				<outline color="0000bb" />
				<font color="000000" name="Arial" size="8" />
				<position>4100 1274 4176 1310</position>
				<barchart active="true" width="128" height="90" />
			</node>
			<node id="x440270">
				<name>x440270</name>
				<interior color="e5f6f7" />
				<outline color="0000bb" />
				<font color="000000" name="Arial" size="8" />
				<position>4254 1274 4330 1310</position>
				<barchart active="true" width="128" height="90" />
			</node>
			<node id="x4897">
				<name>x4897</name>
				<interior color="e5f6f7" />
				<outline color="0000bb" />
				<font color="000000" name="Arial" size="8" />
				<position>4408 1274 4484 1310</position>
				<barchart active="true" width="128" height="90" />
			</node>
			<node id="x23077">
				<name>x23077</name>
				<interior color="e5f6f7" />
				<outline color="0000bb" />
				<font color="000000" name="Arial" size="8" />
				<position>4562 1274 4638 1310</position>
				<barchart active="true" width="128" height="90" />
			</node>
			<node id="x3535">
				<name>x3535</name>
				<interior color="e5f6f7" />
				<outline color="0000bb" />
				<font color="000000" name="Arial" size="8" />
				<position>4716 1274 4792 1310</position>
				<barchart active="true" width="128" height="90" />
			</node>
			<node id="x9284">
				<name>x9284</name>
				<interior color="e5f6f7" />
				<outline color="0000bb" />
				<font color="000000" name="Arial" size="8" />
				<position>4870 1274 4946 1310</position>
				<barchart active="true" width="128" height="90" />
			</node>
			<node id="x5310">
				<name>x5310</name>
				<interior color="e5f6f7" />
				<outline color="0000bb" />
				<font color="000000" name="Arial" size="8" />
				<position>5024 1274 5100 1310</position>
				<barchart active="true" width="128" height="90" />
			</node>
			<node id="x4297">
				<name>x4297</name>
				<interior color="e5f6f7" />
				<outline color="0000bb" />
				<font color="000000" name="Arial" size="8" />
				<position>5178 1274 5254 1310</position>
				<barchart active="true" width="128" height="90" />
			</node>
			<node id="x5297">
				<name>x5297</name>
				<interior color="e5f6f7" />
				<outline color="0000bb" />
				<font color="000000" name="Arial" size="8" />
				<position>5332 1274 5408 1310</position>
				<barchart active="true" width="128" height="90" />
			</node>
			<node id="x8499">
				<name>x8499</name>
				<interior color="e5f6f7" />
				<outline color="0000bb" />
				<font color="000000" name="Arial" size="8" />
				<position>5486 1274 5562 1310</position>
				<barchart active="true" width="128" height="90" />
			</node>
			<node id="x55904">
				<name>x55904</name>
				<interior color="e5f6f7" />
				<outline color="0000bb" />
				<font color="000000" name="Arial" size="8" />
				<position>5640 1274 5716 1310</position>
				<barchart active="true" width="128" height="90" />
			</node>
			<node id="x57035">
				<name>x57035</name>
				<interior color="e5f6f7" />
				<outline color="0000bb" />
				<font color="000000" name="Arial" size="8" />
				<position>5794 1274 5870 1310</position>
				<barchart active="true" width="128" height="90" />
			</node>
			<node id="x10905">
				<name>x10905</name>
				<interior color="e5f6f7" />
				<outline color="0000bb" />
				<font color="000000" name="Arial" size="8" />
				<position>5948 1274 6024 1310</position>
				<barchart active="true" width="128" height="90" />
			</node>
			<node id="x28978">
				<name>x28978</name>
				<interior color="e5f6f7" />
				<outline color="0000bb" />
				<font color="000000" name="Arial" size="8" />
				<position>6102 1274 6178 1310</position>
				<barchart active="true" width="128" height="90" />
			</node>
			<node id="x6134">
				<name>x6134</name>
				<interior color="e5f6f7" />
				<outline color="0000bb" />
				<font color="000000" name="Arial" size="8" />
				<position>6256 1274 6332 1310</position>
				<barchart active="true" width="128" height="90" />
			</node>
			<node id="x54460">
				<name>x54460</name>
				<interior color="e5f6f7" />
				<outline color="0000bb" />
				<font color="000000" name="Arial" size="8" />
				<position>6410 1274 6486 1310</position>
				<barchart active="true" width="128" height="90" />
			</node>
			<node id="x80205">
				<name>x80205</name>
				<interior color="e5f6f7" />
				<outline color="0000bb" />
				<font color="000000" name="Arial" size="8" />
				<position>6564 1274 6640 1310</position>
				<barchart active="true" width="128" height="90" />
			</node>
			<node id="x56853">
				<name>x56853</name>
				<interior color="e5f6f7" />
				<outline color="0000bb" />
				<font color="000000" name="Arial" size="8" />
				<position>6718 1274 6794 1310</position>
				<barchart active="true" width="128" height="90" />
			</node>
			<node id="x577">
				<name>x577</name>
				<interior color="e5f6f7" />
				<outline color="0000bb" />
				<font color="000000" name="Arial" size="8" />
				<position>6872 1274 6948 1310</position>
				<barchart active="true" width="128" height="90" />
			</node>
			<node id="x9324">
				<name>x9324</name>
				<interior color="e5f6f7" />
				<outline color="0000bb" />
				<font color="000000" name="Arial" size="8" />
				<position>7026 1274 7102 1310</position>
				<barchart active="true" width="128" height="90" />
			</node>
			<node id="x5789">
				<name>x5789</name>
				<interior color="e5f6f7" />
				<outline color="0000bb" />
				<font color="000000" name="Arial" size="8" />
				<position>7180 1274 7256 1310</position>
				<barchart active="true" width="128" height="90" />
			</node>
			<node id="x54212">
				<name>x54212</name>
				<interior color="e5f6f7" />
				<outline color="0000bb" />
				<font color="000000" name="Arial" size="8" />
				<position>7334 1274 7410 1310</position>
				<barchart active="true" width="128" height="90" />
			</node>
			<node id="x4331">
				<name>x4331</name>
				<interior color="e5f6f7" />
				<outline color="0000bb" />
				<font color="000000" name="Arial" size="8" />
				<position>7488 1274 7564 1310</position>
				<barchart active="true" width="128" height="90" />
			</node>
			<node id="x64848">
				<name>x64848</name>
				<interior color="e5f6f7" />
				<outline color="0000bb" />
				<font color="000000" name="Arial" size="8" />
				<position>7642 1274 7718 1310</position>
				<barchart active="true" width="128" height="90" />
			</node>
			<node id="x6432">
				<name>x6432</name>
				<interior color="e5f6f7" />
				<outline color="0000bb" />
				<font color="000000" name="Arial" size="8" />
				<position>7796 1274 7872 1310</position>
				<barchart active="true" width="128" height="90" />
			</node>
			<node id="x5144">
				<name>x5144</name>
				<interior color="e5f6f7" />
				<outline color="0000bb" />
				<font color="000000" name="Arial" size="8" />
				<position>7950 1274 8026 1310</position>
				<barchart active="true" width="128" height="90" />
			</node>
			<node id="x140890">
				<name>x140890</name>
				<interior color="e5f6f7" />
				<outline color="0000bb" />
				<font color="000000" name="Arial" size="8" />
				<position>8104 1274 8180 1310</position>
				<barchart active="true" width="128" height="90" />
			</node>
			<node id="x23262">
				<name>x23262</name>
				<interior color="e5f6f7" />
				<outline color="0000bb" />
				<font color="000000" name="Arial" size="8" />
				<position>8258 1274 8334 1310</position>
				<barchart active="true" width="128" height="90" />
			</node>
			<node id="x9475">
				<name>x9475</name>
				<interior color="e5f6f7" />
				<outline color="0000bb" />
				<font color="000000" name="Arial" size="8" />
				<position>8412 1274 8488 1310</position>
				<barchart active="true" width="128" height="90" />
			</node>
			<node id="x8997">
				<name>x8997</name>
				<interior color="e5f6f7" />
				<outline color="0000bb" />
				<font color="000000" name="Arial" size="8" />
				<position>8566 1274 8642 1310</position>
				<barchart active="true" width="128" height="90" />
			</node>
			<node id="x55082">
				<name>x55082</name>
				<interior color="e5f6f7" />
				<outline color="0000bb" />
				<font color="000000" name="Arial" size="8" />
				<position>8720 1274 8796 1310</position>
				<barchart active="true" width="128" height="90" />
			</node>
			<node id="x9699">
				<name>x9699</name>
				<interior color="e5f6f7" />
				<outline color="0000bb" />
				<font color="000000" name="Arial" size="8" />
				<position>8874 1274 8950 1310</position>
				<barchart active="true" width="128" height="90" />
			</node>
			<node id="x10439">
				<name>x10439</name>
				<interior color="e5f6f7" />
				<outline color="0000bb" />
				<font color="000000" name="Arial" size="8" />
				<position>9028 1274 9104 1310</position>
				<barchart active="true" width="128" height="90" />
			</node>
			<node id="x9987">
				<name>x9987</name>
				<interior color="e5f6f7" />
				<outline color="0000bb" />
				<font color="000000" name="Arial" size="8" />
				<position>9182 1274 9258 1310</position>
				<barchart active="true" width="128" height="90" />
			</node>
			<node id="x4673">
				<name>x4673</name>
				<interior color="e5f6f7" />
				<outline color="0000bb" />
				<font color="000000" name="Arial" size="8" />
				<position>9336 1274 9412 1310</position>
				<barchart active="true" width="128" height="90" />
			</node>
			<node id="x23112">
				<name>x23112</name>
				<interior color="e5f6f7" />
				<outline color="0000bb" />
				<font color="000000" name="Arial" size="8" />
				<position>9490 1274 9566 1310</position>
				<barchart active="true" width="128" height="90" />
			</node>
			<node id="x57468">
				<name>x57468</name>
				<interior color="e5f6f7" />
				<outline color="0000bb" />
				<font color="000000" name="Arial" size="8" />
				<position>9644 1274 9720 1310</position>
				<barchart active="true" width="128" height="90" />
			</node>
			<node id="x9515">
				<name>x9515</name>
				<interior color="e5f6f7" />
				<outline color="0000bb" />
				<font color="000000" name="Arial" size="8" />
				<position>9798 1274 9874 1310</position>
				<barchart active="true" width="128" height="90" />
			</node>
			<node id="x3778">
				<name>x3778</name>
				<interior color="e5f6f7" />
				<outline color="0000bb" />
				<font color="000000" name="Arial" size="8" />
				<position>9952 1274 10028 1310</position>
				<barchart active="true" width="128" height="90" />
			</node>
			<node id="x55294">
				<name>x55294</name>
				<interior color="e5f6f7" />
				<outline color="0000bb" />
				<font color="000000" name="Arial" size="8" />
				<position>10106 1274 10182 1310</position>
				<barchart active="true" width="128" height="90" />
			</node>
			<node id="x23518">
				<name>x23518</name>
				<interior color="e5f6f7" />
				<outline color="0000bb" />
				<font color="000000" name="Arial" size="8" />
				<position>10260 1274 10336 1310</position>
				<barchart active="true" width="128" height="90" />
			</node>
			<node id="x5101">
				<name>x5101</name>
				<interior color="e5f6f7" />
				<outline color="0000bb" />
				<font color="000000" name="Arial" size="8" />
				<position>10414 1274 10490 1310</position>
				<barchart active="true" width="128" height="90" />
			</node>
			<node id="x6894">
				<name>x6894</name>
				<interior color="e5f6f7" />
				<outline color="0000bb" />
				<font color="000000" name="Arial" size="8" />
				<position>10568 1274 10644 1310</position>
				<barchart active="true" width="128" height="90" />
			</node>
			<node id="x285175">
				<name>x285175</name>
				<interior color="e5f6f7" />
				<outline color="0000bb" />
				<font color="000000" name="Arial" size="8" />
				<position>10722 1274 10798 1310</position>
				<barchart active="true" width="128" height="90" />
			</node>
			<node id="x286411">
				<name>x286411</name>
				<interior color="e5f6f7" />
				<outline color="0000bb" />
				<font color="000000" name="Arial" size="8" />
				<position>10876 1274 10952 1310</position>
				<barchart active="true" width="128" height="90" />
			</node>
			<node id="x54715">
				<name>x54715</name>
				<interior color="e5f6f7" />
				<outline color="0000bb" />
				<font color="000000" name="Arial" size="8" />
				<position>11030 1274 11106 1310</position>
				<barchart active="true" width="128" height="90" />
			</node>
			<node id="x10915">
				<name>x10915</name>
				<interior color="e5f6f7" />
				<outline color="0000bb" />
				<font color="000000" name="Arial" size="8" />
				<position>11184 1274 11260 1310</position>
				<barchart active="true" width="128" height="90" />
			</node>
			<node id="x58517">
				<name>x58517</name>
				<interior color="e5f6f7" />
				<outline color="0000bb" />
				<font color="000000" name="Arial" size="8" />
				<position>11338 1274 11414 1310</position>
				<barchart active="true" width="128" height="90" />
			</node>
			<node id="x55112">
				<name>x55112</name>
				<interior color="e5f6f7" />
				<outline color="0000bb" />
				<font color="000000" name="Arial" size="8" />
				<position>11492 1274 11568 1310</position>
				<barchart active="true" width="128" height="90" />
			</node>
			<node id="x1655">
				<name>x1655</name>
				<interior color="e5f6f7" />
				<outline color="0000bb" />
				<font color="000000" name="Arial" size="8" />
				<position>11646 1274 11722 1310</position>
				<barchart active="true" width="128" height="90" />
			</node>
			<node id="x8925">
				<name>x8925</name>
				<interior color="e5f6f7" />
				<outline color="0000bb" />
				<font color="000000" name="Arial" size="8" />
				<position>11800 1274 11876 1310</position>
				<barchart active="true" width="128" height="90" />
			</node>
			<node id="x780813">
				<name>x780813</name>
				<interior color="e5f6f7" />
				<outline color="0000bb" />
				<font color="000000" name="Arial" size="8" />
				<position>11954 1274 12030 1310</position>
				<barchart active="true" width="128" height="90" />
			</node>
			<node id="x347746">
				<name>x347746</name>
				<interior color="e5f6f7" />
				<outline color="0000bb" />
				<font color="000000" name="Arial" size="8" />
				<position>12108 1274 12184 1310</position>
				<barchart active="true" width="128" height="90" />
			</node>
			<node id="x54737">
				<name>x54737</name>
				<interior color="e5f6f7" />
				<outline color="0000bb" />
				<font color="000000" name="Arial" size="8" />
				<position>12262 1274 12338 1310</position>
				<barchart active="true" width="128" height="90" />
			</node>
			<node id="x9295">
				<name>x9295</name>
				<interior color="e5f6f7" />
				<outline color="0000bb" />
				<font color="000000" name="Arial" size="8" />
				<position>12416 1274 12492 1310</position>
				<barchart active="true" width="128" height="90" />
			</node>
			<node id="x7345">
				<name>x7345</name>
				<interior color="e5f6f7" />
				<outline color="0000bb" />
				<font color="000000" name="Arial" size="8" />
				<position>12570 1274 12646 1310</position>
				<barchart active="true" width="128" height="90" />
			</node>
			<node id="x151613">
				<name>x151613</name>
				<interior color="e5f6f7" />
				<outline color="0000bb" />
				<font color="000000" name="Arial" size="8" />
				<position>12724 1274 12800 1310</position>
				<barchart active="true" width="128" height="90" />
			</node>
			<node id="x100128906">
				<name>x100128906</name>
				<interior color="e5f6f7" />
				<outline color="0000bb" />
				<font color="000000" name="Arial" size="8" />
				<position>12878 1274 12954 1310</position>
				<barchart active="true" width="128" height="90" />
			</node>
			<node id="x490">
				<name>x490</name>
				<interior color="e5f6f7" />
				<outline color="0000bb" />
				<font color="000000" name="Arial" size="8" />
				<position>13032 1274 13108 1310</position>
				<barchart active="true" width="128" height="90" />
			</node>
			<node id="x9406">
				<name>x9406</name>
				<interior color="e5f6f7" />
				<outline color="0000bb" />
				<font color="000000" name="Arial" size="8" />
				<position>13186 1274 13262 1310</position>
				<barchart active="true" width="128" height="90" />
			</node>
			<node id="x4133">
				<name>x4133</name>
				<interior color="e5f6f7" />
				<outline color="0000bb" />
				<font color="000000" name="Arial" size="8" />
				<position>13340 1274 13416 1310</position>
				<barchart active="true" width="128" height="90" />
			</node>
			<node id="x2823">
				<name>x2823</name>
				<interior color="e5f6f7" />
				<outline color="0000bb" />
				<font color="000000" name="Arial" size="8" />
				<position>13494 1274 13570 1310</position>
				<barchart active="true" width="128" height="90" />
			</node>
			<node id="x9611">
				<name>x9611</name>
				<interior color="e5f6f7" />
				<outline color="0000bb" />
				<font color="000000" name="Arial" size="8" />
				<position>13648 1274 13724 1310</position>
				<barchart active="true" width="128" height="90" />
			</node>
			<node id="x6430">
				<name>x6430</name>
				<interior color="e5f6f7" />
				<outline color="0000bb" />
				<font color="000000" name="Arial" size="8" />
				<position>13802 1274 13878 1310</position>
				<barchart active="true" width="128" height="90" />
			</node>
			<node id="x1759">
				<name>x1759</name>
				<interior color="e5f6f7" />
